,0,1,2,3,4,5,6,7,8,9,10,11,12,13,14,O*NET-SOC Code,round O*NET-SOC Code
n001064,-12.192560013822767,-1.8838496616018041,9.862325581884916,2.1951620563360064,-2.0542630384133034,1.2251162185504088,2.1263083149572406,-9.148882659195255,-1.9200229331458205,-11.177123792282393,-6.648477750678656,3.3891892916115305,-2.9179897676245026,-0.41830060792998647,-3.0270294252326764,119121.0,119121.0
n001065,-13.543731460321126,-2.16866340970099,5.287439356355327,-5.157168948649339,1.4160912116898097,4.245496953764886,5.752126789314031,-2.300877879597331,12.269724823158022,0.806748185272176,7.903947401071485,-2.265527217896844,-4.0022883869981145,1.1895005797062086,9.04651912931522,119121.0,119121.0
n001066,-5.325809258257707,-6.315982080326963,8.792311883523473,0.8400379837894287,-1.5704522308608473,2.8377194271112627,9.194165789834209,5.258629159402718,-9.586316116027467,-1.7001534876622117,0.2145819960596691,0.41824793836444774,-0.7396840757581045,-5.102204208836548,-1.9500513922870588,119121.0,119121.0
n001067,-6.429513407219007,0.3657481092212347,-6.55644617701409,1.5158141638388263,-3.579452801168035,-10.617100652634146,-2.4412032554619105,-2.7995676661735307,-1.0028416341176511,-8.353326339130435,0.39342769223696095,0.2514276066557908,3.8309045536927147,0.6716687475002692,-3.323313000025653,119121.0,119121.0
n001068,-15.358362016344064,0.4050920913170133,4.033535174919744,-2.797678328211098,4.282237553027023,-4.899219865941297,5.253962212650942,0.5091374989251753,-12.03906498906356,-9.932451080450448,9.503114547267957,-4.995493504199415,4.944528710749496,-3.942681594909345,8.535302812595225,119121.0,119121.0
n001069,-3.893041052054005,-0.8596316363696337,6.747797377933178,-5.952598343580577,2.937531231066848,0.0620925221253642,-0.40938548716077205,2.56720654407333,2.4280034960825247,-1.519000378324615,-5.412375629127715,2.4713050790464353,-3.957372286711164,0.8247696580914077,7.227923735366344,119121.0,119121.0
n001070,-3.753038123443954,-12.501466851873696,0.38500756389604174,7.165097737134321,-7.713000966241048,3.1723185699405576,-8.080731523580274,0.13732452824299424,-5.752662546610462,-5.293448030938285,2.5285170432197024,-0.974593349897029,-3.9684117787017477,4.369719736932427,0.03186986719426077,119121.0,119121.0
n001071,-19.767095261004535,-4.213998358069514,0.2752419615860502,-9.411795150739165,-6.594179709586115,-2.7347429311444165,5.634494131254832,-6.7333383319854585,-9.671153934994097,3.985137847579067,-4.15948206445735,8.661071058405778,7.010472469699849,0.8429144337346385,-7.494828314586573,119121.0,119121.0
n001072,-15.332659967060271,3.4381281641864456,3.4454730796070265,-2.279136828103665,0.5398839362256045,6.837079542757305,2.450790061599845,-0.5875792535560669,-6.2904604399889585,-4.045239539212398,-1.9587819659049037,-5.988047053628871,-5.564166221414427,1.5437172033727258,-0.17038422305216372,119121.0,119121.0
n001073,-14.031164753786607,-9.198459615900708,0.5724674610384235,5.196866205848654,-1.0067769364424282,0.5145670101837904,9.541626358341583,0.26602672040624276,-3.873415204141256,7.616105329333609,3.4514425375044313,-3.7765209723792914,0.9140364742314838,2.7969557399654654,7.227686947151815,119121.0,119121.0
n001074,-4.038782180299559,-2.940448930984767,-2.2362804557518565,1.880283721849254,1.16251955011168,-2.1095380495229117,2.8268769984485997,14.233013667967352,-1.0764760782843938,-3.147718709020089,5.582469279427269,-3.4642744325409174,2.838619812579607,-0.6536838288485389,4.390689308732243,119121.0,119121.0
n001075,-9.301393529440741,-7.821739734004732,-4.385145697750916,-3.9561037442010294,0.8956218398924884,3.9729612873751625,2.33136675839742,-1.2634319892865045,-1.89471458283508,-4.51058654384251,8.70686241263439,-5.867205419705556,6.851122312104594,5.22459990760176,2.8362282158953054,119121.0,119121.0
n001076,-4.847361657286365,-9.180595771522029,-0.5685821681917786,-4.111533031981846,7.879795302006816,3.189824179543489,4.887343012767987,0.6876890550852484,0.980797658421796,-1.1111708352331273,0.5345447308227386,4.3918752133642105,3.146307370055376,-4.291446389927333,-0.5565462088518631,119121.0,119121.0
n001077,-11.52586340956988,-16.697371581696174,0.2781289609255495,3.6120309038814384,-2.30741846356396,-6.138950814132943,7.18504328118537,-3.8961669267194114,-4.663847342131214,-6.534197297839834,-0.9665489188895056,1.8010514245530689,0.30057356086900466,-3.5307346436295477,-8.019034393610587,119121.0,119121.0
n001078,-15.182142064778363,1.1457102713384124,-4.458241459390818,-3.821763281187513,7.87893129646538,6.712854390105749,5.63812438958815,-0.7001692709417837,-4.4257345664843015,5.162905373364003,3.9608862049253277,5.348292042381145,6.1691602185312675,6.4720993922318275,5.593467408134086,119121.0,119121.0
n001079,-16.634792776155923,-0.12367572507050628,2.2114031099342624,-3.783200149871213,5.681487452660955,-5.2175751666195,7.977609872976814,7.122780870636208,4.730483025896716,-0.9605449431791384,5.564932551297006,8.89154062243865,3.642567837361636,2.1256642458277093,-1.6214083548724474,119121.0,119121.0
n001080,-12.549907916007426,2.9049696901730986,-1.69264499033087,1.4347216869302302,7.058459242563895,-8.951252802071627,-3.582963519972902,-0.1332646908845765,-3.045832552873947,-5.5354002241910285,-5.1883673790684135,0.4755282896793174,-3.1621441837487274,-9.090816127367932,1.8729164257978805,119121.0,119121.0
n001081,-11.326921188851468,-6.439417398421298,4.784315195974061,3.6305441857294922,3.6959307198281284,2.802992868666464,-0.9749409683001695,8.384642445554979,-10.516858642926964,0.23012325240283144,1.1504660712538524,-1.4286968763112713,-8.239621937014242,-3.4076475960783688,-1.1525080379847445,119121.0,119121.0
n001082,-12.817334883240303,-5.9283576489189365,-2.0988821151571093,0.19676196202018437,0.9411097136765969,1.4582530986145348,-3.329771794648084,-6.097030668217402,12.249880107842449,-2.803265869041448,0.08965410403016666,-0.985352971458531,2.9540811978259667,-10.169205070500974,3.9193058690357683,119121.0,119121.0
n001083,-14.635146366295647,-2.511301408954039,-6.041386061369357,-8.998239018503192,-2.280805270950399,-8.505939013520148,7.118039070074518,-5.412466150053279,5.410350665956219,-2.1063899560506645,1.2245298017064998,5.540351004298199,-3.1104288869442915,6.044881232367977,1.2631354273856532,119121.0,119121.0
n001084,-7.003610456852421,-2.7177873799467367,-0.9103908756243217,-7.132373969593974,-5.0897331945324735,3.8927973449717834,3.079781345518178,2.444449908807111,1.9695978538480048,7.43554310935357,-3.5098744215727935,-0.7343162871535982,0.05627008959188462,0.24895790910681015,0.3658045011272122,119121.0,119121.0
n001085,-9.004488950297718,-3.087853692811086,4.613164999091566,-2.5039448976377567,-9.5816704807128,0.4515673331992912,-1.5857278812497007,-2.6898294152034685,1.6513606413854058,5.34546517423766,-0.23497456138873893,-5.006277795905113,2.260473774947857,8.396957056940646,11.995316569110932,119121.0,119121.0
n001086,-5.996712427243369,5.0670200000120635,1.6796359848420184,1.9041997644209965,-8.289298311846151,0.19119969216128296,4.469766255089533,-5.212679924309475,-7.678209664973965,-10.106918435375944,4.127298449807049,5.347320861568161,-2.334042232835007,-2.0150475332804128,-11.343300612151,119121.0,119121.0
n001087,-3.3439892193553815,-2.018607774114741,-3.6384669503652303,-0.44122640862949325,1.3594127502738587,-1.6122265103450761,-5.924135031779819,-0.5271052172031686,-1.9851549548527656,-0.3463796472614767,-0.399505589984264,-3.0272135530948683,-4.000605040002296,15.228259819128525,3.0823907457317965,119121.0,119121.0
n001088,-3.3304008711375532,-9.259725729848899,-4.329399875362392,-1.101146112524101,1.229561681575919,1.617542468056123,5.498032554737085,-4.670576408787953,-4.0762516473516275,0.7541810935918549,-0.8718314062136998,-2.941269053858198,4.709169577620514,0.2181989238604396,-3.0483888777087165,119121.0,119121.0
n001089,-14.233794749729539,-2.836973163404991,5.749134317565378,0.7489964323768259,-5.613988667482995,-2.7321312234019195,3.045579104040796,-0.9045469480249416,7.2835940528990895,-2.139190415863356,-7.745856359305253,-2.0462506189785863,-5.254617120659322,-2.2212980926720585,2.376809421725331,119121.0,119121.0
n001090,-11.722264924321554,-3.3385009931621314,12.320071474180812,3.223049633232901,0.9248868962317085,6.9475598790920525,12.343496564426633,-4.626311489586248,-2.0141240466605894,1.5094056221511456,1.4455649144978466,4.245203628974405,3.9676240796489384,-0.3230994796374267,5.785779870165975,119121.0,119121.0
n001091,-9.643103101683334,-6.047841666218853,3.801267729587738,-4.7972901882494225,4.945050220517447,0.5549619766692221,0.8119190138739514,-3.076585964515752,1.866444286962762,-1.2757479710262478,-9.34723286372019,-2.814219125870662,-4.91104781895576,-4.437726784304647,1.3174410875954843,119121.0,119121.0
n001092,-6.205657397670496,-11.40223436684962,1.0979570630070081,-0.4655725885988522,1.6905829280507059,-6.497737088091798,-5.018496131995267,-7.083522361849254,1.0954587382342906,2.540901744475044,6.699621550048719,-4.330622398327402,4.23193240033504,-3.662517833386172,5.306311856204159,119121.0,119121.0
n001093,-7.705281448850794,-0.5619321899206269,0.3265203599408828,-7.366336222164719,4.574931005575026,-1.1833721162153523,0.8283808205108851,-9.943127637485983,5.732644056722847,-5.544421403116086,2.320800497022266,3.846734688444564,4.932530965046256,0.5628862069425961,-7.034057400457738,119121.0,119121.0
n001094,-3.4425032529402584,-6.573800566180454,0.8939401102568251,5.767342930667445,-1.736390329536125,-2.017683244491313,-2.9669258312158893,10.135713342221868,-0.42072290739643214,-7.145343962480532,-0.835636949717037,-0.82695383208928,5.497661498548701,-2.508682533759025,3.979124142367221,119121.0,119121.0
n001095,-8.75098291467661,-8.112159533761053,2.4105453138981674,-3.3919711336593017,2.058483497818079,-2.424948022983153,1.3525736659174625,-7.98918832740923,0.23085230456844974,1.6406638101765063,3.263591564727533,-1.9335322295631194,3.5285613586273175,-1.306476445878814,-2.940113780102817,119121.0,119121.0
n001096,-5.138338376072699,-0.3381889223396204,5.084114179318378,-5.849290798119686,-1.917161483782385,4.294423679554653,2.2000066359634762,-4.102094120693237,-4.775608574974892,-1.7459394160430002,-3.2816528596622625,-1.811964842693084,-0.5250245021824937,4.351947640121459,-3.197018116028717,119121.0,119121.0
n001097,-16.418387566383515,5.65766643156253,0.9093034352085533,-2.419746440735325,-0.06055014376707768,5.746416807681837,5.425554016495984,-0.016594402300492028,6.621414201885936,-5.438240600417656,-1.3617809804896253,4.800344650823271,0.6750521396077386,11.536724380647609,3.57736786807774,119121.0,119121.0
n001098,-11.668932504040056,-6.946819998879581,8.852633537475585,-5.292920955975237,-2.1593578659438952,-0.15662921449490919,1.2561460018114037,0.8726484249638011,-7.106682229778924,1.7458191395026967,1.789782635183016,1.9277146521296447,5.168202883654485,9.06033630072145,6.150513673036167,119121.0,119121.0
n001099,-14.645635527287016,-4.480156794009411,1.7770994681014258,-3.481594627225686,-6.206249862957683,-4.527421245365365,1.1154006206352394,-0.834837416141232,-1.7627801430691632,-0.521620471681348,-6.244375275306901,9.315234845683003,-9.133475487946452,5.660376346748511,0.41323383271541625,119121.0,119121.0
n001100,-6.200100090078967,-2.386043427173949,3.035954058553534,-2.742816923963548,-1.1880131630093391,1.363541039730646,2.4058637469835213,-2.1708586208138465,-11.290530962561697,-1.8928734824725497,-6.982102762768372,-3.0771472403725495,5.99868774727455,-6.0642886932400915,2.5362193578037378,119121.0,119121.0
n001101,-9.95185525255352,-14.517003839306145,-3.9543033562391807,-19.01522841389977,-3.4226281204683158,4.466062904428738,2.5405305301184535,2.234385872434883,-6.1336226775380736,-5.932868112554432,2.406787461248703,-9.512287164786558,-2.1165105117993432,5.265583030752618,-6.776470367041938,119121.0,119121.0
n001102,-7.142723123006979,-7.841637662592458,4.581357405611089,-14.85862925600153,6.13386098614031,10.657509181698419,4.234184753222163,2.122100554098407,4.744717651004428,-9.819238475538263,1.2697925985810616,2.2691427936613984,-2.3329605258028256,-2.282058753541854,7.0366446251410695,119121.0,119121.0
n001103,-7.082029160773313,-4.631094331019791,-5.134429416062272,-8.696831337980402,3.6208119999134043,0.41596772352375144,-9.074791268745589,4.5121834977710895,-5.21976603830283,-2.2966965634982484,4.515676392700855,-0.5724736033888702,1.0146221496762382,1.1332775580077181,-1.7481476588437312,119121.0,119121.0
n001104,-2.7349506888375803,-3.3368992540999023,-1.4433027283266522,-11.930122816134071,1.2176265690476507,2.4623836418365457,0.3307899743640923,-6.268384920186346,1.543568217183107,0.24582896945955945,-1.1321001722551627,-2.989527818882979,-0.3898875029314707,2.5084314459942005,0.8810632187054194,119121.0,119121.0
n001105,-6.719305569540079,-16.9415438643736,-0.8882755734548125,1.9439999872009044,-2.3457614891786718,7.592178189688566,-0.3734332866064918,-8.299122789825544,-0.4821048778736889,0.1014123467075655,4.939315757968988,-2.329374896212906,1.020343696091964,8.57903395184216,8.530324674001815,119121.0,119121.0
n001106,-10.189567249697184,-1.5228241515233267,4.66688569492265,-3.66955115561485,4.057035472250429,-3.270065207868072,12.606973639563458,3.4638537615919223,0.3338469048964991,-2.996487959197434,-10.427551530846321,0.06910139662497672,0.9766419457745411,2.2828063137528156,-2.779584269544211,119121.0,119121.0
n001108,-5.078051031549012,-7.953662686854816,-4.100205770185465,-7.462062356537318,3.0857162761579424,-5.459273498240872,3.0139733378428977,-1.3844730943309864,2.67955544405758,4.90512269462374,5.330040654860247,0.1885079462328818,-3.029833393810101,1.3664335012007371,6.247572053928408,119121.0,119121.0
n001109,-13.871357477475115,-13.384757885840383,-1.771480769386492,-0.09907951313121632,-0.998694647307353,-3.255673268501089,8.814451842323718,-1.8895263646256808,-9.310229814762737,3.2880108024219132,7.8092117923079405,-4.727079539048627,-6.269074798771172,4.962882932364973,-3.21991261731956,119121.0,119121.0
n001110,-18.98210671844714,-5.879820554039097,-0.4087521235384013,-4.227817036728169,-1.7412845793399179,5.333990632669915,-3.2145345851600218,-2.520073479938791,-0.8792041178876181,8.129921332262702,-0.9628519756713669,4.120021221000995,-6.083253389127519,-2.662041673858682,-4.149103221218807,119121.0,119121.0
n001111,-5.022504489229192,3.657756571232853,1.7760602245035262,-1.7022731937922995,-0.6080969075782569,-12.424503608709399,3.0469537398377797,-2.9396684181901245,4.317014798736381,-2.108049825583985,-0.4923789378471174,-3.892523770561567,-10.779844969144374,6.647793337187108,4.195903501687513,119121.0,119121.0
n001112,-1.3111025326167862,-8.45461846749111,0.24169858736160799,-3.2733999329765036,-0.7802148788331158,-3.353411362015435,7.716439713423599,-5.445083076077392,-1.579242412247007,-2.664016675131694,5.767836037115696,-1.06875721480571,2.9767516321183476,0.49023086449600406,1.198339556016749,119121.0,119121.0
n001113,-5.154648942008625,-5.487414389217706,-1.0467739474722262,-6.417070827115506,-3.020366127093082,-0.7228375385297687,-6.1910628215049925,2.61584073991677,-1.012595258855501,-3.8223963703634967,-1.6412200025021255,4.105757357843391,-5.9787863919861985,-0.9549734090354691,-5.484128375467636,119121.0,119121.0
n001114,-12.2593158592902,-3.922581619566282,1.7288238196824164,-1.7597694191282733,-1.5971161630668829,2.41024501278057,3.902284623227467,13.17924620470208,2.208779990010864,-7.600767682934849,-0.7106855822074503,0.49187788138876465,-4.905411853859568,1.860495276200898,1.3423404996186408,119121.0,119121.0
n001115,-12.824238775620158,-6.932805334416802,2.943722090519096,-1.7702935167087483,-2.384850061109909,-2.4472850510617943,9.938707278097752,3.5814552182112367,-1.0613198263948846,-4.677972607046689,-0.43662007825688476,-1.6988144559565843,5.8294706523099356,-1.2242953110858406,3.7132383247114698,119121.0,119121.0
n001116,-18.35310106442522,6.602866536848066,2.3233349318421,2.7558563264489275,-3.699613409689925,3.122406810342338,11.208840817533341,-13.166680151555889,-1.9512305466798525,-11.532848648086986,1.9440993970269147,-2.7288063271719523,-4.557636863868765,1.3237450083904656,-3.8510960688614446,119121.0,119121.0
n001117,-8.817099556142095,-0.21511651262770304,-2.6890816423357347,-2.8892010141148994,-4.322989539023376,7.136766566564242,1.0478311428793021,-3.673795104114445,-11.728111976680067,6.585805603989678,5.967315970134943,2.412690326102725,2.0943944424482006,-8.045627890331211,0.8469324720542152,119121.0,119121.0
n001118,-7.969580836477839,-11.83334288881724,0.507290985928516,-0.33406073432549865,0.054922750906013285,-6.2977140830139975,6.047241601756691,-4.114807283541284,4.440620131352199,-1.0942200526446726,4.088340409059291,-0.05477055267373521,5.280306842260109,-2.489715787797379,-4.2521797477400325,119121.0,119121.0
n001119,-12.398840480340738,-1.790639604893725,5.399624141860324,-12.772482680212661,4.361249728197661,-7.933402385322108,3.2802853498505256,0.049715838358265874,-1.093463111749952,-3.808987458040948,-2.171892318303769,1.5640880588297998,0.5055526555147739,4.170105622064007,-4.724427827910134,119121.0,119121.0
n001120,-1.2393961106861227,-6.818466511317346,-6.889881146863557,-5.426447905637948,-3.956086493034417,-2.945581841961501,5.030736817486216,-0.720959449415512,-1.1241196649632819,-3.1011431089938193,4.464072635840106,4.293003518396213,-11.871768235729489,-1.757178503339093,7.64225171671425,119121.0,119121.0
n001121,-12.532233824690518,-9.242925458422155,-6.017110174463557,-6.391611037779793,-3.1944555969865123,-3.0160097446731937,10.199533019354973,-2.39908886311098,7.394302927813014,-0.5321035051719866,4.219916218056139,-4.423975059030068,3.0773780770552057,2.971676287824532,5.835046568989038,119121.0,119121.0
n001122,-10.92500526123443,1.8401499570900643,-1.8068009428097545,0.007714099303774979,-4.870874386932855,-5.309350279331085,5.141261512569996,-0.033094196360264894,-1.0693941592640028,-7.2346597501467,1.439516292394881,-8.274490197575279,5.883761891124707,0.5284211634376719,-0.01969333028573894,119121.0,119121.0
n001123,6.8557190922866855,-1.60737642586962,7.348420269321287,-2.5563179129165103,-7.746401460944456,2.274602809975579,0.15711552306207333,-2.366107705235514,8.467459163675912,5.273992922581561,5.379171847304976,14.301575817716973,3.91388880378211,-1.3239763519488823,2.197235186516689,119121.0,119121.0
n001124,-1.7225479625554838,1.9423916861261334,12.026588038967292,-1.5907293172306778,-0.47178765779723364,-0.485600985820396,5.993604745796392,-2.3460157224059563,-7.344944673567127,-7.242846653941533,4.779327456337599,-1.3280821630122441,-4.565552096821751,-0.07548259934074308,-3.1527207331528313,119121.0,119121.0
n001125,-10.045847028877992,0.3269438322189142,6.423202518175752,-7.535825194285204,-3.6180585913920167,5.16605381028587,-2.673925949743684,-5.398827951937941,1.2954545759326839,-3.4468740694121847,-0.368272180803821,-0.504331300348785,1.159187167123763,-2.1296923989657426,-1.3816939383930056,119121.0,119121.0
n001126,-19.927573109470856,-8.902128393133289,14.23870760745892,-12.518350596872445,-2.4679260199469053,1.771282227392427,-0.020213190735328457,0.9711976687021033,1.0493863564941008,-7.665386128623649,5.886523754641995,10.275852965794797,-8.667543464279612,-5.160202734330494,1.1506188432313738,119121.0,119121.0
n001127,-12.568099291646838,-7.1868902033129185,0.029826464549933318,-2.500657566373387,3.8656491182223887,-7.358834545708744,0.431649712323563,4.021346053274426,-1.5419289315615177,1.189358749953204,4.463458369302994,3.901952804142635,5.881743012749399,0.18674566875948262,-8.959341668642704,119121.0,119121.0
n001128,-12.086701530458688,-11.239637883170088,3.386168957665528,-1.8690700064712615,8.34545394921549,2.5504502296858327,8.060127026772692,-10.264953469049049,-4.576391554964818,-13.52492756223366,-1.4602560557771116,-5.15263977120315,0.6789309842738526,-0.8255900041313795,-7.140368668307171,119121.0,119121.0
n001129,-11.670965216435944,-1.0933051763834576,3.7312109345992766,-11.852029573899843,-4.0012370398793475,-2.2699871079493192,1.70899351133035,-1.6346756365823252,-2.4393760244311156,-7.920313927972456,1.2801952521651498,-5.06176786936174,-5.726069309304089,0.5532680997657833,-4.215866970804157,119121.0,119121.0
n001130,-21.20369501596702,-4.491302656675665,0.8030622869494477,-4.547712545037713,1.962040396072925,-3.0667522363923436,8.364043679914912,4.896311023553096,0.22332499989527022,4.066412046777944,-1.4083469040129097,0.0678066668640549,-4.016331726122118,-2.7663830214739438,-1.975171216537322,119121.0,119121.0
n001131,-7.444457238224881,-1.2152346008440147,-6.032153997188242,-1.6802705270091245,-5.03691093561482,1.4030142507677095,5.606380221407601,1.801243469054327,4.082275980399643,0.8777610201618118,0.552146445890793,-0.13890516975128198,6.483913895199075,1.4010374630591964,1.3485490055868694,119121.0,119121.0
n001132,-4.267301455068254,-16.46260802386809,8.560726528091221,-13.1428788307502,2.1214159359613154,9.314704833428229,-1.0449478607118343,1.938373349490491,-4.408132192656373,-6.126203186156988,-3.2637293660889783,10.323523040700094,2.4238660286030336,-0.618545214690293,9.906324453807528,119121.0,119121.0
n001133,-8.011189852911661,1.325914589471549,-0.8098165001502282,-2.5466947996915703,-4.8758315411777655,-0.19217592080792834,-1.3173223292832756,-9.37078313054593,3.0799540330145714,-6.487416828686254,-1.1189620031755685,-0.4808839874176296,-6.992043108987276,-4.285937817176694,-0.17660266894686516,119121.0,119121.0
n001134,-21.838459242617326,-9.484926857328201,2.9444470811720063,3.447016684416466,-6.4432581192911345,0.9054666105507757,11.15885045364052,0.06264787041171527,-4.686122855275148,-5.253316544060601,0.8681679832861042,6.6069785060977395,-1.1011617243527403,2.572620253275401,0.25183150811841515,119121.0,119121.0
n001135,-2.670959116070496,6.5586642882192585,9.666912004686825,-3.720759838029361,1.4144817634425513,2.775838186729752,-3.3443996066964266,9.58258836285932,-0.8494526988595739,-10.406485334622653,-2.3620394186616096,-10.026176099613586,-8.538122434404599,4.3155662815586044,0.12277830101470188,119121.01,119121.0
n001136,-6.2643823201460815,-1.7340535714700742,-2.09244894371074,-7.052659863291259,4.055795851929398,-3.8750691694004704,-2.102286668325739,11.988209866179007,-2.854702874907026,5.98902969477533,-0.866543844585044,-0.43793145546832035,5.750927785871269,7.933790705740838,1.3745584442400522,119121.01,119121.0
n001137,-1.6054738849086112,6.138352472076241,-2.4349357486920415,2.543239068631768,-9.140421869843108,5.236121207377587,3.4733924526679254,10.707880121549154,-1.073505910798405,-5.942745741623717,-5.568903373440444,6.737419560859088,9.749245678586027,-3.814411944046829,2.0485703505183435,119121.01,119121.0
n001138,-9.642072607539847,4.771834451276918,4.97234085224288,2.1005653341396266,0.5192960581106218,-2.7892559666598435,-6.3971122283022925,-4.3287216178967105,3.574471365059666,4.892319936113209,7.090534598762453,4.035510314096468,2.9751675881287283,1.8494564051533315,-0.8148081670675635,119121.01,119121.0
n001139,-12.561223749014072,6.779046209705575,1.824235621836087,8.56601691016264,-0.27948190850232096,8.474200112228878,-14.910183320777557,2.0203028951805564,8.71842763827836,-1.331631921349757,-2.189032613342934,-2.6309600257259365,0.2899962529460463,-0.7743222715581476,-1.589880861015358,119121.01,119121.0
n001140,-15.127485102073184,3.248960247919797,3.906879247040092,0.7846545916208338,7.965258605546417,-6.63675265626513,-0.30593390015804434,7.06618535132411,4.969574683493952,-2.094303192810951,-10.95799395601375,-7.531259846124435,-3.9968526824176034,3.4802503800896187,6.035166900493493,119121.01,119121.0
n001141,1.9849738751022397,3.6506695666812297,-2.408727564907842,-3.456774141477555,-4.239296235276022,-0.26390748247674445,4.659914959600409,-2.7327598109228477,-2.3912478417553467,-4.634937947075718,3.7703824570506312,-9.38176442832335,4.978545596629749,6.242111681355158,8.651264670595232,119121.01,119121.0
n001142,-10.250667598054427,0.9295810100754581,-0.13722610954565184,5.196184852864336,-7.217536287502975,-4.540604436871518,-1.1141014077485087,11.596466082769972,2.529235114687495,-5.978275676252554,5.535250266386756,2.8891672329262077,-2.3254149424789627,0.3358243000114536,-6.841214365255976,119121.01,119121.0
n001143,-9.88347472261443,6.907495951255944,6.7458641481336965,-3.4265012641014656,-11.811596443840942,-6.019507725207732,12.07283753431896,7.424471481770975,-1.278168650544151,-5.820800318471414,-2.61815065221562,1.8580248603316822,-4.593375208355204,-2.404610137003699,3.567877006395691,119121.01,119121.0
n001144,-5.6078756115319575,0.5837927508511169,2.7968929221161423,0.8577241825152562,-6.4737349195677165,2.423423208363099,-1.5538178937510514,-1.4546797684406547,-4.663918788206681,-3.714499072474316,2.2373009807365576,1.6168906101562264,4.374014644642628,-0.02124395175724514,2.36331681950256,119121.01,119121.0
n001145,-5.89452824991992,5.511623819799794,-11.074251542763584,5.245549648748727,1.098582422328083,0.3721360658965407,-2.4800885717579453,10.566123556168439,2.399521996156035,-10.381886749125242,-1.9848888486016443,-6.719892089299678,8.506988747572558,-1.584584833228131,16.584159987411017,119121.01,119121.0
n001146,-10.66576665429223,1.055967076972064,-1.6870936952386306,-3.95536283346723,-9.288771098541899,-3.656629153409524,4.1827656541769604,-5.512945454392941,6.090058887658786,-3.2499834786246717,-0.8056137562503414,-1.1556582675376945,-8.349388744345422,3.4623570503243406,-4.808428904789524,119121.01,119121.0
n001147,-6.696164106736525,-2.0110256664732438,-9.976457555025636,1.9109149639424037,-2.7048073325662765,-3.5529094517062116,0.7946491993679864,2.358139926643997,5.238706295109668,2.029566168122316,1.3356217210608192,-7.230337877271731,1.5494248438258034,-8.107500867040523,6.886631781970072,119121.01,119121.0
n001148,-21.997684535061527,-4.119643485357386,0.5284679118933304,9.322922717823928,2.557369736044295,-4.535138710199829,2.7168398886251217,18.16244202080958,0.2660604747687132,-1.8847111975079756,1.8514091315662244,13.283271568617934,-0.21258553210143555,-0.8410638707152002,1.32401162489947,119121.01,119121.0
n001149,4.044275757010032,7.993156377459245,-0.3314184596478932,7.138556184174435,-0.4976768856487867,1.9762997936585458,-1.1400734069757577,-4.362128738386002,11.999985554851499,-6.1096723619181565,-5.172929978965085,1.013343294213981,-3.447837248834234,3.871173657947389,1.5895631807471196,119121.01,119121.0
n001150,-11.845152361745724,-8.914519731805589,-12.726701117963598,12.03966251062086,-0.8983372156735113,-4.555552946946492,-3.648866836744166,4.591040822580482,-2.1299092575575993,6.825487715833475,5.963116374536531,4.773061982723719,5.141914651433151,7.736892697558575,-3.5956548897466063,119121.01,119121.0
n001151,-16.20162982539206,5.940644287985263,5.268799379860004,1.9155710232008598,-6.121593555617565,5.6483084842326345,-5.475317840446712,11.159782313467689,-2.529574245158812,3.474802007927897,-6.46147345847648,-2.617243038616882,14.539233908032863,1.619407467688403,5.394779384419516,119121.01,119121.0
n001152,-14.796154701845737,-8.389441953389667,4.820131282573808,0.0835880303489529,-9.08343281651627,2.0414360163418754,-5.088274651014602,6.242794144260418,-5.615599892886717,-3.2044003812414417,-6.399095122061288,7.301594921976969,2.667512065821424,-7.104845989691097,10.437328722806077,119121.01,119121.0
n001153,-7.58034439900981,5.154769055339532,-3.6340775916655694,-1.5374936547912492,0.5045598458500526,-7.846463345513615,4.285546501282867,-2.284817048348149,-0.7962511664108334,4.326818291712706,-4.980959445420208,-1.8769402463692395,-2.6170560677680466,-3.511970764912153,6.9869938598258905,119121.01,119121.0
n001154,-8.223679696431988,2.5617373833385084,0.20754508146874073,10.334264718186198,-7.815566374272732,-7.332464910819765,1.1494956304358772,4.600604965898933,-7.071230084547238,2.060490385352007,-3.465766305728695,11.803065639468562,6.250403658452595,13.95660219368185,0.30984045960299045,119121.01,119121.0
n001155,-4.674900781620548,9.996906358838006,3.628379447514336,-5.831154198179998,8.268880157924862,-15.31010363815397,-1.4301118344543933,9.617201883046707,1.7077367905399181,3.267660716783297,-7.950885301852846,0.8904383697684591,-5.141804839799049,7.56016429254288,8.817502837233768,119121.01,119121.0
n001156,-13.234276696471415,3.77709094035045,2.9084485083023557,4.31229094174776,-5.048664584875988,-3.4760759981691107,-0.4066073704637431,3.184910569480223,8.605465373368993,-3.043758787679984,2.928037396503458,9.783037387524855,2.128708483228939,4.68966752017762,5.990961796690183,119121.01,119121.0
n001157,-16.656594803376755,-5.439221373643713,-8.884198565444596,-3.4715892595410556,-5.710676142276812,3.582674378366165,-2.673563273656079,0.026986208083116248,-2.4043360008504724,-7.630601224924965,0.6806674590596673,3.924517783044793,-2.997264332757438,-9.032986124844022,3.813582725176505,119121.01,119121.0
n001158,-8.62951529062167,-1.265750403396643,1.4969363603660937,2.8974099537000635,-9.157231291943084,-13.838724545548796,-8.759026168285828,-1.510314550155007,0.9304282458090429,-1.8010567797693808,1.7138667623580681,0.728980748633013,-6.81306821242038,1.542671243531164,-4.232803753045214,119121.01,119121.0
n001159,-9.212365511224345,-7.572932261342176,0.48476965913325154,0.3412490943207733,3.3143529105887777,3.3929920228231527,2.987193730341402,7.860103453004747,1.9912065564785932,0.18733457575625834,-2.594158520864235,3.122357606144814,-1.8256634456790861,4.2879031727672965,-1.4895880285208816,119121.01,119121.0
n001160,-17.98637057977147,6.893910945673747,2.7544608088481293,3.730382270889095,-1.9649787610160139,-4.845287476976055,-1.4227169094557115,-0.2807685000820299,-3.178527469051955,-12.747081179818373,9.746723727493697,-10.448043918161792,-0.9299922422827793,8.524624965368561,-5.254777728828161,119121.01,119121.0
n001161,-6.528859318617402,5.939647094191701,-1.4625310420160365,4.421818352180327,7.937531891452906,1.7381215861980397,-4.202183960926524,8.68829086373252,0.5657286440569742,-3.985140165777067,-15.414603356995977,-1.9775191613336283,0.5020395415810506,-3.315418605931005,10.924180401060266,119121.01,119121.0
n001162,0.1536902022109654,-2.0068749875904737,-0.795210683835194,2.424147407944504,4.209756567115495,-9.310400917577292,-4.737460198000532,2.9814836443157167,4.783304574803479,-0.3931063486926665,-6.461996932788299,0.748186180950554,-5.882522765585024,2.4203388626715787,-0.7349337755425562,119121.01,119121.0
n001163,2.3917338906125565,8.0008252380128,-2.8275066196126297,7.081810071752233,-5.033439211641252,7.244409611032216,-0.5025865389254961,-11.2563562265676,-0.2716435746780166,0.4057705102940681,-4.668631623855891,-0.8336233730331755,-1.6345857292604975,-1.6952527890308984,4.9892682521415725,119121.01,119121.0
n001164,-1.1016298070309984,2.850091830889421,-0.9258724691970053,13.738206979485254,-8.920728202511674,-2.8666259697337715,-4.882982509503781,-1.6292187621721466,6.361474636804489,4.576785723134431,-0.6078828383185845,-0.6225031321412343,4.152210762388628,-3.7126583442233994,4.657860881689641,119121.01,119121.0
n001165,-12.30212569275992,-0.5816960137665754,4.450985386815276,1.4468392425298737,4.488335330595396,-5.852805491111639,-5.386281042278793,7.644430895616067,3.7859688317667093,-4.6050832423286305,1.4966955252489882,0.6505768843896578,1.78697162764896,-0.12283070318616851,7.93380858969666,119121.01,119121.0
n001166,-11.496919823485882,4.1122571825588725,-3.482881640568734,-3.509917105340842,0.806027859284977,-0.4191180726443233,-2.1663767076773155,3.9891146129780815,-1.0945122164246115,-1.9316876350212044,7.6039021432375495,0.40537008509256517,-2.6123943915497274,-3.411801473764112,1.5843868840320319,119121.01,119121.0
n001167,-15.327462996493274,5.645058263884074,-0.7592516427320475,5.125464246468355,3.523808160419281,-4.556454123483075,-2.2722245391419884,-6.634709216682678,-5.535598515150292,5.3525180702849715,-6.667433916210868,2.9447765139899835,-5.176371396577449,-0.3489814076863663,-4.984514526917245,119121.01,119121.0
n001168,-5.834757227443848,0.20283813207111878,-3.4482881941800074,4.389621488996273,4.393940268148528,1.7256796958404557,-5.332781493346876,2.8502008525466813,-2.0494346716577376,1.0387900176175224,0.07181660446948479,-5.418984299154347,-1.173375967340506,-5.707932349766008,-4.800885058682068,119121.01,119121.0
n001169,-11.446246226733564,8.898568842439262,-0.9208940899158801,-3.6747354702211115,3.7903632875333195,-7.630154069011107,2.1379038817430076,-8.473190636174484,-0.9530871642366763,-3.2904173906473506,-2.9774179689865727,-8.747707059162105,11.850780761463907,12.759121934827078,2.7063723330866107,119121.01,119121.0
n001170,-2.1047029522763836,-1.416358698443382,-5.866848904372366,1.640097834061136,-5.290055422627713,2.1437522411657906,-0.6815083466138909,-3.3465757119136716,-0.4864068230626126,-1.3223788842420061,-0.4175094472288676,6.438293523094237,2.636795570685977,10.07534585700242,-4.089766126972799,119121.01,119121.0
n001171,-12.043481441180687,5.782001091974854,-4.501484447022366,-0.6850975336237424,-10.370889618235406,2.761399170145917,4.328735315108445,3.944035168111657,2.203873997611418,-5.492641898139319,-1.7384370066879977,8.067700472124343,0.21246440027758182,-5.955989035238626,2.9225833400508185,119121.01,119121.0
n001172,-9.899733412102789,-0.5846915082706059,9.487009290973228,3.8758924732121605,1.4719577131016197,1.9460162888252548,6.241908611649615,-2.865815046242159,7.289314839944284,-3.5470831923267347,0.001619539203645104,3.8928011745416358,-0.5744785762622853,-0.4262152426761642,5.789855767387448,119121.01,119121.0
n001173,5.434727206398515,3.0958910859098863,-0.38469542520069194,4.163234772215949,-0.5363553957750768,3.6655003513975997,-8.798106478319411,-7.8652084440912535,0.04639400939622085,4.923001461169218,-2.880909357662434,2.2885042528094113,-2.881798776243299,-7.292420938174582,0.05129100425376576,119121.01,119121.0
n001174,-5.481869791680232,-0.43098028379708664,-9.10091585775917,-2.6594199318401235,-4.780714723961253,-2.297142383546826,-1.600723048774927,11.08474918362828,2.9591077450409116,1.0820893918293393,-3.6366525587292244,-0.7861635239409317,-4.320562072481289,5.792633661453039,-0.19919282355487633,119121.01,119121.0
n001175,0.906874642382375,-1.728012826433702,6.718092861501999,-3.0208548468390224,-8.694236758360422,-5.344667932968144,-5.028921144166561,7.321621665231004,-8.704871011239607,-4.660773053268544,2.2033685191133086,-8.161165282865273,-4.756670567327153,6.320070555688899,-2.6809343216068195,119121.01,119121.0
n001176,-1.1037770119716157,2.6251712904141793,-2.0121034335098775,0.28233649301734975,3.3857792817270487,0.07570136702953212,6.663731273487505,-6.655382811090458,3.7726603001551124,-2.825002985778057,0.6932857249001501,-9.257320327298642,-1.9312268136554396,7.960426429084236,7.456326573533969,119121.01,119121.0
n001177,-9.915787734624423,4.094424697727137,3.6864504059867005,1.7534283714276866,6.025092505066761,-10.403437450133909,-1.316357286195256,8.077777824083338,-1.121696140164747,-4.068897059605179,-4.871939929926422,1.423754314263466,-3.9300099146719005,-4.3014404617266715,3.776320779903177,119121.01,119121.0
n001178,-5.213921270134594,5.970939217090942,-1.2960878118600856,3.1902094948034003,3.9729987562432343,7.365139956544162,8.97125085587531,-0.14114570478713184,-2.581030756615273,-3.728138073928529,-3.8139010649195506,-1.6662035328885496,5.238569475511349,-6.0866020363833915,-1.1394336514020975,119121.01,119121.0
n001179,-5.700139552128151,3.0188509372936947,-6.257815846852521,-0.23106062969862595,4.283528980483428,7.131093462771798,-5.427226719042351,-3.6944350931415464,2.690557556063911,-4.53676941842468,-6.582807244249732,-4.084171567287557,-0.3876969736583606,1.679152015287595,7.604525106852192,119121.01,119121.0
n001180,-0.5754402100960654,2.9026435838093034,-0.36438304423681844,-6.056310330887744,-7.5500731072428096,-6.634041537465308,1.0775021323630942,3.022388573563869,2.3577518222686664,4.786229088735788,-8.800305395403994,0.7963506273099602,-6.8670193796840895,-0.06014384186659838,4.995842106598668,119121.01,119121.0
n001181,2.0311960720608013,4.394590642331382,-0.8138755259174755,-4.253100848813082,1.1189497845212928,1.3252600400387664,5.46890431664706,3.402581069898917,3.381642925603845,-9.502166078563903,-0.7363957985140468,1.240963198323908,-4.115548601594963,-10.607704562240347,6.549482792736622,119121.01,119121.0
n001182,-8.614420764720986,7.447685744218866,2.3592573662489125,8.961139964997606,-1.285598461427408,4.459547410902284,3.4076091822139722,-1.5633090909228362,4.9600702004733375,-11.369152064464524,-2.1839308592776945,5.1867262332354525,2.778739775872758,0.44607002327139056,5.584198723029759,119121.01,119121.0
n001183,-7.227948767235352,-3.249484668660387,-4.784025245801393,4.170137373387189,1.99467943157874,7.041921219008,-5.2448826783525435,-4.281549383215675,-1.6222069473618634,8.71003464089424,-11.714071930939125,-5.659257244274078,7.448670139152036,-5.465270759997455,-1.6376773449639792,119121.01,119121.0
n001184,-12.4603941888349,-3.448274267321939,-0.04507153576695033,6.83897474445588,-4.954720448373958,-1.3908081116893398,6.294198756574201,5.7165813234142355,1.4525408900482184,-10.140616337975787,-6.64386596173477,-0.7125477775205804,-0.5314090805433427,-5.682408109595929,-3.8554241119016583,119121.01,119121.0
n001185,-4.509812468027642,-2.501549347946106,0.6853120456902742,5.962361244746219,-9.276538969842727,5.657258002515333,-3.5716527175786026,-2.704586477329671,-2.1848606296638584,-5.322209258178649,-1.1124930850317953,-6.9242063961856,3.4956873840915947,5.430776790126696,-2.270351342174617,119121.01,119121.0
n001186,-7.961115401568882,11.251708489472009,-6.016636773437892,3.4826229554463577,-1.4629053506532812,-7.3563600761703825,-4.142193475902385,4.602432405536902,2.2458414860458893,5.064732952211699,-7.441942968929968,1.2722049194393457,0.943000357037834,-0.6293584144962211,-8.116593718221255,119121.01,119121.0
n001187,-7.1924183816716605,-0.1438397979814039,-2.600149210874375,8.572496412991754,2.2798816350482913,7.122743598194788,-6.594281058160801,3.100189680047028,-4.8033269736508615,3.2783993719368256,-3.665118820909384,1.0517587772331143,-15.53528797001477,0.7517876997772949,-1.5149495534497057,119121.01,119121.0
n001188,-11.154879573382003,7.567202340463767,1.5214762727637132,4.822798293774872,-5.779397284801206,-10.383721517715246,3.8425958736598886,8.56144768324128,-2.8732980180756824,-3.520875969624485,0.322887984096103,13.38345114033099,-7.458916479515475,-5.212353755020631,10.071576285146081,119121.01,119121.0
n001189,-2.944008209952493,-2.360177510984071,0.21738299121968496,-5.1828016121021,7.481399004582899,-8.592284234629243,-10.066624193125719,-1.7585374533161198,5.863990192895331,-2.082693252098271,-2.108109337957794,7.885383026925263,-7.6782977002376125,3.3659061459844377,13.874667099422357,119121.01,119121.0
n001190,-5.357231740429296,-2.299106556659362,3.367454534196415,4.907819761796101,3.9536361986655995,-4.609794932807435,-9.154941538125017,4.436186992227178,-8.245377505444054,-10.981652039135106,0.6859996505613861,-0.06699501391230542,11.077125058656845,2.8500572047362627,4.066978332197234,119121.01,119121.0
n001191,-7.321940429514624,8.126816488481044,2.509598860542758,5.867361942392028,13.538174133677533,-6.524750814910068,-7.0357230331812906,-1.14542255454786,-0.5915008845147065,-2.36992651606678,-0.37828340100414914,-0.10265568937069255,-8.145094212554655,4.872526854327494,8.023958168039488,119121.01,119121.0
n001192,-17.938957137215887,-0.2561370370631262,-2.582104494404203,-7.785034126962307,-7.37787782893683,3.3142358802982974,-4.9595236271756,-10.37563592965714,5.276946175958024,-4.609149321443512,4.532667524870815,-4.358158280448298,11.33714379021104,2.2075968288138283,2.0412013849500714,119121.01,119121.0
n001193,-11.725612144295402,3.229562220379,-1.0616871329706334,-2.9906216162409325,-12.8115179351736,-4.13163655661354,4.906036789929129,-4.0260500354780815,8.164555462056166,-2.8190145352376335,-1.3569729173835068,-6.651307981137922,2.5825848736171877,2.1043268369242565,1.0990920407148705,119121.01,119121.0
n001194,-6.183000808183066,8.126949074996434,-5.955734148524908,-3.2442472351957288,-5.441721479076126,-1.9394310058152195,4.932145437754117,-0.4065978951777669,3.6598010391083005,6.888865830455629,-6.602007619545226,-7.887020778240522,-1.1624400786040607,-0.9499755000787812,2.1389144870332286,119121.01,119121.0
n001195,2.004128528574407,-2.0270708990463158,5.854094207355272,4.112951801726517,-4.602962893988222,2.016570541918572,-1.4716751803623662,-9.922523266997892,-14.476015473314927,-6.643033225433586,-7.711812029029572,4.281797702809397,-4.417685376732533,12.970925542699192,2.6032009007023524,119121.01,119121.0
n001196,-8.697857163033676,-0.5911045571070646,4.536048196661845,1.581747687671252,2.769374033060634,-3.098472121737883,-1.2245191604831294,3.1214115169451766,0.5763295166617163,-11.957610349737752,-1.0303320131083866,5.388197715003987,4.81962515107472,11.196322120017108,2.951204782052999,119121.01,119121.0
n001197,-13.662594661908447,1.1896431372292762,7.739406689657553,4.977587163549856,14.133752912994147,7.636501093582591,-1.8230829134124122,6.251070977409642,-0.47245489554651665,0.6156255430751474,-1.919963533334998,-7.498311506260502,-3.2360430587584093,-0.16699866583566003,-2.7554430592067702,119121.01,119121.0
n001198,-7.71712373584415,-1.6504422377669492,2.7765724028953955,0.9976703781364318,-3.710223800125998,0.19367981347375163,-8.64099706855528,0.5489255063850921,-9.671119218830382,-0.4985642214014674,2.0308726768685132,3.079705493638633,5.369583871415927,9.865723395206485,3.1600145238457835,119121.01,119121.0
n001199,-1.168575825942975,-1.437260731255889,-7.902714153339899,1.5735512946820962,-5.3230719884531545,-0.18340832813578367,-4.364241322836825,-3.012017126893511,1.8905578262179048,-1.648229783589124,-5.090387405850172,6.311853707419455,-6.697655262918599,0.4369608165682095,2.7723371212910957,119121.01,119121.0
n001200,-2.754556035835117,8.499521658434213,0.3315373940650619,0.17219661271545084,-5.117651603793677,-8.313335209177701,-0.6990463553386105,2.167732155190845,10.044140270500007,1.0467074094288382,-0.24819323300837104,-1.3186468820050405,5.486308480242485,-1.0509316234194834,3.499672311451557,119121.01,119121.0
n001201,-1.1203538961123103,7.437375358079903,11.729742360814576,-10.646886833207725,-5.706557562630769,-3.31142380687979,-0.26080405424612835,4.5476422433855115,-6.955408743584455,-5.1953310635826835,-4.967329017719557,3.393015121054485,0.17680313197614453,-3.7183108942010534,0.8744166571766365,119121.01,119121.0
n001202,-6.8716341143396775,1.6608782589003257,1.1822884891402576,10.690614351469804,-5.755262317468185,-1.0088269074062413,0.7499954808609984,5.255108332810655,-3.9257334341635994,0.3772994473454465,-6.1019788576377945,-5.930611007001029,-3.4446647910018484,3.8524222349210633,-0.9000559509342989,119121.01,119121.0
n001203,-15.241960244959385,-4.129409215566236,11.132763549379582,3.027403920723084,-0.22891741680865685,1.7270085028448834,-5.023793528359078,-4.222240583679895,-1.931717370290121,2.218629261913965,-7.470416404118078,4.769617265334829,-7.007703471049382,-4.1148158396498165,5.943589236867397,119121.01,119121.0
n001204,-7.953225616621838,-2.0641865517717966,3.8619256939934075,5.298049594744311,-0.3868093807595422,1.4493732936459314,-0.9751602698548241,-4.182373151173026,3.8487808686182654,5.446910144027564,9.256056844237898,5.727617648345944,4.905607887277547,3.801870213667393,7.922025580772216,119121.01,119121.0
n001205,-2.1022610890681053,-6.012740115512555,1.9588591072047823,-5.338369100356867,6.328884197772328,3.8815213347884603,-4.0760578041302935,-5.726421911952519,3.4185567809436885,11.844892992753266,-3.4797880716850265,1.9120348827261644,2.289668788284885,-6.109031616227295,0.6079007050661851,119121.02,119121.0
n001206,2.7399433737757377,5.7192803047460075,12.605342836946434,-4.091741694846823,-6.123335608354009,2.2080214586727265,9.006742024235503,1.802003391193864,-1.1234323404299889,15.4772932690532,-4.108233488313403,2.870137046487067,2.0022571419177284,13.419180625508845,-6.52880574114544,119121.02,119121.0
n001207,-14.224426193648956,-3.5806960488399184,14.410141146747467,-3.145774240421529,-0.5525811845232962,2.212521250908388,4.095643800900456,5.326443867733313,-5.884348386819601,11.423012875492962,-3.3171918447544444,1.8718102113642705,-3.4720874847133327,6.025337479415818,-1.1865157088084684,119121.02,119121.0
n001208,-5.282313503649343,-4.7898273482112455,15.915149169745689,-4.749687115630816,-8.137760551032633,10.66425342977519,4.37672741802831,13.077123066272302,-10.173134325017061,7.2855745926949504,7.7953593446150355,-0.6837494515792861,4.3785597643951135,-3.458506505557468,-0.04353144542492943,119121.02,119121.0
n001209,0.005471198976829683,3.5600514165617096,6.594229620500478,-2.598851185838518,-9.50308378523875,-5.15048149949917,3.0706593623119582,6.670155739756532,-11.525802165817204,4.637756253826011,4.175684519603705,-9.738084753206364,0.1044003361141228,-4.269207327758561,3.613009018747479,119121.02,119121.0
n001210,-5.9000541207003625,-3.9089816360641434,7.434712215698431,-4.194227615230042,-5.455442724962638,3.9076481977254938,4.261300265057105,4.460430607433622,-11.79321080777987,-5.4059617201946875,-0.9029595240572948,-3.4381891634944495,-4.595846521140423,-1.0577554462156176,-0.43937735237805425,119121.02,119121.0
n001211,-12.76945931661288,-2.536374936182993,18.200701305037057,-2.633705542720812,-2.7766110835754776,11.574151309008199,-3.81991012496806,0.20988938663969625,-7.926372340236965,1.9483955159346236,-1.2326562937218806,-11.744023819852407,4.218331753824136,2.522766099824401,-5.3065144880496895,119121.02,119121.0
n001212,-8.982752988801318,-0.7192265847572037,17.84882949386126,2.511678830339223,0.2540372974326365,0.7349970252763656,-4.067225667283383,0.45291414802333396,5.026509171474496,0.422403798135228,5.84808084076278,0.07969701468494295,7.352302612412156,6.757066918697873,0.49338862637286496,119121.02,119121.0
n001213,-2.581582883333917,0.9986456177382874,8.994758215405364,-1.590401961133721,-4.54943576463873,-3.046027366228065,1.0606327262989002,5.317089117170759,0.1810747903002783,7.050374399063943,-3.0899940215980966,-5.8604067059805205,1.470816392798794,3.4577590563580665,-3.583046560517575,119121.02,119121.0
n001214,-0.5768380961113069,-7.585427426330751,16.83442267036009,0.4323462945923231,7.2872739635374115,-2.680709359129884,-0.021794803233029514,-2.4981894140917777,-4.638394237105768,-4.710764033100664,1.7937366797932008,-0.4237202137055571,-2.933537194713664,0.6218455177651369,-0.5560742770538853,119121.02,119121.0
n001215,-4.861609770459676,-2.144788773072273,4.542961470940934,-7.073795293263475,-1.9575869987397123,1.269750251380193,3.70157920462993,11.298281406494963,-2.958511044856303,1.6012173835480132,3.080954469783792,3.819395565825992,-1.033742377290811,-2.6043021673019946,-0.3097420022096874,119121.02,119121.0
n001216,-13.83096508901211,-1.9807669286728276,2.0463179386105628,-4.2998953382601,-0.5594608507899181,-1.544090458051846,2.187897840543795,1.8650286783297227,-6.46616792726806,3.816001605402402,7.746437576295174,-10.452897112656931,0.5745201145236555,-5.357448558831971,4.092565929387005,119121.02,119121.0
n001217,-4.415419102714653,0.659295022696126,12.682264607029763,-5.638330815934444,-4.591575443318885,7.3257136088106325,8.405985693234514,4.386368466336871,1.7414602325720008,1.8617837370698582,5.5828431706568695,-7.63622687669848,-2.3996826515493623,7.080361144798481,0.12535910540257716,119121.02,119121.0
n001218,-15.727997615467432,-8.166956677579241,4.687300167179488,0.023175292567244155,-10.071392727872778,15.753887280138386,-0.2389462942016627,-7.007562814140914,0.41371567407660814,-3.917350622301506,-10.22464858321028,-4.395171848072426,-4.02422080932228,0.00937853179472703,-1.3362509114675976,119121.02,119121.0
n001219,-7.656518761661223,1.0066764117753717,11.073223804515097,0.7510517668401182,-5.983089737915722,-0.6106851834387821,-5.362262333089413,-1.8727038794319488,-7.160984494649911,5.66677117172866,-10.83850795023173,2.189942616694165,2.858299704840526,11.034063151866683,-0.007154267669807035,119121.02,119121.0
n001220,-7.611179859740397,-12.178331413870943,-1.4308971109228574,0.3514701507118996,-2.840272299948792,-2.297118507821224,5.199702329951267,0.5396806813289037,3.6264441447925084,2.812338332651679,-1.6108769691547309,-7.531327964995654,-3.548403027610189,-1.2787419426912625,0.21298939498858327,119121.02,119121.0
n001221,-2.365189106794255,-3.5691508602335333,13.213098907141827,-1.3496326608438858,6.762465266286009,-0.5738922319106052,-0.6354042594045597,2.8297107927976075,-2.4842260402404057,-0.020913941686838133,2.6165848165921224,-5.015846835704622,-2.4872553208983437,3.767956428481504,0.5418673183918669,119121.02,119121.0
n001222,-3.577042619938783,6.440706641002368,4.631952345878743,1.5995979274164005,-4.9583623460538595,0.2521428390686036,6.501161238591992,3.797040960507279,4.7908541426056885,3.345515453207376,-7.356607697036555,0.8234515470020569,-12.865422586629304,7.134684829839102,-1.8839990769913322,119121.02,119121.0
n001223,-8.310704236470517,-5.084822209294369,-3.4516080125028124,2.141308508344979,-3.6628344112821005,3.8329762289562055,-0.05822680454333562,3.7995369055222037,-6.428186777672963,8.219097262181188,-2.3957845001067017,-12.167609496803216,9.77490125745365,1.9051780748929605,0.6655484735230904,119121.02,119121.0
n001224,-6.9869981948452535,9.599307046415511,3.692565453635108,-6.313682812821106,4.163677064249637,8.53649534408737,-3.2771431882448043,-0.09421201244727095,5.517130532987199,1.3712317363367728,0.9343909305070265,-4.464423461090648,2.170564456151494,-7.017382906760549,8.095010882217977,119121.02,119121.0
n001225,-1.9110895445445841,6.135402222390002,2.6354194477065906,-13.557363464931965,1.5517111974778515,9.112460524484037,5.884166989259373,1.0271213116798708,3.0638611138041125,5.899415644313861,1.2214732311206786,1.171715409683015,3.907117930498349,-5.44677793750909,-0.7998127898928205,119121.02,119121.0
n001226,-0.905154985890583,-3.4986235259511878,-0.7608714575387721,-2.8294564668586712,4.782613441122393,11.906678122863827,-0.9556161073690239,6.364023239801395,9.623265779425267,-2.196767091957721,0.05510733742075177,0.29427652712256425,-3.3626085232968013,9.108777246635432,3.744501631677129,119121.02,119121.0
n001227,-5.6083836014620605,-8.345131462708974,1.9691285754001502,-4.98152547148227,4.245216423862527,6.677491119108041,14.520837606317798,4.7236258295613816,4.855041839218812,-0.11554575269579359,1.6245293086702615,-4.39573457812016,11.66722293563444,2.3328094235302723,7.6932215451866055,119121.02,119121.0
n001228,-11.014959993126194,-1.370878091692311,3.8723752104527267,-1.313495336385473,-0.5795258146209161,11.837987818558782,-3.4674802754942684,-1.2884076369665232,-4.268199955858202,-3.4968930656651827,-1.040156726468689,-4.4729379814121115,-9.02951364877116,0.35610171927890844,-3.1934271020213254,119121.02,119121.0
n001229,-16.133513431774997,-17.721434995215674,4.2276495024071,-9.50160083013963,-1.7641347970645802,-4.47105932226745,-0.7314254211256292,-1.2950489584910143,5.935163796968329,-8.471267362960292,-1.44574461132846,-2.3049287612807143,-2.108112334733973,-1.5744855409354663,5.783816772592677,119121.02,119121.0
n001230,0.11051374577872686,-2.6757316423868276,8.913611497770727,-3.2774023600583853,-4.438045331946132,-2.5483529141387655,-5.7352532607977755,-0.025419766962994528,3.3532875331155902,-0.8738645578025047,0.8202476386860669,-2.1338381693970434,5.058584941510244,5.667733322219078,-2.6046567157299014,119121.02,119121.0
n001231,0.05626716734320514,-0.02125672315858873,7.764128369523892,-5.9059244326769145,-2.9811714862542473,-0.6002015619107506,-9.254588939246332,6.094654938188321,-3.4244049785859287,8.070387296605588,1.7200949904460683,-0.597069245215865,0.5992498400465105,-0.6513545675448449,0.5255060248569423,119121.02,119121.0
n001232,-8.968000751098275,-8.682145905424006,5.284151809745106,4.881024326299254,-5.708581995733132,-1.7943629839671034,-1.642009752118418,2.6386790527982837,-3.5816241953621715,-2.0039295290363395,5.3491437059693325,-3.082169113447753,1.1180674276579516,2.6243571347838603,-7.734573173848098,119121.02,119121.0
n001233,-9.25081458688412,-4.088606555046615,4.837756954839307,0.5876157257995438,-3.7747402877350926,0.26307491369221525,6.894071424834068,5.583316560875124,-0.34923401784701125,0.28398022954630453,-14.382626645321494,-3.626706583722383,2.4289802379198493,-2.635123610972547,-2.114569002548215,119121.02,119121.0
n001234,-11.37019917022893,-1.13416942177605,6.089148653060746,0.9368330591091858,-9.08593064178015,6.137721346649985,-1.8525746320637162,7.349823638243657,1.4437778518247057,-4.102736155325604,6.032561403851961,-0.32811677562998476,4.412706768090948,13.467994006840954,-5.680486379827942,119121.02,119121.0
n001235,-3.5621997714574873,-3.3961478625844137,8.105916193596492,-2.416900789002523,-2.8062739972284536,0.6404771092604735,1.8548274178524,7.081235551574085,2.581833631117893,-13.327986914943457,0.08915290838490263,-0.8545635364916906,5.735836098423717,1.2840019404189116,-7.873109824615986,119121.02,119121.0
n001236,-1.352589914115848,-4.962312521973849,-1.730717390407821,-5.960981858516245,1.184124204154179,6.018394603066907,-1.9473919323150257,-4.834183556622565,-1.6945187888777133,2.089693202089566,-2.426880039158538,-3.315234640945075,7.229120107337754,3.148457782227445,-9.551144983476917,119121.02,119121.0
n001237,-13.374488225252263,-4.116472015941822,7.9680448677585645,3.026046275384406,3.5255169880594317,7.563409904871834,-0.6859315571218931,3.8019898731738326,-9.30670468069062,1.4655172157339242,-2.8936475740683254,1.2388458887138825,6.691594490120132,3.5045487948139797,-5.083540648215615,119121.02,119121.0
n001238,-16.13768439935416,0.41230517182673276,-2.6658640196916084,10.052326325459738,1.3404253524828862,2.4077519175242967,1.927138025940923,4.524016941266748,0.4389910558494141,-0.15507696920105507,0.8566495763586038,-7.533717883750951,-1.0587419983403235,1.1307903614314854,-8.162979309381408,119121.02,119121.0
n001239,-14.882554891013008,-6.1322330950476704,11.768057425771936,1.1619422934184167,-4.035109950086519,5.364538604594937,0.49323411049022425,-3.3901296124482725,0.9171149808883046,-6.906888011629953,-0.9701668355407835,0.33867801606833137,-6.680945470081051,4.169087719270802,-4.140973876051562,119121.02,119121.0
n001240,-12.163304060343124,-8.732932605403814,-10.185423910939441,5.04037674963623,0.16175694152118114,0.6326810025834171,0.4785775210658969,5.355275998386418,-8.867370890864052,-2.7633532580923306,1.078153017301558,-8.530442586473411,-4.350713238596876,2.257171281913162,-11.519577012166618,119121.02,119121.0
n001241,-7.7236876269049874,-5.259468862940972,4.191575287847573,2.1262760230740447,-4.380780597658281,10.170345961377896,-1.7659016191617294,-0.049103849100966546,-7.082482012575525,2.2636536374048792,-7.261921002511293,1.579893156550666,7.138917524607227,-7.484740750218135,-5.228224947843243,119121.02,119121.0
n001242,-8.540173675083855,-4.17473993731851,11.608986081731196,-1.751816605737576,-4.111895800510711,6.7498089902574705,5.937562899702928,7.449607076984534,-3.412767992969528,12.170955058850193,5.1336477701353855,-0.35467315977918257,-9.187344026494282,3.705969705724386,-3.410454182963435,119121.02,119121.0
n001243,-13.897231844971188,-3.3277387000763734,7.899335298746589,2.0394529034950484,-3.0587914902168634,13.412374996285633,-0.6543350945917579,-8.00796420932615,-3.4999594795798865,-0.9403086632189509,-6.5054657961549385,-4.368662685800043,8.778394609524144,1.8478172747127974,-4.652086607337682,119121.02,119121.0
n001244,-14.550776379013291,-2.3308420962424954,3.4941944197020014,-1.3091847362372353,-3.8518348063882804,3.686872302917508,7.529191671990769,1.8006025375786767,-5.182851143721369,5.008618952546701,-4.280937931864137,-1.884202193495446,3.8120434474383273,-0.8039969546117649,-1.6064630995108353,119121.02,119121.0
n001245,-3.7854329070789383,-3.9041876711011767,10.053012828333769,-6.691371639063532,2.3118126300946944,-4.936951811856119,-8.603811263872167,-2.302128293746276,3.826862927317752,5.309007194003116,-7.130060164094768,1.1078657545952049,5.728877379284869,-1.6045177431519915,0.9406984638393339,119121.02,119121.0
n001246,-10.140923261015649,-1.0322388629309518,2.1049041058442013,-7.379589332947672,1.5322271505942715,2.2716965324415455,-2.3151107246566585,3.8612868299602088,-0.5656138184586632,11.629171087684533,9.987524587280932,-13.212131499312893,-0.66793286450858,4.481323803011655,-5.148603315089275,119121.02,119121.0
n001247,-2.0848658933113278,11.528454509097559,14.887005254756598,-3.0810004683020566,0.43501334247798307,-5.375614691116473,0.8016407272050725,1.8084396813195127,2.4753835333149365,3.874733009479053,-2.8052589584375323,9.194312674116949,7.141561896980545,2.683455827652136,-5.523689368378424,119121.02,119121.0
n001248,-10.103260607208933,-4.37401981222315,12.352716011720913,-3.948335895356184,-6.922858585851328,-3.9484519608922475,1.1794097611761172,1.1921791598810034,1.0125348248120862,-5.911448433867336,-0.5863336483989962,-2.9453111336686413,10.165689498498056,2.7667583035483014,2.261673013704236,119121.02,119121.0
n001249,-8.268702996038787,-2.362320247995618,5.19600687184557,2.0087658593938276,-4.1927157127844135,5.244123431103024,4.188381355814694,5.900255108380247,-4.35352631593625,6.073640243647947,4.826082464815067,5.19235017619393,2.7809015546621985,2.049436428987497,2.5754991639952447,119121.02,119121.0
n001250,0.1486236814328672,-2.5186246702624637,9.170419771292714,-3.846712680535065,-12.403274253469625,0.14209958506314857,1.0615435293737303,-0.314623489202031,-4.238712418048095,5.70499906543834,-1.0495712145780016,-13.570161185596795,0.6409964676856985,1.7295314723567814,-0.3958065872635371,119121.02,119121.0
n001251,-9.204890843837592,-0.870311039292367,-1.7792697144426777,-7.214488096265841,3.300654484543886,6.096620299559875,-3.7895828959913276,8.214508477493176,-3.5168049744589416,9.223162758516509,8.619616023376285,-12.802652400431787,-5.70515330517116,5.995089095492416,-10.741378008782181,119121.02,119121.0
n001252,-4.571047870300768,-8.091593111565693,-1.063408810938098,2.963404300123382,-5.959532497891477,4.031775069499934,0.1155083382909432,3.0190451432593415,-3.4246138330199365,-2.681412455357051,-0.24441169879658037,10.233500355044438,3.3246748255205762,9.65257137606712,-8.549700913783814,119121.02,119121.0
n001253,-2.3816776232586525,-4.499653022281764,4.180084441810047,-4.687244983777892,-0.21873221767970186,0.7125787119491074,3.7084873060027186,0.9210522492393625,-9.878837858188831,0.980044710455357,-4.079069091919105,-8.78059460932281,0.10855095636073164,7.497000363253155,-7.675437911444778,119121.02,119121.0
n001254,-2.5793283331582755,-1.4906815632495536,14.375126916131148,-5.97963046272728,-4.804694351885797,-2.8053971262784034,-3.2422813039855853,-1.2262554327352404,-0.6612129843161667,-4.1506004933065865,-9.235845814325593,-4.347398557718888,2.6051175132489828,0.5775783584427817,2.0667652152416602,119121.02,119121.0
n001255,-10.904818477887435,0.4649689293746251,14.071075637904457,-3.6281263868010085,-9.130570695755896,1.015720928630731,4.842375895394535,-8.566681308194863,-0.8931292934893371,6.548870700704596,0.8858730229438766,-9.001405903457847,8.998853143660941,-3.2754065701610977,0.621390966423638,119121.02,119121.0
n001256,-11.369508697417386,5.305354108328553,11.479998047622196,-0.6573227030499533,-6.3235907332661645,2.3611832526992136,-1.3829821459655776,-1.623397230877574,-3.5669458854284137,-4.776101941445213,0.6629071122714717,0.9177435060376333,-2.011971262373562,-5.813505534963674,2.169783431342867,119121.02,119121.0
n001257,-9.187344605627978,-1.7059771223235503,4.766621058854318,4.3124784989942695,1.3066318127950174,-0.24855117191113507,-1.1862624487977205,3.6257658881143104,-14.766101776773883,-1.7061277891335402,0.25188066635180545,-1.1240193523300372,-2.9710651688258674,1.6606706108153135,-1.2404121402443058,119121.02,119121.0
n001258,-6.4572990687749625,-4.102753451469621,12.491247575804334,-11.48632161383741,-1.4470682266522599,-2.9307338949744017,-4.984330311488342,-1.380730701084221,-4.188233054397267,-4.27104766197457,6.412835495969902,1.311392282240361,1.8107189071311969,-2.9068170188526907,6.252247296070928,119121.02,119121.0
n001259,-8.748088819777736,-2.359690854985123,1.4489277251770183,1.5039962037450627,-0.7128495015801297,1.8076285962591334,6.960217620385128,4.164886169514164,-1.4479308836021156,8.541186630008603,2.0502294253753583,-4.5255516077989295,0.047699189515446605,3.345589248315193,0.6740785268593064,119121.02,119121.0
n001260,-13.917443833946631,-3.0933022590399704,5.928566777228418,-3.2450408624920346,3.774926458569675,-4.686586443512493,-12.044718157675625,9.395148655088704,-2.165064281083795,2.9818901741982544,7.002667235030531,-3.9916842946343793,-2.854126184340723,-0.9332497083211369,-3.7100272576776465,119121.02,119121.0
n001261,-5.003425822583008,-1.980381913555977,9.135996554195827,-6.604084815470125,6.607824203656696,3.035414457750834,2.0478858386576433,2.6868172744776166,4.2656807343901875,-6.345029997185388,0.320862831162624,-5.723105895192383,7.259234397254689,3.996827667926404,0.49674366246704527,119121.02,119121.0
n001262,-14.421916172180651,-0.27126584958442646,15.672668738494163,2.0650163084129476,6.295391565757981,3.880847548750773,-4.274337825176481,6.702314380204036,-6.113179732818708,0.4470324127177132,3.0810931268149644,-7.25745001361361,-1.5462297167635424,-1.2865227643900679,1.5026498793310146,119121.02,119121.0
n001263,-6.967264597610604,3.7318797688377203,3.396285304831496,1.4692543920971104,2.2208254652879935,6.020037641943907,-0.6961822103551665,-3.4635387981905925,4.042574500533384,3.7300669959804282,-1.8124768752593678,-5.643248218311394,3.7506835338216646,3.8994566549169862,4.046553355966259,119121.02,119121.0
n001264,-4.859842464665048,-3.891808311697416,8.076756710112903,1.3639404972570068,-4.871555360414732,5.640954527424961,-0.946293646445715,3.9298617494955064,4.279873449061945,5.6882106527028995,-2.181053181168184,-5.07504418438848,-2.0239910759617326,8.868369123636478,-5.730832421043933,119121.02,119121.0
n001265,-1.0635564315684638,-4.70803790702036,13.493965366689476,3.6059719374412946,1.0764502324319412,0.7171059110910352,-0.8793872895363228,7.193873178293401,0.18336548399234998,2.635936148921341,-3.512086815262956,-1.4064406204181825,8.145454772123225,5.874983420555996,5.015550346977299,119121.02,119121.0
n001266,-18.815559842845353,-1.5060099141151582,-4.754747178318689,-7.048890791214443,0.3964409189317085,0.960074913332726,2.857176653736548,-0.8941145061841442,6.601664465096588,3.2762783165864757,2.021101918024262,1.520070474408223,-3.0824837377245045,-6.21650343055304,3.999896625155708,119121.02,119121.0
n001267,-4.1636469627704855,0.6647046024881824,6.562578190201983,2.8289756851619687,-7.946541138924551,-2.927556832028055,1.6511116668330754,-2.5884024280643096,9.854283887253548,2.7464253842989534,-6.863758233958688,2.323972541108335,3.6382066004042874,7.296964962791359,10.38221186628895,119121.02,119121.0
n001268,-17.11610431159091,-18.823329786353078,10.028230803070903,-7.009304258277651,4.783911582613482,8.006070515895374,3.27066599204403,1.1507577439791281,-6.612293427905062,0.061865605413899405,-12.465643439277631,-0.7674299072752373,0.07597603509025919,5.370523700142341,-3.0090708858564783,119121.02,119121.0
n001269,-9.298536639017426,4.11303437035099,15.314595838353299,-0.6675381875856294,-9.974072925926446,9.657744929964808,3.9497429484317697,2.5171104407706317,-2.7922040524481546,0.9772593456435,1.6094699212924897,5.506801226152891,5.325780354974961,6.965100021325124,5.840399129883511,119121.02,119121.0
n001270,-10.285294213103965,1.4368761662901495,15.388868036596836,-7.642446030173102,5.088544798452305,-6.327207333850504,-0.23746981045075288,4.044879196756999,-6.671659943418204,8.459749970285904,-7.089827567223084,-9.763535085590792,-0.637098825055983,6.419882816927014,-2.306817164363345,119121.02,119121.0
n001271,-7.855210896143131,-0.1838751256747133,6.582749182101931,-0.27084688307773397,-7.39682913135499,-7.867444708129046,-0.1293256544910546,-2.2293184981729475,3.6105661116865284,1.6272100934950462,-4.389124882554301,-5.771798585773899,-1.6367386358764373,1.7237396304043713,2.7234117073769273,119121.02,119121.0
n001272,-4.595830729436031,0.9156021449401637,13.256582877663803,2.4806656444505046,-1.2592322595802181,6.39344810331967,7.926762170460708,2.837810119685787,3.6681505905805936,3.207014183823437,11.026437544898092,5.738598787764277,4.9723413786673465,6.411211513257674,5.488275945508426,119121.02,119121.0
n001273,-7.642579535452071,2.251979512432651,9.611072241183866,-4.288543891956422,1.1005578231998872,-4.781805518371531,9.2616259244219,-1.600843390683363,3.24742049773733,-3.909009699015133,-6.180431783660664,2.2899016402381602,6.507035599134727,-1.503685399286094,-2.3667160026333622,119121.02,119121.0
n001274,-1.2499620534240652,3.0922355605764964,10.25444039325031,-7.884744747894326,2.106481470001763,-0.8012662511431738,5.340485541540382,5.3569070821514515,-1.1957312791458052,-0.6837315801697298,-1.0268879863702314,-4.055319887094908,6.304458968230157,-1.3809321422053453,-3.942986977528329,119121.02,119121.0
n001275,-10.092579370537226,-4.056711571906246,-3.581269880345075,-5.621026539503703,-4.891180009596845,-1.512399767201709,0.11891938285981019,-0.6256842720893621,-0.5854159469164528,1.90803545573246,0.7971907494383688,0.49364072385917845,4.879556972656601,-0.062327843826656806,-0.4837458113726154,131081.0,131081.0
n001276,-11.86464706458523,1.6514179846456347,5.1265395969087075,-9.287799194634603,-4.775650627830686,-3.0792057160122326,-2.9056338292042803,2.63137056621305,-4.065330349225443,-0.5979515470696293,0.10194922295210496,0.4819541084098721,0.3405262407194097,7.127078617675023,0.39690607592466554,131081.0,131081.0
n001277,-8.996516038502119,-0.10973816090252442,-1.3334285630692888,-1.1451037703055147,0.037372465512050645,2.9777085112607447,0.7566559596582163,-0.03677802209458059,1.835194378818171,1.8549835015876848,0.5161937910964811,1.5696846471851624,0.7635144538727046,0.5919924155047287,-1.5677913158996986,131081.0,131081.0
n001278,-8.64119371957495,-9.680644797809585,0.5040381787473518,-3.3227129509094295,-5.069428636704906,-0.7644290943375656,-2.922206051926298,2.755419659036715,1.3739486007171697,0.06046799135966441,7.221221857558848,2.9014431745378557,-3.1951129223479695,2.8790076649429652,2.2076794231409513,131081.0,131081.0
n001279,-14.538145626973446,1.959582036753559,-3.8632683852665455,-2.252919755397979,1.4366548162392103,-3.6875607021861114,-0.9523197842546339,3.032108343902694,9.50633963114462,-1.6864466202107882,-3.291444798115114,6.055760629787691,1.2830850697751341,0.7350964882366859,3.4606988791867686,131081.0,131081.0
n001280,-14.183025327356395,-0.1865553299952597,1.8325900856200128,-4.229182947309616,-8.61265557977257,5.194026212151967,-2.7414346048586484,3.394854523262649,-2.480666552393246,-4.061789162782742,2.9279728618212673,-5.614017161913683,0.002432501517594554,3.9848812108644025,0.7479329807555161,131081.0,131081.0
n001281,-10.280752585324892,-1.29133444616156,0.8593447386363867,-7.211706962363733,-4.137578523882337,-2.4879545636794544,3.23517036468564,1.9392271350159107,-0.4947210939875457,0.4713077513984578,-4.860153773802181,-1.192774389474406,-1.4014352218994857,-1.5566393497076192,-4.8892186718994735,131081.0,131081.0
n001282,-12.62131557734149,1.8646340630051177,5.965571541882915,-5.408594207950785,-5.5542812553791645,-1.5915233275147105,1.2824666416004444,1.830616328711498,-1.4392969926465404,-1.6218269022365,-1.4802077941286214,-2.591905046681934,-6.568234899621401,1.3456471500203318,-1.4281607524141644,131081.0,131081.0
n001283,-5.963541413699059,-2.52388970068503,3.0387275135423044,-5.758968693589028,-3.9704635240502237,1.4544275426562827,-7.050055116688228,3.5976169739189787,4.45717883500781,-1.8634850722743312,1.806688731068453,6.793588736075401,2.3162553189183677,3.3947403948625086,2.324496279034581,131081.0,131081.0
n001284,-8.709843226223823,-2.07619222799025,-3.861361148663721,-11.06155585623256,-2.3407733240092874,3.2119036908205807,-3.823835506347125,-1.8462619717988975,-0.655208505386826,3.1345267446233516,6.244086085130089,5.264170501169033,3.238056142176039,0.3937867836535933,-2.223371055095886,131081.0,131081.0
n001285,-13.572770980347093,-7.423644698139628,-1.4406929398030763,-2.862534502727931,0.71299966525884,2.699005357151343,1.924339225322201,-0.8594684183355508,3.403175845951293,-2.192342922125059,-2.643244036943964,-4.97485954389294,1.79166124291126,-5.356255466853425,-1.07086322193619,131081.0,131081.0
n001286,-6.948169198194028,-3.6887058434914684,0.5808677626938539,-6.031316595344931,-8.213004595460768,-4.138227465338883,2.47375918588608,4.983780748320585,2.921096341500994,-0.27480906407236083,-4.290190999886852,-0.6619864091373201,-0.23390648542357284,1.9656888449407004,1.0026847414204765,131081.0,131081.0
n001287,-8.820589947124915,3.7369368771374347,2.1039067270127347,-5.217544393225262,-1.4609393084334545,1.5012984901144462,1.9916902395760274,2.4620339565165485,-6.722400658568016,-4.214491508136452,-4.685515993086059,-0.1700171029702594,0.6669642375606349,6.7933182188821934,-3.707202564719159,131081.0,131081.0
n001288,-14.597440273822354,2.113946394674208,0.9511178572340468,-3.5466398610337233,-2.857189982368182,3.69795938719664,-0.43287276539441244,4.934836674266504,-0.3750417587778261,-2.3024904837830857,7.291333924501026,1.1206687967491777,2.9853995286276267,-3.9137172856522615,1.2653753899765219,131081.0,131081.0
n001289,-6.862282005754896,-4.972212018812062,-0.08566626992024573,-11.902138059442816,0.8878272818439079,-3.094686706133631,0.43305829838552246,-2.186110002661155,-0.6582490964497709,-2.6736656096087072,-0.23801344298805818,-8.240798770940092,2.22835209305018,-2.827307192394269,-1.2877156019708105,131081.0,131081.0
n001290,-7.993683302458301,-2.0869543968432223,-1.5132288840355514,-1.1138498373587868,-1.027653527447581,3.9799648950531354,-0.9934525741740272,-7.283271972517486,-4.680919417940968,-4.431401208077915,-1.1329080250021937,2.066772388804959,1.4422966050019723,-1.359337643970699,-4.476256538107497,131081.0,131081.0
n001291,-10.582481300220692,-0.8581473627289046,-1.1019836316248388,-9.132568134563623,0.9361411538944844,-0.4023185511956219,1.2989238006156487,6.556184064775184,3.1905802362784703,1.3476792937782383,-1.9793005105928836,-3.256962606550182,-1.170986820361486,0.8827914924530943,3.077514286862117,131081.0,131081.0
n001292,-10.951443873276766,-3.210929858485204,6.655153976796009,-4.1317140921174484,-4.901135853872548,-0.19570437392974716,-3.3425567094867583,0.9787840395660645,0.663529079171103,-7.477266097671047,-6.6301937246315354,-1.371112090138145,8.595643480047087,-2.227256834319179,-0.08420149395227039,131081.0,131081.0
n001293,-9.900607808079059,-2.468169788142263,5.029949837079921,-4.095704583901272,-3.988615539194127,0.39602071771308145,2.565502933513807,1.8337252073507937,4.228918912393917,-6.776782605674123,-3.34337373659669,-4.285959865760333,-2.565185855353573,-0.4892800853531002,0.9939938588761642,131081.0,131081.0
n001294,-10.324532237802607,4.18117935638731,1.1004733883725017,-7.382246109773435,-0.587147011948085,0.22824445488095152,-3.915204657537175,1.053422392704073,-7.639998948132217,-4.658999480554653,-2.1514462274938695,-0.9878842870738727,1.5712573508658623,-0.7608443441149285,-3.6275981155625763,131081.0,131081.0
n001295,-10.572418081974321,-4.100041777517087,1.6785043069629215,-4.769180134426932,-9.039315892512931,3.300450669282588,2.8799885469146735,-1.841655381829284,-0.08286520337767317,-1.532688275113155,-3.554862200084893,-0.6862612444482352,-4.295483602271711,-2.113612227801212,0.30184338640031916,131081.0,131081.0
n001296,-6.53086595532802,-7.714601002751324,2.464555222368775,-8.26083289919209,-0.2830915831781704,0.23892415104732712,2.6755344790586175,-3.1818439826628233,3.1358260032078853,1.9307914409021845,-0.18355081330569215,1.8809617105130565,3.6496987736497117,-1.220739618237189,-1.730447697532549,131081.0,131081.0
n001297,-8.960488352907023,3.975794779945044,-3.528446384422617,-1.288417312392654,-4.253729058046288,-0.7958090707482212,-3.0655655352225084,2.9992453008719937,0.3977928195749823,-0.5178558406969962,0.5380324077821577,-4.671112002525237,-0.687933519425025,2.269143435183791,0.3468811130633319,131081.0,131081.0
n001298,-12.750095463831272,0.8506133338211473,-2.650731338273615,-4.440774666870163,-0.6812993962231904,1.466038448573063,0.7602335724692315,1.1296606987282618,2.2301096697266676,-1.3794245551566613,1.430449230909024,-1.965841795488882,0.8280891141232645,1.1352263423143807,-4.767608001889728,131081.0,131081.0
n001299,-10.406667122921625,-1.3209098508935722,-0.13273902955870842,0.2907882307743197,-2.626283282518163,0.8757121305831892,-1.7505931128588264,2.243830957283308,-1.3227395119438505,4.668366878454093,-1.7765170403862927,2.8362381017232465,0.9394953343760244,-6.7175389198235935,-0.7988447687350996,131081.0,131081.0
n001300,-16.787296792141998,5.142552311954035,4.195236559207322,-7.4094968670452515,-5.433494009714197,2.2238620464955723,2.5403932916846887,8.312592629819038,-1.913121609259531,1.068901538377948,-1.4048143553436867,4.057133502344382,0.9694455569489671,0.6336253911677612,2.0817514570581706,131081.0,131081.0
n001301,-11.356581641203503,2.660515715574923,-4.374108902210068,-9.884150480606289,3.2092486470579917,2.4608262095798548,-6.5835752920341,0.38594773465136956,1.0755552238557686,1.8075808786413965,3.758677561306674,3.4049182185884033,-0.7216339576007801,-0.034868853612212744,1.560231538627661,131081.0,131081.0
n001302,-7.768843422457885,2.582391391552016,2.16226472828585,-9.98164235244068,0.010717629690539354,5.294605926584553,-5.842239099353015,-2.026535414530243,-2.309148646073994,0.5065087730870828,-1.5368033661795784,-0.8438576240368797,-0.6518891913752508,-4.243331252759728,-0.13084086841203801,131081.0,131081.0
n001303,-12.830280765359063,-1.3762043450915138,2.046859354827144,-6.234930281584827,-6.926701703067656,-2.754205491638386,-4.45870418197071,3.412789176491467,5.562184358518708,-4.576441447601436,-2.7313908699209275,-1.3835907474171854,-4.182029180239813,5.081087455000014,2.5952189568408404,131081.0,131081.0
n001304,-15.169399617603954,7.834136031341485,3.025803663313349,-5.588479791240079,-1.222046445886651,0.8901631200089029,2.81665133056893,-1.466159702963063,-0.6179030022094298,-1.2986317354277392,0.8884482579338548,-1.56627270351455,2.74589750349684,-0.2969912382137829,2.46891712470207,131081.0,131081.0
n001305,-13.759531168596467,-3.2204926101753073,-2.3458355234765973,-10.958953805403924,-3.704838672353638,-4.217926962879828,-1.0517320246544433,3.2996774444620507,0.9899043841197516,2.909552431262366,-1.0891860019193296,1.5415247073764067,1.240048471085582,-7.105365003903683,0.35606926017651397,131081.0,131081.0
n001306,-11.947425651076493,-0.7560147669568806,-3.2228966177032268,-6.97689760142349,-6.44750196790253,1.451084350479247,0.8692326330735514,2.623843453470289,0.08231074599079308,-4.0561450868636335,0.19742544580843707,-0.10458740007601938,-5.4040402678235235,-1.9422968663728792,-1.9311173991201795,131081.0,131081.0
n001307,-11.014707337984206,-2.00276874523255,6.292801317476235,-4.335914890701007,-5.6611533488115935,1.4992769104635828,-3.443788893650863,2.1202191568829476,0.12622386348387718,4.06508580041826,2.2298756345913078,5.386357949712426,3.652355831924631,4.352885634995417,1.8304304688505217,131081.0,131081.0
n001308,-9.263596540438025,-1.4892084988638574,4.801770748980718,-8.799997298318951,-0.18363324542540882,0.16627927409631232,2.438350164291113,1.9760710909565635,1.5530496405020933,0.7376711352167831,-1.179000900195059,0.10838632722196911,1.1528328653753528,-3.944886043075336,-1.3497945353695646,131081.0,131081.0
n001309,-9.972718655079055,-1.5591841332828276,0.8311966990934503,-3.0512156802759205,-1.9717505024785873,2.4515621409095436,-1.8244469489386814,0.4045022426500582,5.645717461734195,-1.0188254993927388,2.3637367014450765,3.8029141794672157,4.548579098788157,-0.8704110188924776,0.5417999714833667,131081.0,131081.0
n001310,-7.5566555267991475,-3.8795565140401282,0.8095701878606997,-1.5949241386277597,4.496650236159545,-5.542651813786046,2.3021762230800533,-2.171935869344202,-3.7666898985060238,-1.5451362879194783,2.9672353964958202,-0.9166062128357169,1.5685363117838627,2.404214298094319,-6.462803514004613,131081.0,131081.0
n001311,-10.430701279219015,0.5995309044739486,0.5713034458109487,-3.703811695354295,-7.5125268530883424,-0.4022344209804124,-8.762830172722845,5.58449867368852,2.3010139036822372,-2.2442040936831162,-0.22116835901141615,1.201515022319423,-4.392769801375362,-0.6164653985526038,0.4059362677585078,131081.0,131081.0
n001312,-13.32636705614134,-3.446702694667706,1.6128825335923063,-8.213667384136969,-2.5466246554686833,-0.20455736833998758,2.3211734537887807,-4.1524992708250785,1.1175976801787957,-2.130450332170879,3.045688166985742,-1.2926982906251991,5.4341078500918245,-9.066271653010112,-5.802120654152423,131081.0,131081.0
n001313,-10.380520170955855,-0.6450177853178102,-1.276610477396695,-6.209726618964453,-3.8067514962251217,-3.8260235975868397,0.7379754993269736,4.602770010380991,-0.4716902284613048,-2.2616728101978154,2.0709511142409327,11.673066589417445,-0.6753894584402963,-4.815834711910581,0.37362400312383504,131081.0,131081.0
n001314,-14.44855880848743,-6.242942520097164,-3.012076470991376,-6.0645452332257515,-0.48368066136456367,-0.8548834631112816,-0.6107042198954287,-3.7034006468280176,-2.7680263234032507,-5.017629978548359,-2.102273879836258,-1.0487315933791101,0.9076590025063049,7.011681626749863,1.4553493990426154,131081.0,131081.0
n001315,-6.08066362471934,-0.4079363932574768,5.667490207563167,-8.627488481622084,-1.0293604715660354,-4.336440756936924,2.22763745369625,6.320662458419383,-0.018322386720921624,-5.627808860037427,-0.20629331025298123,3.6159604058598145,-1.681728592633959,-2.422456434491625,-2.9311836774574744,131081.0,131081.0
n001316,-6.919896512722293,-1.4870676111930892,-1.580389564506304,-9.622118462935944,-7.550828596677471,8.855859846980136,-4.6912986020759995,-1.4161353784639097,-0.8942781658301655,-5.561368961107529,-0.3444438462779975,6.423179719565813,-2.4681670456702816,-0.3857817736160516,-9.099183418307119,131081.0,131081.0
n001317,-9.264229298018364,-0.08533265608018065,-2.6566009547484972,-3.710349664058487,-2.1717480527689808,-1.6711818482611085,1.839963157555702,-1.9056642353729814,-2.0741708363371387,-2.7855664123996267,-1.5957232941898354,1.6230157945244186,4.193908078360931,-1.1198626444549875,1.3542941687379368,131081.0,131081.0
n001319,-12.319758077081117,4.127389992858331,0.07461642427770343,-7.455482225115363,1.4276346076361222,3.9801669936867725,-1.3092613072849275,-1.0822342260252475,-1.5934976645061742,3.5237229271493273,1.1835343616966847,-1.8376786834973977,1.0011402941286895,-1.3870372814432073,-0.32074376324151177,131081.0,131081.0
n001320,-10.48225773432616,-3.3704060572976493,-0.7023918529327948,-0.6574642911314612,-4.509489382937503,0.6205853018519737,0.3280371724554152,-1.198579036656882,-4.018172080784255,-1.3583602099308472,-1.09436715618945,-5.9467298886675515,-0.496007067868499,-5.386708581345468,-2.186781911321778,131081.0,131081.0
n001321,-14.140695729721159,2.4922069268102613,-5.685815608673982,-8.732867588109533,-0.1385467094878705,2.4284336822144317,-3.5141479378765332,2.592721277874813,-1.3733647013567913,-7.172462738482846,3.8121682621863022,0.348313326067039,-2.178126842821479,0.00843844056683056,-3.102886873173903,131081.0,131081.0
n001322,-7.270688400056985,4.742458378301512,2.2532585468849287,-4.777625172196946,-3.298506032575901,-2.7444549824462756,-4.1479507067314385,-0.7537553530161536,-0.07190918654816031,-1.5183221043922326,4.322139031026865,1.7218354907451365,-1.9065845630903864,-0.3304275190350912,9.610494485265836,131081.0,131081.0
n001323,-10.98783097393881,-5.126987644959633,-4.703327117755281,-3.0231357141734385,-2.28565624355501,-0.01371052164615863,-0.8427048993281625,-0.5248242194945938,3.5943627279329267,2.0356917012561953,-1.7234188234590742,-1.0276376702558832,-2.721252160245085,-0.5886181053716443,2.3910666447780615,131081.0,131081.0
n001325,-9.671386815547287,-3.586925372227375,0.2708134802700154,-5.280937623359976,0.10565030774026374,1.1786373693200847,0.3107139263773758,-1.0609575357331233,2.627545978458996,-4.295732496272952,0.72617395808128,-0.6301280227574011,4.847952159479976,-0.7098828029254196,-1.5052502011577686,131081.0,131081.0
n001326,-9.24190004536372,-2.628889386156877,-5.6232592748435275,1.1202312288202352,-1.37004509254825,0.6515269970810217,-0.9230514574290412,0.5297145281439088,4.02507173613622,2.1639322552528535,0.15746478650297074,4.342639959278737,-2.278750329580692,-1.816169764034981,0.6617015269032774,131081.0,131081.0
n001327,-10.814656560018062,3.6063736281998677,-1.038997584822415,-1.3771312875359931,-4.751157910389978,-5.2943540837548,-0.893449486961506,1.9141643623813698,-0.7650280183514153,-0.06132415161185234,1.5956767898923179,2.798082160019826,3.506363319605345,-2.00752803705242,6.058045452556493,131081.0,131081.0
n001328,-8.244104758244706,-1.0250360414994066,-0.4320395028878852,-1.7013895249489037,-6.760981488853208,-0.5787098341067256,-5.867543052270149,4.5250538077003135,0.01745156882409954,-3.8486703174095087,1.538269834258426,0.8209986452788571,0.1635760693786688,4.505830025808509,-6.084468536024509,131081.0,131081.0
n001329,-9.229479420642933,-0.2804613333448744,8.581954140595805,-1.0157922200278025,-1.4824134161258822,2.951767535560224,-1.5856241752325335,6.020416708710609,5.117106918354492,-0.6261715947211322,0.14461471839457668,-3.3984311476012694,5.306748161309778,1.8369060655416682,0.09049489406070321,131081.0,131081.0
n001330,-9.384180234377524,-3.7273454903425938,0.8063404176534901,-0.6644203435832274,0.34419349841138835,-1.1477545130032558,-6.061663740777544,4.8773515572983985,1.0322952536244978,-0.8068830497218487,-4.252565127088522,-6.9204616968732235,-1.8080804930916665,-2.280200468138567,-2.857229887445847,131081.0,131081.0
n001331,-13.210766373076664,-6.20679490304766,-2.350492410250027,-4.505922776836772,-4.251284825366688,-0.5406941602904961,-1.6382186804449714,0.054567796819301906,3.9978039446454954,-3.8437064565826775,4.190003787246625,-1.3608786559906998,-0.8731744498212214,0.0022949952375948407,-3.4941331025226168,131081.0,131081.0
n001332,-3.4442345334616764,2.9129946151156667,4.723006301428153,-5.540913323420205,-2.4863238805921526,-5.3779894010039815,-6.4460506107118105,0.7703083372805677,-2.765999215858977,-7.358250137855886,-5.120023771893992,7.865901728937289,0.46718624086273774,-7.528648814274421,-2.2721241545624284,131081.0,131081.0
n001333,-6.302796679141803,1.790849395280718,1.7464846408383634,-3.9416855780870037,-4.82863112048232,-9.047553978632559,-6.532911559298839,1.1282966800316925,-1.9901728513238768,-5.222679326825846,13.58074461591345,-4.5421804880300956,6.736394803762989,5.284662324343959,4.013593543810972,131081.0,131081.0
n001334,-8.662079605018356,0.8471232305451378,-1.9449541500826084,-3.330605617250222,-6.2094693307702205,1.7176129474964839,3.5326340862030365,6.67006361457017,-0.7425251484229705,-5.833701295112787,1.3480726317274336,-2.7261833646415963,-0.3591587516159366,-5.65180646721732,6.9814925470281155,131081.0,131081.0
n001335,-15.819872564696475,-0.7021754615741069,-3.132714882776887,-2.8296217384596316,2.516604361185273,-5.05948233390155,3.650716722227017,6.230899907709121,8.152884094489842,-0.042607510265858295,2.054546776024639,-0.9867491807491332,6.252237108793752,1.6217959221803773,-5.138139164655209,131081.0,131081.0
n001336,-3.7944747935368097,-1.5883389691725944,-3.6275758442031023,-8.652690001229153,-2.3129925987504416,-4.640710145069588,0.9660122619037617,4.200731433930817,-1.337985638650528,1.8167061030476475,4.5221281411431855,-5.175398147834065,-2.1168174620336164,-2.2669718349025048,-0.30178999476282997,131081.0,131081.0
n001337,-13.25913276704523,3.2902541133631846,1.4396175255545012,-2.040516249113286,-5.151120974625083,-0.04293942191902062,1.3020948483663475,2.3672380425550497,-0.44714716797362086,-0.12871665303264623,-6.900779998818655,-1.7770431568754357,1.0491056299973078,0.4646239553432395,-2.109986664817753,131081.0,131081.0
n001338,-7.2763442520098724,-2.962966096618833,-2.402107461856377,-0.7128843863739185,-1.4483917123468648,-1.3228789925970008,-3.8691637607823406,4.946842954474452,-0.6376284473645748,-0.8650952388739341,2.0432923424431886,3.1433566048351826,-2.8717134975969,0.5291834310813746,3.6709934472519397,131081.0,131081.0
n001339,-8.542115312787127,-1.059169962306291,-3.987868592465018,-6.577686066908323,5.29448087533024,1.1993762502932905,-2.019543492651872,-1.2602957748977075,-1.71784400564024,-2.4003165125348938,-0.6689327155272144,5.8192666046974555,-1.9398020217268201,-1.6865690885081681,-0.2093822544881801,131081.0,131081.0
n001340,-14.014679522478446,-1.8317502812373783,1.1132566251683125,-3.551033761455786,-2.9189036844173706,-0.08196079881272259,-3.483288591957958,2.4430897625360375,1.7376992750922704,-1.6892811150155258,-5.2750760643494825,3.426905518489948,2.6138200961638933,-2.398076863075663,5.411978250770354,131081.0,131081.0
n001341,-8.325817255042855,-4.199782279530789,0.9638831629982254,-13.95611870646243,-1.571635332538124,-2.87143176041066,-5.315349714319031,0.3483097824830099,-0.14811666503612053,-2.646492130080923,2.0489381199265932,-2.9557486892262537,-5.404820228585624,-1.4224797086691041,-3.1940569319189906,131081.0,131081.0
n001342,-9.499763260142505,-0.5185522724349277,-1.415792353649166,-8.250674222466955,-3.9590905901844655,4.893932492900544,1.6741764765870595,0.8627084648215533,-5.5694505924228475,-5.344467698259208,1.1522678268993518,-3.3715393469716783,-0.9675148858277115,-0.1119562848408289,-4.080739069588362,131081.0,131081.0
n001343,-4.966576012219714,-3.7968003501061642,-4.314982429681114,-6.804848022680208,-0.7556781666538066,-6.183249568665218,-3.889530798725417,4.949092424371622,2.8473972532754184,2.380595740180862,-1.466593334487307,-0.30116106900868,-2.1529177201279945,0.25414280990518057,5.329346280728188,131081.0,131081.0
n001344,-8.141179784044574,1.8378291565893652,1.0435611641925502,-1.992392295008481,-0.877476356893464,-5.963845666943554,2.5217120529693426,-5.224350910819085,-1.2874545710374212,-3.942979628758242,0.7698517308499413,-2.2094761791083837,1.1428412721096697,4.198421834880473,0.6027216624669133,131081.0,131081.0
n001345,-13.930029921043579,-5.826649586527819,-3.516388658438321,-2.949661771434038,0.3686396637402347,5.284772294093037,4.306150516756783,-2.151691359223636,-1.2807230873181426,-2.7122158155486673,0.28137813135717954,-1.2704866994703492,3.8377361860968375,-0.9139945476518865,-1.6446735985533194,131081.0,131081.0
n001346,-8.738442363534553,2.7126553848806183,-10.269592242656637,-3.38754330428206,-7.406217402030252,1.5749563050960282,-3.5851149855544016,0.6763386467903357,0.3202075204791525,-2.5830008691572974,-4.268376989759226,1.6323311584257265,-2.2363196733298247,-1.4495318076379657,2.3229134098115063,131081.0,131081.0
n001347,-9.926140008304127,-1.4001057804192656,7.007188232787488,-2.378634038485921,-1.36075662650665,1.6672632907347953,-6.761056503221235,0.4931822676509145,0.06191451109640453,-1.6752592250787652,4.50110983894796,3.750826805110288,1.1075759602402266,5.516367458435292,-1.9011182021541082,131081.01,131081.0
n001348,-7.771780775576286,0.4010938245877953,9.798183429260064,-0.8020362164182389,-0.35199091519148107,8.124662397579241,-3.193831631140561,0.8321986691980917,0.11084362854207924,-0.24006902169003452,3.0223945487705293,0.42314597085474903,-2.629930544582926,-2.0488806491449587,-7.860502917343472,131081.01,131081.0
n001349,-3.7536340670149864,-4.636189750772335,6.329026397981947,-5.112196478594372,-1.5534152834409034,1.3091827668510851,-6.789375352034684,0.6763809376648611,3.5110381185092496,1.0657293300747563,6.6485519669694675,-4.523216543539357,4.027450925608491,3.8524270150215565,2.185762535575724,131081.01,131081.0
n001350,-8.632020984557906,-2.314601816190243,2.509984498631174,-4.01631778141696,-2.2754055651541525,-0.44011982929543786,-2.257610743711803,-1.3807647097131266,0.14619667575662532,3.9837936934197344,0.08645921795555145,-4.975854864027058,4.40980765665018,6.908398336063726,5.259890820698992,131081.01,131081.0
n001351,-12.94493902563531,-2.437442489558577,8.695927329142448,2.898152826961755,-2.16339878904247,-0.673261722009677,2.546513028520265,1.350441540735138,1.9486101408177057,2.6399926698518232,4.9174311696795705,0.9754791626859828,-1.0129789618653933,-1.8908665280674948,-1.356248546521572,131081.01,131081.0
n001352,-6.136033183696348,-2.5250314274772774,9.705726282237233,-6.589277733445808,0.1260552847613341,-1.0710554721796048,1.065107295716529,0.5156504603212237,0.9861084544667685,-2.3219617588445924,0.9491806898354376,-3.050049775428489,0.9274806145403205,2.8996654603163106,0.5246244907762501,131081.01,131081.0
n001353,-12.999379064482188,-1.591404676623412,8.027670644858505,-4.002473697881287,-8.616196979839179,-0.3449973955746433,-2.1156548441804115,-0.24656644271753592,-4.080140564722697,3.454001456326586,-0.5689184929027209,-7.787049297609807,-1.0927484366102684,-1.3562314773232278,-3.6990128167871106,131081.01,131081.0
n001354,-5.225906422731542,-3.1211035697651757,4.450789994513761,-1.810060872305679,-5.532862974118316,0.016423149126049363,4.179107248940399,0.11094709264924763,-1.6884956886215683,0.6313132186911932,0.3761422152984598,-1.232997598803149,4.099696044079211,-0.434410947039675,-2.8152809971523696,131081.01,131081.0
n001355,-14.510844801880836,-4.094256469167094,8.654764195354112,-2.254312659223405,-1.5622167346535878,8.017316366729105,2.546898147356966,0.4933290379385863,-1.597620879809365,-6.973977139598629,-2.958659070242882,-1.159638121950856,-5.214792281975521,3.74133684999302,2.7960721629198697,131081.01,131081.0
n001356,-7.910572932190338,-4.723474807613675,6.016325191305073,-0.3578529645347577,-3.0075133828598366,0.33745435527830253,-1.152414609384687,3.355760074842419,-4.32729233825454,-4.322064786564541,-2.726603964163222,-6.243682605705278,-4.761306930419252,-2.143988023220293,-3.0953102888930104,131081.01,131081.0
n001357,-13.124234052038158,-7.231875657398776,2.671696797077444,-3.556091585408745,-0.36721002985067863,5.803640002214573,1.95726495662911,-1.7524402875908218,-1.234993807668411,4.812382014524501,4.242402571008394,-3.98539267026199,3.2336010470793086,-4.760435310106299,-0.5371847741927888,131081.01,131081.0
n001358,-12.904402344681564,-3.4819177047214747,3.537500128748979,-3.5660844718809814,1.5818301515054698,-3.069119406583177,5.872157183764912,6.2124169690187525,-5.606997310622419,2.3360549971871105,-1.7832392176648164,1.135420418684261,6.910082766100008,-1.5980008775986874,-4.972060538560262,131081.01,131081.0
n001359,-8.44825212531556,-1.2805004894236467,6.658729587888615,-3.7411415305406517,-1.7720280046063446,-3.7969389166275938,0.7613334502675186,-0.3801852118714203,0.35133350928888596,3.1519453469985406,-1.2976959988858827,-0.10926686287025744,0.5043295974923064,0.7982720009794853,-2.0632316724535644,131081.01,131081.0
n001360,-8.416900601286006,-8.114345991545509,5.551987471213932,-2.727225442027298,-3.3445224687244717,-2.45058673175557,-0.37544599868895495,2.0746633527567537,0.18811310792798647,-1.768876255278336,-0.537502760668932,-1.710889072512999,3.7318488981126485,-1.5631271728990068,3.6298989566595274,131081.01,131081.0
n001361,-7.225791104004664,-5.116546114091324,5.023875988067676,-1.0252376503914935,-5.370803123532562,-1.3965728608461538,-5.9507217940974835,0.2549324334189582,-4.045092244749747,1.8997621601926127,1.7560629430411554,-2.411015825364817,1.2933974967376405,0.9477619838102841,3.7461727382262007,131081.01,131081.0
n001362,-13.27445493422831,0.1808187492822233,6.068469522012128,-1.0429651285129875,-7.403871117374693,-3.0536314135659484,-0.5395300907718364,3.785776791885466,3.817405307095793,-1.4261816435042411,-4.0966547299503056,2.359532366714441,-1.1985373808629392,2.4367598633669356,-2.694049001773205,131081.01,131081.0
n001363,-16.101947157922147,-0.5917405537554887,7.8634126528607835,-6.074917962920596,4.9561569306441156,2.880038348474982,3.3981161926194985,1.2858040873059458,-0.31577592401031274,-2.5572775751249077,3.6409155059671923,3.8265138747296956,2.280865936405365,-1.9842931770365564,-4.302115898042926,131081.01,131081.0
n001364,-3.094698137597028,-5.364225984387302,6.6553147170962035,-2.561350186642834,0.8073794768555607,2.6619438466105727,1.3688086102985022,1.8442056875074342,1.4879035592124878,-3.7965594666499207,3.3744302211278017,-1.6283326079685732,1.3145832265556305,3.528937183048424,0.5850473783153756,131081.01,131081.0
n001365,-11.340404245571808,1.8154788639895392,6.526283844986607,-3.4156229656609036,-8.668069907442495,0.023756646690510252,0.033207723141074334,5.440028369165385,2.77581646687978,-1.0011552166059743,-3.347631934690908,1.157150749683444,6.817712980526943,3.6974384487591268,4.607631833331344,131081.01,131081.0
n001366,-4.723113354344499,-6.023564982735806,-2.42802936733605,-1.3156744106152234,-3.47583538653278,0.9325102444556215,-2.835975235342657,2.293682620211326,0.10079521387549764,1.3234062578405277,-0.08713931129619079,-6.576677329524381,5.941272237858305,1.7804251756971394,1.6487440025671147,131081.01,131081.0
n001367,-5.999928546136944,-1.4120045025873198,8.03584925596367,-1.412150334678772,-9.554693850580694,0.9085114128202127,-1.5272632135078112,-6.174458484748977,-1.5714427318339874,-0.914424859080349,-0.7347564628134582,0.32331901548314346,4.072486510175451,-3.7378377352815964,-3.1779649369916982,131081.01,131081.0
n001368,-9.427075538394549,-4.637757176036362,7.939016049083662,-1.1039665588818603,-1.6493220513653637,0.48027973344454195,3.852442029507414,0.08337062449359534,-0.30527120623245274,1.0017695869820704,0.9160579397121749,-1.5748516126745307,5.051986918925712,4.450350555425405,0.8085668971926352,131081.01,131081.0
n001369,-12.91073375661561,-0.9055144407277238,4.776572313908003,-1.0153947211099978,-3.622921915657776,-5.428794173312579,-1.5067492808217864,0.5708581278611085,-1.3065645067076446,-1.8700746126983283,-0.1294119694873519,-1.2289239375948873,4.978575449591178,8.488466521556735,2.842687611742269,131081.01,131081.0
n001370,-8.487859357449125,-6.2258196275525375,7.107038271120739,-0.7104122140814195,-5.431744157523923,1.7179855405564872,2.6066658845480375,2.486072066056473,-0.17922503973313558,0.7355709008427023,6.563967086450781,0.8860362553786193,1.3120181241717803,4.578674201736635,-3.165186936440092,131081.01,131081.0
n001371,-8.256795009941904,-7.425163583703871,7.2840173078104025,-5.656117845794609,1.345636743545301,0.3296688696635379,-6.625535893496414,0.07297762108345851,0.04810090042855275,-1.3137215404824922,1.524604678157704,1.1662776537431427,4.259504651061391,1.1516975370604021,3.6664064707238744,131081.01,131081.0
n001372,-3.2819065259721105,-3.945426394199539,4.222982469280488,-0.004696631647600924,-0.5430834335939232,0.8603118066126096,1.3191465816630132,-4.797549394432966,-3.5197963027295165,-1.8021069903821616,-0.6518986882348206,-1.5617261491201282,-1.9525568166538736,-0.3175957278102549,4.143584562761552,131081.01,131081.0
n001373,-12.317800389323192,-0.7361388502213821,14.034385583713696,0.31839183337719135,3.0943487954331967,-1.7376677159879776,3.5000434280345556,5.144424440461443,4.3523197839541785,0.9883449147772172,-2.2525848507875095,-4.8277933986186,-1.4956044832385962,-4.364159665331734,1.8703957226511023,131081.01,131081.0
n001374,-13.309447662220444,-2.55705720647876,4.963862443190786,-7.714830058106688,-0.46080649217154246,-0.420066780146468,-4.156748907772041,4.673748699342674,0.2745888832199208,-2.602371682160645,-0.5210602936372246,1.5020842139638777,-1.4266235981717388,3.806708586566706,-4.124060224858926,131081.01,131081.0
n001375,-10.783923947905278,-2.7995548004742794,6.315501495641925,-3.7833801392011326,-3.369033118087459,0.22004780097778098,-2.2328914267420172,3.835696562954231,-0.09399808450692893,1.902190100762985,-1.0421592888002247,-2.3339862896998715,5.481390758375324,3.2466467270150865,-1.2805855559120236,131081.01,131081.0
n001376,-14.21714257845284,-2.7896477670758344,6.644536027979807,-2.5893622085110177,-0.8970300567855249,-0.8586934139615865,0.6990683195916871,4.850184799733339,-2.3123099221309396,1.0094217948119293,1.6630810843170738,-2.372765770496185,-3.3278593719251672,0.5684803118246263,1.5523411112891528,131081.01,131081.0
n001377,-9.407277040932918,-4.736223773054532,9.701832691092669,-3.9931160282763836,1.662349664276033,4.642552257641836,1.5508904577491476,0.11241551648828718,-0.5121978301062724,-0.3784613240322674,-1.6068197994329707,-1.7306450351843892,-2.997045548812223,2.2004408845156815,-0.4866367054302995,131081.01,131081.0
n001378,-7.454483246422142,0.03677177231579076,5.452235110220858,-5.2164738665553525,-3.2694855473465543,1.3744666365216245,3.363474426727679,-0.11206961946986771,0.793854849893686,-3.5257541567560766,-4.263329582865111,-6.592001313181614,0.6131460762100327,-0.6136711111582929,3.5498720181189736,131081.01,131081.0
n001379,-5.575523263600175,-4.15780176698837,8.404005793932182,-3.36307494602624,-4.0335511542841935,1.4038628463704783,6.553585058073357,4.469486347240485,-2.870307003378638,-4.794971380339097,4.169138823459738,-6.383899386463754,2.6661830868806327,1.37159694620075,5.173809236059235,131081.01,131081.0
n001380,-7.012595591315443,-5.22189924188541,5.625275589301224,-1.1209214930915066,2.0119974870536534,-5.796795514316638,-2.6489991649015616,-1.0067936454757995,-4.894623130413702,-3.7287826909000534,-1.2117684090420202,-2.4630407079558783,3.7053440377157205,-2.476527547340849,4.015825623388808,131081.01,131081.0
n001381,-11.523106650122205,-0.8080910515263229,5.30926983023427,-10.873575610939959,-0.09473080213230634,-6.744294963293247,1.0165787077685464,1.3528828044453434,3.5968128115339892,7.427593541205504,-1.153521491938981,2.7298459405324413,0.023873116013099605,-1.9784279856212292,-6.2869903173908614,131081.01,131081.0
n001382,-7.8550449767197374,-0.4448208728804741,6.581584225852459,-8.574603458055616,-2.885312226705869,-0.6051819426447709,0.46283475865358864,1.3295979438509773,1.5514380792464115,-4.295224126900295,2.0983313252031692,-1.0273966222526616,8.639266869803796,4.013628897259489,-7.649171523183311,131081.01,131081.0
n001383,-8.470996935857784,-2.5980032121239436,4.476722423194344,-3.1344862412022865,-1.4166166219152505,-0.7367471321491348,0.5443312038294149,1.9718894004876868,-1.223512253763603,0.40268588399199334,4.372890741249598,0.25528745206929593,2.088104480716008,-5.955954221571937,3.3013320824321277,131081.01,131081.0
n001384,-9.476872101901712,-7.707088551902881,4.728319841770172,-6.681518379695564,-5.604301363884729,-0.08506320314969268,-0.8873365763165949,-3.4142624936879917,-0.040708905626333,2.7862323719938704,3.813626584517676,-2.6779669909981725,2.414181788662585,2.9322890223554157,-4.9656465151367,131081.01,131081.0
n001385,-9.710427512032549,-1.2780815753210661,5.5104351396154305,-1.461805884917331,-4.035936399143665,0.12571386494767545,-5.477540638083204,0.5832390189576158,3.615302461102588,-0.0310944739530028,-3.3170810460435995,-3.298428710290009,5.884465183449216,-2.5291548174182514,-2.9784302619872527,131081.01,131081.0
