,0,1,2,3,4,5,6,7,8,9,10,11,12,13,14,O*NET-SOC Code,round O*NET-SOC Code
n000001,-11.210212407497552,1.2209773386454814,7.173388995548917,-1.4723456927090361,-2.3824084756827135,-0.095540962040074,9.096127773213144,-1.784199110410179,4.944735227351931,-3.5818203730115368,6.493405997274085,-0.967255133524854,-3.923848949429847,1.685428117603117,-4.679813352005274,113031.01,113031.0
n000002,-11.756994313020838,1.2323625040297777,7.814953918766447,-0.015335790320345044,-6.242310561897689,2.1690303104117525,1.866947770255908,3.7178853705463197,2.6640334263412333,-1.5648956963972243,0.5056631344387621,8.850955055011587,7.391434502361171,-1.997410880845874,-5.359558629751317,113031.01,113031.0
n000003,-13.58774848402916,-0.09002500388008916,4.5499916597672945,-3.785704971136152,-1.9690803530574827,-4.038247236695752,4.007678446399197,4.610437271067453,9.202783364738188,1.3402653793149675,2.8812226583552514,8.91516175374112,-3.8019776517791755,1.7642035584137896,3.0465659167114154,113031.01,113031.0
n000004,-14.847323331618727,1.8859695256448252,3.3060066567122224,-1.7223582861652766,-3.5513540271809285,-1.257022339181832,2.9947531817644455,1.501301859446013,-2.889153622446975,-5.779436651047003,-1.0071770318531148,-3.3879588606414845,1.5558014374184939,-2.828166411440318,-7.319376000155285,113031.01,113031.0
n000005,-11.93134189131862,4.729056211462041,7.435124790945455,-0.447340686429202,-4.308328244074083,-1.6134592590838335,-0.7432968060372169,0.9931266747676196,4.7260732502218055,3.011942496361501,4.3074617425532225,7.548538327668087,2.438715665748167,-1.9256214933939895,0.252051258859878,113031.01,113031.0
n000006,-10.209568344295976,5.4374612265017355,7.39759108607056,-2.662637189713269,-2.6011620540095213,0.17436855941791762,2.81280845578501,5.494035821701741,3.1453468700981677,0.17711310409961145,1.1849163042270334,1.520640469381704,3.0942224392019164,-3.2507248779262974,1.3932254251727303,113031.03,113031.0
n000007,-10.709782693286629,-0.4993051337352714,9.001320245193316,2.841181585765565,-4.766888199154941,2.290766864694702,6.417770791709573,2.5692900402277794,3.0422344737406015,-0.608960036392642,-0.9505940791296945,8.053205514237334,-2.1140765937074226,-5.727753451623363,-2.0825307440738228,113031.03,113031.0
n000008,-14.129438688024983,7.492361851250875,4.1304897571228185,1.1141903919365976,5.808762311979703,-1.7024157916731824,-1.643947708448423,3.3900528377313712,1.4036995135621064,3.891742676222328,1.7649262712794498,-0.5607331306865166,0.2364061751862936,-1.6749845235639236,-3.5176312887323333,113031.03,113031.0
n000009,-14.144048519157714,-3.1339105638255984,1.7611492260714754,0.06853457641098337,-3.7666033251362254,1.372940557565264,-2.786863935846115,-3.1910537884928383,-2.1558828247150488,-9.553653730861784,-1.0588033528015504,6.801630658000793,2.705697496332187,-1.1349356930439043,-1.9530993802665821,113031.03,113031.0
n000010,-13.47853158472437,0.9641753028906221,11.049687863232318,2.358873963741676,-4.202432345460605,1.255348220447762,-3.900754755673834,0.0457614680242131,2.623195364277636,-1.7188128447567983,-0.6927232981719382,2.5324390909076007,-3.1774360590508017,-4.539061228480003,-1.4368913970505657,113031.03,113031.0
n000011,-3.0268542523572943,2.458721039996979,7.521127557392182,7.951690631295778,-3.564172433449545,5.6659815263670845,-5.666711551952579,3.038445313732867,3.980220931748114,3.128279324620818,-8.419540287785313,5.987008838584824,-3.582500377856298,5.370503511933409,-1.8698522764956254,131199.04,131199.0
n000012,-6.548579465210123,-5.0157386880183275,-4.235964807179508,-2.6109761250820434,1.4142708191394542,-3.4814376280750174,2.8835012164299583,-6.395748846158558,3.4140440919559993,6.9138499524785235,-4.170716941766942,-8.088694971889666,-2.1205786835783726,-2.477093537418663,-2.4894795601982858,131199.04,131199.0
n000013,-10.518336938075537,-1.3935126773345716,2.2106562962601557,2.0244133281642895,-5.361736826734677,-3.65477732864601,-3.2579656688945073,-2.85909081159876,-1.002337246201471,-2.283116677743517,-8.39605729255641,-5.5562964172522555,-8.138152511138165,-3.1015075299091373,-8.278954925523703,131199.04,131199.0
n000014,-4.242101378903977,-7.446292384509283,-2.409335909126648,-12.117764029159995,-16.697557847728163,-0.21046768220020895,-4.3145772028565235,2.0272380961823497,-6.467919066108081,2.103579468558051,-2.5877029265944573,-8.071740472059831,5.948972683075082,0.267584969177061,-1.3786528375787546,131199.04,131199.0
n000015,-7.735311190093759,1.0188274125396117,4.130336951415545,-3.463593191409329,3.737690374581958,-1.7569865163457279,4.029382181082062,3.661722992095245,3.491593343817346,0.7077182713237936,6.892117138980883,-0.19212356061726987,-1.5114609843362083,4.058225836853655,-1.9289291242113975,131199.04,131199.0
n000016,-5.470924802893306,3.397220297898731,5.987771577501443,-8.421374427277609,-1.7692118714283676,2.170407367270159,4.448438145744081,-8.0028785777935,0.34764641892064985,1.6601597815690166,-5.95293747190681,2.18600593392271,-4.2609877976502855,-2.8874499504617632,-4.539555924822865,131199.05,131199.0
n000017,-14.149048656169803,10.656911613963777,5.618716245479659,-5.523141533855751,2.5094682902527454,2.250936813260256,2.5626255162771043,-1.0809647772137008,-2.7447506568933555,4.496365986809344,0.3143377109457512,0.974440831288248,-0.13410350176467994,5.011997314718433,7.227018068158882,131199.05,131199.0
n000018,-7.209779956288102,-4.540658590891002,2.3199170469335915,2.0579674022206325,2.318312434968778,0.2500993439820747,2.490164310489823,-3.438787023702746,2.1498496078054474,2.6403062511574067,-1.4797787393499549,0.761515331272298,1.3086484562997514,8.174147393646196,0.8814424487652601,131199.05,131199.0
n000019,-0.060693113860287085,-7.737900553999813,1.6658947146038527,4.615356773649697,1.9206702669761808,-6.784155132260856,2.9940464168325187,-4.916402921341091,-2.797411767106483,-1.7025466370861997,0.14839372584978966,-8.309377152105645,-1.6676756194040476,-2.847415990306301,-6.256226205461493,131199.05,131199.0
n000020,-22.086599817451273,11.72617677030626,4.744544346737914,-6.572054114842543,-4.865256433477637,2.000248488070795,5.700766063101362,-2.2191041319278932,-0.35276809936444675,1.846267806894985,1.6539400808443254,-0.5065094146722974,2.8950324358777797,1.1613643797542874,1.2634269749304667,131199.05,131199.0
n000021,-9.95498542054287,3.7004934874770634,7.645143370990369,-1.0577932912254786,-6.963880881709329,2.1274390741011895,2.580988826545196,8.75423690052562,2.2312438802698606,2.560999762446777,2.951308858928646,-4.71001281459074,-3.2271784034881907,-14.27735906901056,0.2199972991242971,131199.06,131199.0
n000022,-5.0047059790369905,7.082594974145686,0.25912639647373314,-8.938991664882943,-2.74079870998476,-2.8279867662934435,2.6290031534576817,-0.4649367242895614,-5.139179928615764,6.124500506779634,-6.481407942288687,1.6775750061512267,-7.641702707494576,-1.7889818052278517,-4.946133849936112,131199.06,131199.0
n000023,-3.9387358785881186,13.359884484025395,0.15222171790894334,-12.442093087087837,7.751867273462552,0.361845147691068,5.3718397009082945,2.659020544634499,-1.6660774055781202,3.3884372987293037,1.074982557202441,0.012334599221946463,-4.197689222606496,-2.200124455489041,-4.291271049231636,131199.06,131199.0
n000024,-6.405504467049068,10.316525003989256,7.786069929136067,1.5900979653591145,-12.738882127459247,3.645435572451835,3.878585382557277,3.5423405577528952,-5.380323947730154,-2.044311655932772,-6.952338316599828,-7.591103374106202,-0.22718518896462725,-2.5629547985122607,-2.025731715971293,131199.06,131199.0
n000025,0.3892241802910572,8.083156548480117,8.529917814608734,-2.559995734055789,-5.077218288570697,0.6211371646341557,4.157804273933058,1.9447579186033812,-0.12923580732966977,1.3635261913047678,-6.686228267360042,1.3446400122271527,-0.7645654095326473,1.5462788322114873,-3.4161223287749696,131199.06,131199.0
n000026,-9.644666851722423,-0.5127264448387248,8.810578616458821,0.6471077796692439,0.6768110334348685,-1.2187718301675263,0.24648635733906366,-8.10553059783428,-0.33770716553610214,3.1333470881305794,0.4675377909160191,-5.649021253310931,-1.4982970069916774,-3.007755861180637,6.1439891167732545,172051.0,172051.0
n000027,4.738450835741719,-5.133717010465015,11.901503955973148,-9.535393770368056,0.6240067885727996,-2.2512766196996754,3.2152802375975784,5.533970978619109,-3.482460313727772,0.7502645957147183,0.13731830039567258,-2.4835641267612294,10.061138039004923,5.155959592014804,-0.11795382404060795,172051.0,172051.0
n000028,-12.702942905286905,-5.421255011652148,4.301739109746929,-2.1063701625082225,-6.952601061498791,-5.645344249329232,-3.49188229753189,0.07560298636318796,-0.15271379221866943,2.3491460123309285,2.471317203455907,-0.9250060067527961,-0.4912714868926731,6.1587102365503785,-4.107740410608491,172051.0,172051.0
n000029,-14.255004173255886,-0.6826078483468363,4.534722469088328,-11.036519921954845,-2.5246080445985677,-0.7929142864021621,11.36426389917603,-0.9407552221435429,9.71719928024612,-0.4008013476602408,-4.592188638564174,-0.7991632250869973,-5.489704001299933,-1.459847958398512,4.714015331623254,172051.0,172051.0
n000030,-10.026235572508313,-2.206432328425634,8.977712411426225,0.033348398039738214,-1.9733688462647967,0.8911931145974137,9.029079942430334,6.986697175741615,0.17411700155566612,-2.451574217810853,0.6569864161556235,0.7547165181876634,-0.2650764304551303,1.6031507076514337,0.9079816340325872,172051.0,172051.0
n000031,-6.0338014751473406,-5.784831252589344,0.2779675908784114,1.0654443044567081,-4.276358739703244,-3.1237131111085903,-2.827611320660272,6.380397175128205,3.718155695986488,-1.5637657881369385,5.921879495278501,-7.230088132853466,2.2223060604021074,8.079383946520514,-1.082111499781384,172051.01,172051.0
n000032,-5.7445174012774425,-4.372729322707987,5.155087939811508,-8.416203261934823,-1.8805948237406018,8.224683067025678,-1.3362551865360162,6.211910610937157,1.2094837836952217,-1.465702709833391,-0.027674285207207383,5.997683015741569,2.6467034715203512,1.6158029546034247,1.365030180291558,172051.01,172051.0
n000033,-6.743060915084017,-2.9506391843770174,7.42375307108528,-4.26256392831867,-2.1174819798598223,-2.3299001367155605,3.684035572838145,-2.8621354358775966,-10.191801265189534,6.251837726783716,-5.6229005763954625,-2.15322742019302,6.5383746027939225,-3.7037356503153034,-2.1054762685835744,172051.01,172051.0
n000034,-7.79911798052762,-2.916753897328577,12.229730809750283,-0.5347433296019641,-3.6916810867957475,-4.1493767421026,-4.607342562670491,-1.8948518608034044,-2.7208132373624214,-0.03265493813377851,4.3638243549198945,-3.4519416032654444,-0.17237843390580432,2.7929558248416653,-8.48772071058419,172051.01,172051.0
n000035,-8.123421709664552,-8.62429482915524,13.352705862418635,2.2807346043844188,4.757171842502136,-9.081927408877835,4.134575047059471,3.514818939508549,-7.438269719270613,1.9134336563125465,-2.858693291099277,3.9900683743587386,-4.568765748320678,2.734834879216249,7.635063809872694,172051.01,172051.0
n000036,-9.788139758416406,-0.8174738210433778,12.15757816961526,-4.255911047096273,-2.9430940986859206,7.546427723460795,8.039194330816207,-7.414824738930951,-0.735473994547073,3.640956781154328,5.45375644646269,-4.932101849052627,-3.1526821491783013,2.0035691093277532,7.806209002845643,172051.02,172051.0
n000037,1.0025175008062188,-10.563939844406036,1.129393315014421,-5.185513404610265,1.2978715504072103,-3.7971449221253053,2.4612353049103617,3.907215525886729,-3.0059557962079557,-1.348476291919218,-0.03922591227311267,-1.423654048111115,3.2722632712040043,5.059980288243249,-0.3717835070934198,172051.02,172051.0
n000038,-4.406720380382724,-4.47434276103535,4.725388979361205,0.9816061814546226,0.9403139538923551,-3.545758562150505,-0.5261883192692913,6.279337863224448,-4.468598161816445,2.0509058952011334,0.9567157547645609,-8.657494495743187,-3.6765383672572938,-0.34161541106949045,-1.8769121830271507,172051.02,172051.0
n000039,-10.180700858837916,-1.9634465089112298,7.031226005951074,-3.385501956228248,-0.8727632529202114,5.0915627913925166,2.775681256349989,-4.552369408630108,-1.8481735027504236,4.990228734007509,0.015674493316977678,1.7657566899086001,2.9544973419693417,5.672047205418243,7.664816729903982,172051.02,172051.0
n000040,-10.598322156949209,-12.650254313398145,5.372569371984417,-5.761916593956978,-0.2848010056333272,4.106433480418184,-0.07363586270217559,0.12606903081970477,-6.339110745253816,-4.89743597264891,4.547242077381538,-0.8310172904816948,2.2833336636673423,1.1799927563675334,-3.6246859735728245,172051.02,172051.0
n000041,-2.9545229307201266,2.6233504975444184,10.883346598913695,-6.360271250157972,-1.6505715004321087,0.5731072071804939,5.73878403375898,2.3488763703240094,-3.2356642029225364,-12.031919043702517,12.076943829151611,-16.33662120682806,-2.523849363036847,3.8718846253467674,1.22219039555521,172141.0,172141.0
n000042,-6.354857396010595,-0.5139141455857059,13.10380938565402,-6.637782337240064,0.3223095726391674,-7.075229067022234,0.779541206345548,-3.6048074503009646,-12.60430618497149,0.5103168423633426,6.2200604375209,-6.766931186600143,-0.7781705334410638,0.8802731131478316,3.467435826262564,172141.0,172141.0
n000043,-5.77227853628856,-5.459275068081747,3.0113111000002037,6.123476541772959,-1.6872148961230302,3.511895330505758,-0.5152095870513922,-1.5926662621754497,3.303380207538696,0.7814279045686852,0.48783703576590187,1.2718495578904445,-2.2830359893901226,2.715072279372573,-2.999007143911804,172141.0,172141.0
n000044,-7.647490515121293,2.133630441541192,12.878155630760896,-8.76233757022281,3.134410207345491,6.2716119176127645,11.298824917369968,10.154655984191626,-2.473953629770506,2.9428396566365222,9.421558838913898,1.5754007179313043,8.14023755920601,-4.877987980570705,-1.7810779677781636,172141.0,172141.0
n000045,-8.894639029802324,-1.7899545915386041,13.210697431238819,5.936905583059462,2.753041706813418,-8.640331473117406,-7.558100954066393,-1.6808502322669119,-2.1357900038541455,0.49706527126166167,-1.2090196188077398,-0.37629843674569763,0.4694467626691793,0.8739918801843358,-2.97729924824402,172141.0,172141.0
n000046,8.183373284700979,-10.269811134313844,11.504038553166495,-0.899298336809114,3.9566712021643164,0.6751585691306002,1.1861704122000023,-7.614668317416331,-8.58236442389892,-4.403776927459722,-4.765623671626949,-1.8621752886879095,-3.1322170519339347,1.0941158569142333,0.7613779354027612,172141.01,172141.0
n000047,-2.1764508179575848,-3.2829277655032136,12.040555300138177,-7.728702412318133,-1.545778044298319,0.2986837766464739,-4.879373437903346,4.32853708676523,1.3341364854746343,-7.248259051757048,4.869266492894399,-0.6762094285928886,6.252943095484887,-3.5380132426642823,0.2707846792327351,172141.01,172141.0
n000048,-9.07315335772801,-11.645495842941955,6.018293725763989,-2.6258754665901334,7.86872912702488,5.017786698817494,1.7119610421464635,7.015912673932423,0.8868018001235762,0.7029673963636183,1.6780169452890101,4.747220363593899,-4.332507823461182,-1.3005199241216459,0.8539135505032236,172141.01,172141.0
n000049,-6.8681931601579915,-9.204843236168635,7.139600068450413,-3.4340221327334524,-0.3148291627960713,2.570365162774011,-0.2763911546287098,4.686006962515708,7.808490519304557,2.333371620566044,7.09375298236295,-0.8226948657180113,-0.16153641942491914,-0.056309793237468986,-2.0346054710368255,172141.01,172141.0
n000050,-9.330319141723203,-14.044202100141224,12.631390828058773,-9.718909338582943,5.501837687100368,2.135703752852387,2.660660116987971,2.7433749223401227,-2.4559206034457706,-6.551615874909238,4.907044915657902,5.383484174912387,-13.234549798453417,5.8194521154015195,2.977839860909355,172141.01,172141.0
n000051,1.918458419976817,-4.518529480844212,6.504946674367565,-5.608762185276433,-0.24957128981936105,-8.869421704005703,-1.6078217449148093,2.991749736106875,-10.944680415167424,-4.377762896814883,0.3187019284507716,-0.39988037095757356,-1.6200135385177366,4.187122210659203,-1.7367683089481827,172141.02,172141.0
n000052,-0.6816744526438887,-6.975241319903576,6.050743495102109,-4.609344181141286,3.292756330070713,1.0029826222178695,-4.092396679296921,8.465971756858282,-3.0997128626527974,-4.355258263029053,2.7359147782610167,7.108925879138296,5.417216155346982,-2.7418492977348428,-3.115361191497167,172141.02,172141.0
n000053,-7.001505971689528,-11.702334082674202,16.2978717189682,-1.51010821374084,-6.099831404280747,-0.2521148925596719,-4.484856170495929,-4.420011621002409,5.677391921087728,-3.4811446784948306,1.3389728826236846,-8.149995866976123,-5.5622076875541175,6.69899995074436,-1.9836679085523516,172141.02,172141.0
n000054,-7.888994808007733,-20.731862915142685,3.228772915481971,-4.9030711550517765,0.4989890471950748,-10.749883072375967,1.5718516045032098,4.73256950867701,-4.6293079287706735,-1.8479358629486466,-1.146240934710223,4.1654346506064535,4.180518356419614,4.97659668277147,4.885045525031297,172141.02,172141.0
n000055,-9.344421522841966,-14.006188556619232,-0.23112725091129782,1.3192196912757104,-5.006520972653939,5.62010177852492,-6.998354369676851,-3.733017855594525,1.9002970941574386,4.954248709463925,-5.2684021404501875,6.852604300732873,-8.696995883504991,3.6437811009704255,-0.8017363705947249,172141.02,172141.0
n000056,-1.5564346278243866,-4.664982247814657,-4.308261387298325,4.615447867069976,0.49030999916721874,-3.762022930437518,1.678101887906737,-1.8636141530094066,0.7986457160216166,-2.4383776147351313,-3.153549765040022,-1.0770626227944688,-1.3262101389273662,-3.803282632084878,2.1243071707621466,292099.01,292099.0
n000057,-1.8007940968428553,-3.9610852853355647,-1.6056659080279383,4.364625466281381,-3.052054096388376,-5.77779908328501,-1.0617392774887302,-1.494581436357433,1.3506997313999323,-1.8686167139699676,2.8133950036486826,0.11095005136785363,1.215267553495705,-2.146609341962659,1.6065156292924212,292099.01,292099.0
n000058,-0.42536616877307454,-1.872367133502887,-3.1754374022003393,4.852136742289968,4.234951764749063,-3.6722015385711155,-0.2597578959262383,-1.063273229779445,-0.45710552841574764,-0.7749300593805004,-3.934160473765036,1.3053311978999684,0.24001641241910887,-0.25483498626634715,1.8015268596820266,292099.01,292099.0
n000059,-1.4125944703992728,-1.1476985191040905,-6.144428752913608,2.3578085740829557,1.4014951745925348,-5.449971872175239,5.103421811362289,1.5944278179253142,0.2639466571079062,2.6036950362162017,-0.22513863665856598,-2.2985156104794573,1.130020470273388,-2.62543660722382,-0.38786783877031916,292099.01,292099.0
n000060,-3.7291305924044775,-2.000660621541095,-3.396046066173658,2.288109377697179,-4.344020656162284,-6.702478476064826,3.807366791949529,-0.4121418446078853,1.076599049663777,-1.1551962456473146,0.6419669677423188,0.5985362336773075,-2.1116844040807257,0.12470558135259335,2.6810727449748373,292099.01,292099.0
n000061,0.31383798156645015,0.8917676459953117,-3.7376176537066192,5.924838144973496,-2.5698144066883315,-4.6296939302689415,-0.23202735907344896,0.458995626203477,0.2726602569413681,0.4123188748646695,1.1405141010393585,-1.8981180015401984,-0.3039480989936284,-2.725612099993888,1.7894981308565245,292099.05,292099.0
n000062,-0.5799534139066742,2.6911189345513233,-3.156518603462205,5.359247883682491,-3.596251009070053,-1.5937680655450237,2.316944650884129,-0.5763127790006373,1.41569832096181,3.2885461755069834,0.7716376282280261,-5.729633993849155,1.3426478548278087,-2.5844984038566174,-0.683190304231704,292099.05,292099.0
n000063,0.7741426146504171,2.017607425986271,-2.0447257320792778,1.8210503797602735,-1.778869265443883,-1.6587313267435193,0.4256594364473254,2.466181363052657,-0.963326274960112,1.2491946279982309,1.825288803436008,-5.2843781852382214,-2.2625116684301636,-2.506772985384953,2.6851172173965283,292099.05,292099.0
n000064,0.6638282625291174,1.0249573098531963,-0.6281128294128999,5.97268754286069,-1.7733727930594738,-4.960798890079504,-0.0012249901711696154,3.871077590190777,1.5917302793582908,-1.1258690806065834,-0.6734137667401645,-0.9729822931766317,-3.0006092472556354,1.4153579655062731,3.4769895444975663,292099.05,292099.0
n000065,-0.4979252458643235,3.8028163273456546,-2.303295504097827,3.4817181023343675,-1.170661816566134,-1.6394581766681087,1.4147133797796676,3.9173015611270188,-1.2208874110436572,1.8133865439202967,-1.3990949481838915,-0.8338110408672503,2.62965737271307,-2.5749179003126743,2.713101236208989,292099.05,292099.0
n000066,-6.826422553144443,7.333383263534718,-4.743660617452536,3.657797593020284,-1.041643706414495,-5.297909080496759,0.11433981391053416,-0.5073732784881552,1.8374148826714083,2.6783234022291467,-2.2537707114016197,1.9885547439622429,3.524734061968781,-0.13967695950455022,1.079058996374789,292099.08,292099.0
n000067,-7.425094869433918,0.7497639507650673,-5.949325679582702,0.0006879497638010434,-1.4988004671960489,-1.9059348707037798,-0.07186055683314707,1.5841958914448757,-0.06261789949500207,3.521490728383358,0.2112156748913574,-1.6360353870730335,2.5912903108704057,0.43728063950292495,0.9019026193058522,292099.08,292099.0
n000068,-6.800096146270702,0.727383758271162,-6.289998367862068,1.2150870329778103,0.12205061599342804,-4.428173063273001,-1.6629138674391022,-0.2846555259913968,-1.843399519499851,0.7154951022591045,-2.7893747378534375,0.44386466917326695,1.0124554612680403,1.3528709669523946,-0.7278439872454127,292099.08,292099.0
n000069,-12.082220477750786,5.273923201133677,-5.928975787567354,4.206886151193139,-1.9926885506094516,-2.772831165085502,0.09986517694469466,-0.06315734702710085,2.269976664415049,-5.639938000180521,0.8199187926138791,0.17205642343524682,0.690100417958433,-0.5835578999705641,-1.3575379660544604,292099.08,292099.0
n000070,-9.19666785436127,0.804491318802909,-5.481131363046599,2.4249321555903,-4.4330558259193005,-4.447068466177928,1.5631214652215428,-0.2786362486083881,1.4592599578426042,1.9297550307036273,1.8438360956293667,-0.7710944947450299,0.16745450089200342,-1.275228890725553,-2.19783633606432,292099.08,292099.0
n000071,-12.688270859151434,1.5130594018417785,10.967209826461835,0.34385558922534465,0.43319787957861666,1.080244925479259,-4.392071788222499,-0.8087058613015448,0.7138884672097077,-1.014191164032777,4.105792697503832,4.955058487552644,-0.3889676004547587,2.44436881028912,-1.1306996647974845,113031.03,113031.0
n000072,-3.5097836420960995,2.5520023364530133,7.8908750864259005,8.417905773463417,-5.963662694961852,0.1322233291102295,5.304536849381514,3.7963240932083733,1.3933293989179176,5.532221578863332,2.8200786796491246,5.039708624736339,-4.587602948938954,-0.6198506213140056,-7.51020648585115,113031.03,113031.0
n000073,-8.009199977591368,1.0598496280129837,10.944669834593551,9.085187316102942,-3.7775508020583755,3.8375637229593513,0.2348296036897387,0.3616652118349932,0.8025475732553841,2.3042782114817237,6.829728365748432,4.592328369063831,-2.1884542177890483,-3.7548414731097832,-1.7212916356887957,113031.03,113031.0
n000074,-11.899726586030113,2.4429730262826257,4.3594504342244775,7.342583361464005,-3.5625892043246115,4.787727031859186,2.615728766541269,2.277812426287335,-4.607141766103392,0.47930708977256486,7.078767362886845,6.547213689490893,-0.9892466500094342,-2.0903884571789866,-2.391405639933188,113031.03,113031.0
n000075,-5.669328445283085,0.9835069590340444,13.482591768133869,-9.15262371065507,-4.285069753808919,0.8866714389037447,2.9480972665642873,-2.4051355764159696,-2.0147675322775216,-0.04643712134611344,4.780305534337783,1.4933710283901274,0.69866819562635,-4.41256143758343,-3.055476451705271,113031.03,113031.0
n000076,-8.768475940218407,-5.047990340664057,1.2011928250309842,0.25353121501809817,-4.726924011430475,5.673361116757557,-1.9049744369507204,1.884118030257939,4.493429884409283,-3.8368176381471626,0.42630137648728583,1.8856668219681585,-8.74895911396229,-5.028093321068312,-10.481250664438797,131199.04,131199.0
n000077,-9.305236784722721,-0.42534665866434895,0.6465479177368929,5.884292346264386,-6.61956798981793,-1.3277869965209925,-1.0022628246018914,-2.3153637651931214,4.58792002280107,2.8028901377754027,-0.17733589359015303,2.8873416732181694,-4.152775896080815,-6.991234545035457,-4.675598398083596,131199.04,131199.0
n000078,-8.372229204763064,-9.17649804730856,-3.5778507428372297,3.50565690968269,-5.7681588609197005,-3.872252084169424,1.5573405869148567,1.4501164971016034,0.22783290102931142,-2.1310655462071586,-2.7908349319902044,-4.808041081220326,3.3143034931033135,-10.255801382728995,-3.9722998830871434,131199.04,131199.0
n000079,-2.9720888933141643,0.3639271562101687,1.4437948620257266,-2.7980608443759616,-7.099512087212409,-8.224240319425192,-5.318741663382903,7.059826460055249,-3.3783207741012045,-2.41992262792463,4.877546535865505,-0.9813563954532879,3.1560620234076975,4.00255295829278,1.610874596437955,131199.04,131199.0
n000080,-7.362955243703533,3.3903873389665673,-1.281048981152264,-6.0887758263942064,-5.581789013743276,-0.08291725665677085,-1.432789486717039,-8.275576909273619,-3.4711673376054395,0.6296357276898407,0.6967014052093892,-1.0390369561296928,0.496126230096572,-8.658044555821999,-1.1042960793813161,131199.04,131199.0
n000081,-9.108397080072772,1.400935759975527,0.24316472811087197,-2.627243772356258,6.13100517254364,-7.218340051305122,4.6431662743578626,-1.8404440084915803,-0.43797494243307156,2.266106106614904,-2.862581109686786,-4.093543774137567,2.5032673703146853,-1.4960330755644087,-3.8611593754399287,131199.05,131199.0
n000082,-4.272486066422536,-2.417234557498448,-5.140196211825902,-6.447241090170255,1.224081903327167,5.662678363400666,-2.895730485333713,-1.3685293037142299,15.210269035166991,-0.5263677874630743,3.69738194024952,1.3102245400081163,5.859433383668771,-3.343151686322942,-6.74893007573422,131199.05,131199.0
n000083,-3.7738883455503265,3.57938083881867,5.796569317458985,-7.244762789445701,-10.426570427100248,4.602051883857022,-7.454872085864188,-3.7520666053090066,-9.60356190171152,-9.422289136851228,5.837741070569001,-7.033154665011269,-10.729861727980953,8.050739472744143,4.402614245596359,131199.05,131199.0
n000084,-11.646426395123685,1.3333209214851054,0.8878132734297925,-5.52551183324113,-6.633686703585397,-2.4672138819033584,0.05058591268791557,0.741694511056193,-2.2182949529686797,-8.936630942693709,0.09924714197145229,-6.446976186552584,-0.2170717091487987,-1.9147310234014547,-5.350759747660835,131199.05,131199.0
n000085,-7.17378477603453,-2.2971644020091713,6.531987978905551,-6.855342296290004,-3.264757094669136,5.007944230249514,-0.45154309231665857,-7.691781483618203,-8.386307878059538,-3.4889197684524333,5.489975063366304,-2.3281078257581873,-0.708464739708925,-4.878657545306565,-4.783789112784168,131199.05,131199.0
n000086,2.950197533374053,9.504289398507211,7.883174209695354,-2.3191458691574014,0.6184630090798052,0.7096058957771416,0.3887434697467751,1.6434389323086407,-5.143079368707037,11.07792165905327,-11.279899908397113,1.3349360488836464,-1.2619118602529364,1.5215428518382126,-7.602062594496781,131199.06,131199.0
n000087,-15.123458841981893,9.682906038733295,1.5013694438039593,-0.7429064562499823,0.7766518826432577,-4.0617253741759685,-9.491114653849447,-6.89097555559773,-0.17446431326091405,2.2278687886330677,4.2478641640008465,-0.5016634967677711,8.387473551585746,0.8797279185532281,-0.5013216464646897,131199.06,131199.0
n000088,-3.94647046195213,8.921082566885293,5.046127217388139,1.9550316561999939,-6.478626800748155,-2.1089156708525465,-2.023585976395109,-3.3812613974369414,-0.36975455529868984,5.090574862869389,-5.067757459276236,-1.1860629246226702,-12.793731147751124,0.7367068322258987,-1.2231116660047752,131199.06,131199.0
n000089,-8.595012267059543,3.725825707834751,3.1720496968383616,-5.044828858153723,-2.381649424338319,-12.468927834911495,0.7298200363890577,-1.7960053367713658,-10.184510154972449,-0.2890440792708707,3.192840602558205,6.151452940775259,-7.245195905865762,-1.5522700712284223,-5.015738994743017,131199.06,131199.0
n000090,0.6013712459127407,13.27960143023854,13.359106266018102,-4.009443384595735,-3.7298969195804075,1.9933272827203745,-7.887088153301249,2.5185423459529055,-0.45523270699023477,5.952698790340897,-3.640366757124794,-3.0576346008005983,-3.218645563119238,3.6127675555303855,0.9486688986887417,131199.06,131199.0
n000091,-6.865184180161539,-12.253944955870926,1.4397617640804503,-1.9814538255386558,4.192041367801455,1.401087996176991,-0.879070802570669,2.322076560900122,1.349543384988912,-0.3307114401431348,-0.047765943349629914,6.483034128338685,2.007605227753375,4.679965926960174,-1.0810104564293073,172051.0,172051.0
n000092,-4.9253647748623095,-4.1015727942566755,6.461899879166097,1.1799706585932324,-3.50720717087139,0.8766218736355299,3.858830014249173,2.2647844854184225,-9.368035097164451,1.0005343641265563,2.0176146710518355,-6.68173740577766,1.8383088232855955,-3.01850232176491,1.36949415500926,172051.0,172051.0
n000093,-8.434620657318757,-10.279757344457302,1.0505729531034298,-9.003854258955407,0.7076567930860378,-0.1889839523640222,6.9134573627531655,5.4291733021287625,-1.7349964857301765,2.2597552214348204,1.12581700232844,-4.636674316578751,4.0877698600158405,4.263593091199475,-1.631432645662569,172051.0,172051.0
n000094,-10.873502726797193,-2.8673644768472304,7.123406381434686,-6.735263127689979,-7.457681716279101,-3.259265565155344,1.6965269239934118,7.331803785410809,-3.2671364864041372,1.1022009019308774,3.738847570449086,2.997209022760481,6.49182892825031,2.452914139920546,-0.6331992615478637,172051.0,172051.0
n000095,-8.648577519185674,-3.9766693703144647,4.25618924710048,-1.2339171179130046,-4.809753615727514,5.965990147292548,0.5898284076491371,3.852844053168253,3.625769804286529,-1.81028415001599,-4.429852756593728,4.395627592741784,-6.190031312968645,0.2996296412005377,0.8941992746379637,172051.0,172051.0
n000096,-8.316598638442752,-10.54303045698025,6.738859848546828,-6.923407520237298,-5.3442446991414565,0.6192461004131952,2.923186854722142,-0.2199471808408413,-2.8912184789318203,0.6166090340659924,-4.611479858751032,3.665882820834394,6.613048034997202,0.913025145590011,-2.1716940169028196,172051.01,172051.0
n000097,-11.039993984414295,-1.7592329033720606,8.964011708058251,-0.18884635549458206,4.424305314150476,-7.68443754478723,1.046151329355275,2.1928457801452166,-3.7569153278137017,7.187217452481093,-2.1334948788798833,-0.3207318064658641,0.1517573174901039,4.6661792538362965,8.961609199095417,172051.01,172051.0
n000098,-9.729388070706285,-7.162312052341939,1.909910347926893,-7.924567335205223,-1.1668364879869335,-2.453338590712399,3.4720203959496594,-0.04248544260264575,1.706375210994771,1.8392629052146408,-5.529708944743493,4.448166130594958,-0.3181652696963817,-0.5437720170111473,-2.9812017246529425,172051.01,172051.0
n000099,-11.9675248248205,-8.903532371578134,2.3681134393952177,-5.341246261776445,-8.87366523033831,-1.6737736887351329,1.6621584286984936,0.688005452309753,-1.6382749999097963,-0.7329732014136503,-0.1459112907889757,-1.0661976619797964,-1.010887673607793,0.19025953711197263,-7.184893062648465,172051.01,172051.0
n000100,-10.782225263636912,-13.126265540581226,11.833895973397404,-8.892027177030291,-2.472283688422249,8.031127764811401,3.6697294407097725,0.8674541186932986,-1.1822498898271936,-2.9704517718723484,-5.807696617869784,-3.409900357058124,8.908094053720987,1.0693202571526772,0.8421906487882194,172051.01,172051.0
n000101,-7.108143460383209,-1.8164146782814976,0.08867869088710378,-2.5737789608045007,-3.0724479942073417,-3.1844353619717625,1.6823396029803568,-0.8551219980980451,-4.093520355444755,-1.0740892979047656,-1.6053662111162161,-1.0166432251361008,2.730060927289388,1.7917356772081234,-4.6542161800331385,172051.02,172051.0
n000102,-9.453112846405064,-2.1468270822377917,6.645277238111622,-4.794332941497336,-3.9182207759516063,-3.985839104310471,4.66422901925489,-1.6514823649911952,0.009552428457533901,2.017734740398059,-2.357601455077787,-0.9827626756167056,2.7818378746649293,6.294171019603647,4.254157505331474,172051.02,172051.0
n000103,-7.165472907241162,-8.948906623704264,0.44886528678002424,-10.193768958466023,-1.6509652841615767,-1.701907463176708,5.795842226975291,-1.270350901899684,-1.194299024704641,-0.7980961561954132,-1.9609074660113546,4.1520559396055905,5.489022220361834,-1.5698727571810163,2.5792123205836974,172051.02,172051.0
n000104,-10.62020187936291,1.3561042398152754,14.002678970650088,-11.313674743314685,-1.4624378491305665,6.315561404105968,-3.6431654441565646,2.1050241252263353,0.7485424709324591,3.398491025822838,-1.4450339690846916,2.960645358735207,-2.654146764475703,-1.5713968089909875,0.03867530781534523,172051.02,172051.0
n000105,-13.351842297106224,-4.708364137123853,13.929848371401421,-4.537049597480862,-5.555849775118972,-1.1764882889754804,0.923918216494031,3.4515701458545935,0.06749078349808957,-4.996868455092531,6.996049223590938,-5.865566539766023,2.1990479160665397,0.4645424498419941,8.52689605032595,172051.02,172051.0
n000106,-2.0795362479548976,-3.643386391779935,-1.6418686734518602,0.7218691140700918,6.508393297319932,-1.9543331473699985,8.442100072676517,-3.8979058217950016,-2.4645514031091125,1.4900088837371408,-3.760325185385732,-8.507139473321692,6.979322845939747,-2.9846187931556756,8.50687529257555,172141.0,172141.0
n000107,-0.011926627163993508,-7.427445595812495,20.62624110805549,-4.608223745749263,6.771941681085951,9.065588147221712,-2.3267885079402695,4.688822768797845,-7.947648944544409,-1.873147214606337,12.06553576737819,-0.8227561310950355,9.836245058574027,-7.696205995032862,-2.200062402883848,172141.0,172141.0
n000108,-7.41107704933248,-1.7821908726543958,4.15610912988438,-2.9581353736175755,2.1186345507111426,-8.057737480204505,4.4936188110670745,11.100577402457699,-7.188894549624023,2.7429831374578235,6.580000905745109,6.182646599233168,5.205207280158588,5.766473845228322,-2.6004006845228993,172141.0,172141.0
n000109,-8.962281621720425,2.6266694442747864,5.27009402959785,-0.3283771157222963,10.078452499848277,4.32856031541654,3.6234898441963237,-1.0042825369551833,-7.210850674867202,-5.623005745510303,4.231456049544043,-1.9768457180724905,2.4361009244633616,-1.473577042738258,-0.18616960864118115,172141.0,172141.0
n000110,-14.542820203088931,-2.847439097431646,9.817686473707816,3.8104069771769207,8.034153017526455,5.224252241707789,-1.1769996156807734,-5.387322439819879,-2.628277902104492,-4.193826522885746,1.5962720459310085,4.821316120538821,2.946500325315511,1.0817303882185016,-2.776082121867982,172141.0,172141.0
n000111,-5.640237623694046,-3.7946153799407822,9.642370449465728,-3.916953121682237,-3.7891236673419515,-9.52170500135226,1.1154676708074591,4.621829434072704,-2.025014180312379,-2.7688507433104705,-4.410996942112753,-0.7313873117704128,6.8918753413913665,-0.12605724616627045,-1.7919176136587924,172141.01,172141.0
n000112,-11.47416282594798,-7.343937701350335,14.047212034833866,2.5185993063798837,-0.18561561347502886,-1.0993166932528569,-4.9230362640092045,-2.497067233119393,4.072769101560355,2.4343471942343475,3.336197544620416,1.2850199516489336,1.1860104387126018,1.63674558391959,6.33670477384834,172141.01,172141.0
n000113,-1.4841608540124818,-11.376964715525403,10.453829760769565,-4.859761069825385,4.448557603002586,4.593000767155348,-6.056125863719601,-5.436429069923097,-4.657568246763752,9.22984191509419,10.428299190130979,-15.424098094588933,-1.7381387683230733,-6.210709409767197,-12.004099884321853,172141.01,172141.0
n000114,1.6186878149162842,-8.645871336621553,14.771394327410988,2.631829596481721,3.2567597067990115,-2.9815913209742613,-1.210108035227309,1.9521562095549687,5.223176903411021,-0.17543485759651273,4.3980185127320315,-1.500869201162853,-7.015463336053867,-9.880291693328092,4.728711650382373,172141.01,172141.0
n000115,0.2708927050885035,-9.789600429412893,6.589332978317606,7.136084431603528,3.825026864786589,2.2153953585080686,-0.9788428538886939,1.6905671826473037,-6.73281769678829,-5.1155892474056985,-2.3343746877028995,-7.983818858218209,1.341195398862542,-3.029826565408559,-1.4249309572512003,172141.01,172141.0
n000116,-13.441097307207896,-2.2619254431550058,7.499676278984186,2.5127860801403314,3.569835213731583,1.7978005304898335,3.640533466583818,6.125714170412612,-3.094733486743819,-0.5449674690017037,-2.50950622660248,-2.7568816709592,5.915208855712362,-6.062499038149138,2.5573593272405986,172141.02,172141.0
n000117,-1.7509274022372425,-7.103909746634574,7.332730580357627,-0.9580688484424194,3.0063653303860054,0.9577064594930459,-1.7949335947089673,1.4057069638354007,-0.7975609185313937,-5.830801637365887,-3.600450423554407,-3.9156720081996674,-8.630388986465041,-5.506459958970375,4.015726498331711,172141.02,172141.0
n000118,-2.1698613803384417,-2.034424321987215,3.347966479517138,5.375528259293073,-5.621453421833016,8.13908321785147,-9.207128422461505,-0.7833527302924621,6.215160926889749,1.5248465902904509,0.39982616948099814,-3.2868994360423636,8.082659309560093,-1.7706434783481213,4.9544226266354,172141.02,172141.0
n000119,-4.3280470194788965,-7.507072930962173,1.532894225999554,1.043772111430569,-4.083705426195483,-6.61964630988881,4.199250279367725,-4.319867037668081,0.37376100251447864,-3.949639997089505,-6.131982840137157,2.462336457077995,8.600799075196251,6.302807024488811,-0.28412358521266345,172141.02,172141.0
n000120,-6.455120368188722,-2.6346863005639127,11.142414975633802,4.940135215054033,-2.1641563310229905,-4.033195010287174,7.831180153821066,-1.0346824262784233,-2.570651244427995,5.643414333143649,-8.1811690912626,3.6923181905259783,-6.079482329863034,-2.5288813958249903,-1.1955592476895784,172141.02,172141.0
n000121,-3.3580393979458245,-1.6478103031305202,-0.6510770500256551,4.754899576332133,0.9144152667004156,-5.997602742943144,2.7151469778227506,-0.8181550157416256,1.0137933771532515,0.18106236817680305,-0.6613868996931189,-1.8539751602756909,-2.3851411478891866,1.4461138162436888,-0.03678079553721238,292099.01,292099.0
n000122,0.19052481953570144,-1.5419997518232835,-0.14081757258023098,2.218436706716247,3.22056284365546,-3.73752235600518,-1.2147539400985796,-0.3440246138077032,0.8419946091103588,-1.0384684321793323,0.10493295432807831,1.076368472645772,-1.4988857412364887,-2.326747725795528,2.5222969186501274,292099.01,292099.0
n000123,-4.059330877700829,-1.877209301743159,-0.258622065851859,2.676554010111672,-2.1663791457100405,-4.688747005511271,1.03684089829641,0.51740766765626,0.022922607998499878,0.8949875371072119,-2.122406078897018,-1.5395004255881872,0.020522444363644365,-0.4521442512299747,-1.3419091697610686,292099.01,292099.0
n000124,2.9072836230836216,-5.894406640762737,-0.19232064805397986,5.305227352386909,0.9464997052893253,-5.631820941229262,0.3148855393444996,0.17752232087396513,-2.6459358842402825,0.04490749333740601,-1.5380588699387177,1.3088482078150603,-1.8856031891732947,-1.842821265860162,-0.4756160012386983,292099.01,292099.0
n000125,-5.621231834121993,-0.6426519915400704,-3.4681810498145706,3.1022711547257087,-2.2081484002053804,-5.219465701754645,1.4424774250319221,-1.882840704756076,0.28762401938540394,-2.966860705240081,1.8061662832939493,-2.396120081266893,-4.009141124528347,-2.9476423253384434,0.44167865615676183,292099.01,292099.0
n000126,-0.5912273736062361,3.988331508788632,-5.543329280525127,6.906421825417078,-2.3278420223454805,-3.9432607391651535,-0.8648363750903423,3.2363598644080636,0.2791863316508709,-1.6183823004566706,2.4317247675165534,-1.7765396425491073,0.21504415976999908,1.4663985504292991,4.723202944318752,292099.05,292099.0
n000127,0.8045958832448914,2.4895098535954947,-3.9247674790090117,4.044379450962558,0.6248642007313305,-2.081353817002803,-2.0668795880149395,-2.1057422656273657,-1.170521666168659,-0.9289643566076758,-0.07878413940685225,-2.4216485738550526,0.48003837470827215,-2.0995537366852837,4.4070955670192955,292099.05,292099.0
n000128,0.727756045965785,6.0714831393928295,-6.161094038284045,5.458982846146541,-0.0044705877854169795,-3.466650063677598,4.2172646982669635,1.7409690414735066,0.6829841221854002,0.9128872570053999,1.7614886531039127,-1.508468665186011,0.13234147177933892,-0.5702259485814135,-0.43293225826223924,292099.05,292099.0
n000129,-2.3432389264908022,2.339036328072261,-2.0025748277641204,6.876090242009621,2.6273487562820246,-1.2801642799798203,-0.6771200105906221,3.2134375270270414,0.3481210158084693,-0.14248756391649087,1.8969414013553008,-1.9712324462732433,1.863122853564235,1.1907099028395096,3.793725431137614,292099.05,292099.0
n000130,2.251962562618549,0.7161100671243052,-1.7576920116339236,3.1875491378481278,0.22387592368341003,-4.024386182754821,2.5473113862342753,3.476519592812993,-1.095502628855516,-1.2641561392561957,1.0188938747993284,-2.2263006644428645,-1.4190250471326782,-4.238755692501542,3.2469860783769438,292099.05,292099.0
n000131,-7.26217768329769,2.0938951891148663,-7.78533782374601,2.27249179670152,-0.8308025667082406,-0.6655543713099328,-0.1676295769297773,-0.9951538679559723,-1.4792915867709984,-1.0570783844900182,2.1917718199705134,-0.3533323048227087,6.427728462698782,-1.5524242226246956,0.8595301968166184,292099.08,292099.0
n000132,-6.020507037575156,1.871181452695665,-3.32331278811702,4.081489078000555,-2.7975452423345963,0.010669357123026746,-0.31632713901708753,-1.34647640425918,2.9477196774000074,-1.8962509345894032,0.012743739703545698,-0.9191001494546389,-2.948781439231351,0.20377185377010332,1.7184715459287347,292099.08,292099.0
n000133,-6.426888735601115,4.255291246743242,-7.735980548890828,0.05451845289448176,0.2535247624828325,-3.432166404125844,0.6748851961712631,0.6660098494437623,1.146329874608439,-3.4911313798416543,1.065317361304315,-0.15781353851600508,0.8282514471702913,-1.0109872146461447,0.9963801017498471,292099.08,292099.0
n000134,-8.413759773546785,1.9162891675912308,-6.176885948347825,3.2872610284175985,-3.699542352756376,-5.203229973894771,-2.6747027370944547,-0.9898798573182009,0.852321526435794,-0.11932393167968805,2.3342031265536436,1.7531316696554635,5.63603227655297,-1.0777036502917041,-0.7721833942611304,292099.08,292099.0
n000135,-7.3186869041063956,2.717768074316276,-5.780592993383124,4.546044751245304,0.4968545784196834,-3.6834783734493937,-2.954757178244148,-0.8044592549011749,3.3567743212604753,0.590656967484799,3.1693610475941987,1.6237772502011825,1.69486873164866,2.721975131953231,-0.736645214967025,292099.08,292099.0
n000136,-15.44865073244675,3.2140128279970948,-0.8342741796564439,-3.289620507447459,-2.2765528993903907,-3.5841497413471375,0.6250559624015328,2.1046263311088818,3.681648794386404,-5.919829100814924,-3.281050090741843,4.004810229926305,-3.6353609662688067,1.6470464568826635,-0.5410829600144067,113031.0,113031.0
n000137,-14.566016169516836,4.559395383377395,4.057067347959599,-0.8505688593119141,-5.466849520543265,0.7004800506739575,-0.9772564886885099,6.65602668993223,6.428941697411892,-1.4425598781460662,-3.933777225293281,0.6158108654459774,-2.307176689989131,-4.014396136186496,5.897538439041787,113031.0,113031.0
n000138,-9.973434472429357,2.5724760933429955,0.4916190131332555,-4.223779276901537,-5.732679166142969,-0.8397911551923565,-2.667312132302131,9.271739496780114,7.8174819255755414,1.1606382235381902,2.810511141905891,-0.15428490386489013,-5.677960254578707,2.6631122490783734,0.06906719939292083,113031.0,113031.0
n000139,-13.392227632772142,3.642284993032528,-4.730462958057027,0.8486247965156557,-9.30579788236297,-1.7126571654703313,6.667096480044347,9.734818831082887,2.4159538795899937,3.454998541626778,-0.43429356896686855,4.817241768878166,0.2839954527376807,-1.091505006178344,-1.058670418543475,113031.0,113031.0
n000140,-6.676208120640192,0.688034437026873,1.9391809545702468,2.7136060765751613,-2.2222271659316206,-3.8701388421002108,-4.646034327883577,-4.315268110610793,6.586915452875617,-8.714052251921741,-0.5607295698830339,2.9808406524435127,-0.238428684272449,2.390971918077174,-0.3356294071904844,113031.0,113031.0
n000141,-1.5178690635268879,1.0796622135119094,6.14715230203091,-5.854008792540789,-2.122819739798045,5.06256224074704,0.38962229081244404,-7.10440206527521,3.1350528536179927,-1.4664362968719749,6.165479425942674,-7.470680742623243,7.535925864165837,-2.3836084575048355,2.7227540984835565,131199.04,131199.0
n000142,-6.296388561425689,-1.364097251145834,-6.534770577009959,-4.377055772654554,-9.421347277740907,3.7010762036820455,4.3311203886094445,1.5554259553944736,4.583238080711676,-2.9436831501214935,-11.412329436084136,0.14712059474819394,1.2546683683871303,-13.108108727633955,-1.4302180845926067,131199.04,131199.0
n000143,-14.008078977395625,1.6411993145704507,1.9166111210507257,0.978325235144955,-1.5564009285921732,-2.941897187310629,-0.9172726892050013,-7.70859739705011,11.042933119328184,-6.432326488149063,-5.047460169488371,-6.703219703212243,3.5541718445731982,-4.722795223364953,-2.7368629561031654,131199.04,131199.0
n000144,-19.03288762974581,3.4542177428467418,4.798227243690137,-7.750410815337168,3.894831272003839,1.4737791270733456,0.5438162290300768,1.0103083557663353,-4.098270495398339,-1.7236423562763625,-7.90319596028742,-0.9359434043577282,-5.377764763280983,-4.040136490405565,-3.978716218553771,131199.04,131199.0
n000145,-11.774131188092626,-3.4550067084785785,2.895305110992036,1.1501674344481971,-5.351825784467071,2.296903823381675,6.977439777414823,3.0781603834955598,-2.2418604803419337,0.45536089112827927,1.9360749067974345,-7.747777318368097,8.17084182306444,4.484437092107001,6.9797859917442,131199.04,131199.0
n000146,-11.27771458280259,3.529269215224531,0.685959378086846,-3.5051400255080987,5.856121514996224,3.30660777214737,7.3583782226892,0.21062048998863592,0.02485724631603836,-6.5785412837320925,4.3357932280659925,3.7885490021571315,-0.20731807670541263,0.8451180511351226,-5.1545454950549505,131199.05,131199.0
n000148,1.5784058806347439,-2.075420030163728,9.170334909674116,-4.23968663413417,2.9492382415197484,5.862688067853643,0.4053444751601847,5.687597170485247,-5.878791271735644,-4.925183214021263,-0.4545675534226925,9.411005122176855,-5.073698993770961,2.3081895433816264,-13.725841192994322,131199.05,131199.0
n000149,0.18174044363813202,1.345446906296484,-1.3827134283826528,-2.230587005911585,-5.396787881288125,1.4926386661442987,3.9499876941325427,-3.5210018985290232,-0.7400706946352709,0.7496131429032544,-4.515561464637622,2.212707951077329,-5.749761503050207,0.23053213557964392,4.988595739501157,131199.05,131199.0
n000150,-5.512926560254822,-0.4728880409347824,10.843837893194905,-5.905642318566692,8.9560226105872,0.5763437744378257,3.6117280474562588,-1.1536526747195306,-9.546434926608402,-0.72034042346985,-3.298314923181736,-1.7070117517393237,-5.8132744164983166,-4.684448142346914,-10.697271768146477,131199.05,131199.0
n000151,-4.922260363600271,0.18223310019475725,-4.075678405744828,-2.9871982508181683,7.12532923518497,-3.045618632491923,4.331439307370936,5.461090394447754,-0.30848532759052394,1.681197128379201,-5.795908091247421,-1.6525071667532134,1.5717260170088687,2.5596752073558053,-6.061173797534016,131199.05,131199.0
n000152,-1.440697907493644,7.443386162831779,12.906287676441018,-13.70909120492259,11.757920910833587,-2.9902605687529227,-2.5540114241631375,6.301002593853167,-8.886640140199562,3.449588598123931,-3.0834672145216886,-1.3909324155435285,1.8058228394854254,0.10743507311547418,0.5225644257528432,131199.06,131199.0
n000154,-9.208359013888822,12.34440988243933,5.4762294338463375,-12.184024569935758,-5.593953864791984,-1.8488388612217288,-8.710960125753413,1.7335158584384835,-8.599075112029743,4.559950858856875,0.4519899343934095,-2.8898068276218414,2.1616656277595165,3.4939974121150015,-9.41517409824726,131199.06,131199.0
n000155,-7.065323977028061,2.840876295871341,-3.4040155470123157,-10.160806727977512,2.205557134622862,-4.224215023283894,-8.824772085520372,-0.13305439319253232,-5.827373914344004,1.0981251810461912,2.954165533281592,4.888364091237861,2.2190713278951613,1.3499883908139312,-6.320498560277375,131199.06,131199.0
n000156,-5.8021393209803325,6.002476185009411,7.853991332894237,-7.336977634981325,1.9878870487674054,-1.072874291758206,-0.5132155531308074,-7.0491619272828405,2.9893116048607613,0.3344677206662086,1.8023621310928588,-8.436191002658402,0.8401412787215816,2.951846853759711,-4.389098979526125,131199.06,131199.0
n000157,2.4912443826673436,5.109506212730205,4.742745689229653,-12.937684635434486,-8.508015792645818,-4.880356396174859,-6.896550771544051,5.276974078030448,0.14059858856481444,6.738221101470989,-0.4909663925873987,-6.683229201708307,1.9083205347642613,-6.499036267877555,-1.7463916195630296,131199.06,131199.0
n000158,-9.275407727417402,-3.661048647733936,6.794910216675379,-8.895379007089794,-6.085329146304003,8.885094775575604,3.6067031293465295,-0.750939321881567,3.1416004619881948,-0.13218208959406347,0.21775771805619337,-4.682365974360055,4.476636912663122,2.54574425645651,0.4265799115054292,172051.0,172051.0
n000159,-6.888928004968056,-10.806989919800714,6.548044992493372,-3.7080938468767255,-4.503693211592464,-6.672528919093938,-0.9048455490546373,-3.476967447770659,2.107773699494817,-3.7217527748847052,2.0070286907768384,4.303699110212483,1.9203159048516838,6.11281092157542,1.0352213978113534,172051.0,172051.0
n000160,-8.938523383806041,-4.761287869487654,6.868679642344871,-5.894695259288757,-8.567359717421297,-4.006548817854034,-0.38808889741422287,2.967148663833855,-6.195588825864462,-0.3151080768632443,-1.4210173702162623,-0.5983839577148016,10.554886382764845,-1.4377134805572673,4.515437379726862,172051.0,172051.0
n000161,-11.286654312711438,-12.332227828132789,9.812506516629126,-8.1282787426129,1.418068291782821,-2.6458767267473053,-1.5240906698026684,3.9476005364353,-8.168138614186436,5.808863612722363,3.8698564954388273,-3.136386103245277,3.5051758564004474,8.424655658828275,4.990609409525018,172051.0,172051.0
n000162,-8.666703798609273,-6.499827912520826,10.781782845708355,-3.083327027441394,-7.380815916813642,1.1836815302797368,1.4622481070795426,1.071472073243428,-0.6201625762846337,1.4129254096773702,-1.2230326535978278,-0.8119751985313035,3.8632744929039684,-2.775443598943252,-0.8653432118929523,172051.0,172051.0
n000163,-6.561695757739381,-5.096378473960001,3.07602857931274,3.2342736073613247,-3.950410994974285,-1.1648184440174467,4.178919353035614,2.6641486554634604,3.7754012057910082,8.477776527074647,7.823175327111624,5.818887065183703,2.202593968997795,-1.3969273353882485,0.0811814304900349,172051.01,172051.0
n000164,-11.849153822947608,-4.781900527928329,5.81268233432684,0.397838386899803,-2.4046374634829997,0.7297653566023226,9.405994649391678,-0.13721430070413798,-3.815064969135756,1.8979994130975548,8.479755671073644,-3.346890162143759,6.947088307668876,4.609666439242654,-0.46397038595536755,172051.01,172051.0
n000165,0.7492253152919641,-9.37555264992099,7.564834766157709,-8.860169931950935,1.06181633596446,1.5939861514588378,5.179287532024238,5.189126526103244,-5.614923731876738,-2.3036531390669057,-3.9483515764915555,-10.169372776425947,10.077920933275767,-2.5808646381100124,7.300855165840752,172051.01,172051.0
n000166,-11.245599038384247,-4.834107184504161,5.2378657708076,-12.945904599415659,0.8419345705303483,0.40935096366441276,1.3026385676990158,4.597164551056273,3.4684926226787334,0.373767351924962,-3.513631937924041,-6.953781554289685,5.598383270335814,1.2346408228846288,1.2581922943175194,172051.01,172051.0
n000167,-12.348142588198986,-5.3827448709657295,5.3419166254225,1.83883475071264,-5.317377695036701,4.452861506547531,4.083790935938514,-3.6961352517965382,3.114956750070681,0.24242702167280122,5.276754575170987,-0.24137967841954833,3.7244376718978556,3.796883107307279,1.8980475499244238,172051.01,172051.0
n000168,-10.035878400397602,-5.952480208371354,6.038671320043253,1.1001295555881403,-1.4290319863451342,-7.471366498423373,3.4072903776590167,0.18868210457250734,-5.35859347236572,2.4256343681749786,1.3719534754852705,-0.8190169794184894,3.728558528680725,6.110402797760494,-0.4267375576494,172051.02,172051.0
n000169,-2.695753845131641,-5.104096291371128,5.894511808341565,-3.8899315131605294,6.12637114367725,-0.7024920377626419,-0.9747640115452605,-2.763164527336618,-2.1011612184151063,6.904336794516533,1.9366027004169128,3.198945832086864,3.234044818408798,0.08525303018183905,1.96568465162688,172051.02,172051.0
n000170,-2.5474712782472855,-8.062399408249359,10.28735376464388,-2.5481555893319037,-1.566770740689893,4.635130688369861,1.376657511107142,6.683865068754374,-8.322296089727809,-1.0406534873124684,-2.360730345762358,-1.7777963666930288,2.283650581540002,-3.0900854159269104,2.1674597749373774,172051.02,172051.0
n000171,-3.465858399722385,-7.19306459317578,8.016527533170509,-7.068984476337883,1.0701379995258877,10.308545070128462,1.012767155236026,3.469549265286736,-0.29127668189476985,3.206239620417793,6.954654261620244,-1.3293851493591604,5.009903063806063,-2.363825475859558,-4.209110313929699,172051.02,172051.0
n000172,-12.141983534516202,0.6873031440846171,8.958181135752138,-4.299308884292184,5.148912599171146,-1.985014983436967,5.32097190389324,12.877483362002252,-1.0253916097074276,-4.458294000278953,-2.51718588505451,-1.6155335942911906,-1.3993546112284276,8.550385657428698,-3.937829928497833,172051.02,172051.0
n000173,-0.6276227363263209,-6.265037574224153,11.813431541509381,6.794689099214062,-1.619438745599785,-12.245751682818325,1.7189973689362936,0.1668516470307133,-2.278586023600171,-9.622464007822245,-5.445724839774034,-0.7278286615113307,-6.957593074267256,-0.18265884102788477,-2.300517288646911,172141.0,172141.0
n000174,-8.796867910283556,-19.478399914274647,10.349069305046566,0.9964855415345278,8.191489654314397,-2.3333293716006187,0.5948883468574404,7.797275186850826,-4.533374363729668,0.5847692851537198,-2.593949798298796,4.497623882645836,-8.156810521371415,0.24913344815037775,-2.7545641650290227,172141.0,172141.0
n000175,-1.6668284846669903,-3.610459022063747,7.657613859269932,-7.021946270772526,2.790729216556018,-6.909909044279001,-0.6462846255566994,4.938738800248862,1.0617674204626162,-5.374900155840374,-1.8632055407784458,6.967991663046705,7.080969489644054,7.852964633900579,-4.016423121942525,172141.0,172141.0
n000176,3.377949940073968,-12.06085656159567,12.724314913369321,-9.384864839962091,2.8752294626997026,-12.61136304474844,-6.33196657409787,3.8676897354341797,1.6000809422615683,-10.52134543609477,2.354549479683464,-6.294888170822052,3.002459016878724,0.44636019484275785,-5.3194119031002955,172141.0,172141.0
n000177,-7.737474758056731,-5.760318414675197,5.427001292851706,-3.7608652332126584,0.3472940122403856,-5.46838890308875,-10.704842545655751,3.0546909931696553,4.988547816853794,8.747244113216347,4.674081176326415,0.7695305617153161,6.777802180790816,1.1479072820083123,3.127798262040691,172141.0,172141.0
n000178,6.709843204694675,2.5644536703793497,19.95577278481155,6.065607866324611,0.5579842432198907,0.7871143936255792,-1.0749456996697062,5.810036539218401,-0.12542104185825487,-1.0374598361456866,-6.901446147657298,1.5918761548755853,-4.686363889565071,-0.09467070837680436,16.705041955028797,172141.01,172141.0
n000179,-2.487892425922506,-1.2291081597605489,2.0279930173507834,-3.1243288222451024,4.874515308357436,7.832165544109913,-1.6832951022275404,1.6389091017850395,4.3207566853898465,-3.0872364620668495,2.0715119663879156,2.5815533069280203,1.8310260161436784,-7.827845771624312,2.158692663363105,172141.01,172141.0
n000180,-6.007789359055984,-6.0593911690231455,4.408495707508426,-0.2314564304481697,1.118689570457356,-0.3043020273561493,-2.0189264590197853,0.7449806810667243,3.2884000600088696,-1.8878869907353555,-5.817822708153187,-2.1427275025363954,2.1938017194757173,4.40472168856363,6.384364879282574,172141.01,172141.0
n000181,0.35866748440096785,-12.289077355601897,7.251082242725772,-1.9307300441631494,10.063493921949867,3.9865005398040396,2.4830301032866595,2.543303242908929,-4.824114420629387,-2.330670452423038,-1.0849791327084883,-10.428670552621181,0.21484768646731311,1.541841931818566,14.93963455442946,172141.01,172141.0
n000182,-10.405828850005665,-6.042889339483681,16.106378544283505,0.7714056989418278,-4.75492011166948,-4.01201569538808,-3.901457672261102,-0.41674200642678283,2.331244839384393,-5.132232417709626,0.18190314203311497,-5.1403109303106405,-0.6638066584125215,0.44189138168506786,-2.523805140150628,172141.01,172141.0
n000183,-9.328277959233255,-10.183455697677186,5.1533194054350835,-1.3894291863672872,0.8054086322846981,-1.7597151301675948,-0.1679861696420431,1.4842241339857887,-6.220830702113355,-1.6251171163744267,2.5694298729327714,-4.997899466707933,8.544781744096756,3.9803783528078593,1.3840779058062322,172141.02,172141.0
n000184,-13.097432061309906,-12.15360893569946,5.31330283317596,-14.681430732250098,-7.028010269956021,-2.1377677149750367,-0.636757038162522,1.009990497394398,4.359480803328935,2.2108136885740746,-4.665047623098069,-3.690837069289418,0.5803284822385448,4.774369195422366,-5.34642913156564,172141.02,172141.0
n000185,-8.429277616513234,-0.8234109757617674,0.8363970803332164,6.661873046317041,-0.5900168746604426,-11.709700126185144,3.425963262237848,3.857078603522949,-0.17660523840721143,3.568836393792425,0.04521182447274108,-0.9091177357993614,0.9062289733378284,-3.0639340925886196,3.8882723102830368,172141.02,172141.0
n000186,-15.501676206780013,-1.8132561975586805,3.1239684147178624,-4.8644685373956005,-0.6619108741716672,0.022880637257570502,-3.4207449815961177,6.7296177727062965,-0.9830385706119715,7.055315753426302,5.875497778414003,2.376869827386253,4.104629660874006,7.050501941666472,-6.039538212036666,172141.02,172141.0
n000187,-5.220029016506854,-9.520172663133971,6.6333188192446935,-8.684511260117677,-9.236347215357473,-2.464558919179377,9.773587544259247,5.876502745571052,-5.347317826010508,2.6660271665469057,6.792174297244741,0.8151874105846773,-6.50392678688347,1.1156038221341946,9.161611739280815,172141.02,172141.0
n000188,-0.1148278396055451,-1.2423844313670651,-5.329771708022703,3.0030184485685116,-0.36978306040737086,-7.806658622018332,0.3952285107211069,-2.2672410446200577,-2.7913361468106177,2.4253591946337067,-1.9158665981958996,-0.29786047155791917,-2.151132055501402,-1.0302738883388465,0.8993109358145572,292099.01,292099.0
n000189,-2.806927690614541,-3.312801391833156,-3.4435639295730915,0.7827966649465004,-0.695757613325233,-3.56486101311482,1.3902721083427854,4.435806332257867,0.6197395784679377,3.232260456334932,-2.151511270504551,-1.1335991843964517,0.06827212475622813,-0.8001963194042583,-0.5408233573799474,292099.01,292099.0
n000190,-7.547303162302088,-1.2529326206689424,-2.323488104796649,3.264110686267219,1.6679311835183328,-5.292050547358783,1.6754375288768908,-2.908402892562611,0.01594364001759596,-2.5252406798785323,1.982169909819362,-1.825755317530555,0.559301830978014,-2.0584220236956376,1.7077067842566604,292099.01,292099.0
n000191,-1.5711457607675408,-2.9266441514766584,-3.3354427281130428,3.370414155682179,-2.904559197845747,-6.6209665749099385,-0.543741847665008,-3.930552016851185,-1.0715762362912233,-2.2901015292110816,-4.555059964564297,-0.06759991447596136,-2.895113999395484,2.0176137804761467,-1.9584015951230396,292099.01,292099.0
n000192,-2.2593038918510846,-3.126242671738213,-2.5494671189857323,2.446466165415413,-4.117743693117139,-8.076440374485376,-0.5771451472231524,0.747067947344624,-0.6457189789535065,-0.5631474879482348,-3.8719175641915595,0.36133213903928496,-0.5439599791870746,-0.835471560936889,-3.3590026177756287,292099.01,292099.0
n000193,-1.1266674018201606,1.8170866044346266,-4.126428307668324,5.16254595833499,0.7918209705044823,-4.082694088240313,1.5534143631170214,0.15776566723404128,-0.32163271504696955,1.5830645738991924,0.39925785371299993,-3.5553996476760314,1.265854928578055,-2.6593085429610976,1.6768992186070495,292099.05,292099.0
n000194,2.13912734680717,5.118020493666473,-4.062963814558028,0.9359456952418035,-0.3280826165512073,-3.895583251085168,1.8620633831010571,3.475850584241255,-1.8100402767361214,2.5104247967592643,0.304375091751633,2.438003294280467,1.1572821370928823,-0.618550337755942,-2.509794907172588,292099.05,292099.0
n000195,-3.1340689333610117,0.6734570349873406,-0.37354815697529453,3.6999499051952074,-0.23300378352216866,-2.145541748109799,0.7877993313514813,2.0552662544976434,-0.043118356808109715,2.743503337121325,-2.625341795770032,-3.572701559254399,-0.48392049766494083,-0.06615646150396692,5.487051290015355,292099.05,292099.0
n000196,-0.2936457362456645,4.132710553521453,-2.4150103768315345,2.5941813253818693,0.8773706189253359,-3.9393319453870905,3.775998976859505,1.1854413835150874,-0.8856972624647655,-0.23623270846965672,-0.9044294409878224,1.0494904137664536,1.861933246980256,-3.8299421545467824,3.4248981740899813,292099.05,292099.0
n000197,-1.3833468108827576,1.8995859227982859,-2.393268922387774,6.888141409146408,0.8087193192052873,-2.7953675509307696,4.159675769867455,2.2922344988017946,0.43243936041327957,0.569915980388422,1.2636849338695257,-0.6734357695834472,0.5188786792520325,-1.5705775497047987,4.0814330446649585,292099.05,292099.0
n000198,-9.289380530715633,5.432511007973617,-6.791004233952843,1.7981138402745205,-0.9364219843259693,-2.300334084221248,0.560086340599088,-3.488617621863826,-1.625848996709037,2.883846986096819,0.30135930496724095,-1.6009436684038112,1.7806799914400804,0.6530094465816119,0.8298877364723504,292099.08,292099.0
n000199,-8.058304181665855,5.88175986445269,-3.9828045348033068,2.7931782072463864,-3.0017438142599833,-1.8297322118570563,0.24219765300592833,-0.7926312524759254,2.35866560562636,-2.9045037267900065,2.804261029548641,1.325528813555387,1.3525680132370146,1.572273497830611,-0.5884461251461349,292099.08,292099.0
n000201,-8.80167696362925,1.5218030024871556,-8.480996562597259,3.4569439096038765,-3.5009161493330785,-6.622524012237518,1.1049512622581035,1.34366390693816,-2.0702143932061383,0.6145259870713056,1.8945013274846265,2.5675207235021538,5.268155342236097,-0.16496872145571972,0.4891844957526498,292099.08,292099.0
n000202,-7.620466402124203,0.5208519865048737,-5.991909710881387,0.9083574015711986,-1.548654018530534,-3.9981087005001434,-2.606059376422856,3.230365437281529,1.600694901736851,2.763782744451865,0.044225707406514436,0.11917363230627077,-1.7084310761778188,-1.759089079795826,-1.1566092314033163,292099.08,292099.0
n000203,-9.115783655344734,0.473989066111534,-4.307000555472729,0.34244792513914235,-3.3329207885267627,-5.88129443662904,-0.9774050446378079,-1.5487489653892637,0.1427612415350004,-1.2534860548913112,2.4449116656644976,-1.005862249227973,2.6303056213594793,-0.16514560581286625,-0.8749044236008853,292099.08,292099.0
n000204,-16.265959177138562,10.302437521683657,-1.0034362303745805,2.712943590354372,0.013924597336650635,0.22376833194870094,-6.585658610663252,0.28375282743506025,1.3011148333535816,-2.8506969071854833,-3.2452934968422964,-0.604927482063393,-1.7633048478591906,-0.7162944746676878,3.6859399140343037,113031.0,113031.0
n000205,-12.042489026645189,1.7954958359263034,-3.8938024532232003,-7.476258353181848,-7.449360436550863,2.598997592442059,2.4416976671931163,2.667693793518813,4.029865965294844,-2.585259273378677,1.90157779640386,0.35962931207674476,0.8755128644741417,-0.5030761489230701,0.8148219879609215,113031.0,113031.0
n000206,-5.439065897608792,3.6177530133153644,0.3365909273291419,-2.3297601832808352,-4.088273493500487,-1.978519666603933,3.8360912283760205,4.175184021665242,3.7858401364211027,-1.9575463325556617,2.594264539335363,-0.2997370839397915,-8.25108783820477,-4.51678215468065,4.794631849350808,113031.0,113031.0
n000207,1.8911850429259172,11.315089353096514,-2.1581533099935672,-0.2653857528679633,-4.459677288511971,-2.432442802383738,1.2443611842500362,8.109664677013598,6.007466554564611,-3.1613846610706346,6.819376668714863,5.40638284739156,-1.6016225305150333,3.204402977709968,1.0373542747233695,113031.0,113031.0
n000208,-10.214527307018109,0.053265065212668716,-3.6548468669253262,-0.8696721992220242,-4.562435264110567,2.9763422970001283,4.898419233244097,4.911994101831066,5.6212888873708975,-9.541835500083879,-1.4360404836329406,1.8837156240467665,-3.7273914451472976,5.77337904160186,-0.8212930739976039,113031.0,113031.0
n000209,-9.804943033482584,1.4745951997293338,-1.0535394694690106,3.8057530355372213,-4.281901390184048,-1.8241572766476155,1.3847019744407774,4.827111354230193,3.43399100404369,-3.0755515173051418,0.2611772847794851,6.3146028353949095,2.0632341822589435,5.543075998928242,1.0507282221948007,113031.01,113031.0
n000210,-14.0759883206925,-2.5540259489953057,0.7069588178084119,-2.8139021655672276,-0.8703133334496453,-1.3316890432815647,3.1822819144463312,1.5618334980720712,3.581311831292994,-3.6695508673385206,-1.3838397457646603,2.256358590845378,-3.9010756074952164,-2.1212980219647406,4.359550291992547,113031.01,113031.0
n000211,-11.575368357762494,-1.510759774930347,4.583290388079668,-1.175435450461011,-1.6957676549026848,0.5766743363220337,4.306673540059764,0.8277160823795453,1.340568969679763,-0.04434997187075096,4.845829219395119,-0.4394902816436286,-5.161533592671185,2.555183626348051,0.50305325135237,113031.01,113031.0
n000212,-10.990995578219952,-0.807397297534548,2.760905352921829,-0.8373320121325905,-7.685000968532762,3.796654086123162,5.915371679239977,1.7858237527902823,0.7520164014659365,-2.8319350838317034,4.2822431491415,-0.4508232010587738,-1.9069373228806654,-3.6899230593202983,-3.457789644291601,113031.01,113031.0
n000213,-14.733989414233447,3.330401789562294,4.803400001975867,-7.343620521763713,-2.3839086977514015,-0.952071386437131,7.129001197754078,0.40504252625709114,6.851634131077965,-2.161083528599788,2.5745438175164947,2.3816179803797612,-1.8612206515833452,3.0891521354868057,-0.9701551233397913,113031.01,113031.0
n000214,-23.475036652980307,8.058312976356891,6.711838994287037,-14.06147543590579,-0.7070333073002235,3.2216340215054355,1.654528240529598,3.020390339278099,-6.197482656488129,4.245058762713421,-0.014123868321106403,3.11869401259398,-4.5273573764832715,3.833216900990726,-0.7742934129556369,131199.05,131199.0
n000215,-5.832378660977824,3.76933120454669,4.399762584712661,1.3137030833152776,0.9044530890814093,-3.369916969996452,-4.944558184411377,6.602569446114377,-5.10833168757463,-0.8044347241336647,9.670939201081563,0.18978287473742617,-2.0088203591796057,-3.097925735302861,-3.562745046356402,131199.05,131199.0
n000216,-12.992571892121584,-1.2061113730774486,2.789638763965697,-2.9550310822761348,9.283331924773789,-0.2730915499017128,0.0013252557245369,2.2485185069667715,-0.5485883226284454,-4.979912529823858,-2.464640889631507,-5.251627799124327,-0.5305026911698779,3.4239430249164613,-0.19023605078321792,131199.05,131199.0
n000217,-2.5507604059302826,0.8246586080499287,-8.05871066166468,-5.150428508100989,-0.7541843057144826,-4.404161513389603,5.241244474755179,-4.9219177390614695,-3.1090104229767697,-6.968591347408962,-4.591147149103375,6.141716303487607,3.6317342981482605,0.23478725564073732,-6.208561099845824,131199.05,131199.0
n000218,-11.635203597304816,3.853181506276637,5.422415469820631,-5.923123047457246,1.618505147826679,-9.340702483063541,-2.15578473283645,-2.03831176004942,-5.782974380774638,-9.671496982513883,-0.20301819424695178,2.650034263501112,4.631754280809762,-2.7509588157616665,2.9239361582494863,131199.05,131199.0
n000219,-3.537379172747068,6.811604013208457,3.1978497443910183,-10.402156074757187,3.1048726448340083,-3.0643887627334587,0.9748548850945391,-4.598330243321826,-5.1674879876717075,-3.768635325261201,-0.278191220744827,5.490590003323702,-3.9216019457671507,-5.5008312941950575,-4.277874572611063,131199.06,131199.0
n000220,-5.2025267005917835,9.147619547219964,8.151349868420873,-5.581589759773846,4.07921830112723,-0.9801946323814277,1.0984663414721978,4.802432490191511,-5.549654423225913,-4.04047420722095,-3.2203469075316025,-3.927255036456259,-1.6278898711019507,1.108002019801885,-1.6771289327494292,131199.06,131199.0
n000221,-12.882258463954361,2.384981711228013,-4.850254702396431,-14.050989051859222,-0.020474336657306857,-0.7747124966799177,-5.839210382246178,-4.086203742158925,-6.771980392389011,0.35294199294883116,5.006452880484194,8.378340151354045,-6.769574466264795,7.852419928638012,-2.856803108499896,131199.06,131199.0
n000222,2.9366263293994535,14.697929432357103,6.503283501384372,-3.369999510252497,-4.531546074862234,-3.3071475564623665,-9.352112766055544,-4.950763348131854,5.768464360060829,1.0458660722841537,4.348426125268595,14.102773513740438,-6.810323409895988,1.8043079697466489,-4.918860699419135,131199.06,131199.0
n000223,-5.989956039193692,12.330907067350857,5.914272389118622,3.0697447478395663,-0.9896517154353919,-4.940534943785426,-0.872916663823836,5.191451012322924,-3.8589079161297564,3.3876671966364946,-2.1632536858120757,3.9790611132958853,1.0001836572326395,-3.3584880557998082,-4.656635696708685,131199.06,131199.0
n000224,-6.034129945973961,-4.6600340711380355,6.065055477245629,-3.1015784193303997,1.359367410349766,1.6070194357121133,7.231390535823165,2.4841682582083418,-0.9267161848170666,-0.31154961564919337,6.247043588367358,3.7397978946367947,4.030093741665673,-1.5612256578047297,-0.791501806381091,172051.0,172051.0
n000225,-6.68886880068002,-5.523175616886249,3.4821374927705415,-5.421662844285175,-1.2606745423260024,-3.051416637336562,3.793128732860055,2.1476874676692654,2.5201088668803022,0.7850644556336117,-0.09122108705242099,-3.3641161931177983,-5.462889277268924,1.3011369851921428,-1.7858233622100426,172051.0,172051.0
n000226,-10.866259472566776,-7.4713156417108975,3.317879918041905,-5.085066675944958,0.39417668456652644,-0.009891728497676278,0.48114923855646624,7.779406254372283,-5.805229713854992,-2.049909438221394,-4.557370128192771,-4.993191639267915,5.870303579328905,6.616890796504531,13.099890182252,172051.0,172051.0
n000227,-3.047040463135052,-11.915082687634705,4.360828311791512,-2.438185098903426,-6.433443697853641,-0.288263622973413,2.189932863933396,2.2100228102549764,2.328244279102802,-3.8265181171004703,-2.116032410341867,0.5201886576545882,3.6633160694217155,-0.4528507444890031,-5.371635894033172,172051.0,172051.0
n000228,-12.772012515620059,-10.04301971583202,3.9577376366894654,-4.82799328545297,-1.5779666267183443,0.1767196063008878,-0.04571896898181936,0.5948179957828357,-2.281947304270512,-5.17978046510706,-6.06756593612089,-5.320146397977085,4.890555824555925,0.387032431238888,-2.1948015441673485,172051.0,172051.0
n000229,-8.987967077556293,-6.569060096375453,7.270914241017469,-6.212194007464577,-1.670632276755194,-2.148675099215841,-1.1827342363424798,1.6851113803740927,-0.329033393646468,-1.385051832880019,2.1025358745924807,1.4683058295165459,5.83296132690279,6.195706559381906,4.639259969757342,172051.01,172051.0
n000230,-4.552014162149611,-9.788878995879056,9.489618875856898,1.742590127469132,-2.4398475884911552,-0.06458186430641365,-2.8068828512564816,1.7070716798690775,6.921710187023651,1.2790111022253416,-2.690899025055155,-1.4473973735306704,6.593876053718978,-0.9850926914855096,0.04189614366626182,172051.01,172051.0
n000231,-13.269205603893477,-12.592335335454827,6.839298361616619,-8.60809043302121,-4.766170428320698,-0.05553282218026352,0.799274690817662,5.646884456227999,4.265276547282824,-1.4968109956922575,11.393231613849878,-3.576359719833242,-1.8431093926675182,-6.195052189885013,5.749252612548141,172051.01,172051.0
n000232,-9.121905955463397,-8.982661445494962,8.802551431648055,-4.049636847648349,-0.047363564138927616,-6.90342706109851,0.8928572484513693,0.6869824399528884,-5.639708778939122,-6.297579424637319,10.911982182064504,-1.1847621178394627,0.6248462925136673,5.739870077742021,2.7000866879412455,172051.01,172051.0
n000233,-13.0619636610331,-6.6611135153834775,-0.9209654072848537,-6.313110854920761,2.5681902384939255,3.573726894937888,-0.9063073696616168,2.9808353679412765,-3.790752185830028,4.505136430377009,5.724189931339231,-1.5970398410067561,0.0670411453356401,2.2064668236565237,2.3921641858065197,172051.01,172051.0
n000234,-8.883026457017216,-6.385117262354277,9.428923515350586,1.3009184881157645,7.56048357548014,-3.1624941800784794,4.0459119086774535,0.9203387637343821,-1.8591188002384282,0.8768939334617548,-0.8284039782273926,0.6717668968930952,0.7619018327297427,4.985965900122508,0.900184154270198,172051.02,172051.0
n000235,-5.010551387712997,-10.286451011972435,12.719918479746173,-1.5647696303944034,2.4755515652871773,-8.005377680080715,2.7547110962390455,3.781714063256759,-2.6242112880528916,-3.837520277516037,-3.1454907921447663,-2.4848450961108233,-6.146882071426559,4.7547612424212105,-3.7538370371438106,172051.02,172051.0
n000236,-3.666552942963132,-3.7837908753057965,10.29586849195436,-4.972114702514487,3.6994463843329917,1.0645192923924878,3.38035346105061,4.306185448248382,-10.580390454326032,2.0207106244514974,1.3214569365206492,-0.054796370916395,4.2518180397130045,-0.6380589705453246,1.266019534650221,172051.02,172051.0
n000237,-7.396647082368509,-10.52012962294502,10.867326508765021,-5.061985173392469,-1.3240668449834139,2.8433235299170327,0.31760559561241086,-1.7844336456724337,-5.832077854699383,-3.392818681487083,14.807096207082402,-0.52269200943673,5.872049968025255,7.24848799009559,5.593964818908204,172051.02,172051.0
n000238,-9.23091575902224,-7.34812913882029,9.623603253274142,-5.734176029467244,-2.318647762377024,-2.2130765642625487,1.9671657525286035,1.7959432100536892,-5.037436002023528,2.2931733175184728,2.6719876798833155,-4.089840172859106,5.544443673812369,7.474227642718734,4.062453554216892,172051.02,172051.0
n000239,2.834716391262525,0.33486676379979663,4.887771070832179,-1.667757781312483,-2.2275724359707976,5.921342720253605,1.0828668302738438,-7.8432069274197165,0.5815558507429215,-3.580926543594293,0.9005636274085724,-7.213003009168096,2.951393796059549,9.35331418327662,5.556224859586556,172141.0,172141.0
n000240,-2.5795302867357495,-7.603028769227876,11.659109801931228,-2.273007090939246,0.99259074660875,-2.9428287266484743,3.326727797076516,0.7746497155518781,-0.07588424767432245,0.9800902304382855,-8.806846326837698,-10.94609111081533,5.342711795359365,-0.08583101223484024,-2.189439884218846,172141.0,172141.0
n000241,-7.119977454973526,-8.64345035126868,7.333195707286989,2.2744771325066266,3.1125965908958797,0.7985214908480578,0.28795433385095115,4.245181030396772,-0.10333599065368104,1.4216003214702404,6.609717573100664,-2.3083457853513005,-4.276296468540343,-3.717876519406072,4.987402658552343,172141.0,172141.0
n000242,-12.916981320757934,-9.502322334620048,7.009495723348781,3.810217518519105,0.8540066343963193,-6.084790001976009,0.028009769499908632,0.10835887309621706,-8.337562522209083,-0.19676540011027788,7.264571755001137,-4.182819832727714,-1.839056435431918,4.363426377556844,0.7332419776196453,172141.0,172141.0
n000243,-0.11768949381465443,-9.441617078744574,11.141433033069557,-0.6745074611379286,-3.1488706526053107,-5.156850466600224,-4.842602854254368,4.123196481366437,0.15724383736752534,-8.230831495861057,8.463734845100191,0.6383019592187438,3.4284662624810416,-4.794396513868612,0.11898725299107848,172141.0,172141.0
n000244,-3.3377060499181717,-0.6217308994999025,5.070648976321443,7.1387133821172775,2.140048246015174,3.1864092475971586,2.1708737141423424,4.356551180247562,-3.387956115307763,5.6557241674575245,-6.237114922962103,-0.49261790408499495,3.953326043487057,-1.3346681189890952,4.578380147009346,172141.01,172141.0
n000245,2.0337484865930477,-1.4584484822705286,8.520921664131679,-8.688077122431864,2.6026111913100416,2.5560969464879557,0.2804612749221784,8.929217837990118,-1.722454150535159,-0.37615953118082973,-6.017194255271173,-8.149546008369011,-8.282814985396948,3.4869808319160165,5.978480936645756,172141.01,172141.0
n000246,-0.24493748915291258,-11.147756109910059,4.564499586757013,17.477368385537048,3.526091902664575,7.024453977322062,-0.44264540693514387,8.904471995523462,-1.3587026966714268,-4.327360152366418,3.7115947051631557,-0.445478593352437,5.883308121294913,3.2664126431409795,-7.0043324827721625,172141.01,172141.0
n000247,-4.543238929999711,-2.232586016244393,5.7171604639275175,0.48695461593305456,0.07168281933505805,-8.884118755842257,-0.6129786191312546,1.033549235747739,-2.015974493228946,-0.4429332829726135,-3.7674683295568308,-3.521947293835118,-6.5669759128271,4.830980141733186,-0.6118938255397683,172141.01,172141.0
n000248,-6.5434810975534745,-16.61857335078636,2.3868003850481756,-4.638828819097987,3.7522996359959198,-3.005373706121312,-5.924842052942926,3.1699753800587116,4.468482627721437,5.562918512776685,3.466248680870446,-2.797375717882375,-5.950315639164608,-12.635928589530012,3.1035932469597984,172141.01,172141.0
n000249,2.7664821708869702,-14.262539298332584,0.5352041178143487,-0.1148428952586471,5.848482046164113,12.68096975073341,-4.139977940817838,4.107129980207871,-2.944156307733187,-6.146570559956551,5.585925602718983,-3.011705687793734,1.724620369904112,6.15007917125061,-6.6456563709550345,172141.02,172141.0
n000250,-5.217970818880114,-6.835033963911073,11.395085440023365,-8.159363948448336,6.336428676544464,6.441782810037698,-0.1962960840254407,4.088422372045789,-7.6588107583517075,8.695658091739242,-1.2511442957849053,2.2571772150037854,5.335457252598753,-2.351215136008405,3.712016367951413,172141.02,172141.0
n000251,-7.060812805398188,-13.348537088371234,8.465887465542686,-1.1531796267391003,-3.5653151499904094,8.788132566970887,6.552639869356842,2.675942911001982,3.1343771603791932,4.256679337934804,6.339237167267878,1.2395852390609248,5.903008198710505,2.2271281412148807,-8.44203663056954,172141.02,172141.0
n000252,-3.9053552622362133,-7.5900030457563465,11.155668547008943,-8.211704483641952,5.757557229008555,-1.9636549551409623,10.921272071248202,4.012770237345176,-10.13349824389337,-2.346844834965655,0.7168070657513037,-2.528702356216928,1.6371644031929813,5.731139029643472,0.7451302046055209,172141.02,172141.0
n000253,-8.587188185430989,-10.431126053308777,12.522050795944494,-9.311217221468254,1.7960382546643119,3.9371753701348333,9.125991675398609,11.199723745972186,5.510052079312815,-10.629453852407783,-1.8359886008594708,-10.588527068252665,3.802099449698898,5.979796578954444,-3.655424209302913,172141.02,172141.0
n000254,-0.9629983527571462,-4.865229064740433,-3.742786962095635,4.111098191357887,-0.9092523153672861,-0.4771031903337217,1.4733436574116279,-1.9636937586480498,-1.223222096076302,-0.2229612997419977,-2.4952630387155996,-1.3969474287009787,1.8640316673065065,1.330204543810187,-3.495402235865942,292099.01,292099.0
n000255,-4.430110600058534,-2.3465827084024165,-4.071374016693328,9.363698120475776,-1.5275379181203124,-4.843657098903584,3.5098053591369824,-1.87491977955884,-4.585813350658669,-0.5637454559671538,-4.888504466309136,1.0400903345708905,0.3888532189347289,-0.7452510858875809,1.0454728450204775,292099.01,292099.0
n000256,-1.9536410373244182,-4.833415470962647,-5.261696353477067,3.482152741134326,-1.3034171775890917,-4.567747117363555,2.8804184979145013,-2.0368601189451456,-1.9429446020609014,0.5290755258641586,1.0164515527826465,0.48826379034357736,-0.7917885014035615,-1.6515249487317436,-1.0392266198589204,292099.01,292099.0
n000257,-2.069359498234353,-1.4545336393260073,-6.314358967200585,2.1358471547421587,-2.353964214909724,-2.6742041341340377,3.9611746054679378,-0.2870626841650128,2.3012661307680067,0.42798192056478807,1.333359537799865,-2.006472393242183,0.5780478049315592,2.05858934729166,1.1151544194256942,292099.01,292099.0
n000258,-2.4405208936905733,-0.8424890008358581,-1.0720147643086686,5.6960533356432315,-1.1317104489039422,-5.834952160576101,0.41749177594160347,-0.5945644803654901,-2.8226864378369965,2.307766378175678,-3.4776189180363546,-0.378493995799014,-0.20617976575382402,-1.7478427428773091,1.0020235394661219,292099.01,292099.0
n000259,-1.326318336395774,1.4917034737696013,-0.510634382734191,5.39494438792123,-0.07746837453061772,-1.2746623918369264,5.597792387823615,0.18388454553334732,-3.4532656601256053,-1.1831324726050823,-0.14817894729969816,-1.1287503394746063,-2.636801921090484,-2.5274869703724425,3.0540357463793053,292099.05,292099.0
n000260,-0.38375053766084016,2.9034166385121476,-4.826369959543305,4.474626823808367,-0.20369252239056845,-3.999817684208633,1.5737778845015455,-0.3603366930168952,2.515490741856431,1.23051664006754,1.3634095123134748,-5.155352808885986,1.5823094934522217,-0.5905811466209988,1.601898064134609,292099.05,292099.0
n000261,-0.22441511161034317,3.3077701057073026,-1.9749164727497126,3.8066696112036316,-2.274866343684754,-1.1705424056736833,-1.6533312708253662,4.294746639216423,-1.0708180791619073,3.0463091090123546,1.9152473955765603,0.49163865057139566,3.0314715628549926,-1.7849127825229965,2.8340713901304255,292099.05,292099.0
n000262,-0.7339572426614503,0.7228952317675654,-3.0166858001176426,3.989410995369852,0.42480861437538997,-3.545151652076124,-0.04021175527051879,2.698665311075126,-0.18328249624004228,2.3594356589226533,2.743237537946425,0.1206541332973563,-0.22557672985941063,0.08249239121646612,0.24416760594078024,292099.05,292099.0
n000263,-0.36615624582722645,1.621917793537429,-5.186805638643757,7.301044549826829,-1.5276775271286702,-3.7899554749938873,1.2599915964815807,1.1510926984410355,-2.865730706783641,-1.5573410514222963,-0.9844318783534118,2.0548590234214417,-1.177914391844077,-3.9979247869602936,1.0055504823570112,292099.05,292099.0
n000264,-8.409803834751198,0.6876768858755877,-8.324668623396146,2.6728719987651863,-1.5000643235808493,-2.253040869042585,-0.43256858334040893,2.000879131255786,0.31620049260066957,-1.8515727775270001,-0.5999928591045065,0.4595652790317646,1.7203494843240814,1.5022862919833226,-1.8759710773482827,292099.08,292099.0
n000265,-8.827994498195494,4.371532533604535,-6.541077962929983,-1.3772426084689724,-1.6796239916836841,-1.9183267004179803,-1.1746968211883506,-3.2657872262637397,0.31929552011463697,0.815268312851197,-1.0328500743028406,-0.6004457057891008,0.18462669409656884,-2.674899363925654,-0.3447475754639674,292099.08,292099.0
n000266,-7.840848932018036,1.8931307801090334,-7.071475496677537,1.5387967367658573,-1.6484629042602061,-3.9947299118177884,-1.5269677699074737,2.2344865450975266,-2.308063200973386,-1.8974494341033723,0.00514117328128294,-0.2459147527537502,2.6209654716266533,0.1508708561451128,-6.397390417094852,292099.08,292099.0
n000267,-6.996024923363969,1.3793341840536644,-7.555672464373229,4.554692635073546,-4.2825847900645595,-0.29560961759948867,-0.6379177861061136,-3.3076937283719188,2.510546346321653,0.5858592425720874,2.2133159853915467,-0.04148061242508992,1.7439067541008724,-0.28874756992989214,-2.4417384529822668,292099.08,292099.0
n000268,-7.048070202014758,3.4319763794833724,-6.9760403555288,2.4762872398563602,-1.4614412838154376,-7.471711349109119,-2.39796310560621,-1.013516632771255,-4.057513514270625,1.5035451596451632,-0.7362908227617206,1.7945792144093717,1.3270477507359697,-1.5630116117194948,-1.3806501306086618,292099.08,292099.0
n000269,-12.568430446830282,-0.47616071821274675,-4.217853940965172,-1.7751780373167865,-2.1498045042856933,-4.322247282623578,0.5161262722993657,0.3602838290533019,5.756635489161677,2.7163957856661414,2.0371653764705924,-0.8181739278069522,-1.4619697226339996,2.550956435789717,3.8377677692454917,113031.0,113031.0
n000270,-13.357737549530466,7.968766115049743,0.9754561418350411,-7.014131867768566,-5.0382218695298855,-5.091514213411278,-5.115875844383469,1.7152603232524652,2.690837207396493,1.0323350261710211,7.996920651673247,-2.058729917353663,-3.749615929371643,-2.6887523833393767,2.6806654590549304,113031.0,113031.0
n000271,-9.26922275319828,1.0389791530261618,-5.249446232138291,-3.8278868128248495,-3.0613012481651647,0.953756639819153,1.6140847760181907,7.51663311110441,6.821372717408262,-6.706489193509095,2.494221933691395,-1.6208232065169585,-4.35764222924288,3.726909010048289,-2.133310147785532,113031.0,113031.0
n000272,-11.766768789197057,-0.5600064607755821,1.0346478770481122,-5.360364640897063,-1.8323122053231047,-3.981271196121377,1.9454316581368167,-0.983595200746382,8.641072567365438,0.05938340390061159,1.4013100576239281,-2.2979354549932793,-7.381899869074423,-1.0886928559204863,0.2506480307037786,113031.0,113031.0
n000273,-15.385224925176242,4.026605906694078,0.9154541638901514,-7.253825507892328,-2.2845097857724626,1.5725996146272916,3.2918578616390075,4.366525644403201,7.4025117072172835,-6.460762725430946,0.24853714681222805,-1.3512426078474424,0.9298950295994763,4.085049017693318,6.827542970135312,113031.0,113031.0
n000274,-9.542437760841215,-4.283738084840179,2.336636510142978,-5.516154940871998,-0.7879329613733335,0.9992886575339159,2.971484806044302,1.544680385415967,9.379088487783708,-2.1240044215845524,0.2397753576855104,4.9026311399810325,-1.8295322073673739,2.845248129701885,-0.6221799255060144,113031.01,113031.0
n000275,-10.528673047471816,1.4600869249169859,6.957103810159724,-4.858766420542447,-2.5184950112826394,-6.60575491409722,2.852362783331839,0.6701253855176269,3.90604301937325,-6.943273003265,9.579112853935284,5.191999442848265,0.29753373813346284,0.9362938255839228,0.9302812077347662,113031.01,113031.0
n000276,-15.953494814965971,3.0727231873265204,5.275320641606269,-4.896349737535891,-4.3091021172244615,-0.858115237732949,1.7993875508151909,2.935434210558906,2.7484639576725676,-6.630027175825026,0.7588732131761957,4.89609378517481,-0.3727977876722497,-0.006376797700018422,-5.596965509569504,113031.01,113031.0
n000277,-11.41517326871233,2.150276922281231,4.373076063722308,-4.647385231031657,-8.729674349579808,1.745810017789571,4.206106135343038,4.16629981739539,0.019467096172529175,-4.589813270288751,0.582368443856009,4.441389353657241,-1.5567575799987805,-2.1904050534745263,-0.24289694508382564,113031.01,113031.0
n000278,-9.155583352091904,1.6452926256711264,8.959035442308998,-3.209185904726496,-8.288062891454807,-0.0714774188303191,6.042527388519725,6.142734308000944,4.627529041119052,-1.8889966684333577,9.415341300895527,8.879482179086716,-5.186152311818,0.16802208019635967,-0.7211587695477556,113031.01,113031.0
n000279,-5.849723076108558,6.480816081051822,9.463571013225565,-0.6105238635566751,3.5206798042097356,-4.183464937097664,2.0913077692548363,8.096940103995765,-1.133794388022069,-3.269800828816781,2.066621996750677,7.821873111657786,-4.079091974327572,-4.758596836831835,-1.1722605910755757,113031.03,113031.0
n000280,-9.536068804907934,-1.5254668242489093,7.615356911423657,-4.439491727190603,-4.912169540501584,1.9855440740049433,-2.1289062750951864,-1.2622188296052037,3.3632979725647556,2.069777632764939,-0.6021957322956972,7.503157595225193,-1.1687096290854493,-0.8638004087898927,-1.6053576630045445,113031.03,113031.0
n000281,-0.6039077033236477,11.480236064616772,6.966410000821529,-6.62293722756762,-2.9682415794752357,3.422473467404216,-4.221302594218728,3.7695392746991505,-0.322463573272593,-0.686945447269554,-4.621776710357917,-1.8729637932586334,-2.7591105211420848,-2.62246760629681,-2.3261610427763504,113031.03,113031.0
n000282,-9.61966684700173,5.1026797335684995,8.517156818381768,-2.0738803793179,-6.419090731396552,-0.5199211265534962,-2.481585017171659,6.255385910878363,-1.8809539871748058,-3.3137100746161274,-6.997154454855254,6.324342243817475,-3.413737832937812,-4.875609609352279,-3.292300177886487,113031.03,113031.0
n000283,-10.187413147224174,4.2257342650882865,6.6770962573488895,3.823703022688589,-5.830478360882626,2.583698291374842,-0.2487957728549418,6.5321346768564785,-3.651927853534249,-2.332717392631846,2.777666790836413,6.188909256794331,0.6330242861490761,-0.44063006960027096,1.9219991019907747,113031.03,113031.0
n000284,3.8107158195845234,10.63771962953821,6.281405414727714,-15.01383387152493,8.834183052443707,2.3635479127808616,-2.710141293249303,2.4690148214481575,7.225119450694914,4.306453966899737,3.9990615135468333,7.1213512664089,4.854498088451683,0.28908766168396904,-8.21440112793609,131199.06,131199.0
n000285,-1.4778343095184212,16.19134328172712,8.438892889136161,-1.7078879923223749,0.2981937116146518,-6.672251706041939,10.30877437143263,1.4626171828390298,-1.6165181260709995,-4.059853517994672,4.598329391771171,4.080383924427958,0.92991974342465,-1.566761436987396,-16.08173683847142,131199.06,131199.0
n000286,-5.4507851930303906,-3.523348458899603,1.8681282200743188,-4.768264589313097,-4.688010900298648,-0.8065170808632405,1.25786568371876,1.9794329330316576,1.6574275496483408,9.118065402626861,-5.220880380511017,2.8403440178727832,-3.859101488331909,10.457967811194424,-1.1813456396230317,131199.06,131199.0
n000287,-5.339768224196872,0.571094072732377,3.150670061141056,-6.757585298938389,4.956085847831069,3.0275260936209203,-8.80056737453721,-3.443102420957152,6.399841097877721,9.108846014327609,-4.16635993354801,3.90672603549052,3.2093909656363477,-0.7458871904199734,-3.4687473324879923,131199.06,131199.0
n000288,-14.130195102936263,6.948710638096088,11.61669210061456,-4.6869476814959175,4.957495022019313,-8.113057326484345,1.4690546521692105,10.58829365989064,-0.8051928287262282,-1.9065109157547626,13.059256313091915,4.983735644824044,0.3689328972823407,3.779878016083542,-1.832240891511136,131199.06,131199.0
n000289,-2.485561614711756,-4.122189132804579,1.960828728111336,-1.8577863435012332,0.059429586355998154,7.16320065926961,-1.9958520786977703,0.9781114067898173,-2.689578194090223,5.50667932436176,3.230238883096492,-0.6409071721981074,-1.340030535646875,5.9613182778518095,3.402657343941266,172051.0,172051.0
n000290,-2.9704603613033305,-9.280575653041897,13.158037674971858,-13.065269695742213,-2.7554410247377437,0.1790274799494943,0.7175011156818096,-0.35192395839622703,0.07099413543447519,4.2727227932877625,-1.2793135870143622,-1.1136304247849436,3.535463044629583,1.5084160621912177,0.2881534264191177,172051.0,172051.0
n000291,-6.11071040364236,-6.184163091088143,0.4883336538586649,-1.4412808517159128,-3.4374175384105627,4.255267149673158,-5.806562671423876,7.3957487457996685,-2.8305661589524878,7.052353135568202,1.9500789778154024,1.7525270297242934,0.7846681621785576,3.9547951823056797,-0.5428658733957104,172051.0,172051.0
n000292,-6.659025823484309,-8.352760528874999,12.444952421554099,-9.62992618126949,-6.069227778531702,5.013827982389556,-4.905057449991305,7.6142310187936175,-2.9408726078250558,-7.351201887859608,-1.2556081438355307,4.364354081958753,1.1660337305014972,-1.2303965251901126,-0.5238715505936344,172051.0,172051.0
n000293,-11.600461268653952,-3.3333085867925387,4.8894266451582,-12.951219515377538,-7.121650031210969,-1.0323969534486734,-7.769001622238411,4.392196969672745,4.580451986399293,-3.622341561897981,-0.2625630191288705,-2.0985891815916906,3.996980807751295,0.2997473723236779,0.41770524946008236,172051.0,172051.0
n000294,-7.515185948837479,-3.9486117760549995,5.125298578293303,-9.371267884448091,-4.560482659838173,-6.355060682238849,5.1762730567289195,3.365467388322833,-0.23216105477139504,3.3369480690464766,-4.270399283393166,0.48392109414721296,4.499872907231274,-1.7185357556163985,-13.038408387214982,172051.01,172051.0
n000295,-13.313178811101183,-1.850328629288032,0.24359513146416134,-1.402362189198287,-7.136705945773495,8.632223810512833,-6.936092164401731,2.057159276872329,-8.316372689607412,-0.7328967551700724,0.6547444738445098,4.2300040833178505,8.893975629371543,5.832626927809008,-3.737695632530124,172051.01,172051.0
n000296,-3.2212255425492202,-2.8637159706300195,13.035520024085642,-9.488541207226321,-4.808039850699278,-2.4431150978495113,-6.587687833608146,-2.8703437643282843,-1.5243760082169606,-1.7289695148075577,0.25138214081987065,-0.33093875822177043,2.4942656470055704,-1.4446848695704713,4.78305391597949,172051.01,172051.0
n000297,-13.773570671353735,-3.4727363770474553,1.4017163941021744,-3.8983346534257075,0.48977440314477927,-1.2091984939489178,0.1432826662045567,-0.7161348300675632,1.440301412115962,5.628190027433024,-0.964509868920264,3.5038724657631297,4.6824512119592185,1.6994830058342711,3.9162351286200554,172051.01,172051.0
n000298,-4.8007291352748656,-7.037064185290184,7.547390114865038,-0.10716812883420168,-3.9987508799507925,-5.422555587337804,-0.49860075931987946,2.673328931703355,-4.939957691563082,0.1606990384478878,6.030962032184769,-12.453317113535334,2.2689825572410056,-2.7668526539991984,1.1093593143994607,172051.01,172051.0
n000299,-15.003994972647263,-2.7055049804559435,10.89721916966624,-5.382245073387925,-0.08212558493125555,-3.76343498143152,3.3686344337524803,0.5877571303275231,2.067913200844539,0.6107475100213889,-0.9575889040754637,-4.638619870888549,-0.5691045550222094,-0.9471663646330009,6.889462506195271,172051.02,172051.0
n000300,-12.962724282867839,-8.36644879578207,16.364163153831928,-9.969096474610849,1.4562145532454323,2.822327451807134,-4.781230625080007,7.129701486755291,1.7927013876186744,-6.92364456485657,0.1973154570811826,0.8313213103988564,2.8900695836483186,1.0475844276998985,4.628784508129746,172051.02,172051.0
n000301,-11.930949590059893,-6.957727019664574,2.706423702568232,2.1023865589718533,0.637245816089095,5.968142465698116,-7.393224206434929,4.461892975806522,0.11898610439059865,-1.5844884308565472,-3.4601857117423718,4.272792166579434,2.5238115615013736,9.444800582623236,-5.126578450871669,172051.02,172051.0
n000302,-4.475399759887409,-5.3161135578721685,2.4410271356577917,-3.0393613636915084,0.19976002527071368,0.04156806450153583,-0.009687698774561548,2.986989021115492,-0.6983472606441781,2.103992031901978,1.5154745024942735,4.425533617310062,0.9986454077656106,7.888194566331515,1.4336855447246317,172051.02,172051.0
n000303,-10.871582840690833,-11.878365802876525,6.0349179568811095,-7.100939002336005,-0.21602017607739843,4.4294105934218155,5.9616233781071655,0.437278045198473,-3.12314273856286,4.948077512827415,4.627408698539293,-4.987139059503544,-0.1906699643341465,5.465623115726499,-2.5234019145905275,172051.02,172051.0
n000304,-1.9406649332772705,-0.599151310379284,11.51538090674001,1.6762043577013204,5.583675874329288,-4.755416137557904,-1.218327444451929,-12.110353530111603,5.791433407795217,2.4724429891205766,0.24672956645153832,-1.0833016556315187,9.646502152402707,-2.183904273251011,-2.4596937006523527,172141.0,172141.0
n000305,-0.9142921124808274,-5.089584908630859,17.354052429507174,-2.2499674692337925,8.874150952114686,-7.665029737248961,-16.558133900599476,-5.301553957871645,3.5276470397709474,-10.455137676518177,-1.9520730827940866,-4.829142507262939,7.978459568685925,-1.393129313491992,-0.172763349273791,172141.0,172141.0
n000306,-1.5414340896254406,-4.46857121233569,12.291358804148867,8.114396545535172,1.2892447286867803,-1.3175368430670413,-1.9819872967407286,1.7633576968949485,-2.667335302270539,0.20618926585219688,-2.9037013309591253,0.8031987286515077,5.494142692226745,-4.24447248839579,3.71930917877451,172141.0,172141.0
n000307,0.3372240808446998,-8.856996063743669,4.84225185401605,-3.4119137980730616,0.7143015437445415,-12.739784966909545,0.7322805166232926,1.0602140173945815,2.141051588184336,-5.0544420403291115,-4.734047341274545,-13.378373039427824,-7.479916862626006,0.34034700720681543,2.0771372712211065,172141.0,172141.0
n000308,-3.0298155277834447,-11.232322251888082,15.623688885672305,-3.223166229616323,3.5564378235342566,4.4364753121879446,-3.4243065374427926,8.195785544033463,3.019482797373997,-2.137470775814161,8.814567165138389,4.61275085469266,-8.917068752602075,1.5766756355200768,0.6406374284077643,172141.0,172141.0
n000309,6.064647312132381,-10.535665170541844,11.135570046198799,0.6174441999488511,10.70630856978958,2.549603305407224,-2.7841690619262804,1.443527073336882,1.2984842769997378,8.071585233633181,-0.5173909312204383,1.6935304461604952,-2.3287463196514304,-9.895616671421939,1.192635302843769,172141.01,172141.0
n000310,-7.70497190931474,3.3977938700206485,15.30082914627253,6.831211648211919,-3.4550258152918962,10.56361550542403,5.304153623715983,5.086926735886623,5.041300911548065,-0.2396098971846193,0.27434425849405586,-3.0080168256988506,-4.800082610370051,6.128218795694081,-4.594558472981912,172141.01,172141.0
n000311,5.472926150785186,6.124775831307985,10.07430459906417,-5.129533182480151,-3.4208662198379933,-7.881426761211435,3.8037646096418007,-2.81432174053093,3.0520292009872785,-4.4489169635708885,5.458972738904917,1.0123692080325464,0.16523417374865568,10.006130543489421,2.48669944205914,172141.01,172141.0
n000312,1.4588058934435066,-8.19139156357527,7.663783757228951,-1.2399335719776026,3.1865275964930406,-1.5685680448304362,-1.7826567461452623,-0.8399185799353939,5.296272903563555,-0.04541627347035687,-9.263816611584364,-2.9349254545780963,-6.084553913047631,-3.4845309028133618,3.3684906031523143,172141.01,172141.0
n000313,-4.969443226679088,5.539559973263681,-1.7724650826206148,-1.1525691189126666,-1.050454199739983,-0.042393678511620125,-3.315421813757528,6.7686343896434575,-0.5529042431211925,-1.7290982125258734,-4.8875286250042205,0.07323457126451505,6.061039839461635,-2.9760430093988024,4.309075092314171,172141.01,172141.0
n000314,-4.7003956417689565,-3.809642283231368,4.363219323899607,6.241095190204685,4.433527919954875,-5.534575584470281,-5.792591606396196,-13.707065752732479,-4.557986089044061,2.632871761898737,-3.5193615402077167,-1.9465995312895719,-2.8924185710684336,4.938042921000303,5.180735474384533,172141.02,172141.0
n000315,1.1281782829042353,-13.26596497302896,1.1313837165659928,1.0704556118226987,-6.0244274200803565,4.690259356974902,-3.53107461727451,10.263112575396555,-6.408456346972101,-17.370731436638028,0.7423145086757815,-12.051982170103159,1.5272987369447089,-3.8596414149285834,2.360465199563308,172141.02,172141.0
n000316,-5.897796491160366,-2.6085092705690576,1.4012918400099332,-6.731340399492364,-8.330347737102077,1.0338065463691213,6.436738108876119,-3.7604085696619247,-2.152739419567105,1.7094630657503826,3.3314567325100786,-6.910680251781198,7.459477557555835,-1.6032580504382183,2.007021807711363,172141.02,172141.0
n000317,-1.579872674866098,-0.14395262392674812,9.296481434099865,1.0212567838440996,-4.989964741617007,0.7052845792857414,0.796207535846173,5.798172594480528,-9.073535248495913,-3.955387407022242,1.1649894530040708,2.9532223121374432,-2.658172936071665,10.369700260792962,12.79520236220511,172141.02,172141.0
n000318,2.1631771712506875,-6.677858047604792,-0.1334277819220704,-2.8279627905702545,-0.9380074721135401,-8.568538399628073,0.08333647139679562,0.34137698709638786,-11.027834854103192,0.7306961629966136,2.0763534709356293,-1.366454320838364,3.0611309691921695,3.618935796027893,-10.326084011166955,172141.02,172141.0
n000319,-2.2812030565742774,-1.055033299896825,-1.0300989460385592,2.1227437443002666,-3.9374413245953264,-5.241644158548059,0.661870881684125,1.7489608191172636,0.5542679858562624,-0.08277876668229339,0.38984751814476876,-2.1567545975467732,1.922707647067922,-1.7246485881357416,0.924406585792622,292099.01,292099.0
n000320,1.3799458006193417,-3.714298569604054,-2.4292649291763384,1.3946394853538862,-2.7752011112478168,-5.88673508607434,2.7613567115465227,-1.3449676738963372,-4.7450794399564895,-0.6157663822565209,-2.741771211462147,1.3050827017851556,-1.037853424224985,-0.533791522871286,-1.3823612337277782,292099.01,292099.0
n000321,-2.5899102893009767,-3.832271293741202,-1.0978338954745726,4.846039876062854,1.0872186928522334,-4.301731032164678,2.226744042656476,3.6306127942130293,-1.2411297703557511,2.752460418395416,-0.4728557609896548,-0.6609170835512489,-2.0180413533254886,1.8800834611114656,-2.575818815175215,292099.01,292099.0
n000322,-1.694507383533312,0.30090494089289477,-2.82218194232281,7.430464319287593,-1.7080773164198,-4.7780432578747005,0.751153004951731,0.39001732880457496,0.4126595731895849,-0.9842760001179023,-0.012055872291497738,-0.007620267981918838,1.30134749625928,1.0281490469928616,2.0689192231099276,292099.01,292099.0
