,0,1,2,3,4,5,6,7,8,9,10,11,12,13,14,O*NET-SOC Code,round O*NET-SOC Code
n000001,-13.302989661893253,4.130752065103049,-3.9030032735912803,-6.75138374254165,2.1001833146506868,0.20168992901518445,-5.107595951281506,1.6843111353570803,-0.9900413848808292,2.304645601281883,-1.809478629196128,-6.1436622848072595,1.9912702109649025,-2.4039729209862397,2.204672538670729,113031.0,113031.0
n000002,-12.34446673627441,2.8199623087255605,-1.9583009777733353,-6.124050318466726,6.316230427406824,-0.19128568849444605,-4.669979954811801,3.6437235255014175,3.69397806913192,-5.13976598048402,3.5345499214564504,-5.294684087837205,-0.7172564203269076,-1.4118515341445075,4.613087948171356,113031.0,113031.0
n000003,-3.401065969293101,4.3152259320451165,-4.971556749633172,-1.2798321375605848,0.771881392156267,-1.9115797636070662,3.084873059699794,2.190728606519394,2.7430650838459996,1.3011734951544223,-1.8853229251574843,9.48572163450799,-5.976402924032739,2.8552983196956703,-1.108677513653116,113031.0,113031.0
n000004,-6.87116537474192,4.102965732847946,-0.7133643988483245,3.715615663916006,-5.195041222708008,2.1634359715973903,1.2526061406463196,9.412040846750486,-7.777737244057926,-10.958881973642555,5.682469607076087,6.314897761981902,3.8583297002915877,2.078322973021365,5.124362819750725,113031.0,113031.0
n000005,-10.472688643071404,2.986009748104274,-0.8317808932656354,-1.3131633771477031,-3.1319071451945724,-4.982975488774897,1.2440109579393874,-4.719631947189461,5.359667171343154,-4.524480869123184,4.640005377575972,-2.760144685789868,-4.617729341449625,-1.5348242924085256,-5.07767374908944,113031.0,113031.0
n000006,-13.807453325340848,7.874874849203572,3.236849097744401,-1.9074053840477856,-2.4443886984539613,-3.8439122358248743,-4.549019643125404,3.4359144851376406,0.060059232513098415,4.428830844217386,5.366431488957025,8.345404108030692,0.6311499049976068,3.3165809755295754,1.4217946415135785,113031.0,113031.0
n000007,-14.492984151387788,11.09716813830809,-0.7804201169100424,-4.796806983269134,-0.2335925788135813,5.647067354121256,3.75510816484389,8.13847734130537,0.9615984099485826,-5.46839807605707,-5.4828836250442,1.4785471804704942,-2.897352373701548,-0.4964621932748524,3.93787323760926,113031.0,113031.0
n000008,-16.013096909101296,5.242484054388939,4.469847495195069,0.5612267454682547,-5.042914627412101,4.111744181235638,0.8712997693841191,2.3321560512498904,-1.349917272331691,0.10546015242155127,4.2413586178052745,1.553894430019389,-4.2883739397353,0.033061905633733894,-0.3519173093530452,113031.0,113031.0
n000009,-11.659697707059326,-3.9986538679938475,-2.182604852909242,-0.9099204818817825,-7.190064050696746,-2.4145291026219695,2.440143544073152,6.940233437711404,-0.5591377928800134,-2.274108382752239,10.364782522229707,-2.756085808141756,-0.6654154914197079,-0.4542050014141092,2.4050244739282447,113031.0,113031.0
n000010,-7.499990896041076,2.2318340482965735,-0.5744391533380819,-5.172062345450211,-3.1531687677204965,-5.194099127429826,-0.40019768990561544,5.060436449740936,0.2803551673188007,-3.3024182764361205,4.899735053477439,-5.630999738696115,-4.41013206623916,2.405459294447701,6.738143234609385,113031.0,113031.0
n000011,-6.208251233839956,5.302040134458102,1.557946570535224,-3.844374087779236,-4.799660116888711,-1.501135574219818,0.5592052044837932,1.719126574148261,2.471406041408851,-6.383833434217488,2.8482302977678104,-0.5110638112588799,5.995843210816436,0.32764680904399757,1.3920237472920038,113031.0,113031.0
n000012,-7.373605898897811,-0.2771157058689866,-1.2323472341723771,-0.7929382279131465,4.702557033871583,-0.664342361508841,2.0802714230400254,6.065911765837431,3.1974510819173116,0.9913860118690363,1.496967079582683,-4.473517395733119,-5.400421874851787,-2.3603017596855342,-0.09556576031128605,113031.0,113031.0
n000013,-11.82150011950128,7.061929936144099,-2.2685398398606313,-5.159570317476241,4.6496724058918915,-0.1672864725166776,-1.2915044963229256,9.487660646586844,1.8561632606200522,-0.202211675324099,0.2321159531717083,-4.05281902037357,-2.0931301256642896,4.054511080046628,1.1038807809426616,113031.0,113031.0
n000014,-8.637746056226455,3.6497070278484096,4.249742799631302,-2.1284915978106795,-3.0993601407320224,-0.5966519319227489,3.5686432310238376,5.634983460735503,8.748169857938832,-0.004862053302211233,-2.6034230053870218,4.998461927206373,-0.19737466415838334,0.8080626765969096,1.5218537163216999,113031.0,113031.0
n000015,-6.233819089761861,6.796065284164484,4.935868409068265,1.6706378346848907,-8.756701475271973,0.11005468560037734,3.5088714508134933,4.575090495751019,-0.6362159091307746,-2.9229700865594035,4.011989578905107,6.926290088848015,-4.114250238403454,0.44952199660805225,1.9364959362467977,113031.0,113031.0
n000016,-8.831468944297187,7.63567902749414,-1.7301189217146205,1.8043747846646725,-3.335882237201807,-1.621462506822196,6.069616562697055,7.785505691385545,4.110742356111488,-1.366696665603678,-2.5338682200485887,2.9050386529051493,-6.508224452127213,-3.239039177452496,-0.5767497005792956,113031.0,113031.0
n000017,-8.382182319446375,-0.07366798979070177,-0.1429413969394876,-5.078368264674433,-1.6215016443683274,-4.733470410809799,3.429749933721264,4.2188632822700605,4.528618020553457,-3.243863764157915,-1.3865677430277543,-2.2589699282673,-6.964914019334214,-7.168216325090652,-1.1265557275774232,113031.0,113031.0
n000018,-8.50372919516046,-1.2821590084301207,-3.737006453727063,-1.2426511462031944,-3.0731862062593622,0.913845270683062,6.5309832135366985,5.300725657784064,2.7535077691507794,-4.2788707159174955,3.466583662967749,-1.255238556067334,-0.38755825515501074,-3.1240235262426728,1.828923021276214,113031.0,113031.0
n000019,-9.224602369413743,-0.992264718101894,-1.1023834426301575,-4.587733260771885,-7.302467212984158,-2.1517529030065017,0.24760891668415702,3.7289034502509493,2.328676913340016,-1.9168109791925447,3.1275384256290657,-2.3355461796975954,-1.806412830502597,-2.0404765348251748,-1.474490554975352,113031.0,113031.0
n000020,-9.88009965582539,2.886254206644781,-1.3656980285418827,-5.796378148418245,-3.58534288654688,1.5484629519233386,-1.8010381675119036,-0.46630183800924163,2.9984833569686757,-1.2651884422518498,-1.0544702070155574,-3.399143523101909,5.486446282495157,1.6086061074644369,2.592302856239094,113031.0,113031.0
n000021,-4.506813016186822,3.034759580303433,1.6712033535880406,-2.9588138866607987,-5.84540739266761,0.4117167179344925,-2.441261082897641,4.064194579158434,3.4444403908356014,3.2237484764592326,0.864534787627407,-0.8009320938150826,1.5906136328103408,8.29131836396895,-1.4749913067975526,113031.0,113031.0
n000022,-13.92354146789194,8.380743695125002,-8.903997624515474,4.411853311850447,-5.343985868100462,2.2720676462406577,2.839054165823265,8.064935441968347,0.7407766685132318,-2.3554302957530355,1.5172634440666375,0.7402783857039873,-5.083618405363103,-0.20045615988171533,-4.451664569711266,113031.0,113031.0
n000023,-11.573348588271621,1.05955770035639,5.013662178488062,-1.6489863162365455,-4.446994038362546,-6.91637679390408,3.917100896188597,3.5450046513331093,2.414105839823444,-1.446923026505863,-1.1904596066787048,3.7254692513627976,-0.8692422376291633,5.29268851211731,1.999972619193923,113031.0,113031.0
n000024,-12.691119243723834,4.7135464283561355,-3.743421286325699,3.5546729169650075,0.49326123814060185,0.011165651246256236,1.2929679838590133,8.609898031824267,2.8803677874903744,-10.360529391139448,2.5746830120375677,0.712976120344821,0.5352689620107864,1.3068506652740413,-3.4893859659056963,113031.0,113031.0
n000025,-9.09281343615607,3.435773728308942,7.496573745311216,-9.521348803895078,-0.42641779563344384,4.627807067771036,-1.044529197414461,4.21768072792077,1.3744128744698567,-6.9174902402779,5.512903519652265,1.63677653753169,0.888467303382364,-0.6547060518120552,-0.6697870242676855,113031.0,113031.0
n000026,-3.5183803675633216,4.133966606022067,1.7244847640526388,0.16747974389282438,-9.971066726468587,-3.1883262470704556,-1.1554651202339992,5.186758638568572,4.5316001867792295,-9.654282587231375,-1.5383128427983226,0.6308023356533227,-6.508053011216541,4.407153503833155,1.9863131276885282,113031.0,113031.0
n000027,-14.038021962638684,0.9764010267958638,-1.480481401397504,-5.8163302092126585,1.590164504271367,-2.068706513336794,-1.4288948283918654,2.508465081625981,5.896827548984881,2.5017520734903034,2.962499459056986,-0.21640802117312097,-6.00128979988677,2.2805875218652223,1.1836519059178172,113031.0,113031.0
n000028,-9.216370711424737,7.302873788894472,0.7168185066719606,-3.7138789923022824,-5.833823771619618,2.0070306298647003,0.6913098778561881,5.947454196576736,2.9705291308471633,0.2679733976966272,-2.4635347113286903,-2.273893349510418,-3.5578962698197114,-2.005943833053536,6.1717138189382945,113031.0,113031.0
n000029,-8.038942538590417,5.936650329647261,4.09184600214654,-4.651251034215678,-5.401416880473385,1.0124247477268202,2.64385898925594,4.626353256881411,-5.727650610186608,3.444564052370308,-3.8932212363970082,0.21678937537931953,6.628568158103923,-1.6583628149369092,3.7946535993448105,113031.0,113031.0
n000030,-6.2630953470629445,-1.2405039973220218,5.128732293753306,0.8766191954360258,-6.000699893107553,-10.693474928350106,6.605613385502674,5.690144520917908,-0.3909446266541874,-5.67012418730741,1.028536713123787,1.6878492984266218,0.3295028165466931,0.1434317939733718,1.8869097052734196,113031.0,113031.0
n000031,-3.9285299250409276,6.086255891511392,-0.8164414851855901,-6.56200119018604,-0.3677912173066096,-0.48194703798657745,4.773778827643574,5.293310043418729,6.44845778441516,-7.466480355495823,0.5097394193001508,0.9691008818730196,1.4607715699051975,0.251778346095438,-1.7212990173782774,113031.0,113031.0
n000032,-8.491643901684906,0.7957337719097186,3.063442285277258,-2.170527839603132,-1.6504477091198806,1.4744952361316743,4.573153298051557,5.946528691193059,2.964298413746268,-2.24882085624964,6.644436691712112,0.018223748496968062,2.0603752448101877,-8.14323902389708,4.44751910734955,113031.0,113031.0
n000033,-9.03470299030956,7.489766639878564,-2.9987062473243182,-1.8547420816833395,-1.5995480252589198,4.618540710518659,3.0467873955224105,2.8021695521859966,7.199872742457655,-0.7245011146497664,2.2733859447390863,5.546820993385361,0.718956319019191,3.6160379880620606,-2.9164650185320458,113031.0,113031.0
n000034,-9.164122258179015,-2.7315205774057416,-1.8895053390598384,-6.126268808072818,-2.2668669013986817,-3.290535007769164,-4.737990676630695,8.537664873259315,2.8639490870102433,-3.554757180724657,0.90584428948368,4.620700162268849,-0.9862044104424172,-4.109491540478847,2.7305175091290117,113031.0,113031.0
n000035,-8.097425126554421,3.550951020252322,5.1024677315499165,-4.706622488776391,-0.5470628260269557,-2.894322142124368,-4.401431743047599,5.618406525494196,7.716463349702218,-1.7386616862122959,3.0269309556309945,0.10601024705592788,-4.6214234343102465,-2.164400071117145,5.655551890510642,113031.0,113031.0
n000036,-9.857984716307147,6.165022403068884,0.4644594937991522,-1.4281607268273167,0.3203521734449404,-1.363954770654761,1.149362974332847,1.8577512962149083,-0.34276650124871466,6.1046780637212255,7.581792690883886,2.4572821602880364,2.356932488315569,-0.2558274843189215,-0.541565921456135,113031.0,113031.0
n000037,-10.067919819253596,2.5745748705442986,1.9948449538130126,-4.006932025399573,-7.251658204317465,3.5245620027618436,1.089673110675279,8.669245935037793,1.522733283051756,-5.858007134443001,-2.0978878712475018,4.269946377168559,-0.11089078252997342,1.109674212052885,2.9114013858656067,113031.0,113031.0
n000038,-9.334783729840034,1.8446095947921706,-0.9542652636229563,-5.742220165700462,-2.6166009571138167,1.0183465873126192,2.4948418402578785,-0.6838676940267558,-0.7520524946408189,-1.3394933502292807,-1.002422467674068,1.1675611327181084,-7.526151312227826,-11.119202695988035,1.1940184204054636,113031.0,113031.0
n000039,-8.030610307494097,5.06805328995795,-1.0344568182782372,0.8248198933423199,-2.6296140850266423,2.8936758202202273,-2.4086389366949565,4.672425436604873,6.156941442785811,-6.1370396769182225,6.659707634271733,2.683530178946909,-6.516645150536755,8.766431498305264,-0.07807847822732561,113031.0,113031.0
n000040,-6.089714416629679,8.11609552840925,0.9851656138755716,-3.06339417559069,-3.727445464019577,-1.8636211480405194,4.636959232217248,0.1636256940266363,-0.8772034761605765,-5.538326815735747,0.02561435916686383,1.6976831620238049,-1.0849636371145384,1.215058447179939,-2.1264915207482993,113031.0,113031.0
n000041,-12.308232785546197,2.907592494230757,-6.1080508976069305,-1.8157229589045611,3.4492268475942702,-0.4966733987300247,-2.8963008095426934,6.519690365791634,0.7741325853959142,-5.93739876685928,6.967249763391163,0.10335401350224949,0.5836949703891956,0.5878971799787709,4.164528478242341,113031.0,113031.0
n000042,-5.12786777520237,6.518173476126429,-0.9335337381583295,2.64338830019788,-4.119955082780661,-0.06659911996967716,-1.112471727575889,10.40062558708751,4.947640800997352,-1.011150500255699,-1.0716001131532487,6.027418630709807,-3.364663594100505,2.103341294613583,0.6110898289480179,113031.0,113031.0
n000043,-11.419790259352634,-0.7142708438640959,1.9962183270493807,0.29162759514351544,-1.7074888947705116,1.1874146505264251,-3.796665784994085,0.8863346755728414,6.224393691035807,-8.79462507407904,-2.4942654652309795,0.8895866399074168,-1.256540845431215,-2.888975457550243,0.562338221656985,113031.0,113031.0
n000044,-10.55878423969207,3.3958413076264415,3.1952499440817044,-1.6277801764505762,4.776051170869916,0.029656661089520475,-2.3665765149039775,6.355769883234767,3.598968036032745,1.0438825040614015,-5.110853551333165,-0.6995919506703048,4.227452100198254,-9.981751855900765,2.3204330995070848,113031.0,113031.0
n000045,-13.444269628459217,0.013180794270191587,-1.1315384653429221,-6.847480676670912,-1.1046576160846475,4.321746381687399,0.18543043981536633,2.274276327994521,1.3521999879769933,1.9103863185811214,2.19803720727543,1.291488797875373,-3.6517425856137598,4.563654945007185,7.203377316382731,113031.0,113031.0
n000046,-9.135280569790906,3.080924383973893,4.68494282404355,-2.0449516744985754,-3.567342729837588,-2.4479493304531372,1.6231065918822827,8.168529005969853,3.6808399187377563,-1.684775992903642,1.2940732344241728,1.9362389441850503,-1.7870721521040753,1.660359156527739,4.119015809699573,113031.0,113031.0
n000047,-10.757071424780696,1.3650769222796248,4.168118417308753,3.0485278256357984,-0.549382853698813,8.18072422249134,1.093657616291308,3.8026374455288394,3.908890213023708,-0.006561571535670829,-3.6578214876943154,2.1632323740979,-11.421973773483359,-3.7879452844297234,-0.5012332539600846,113031.0,113031.0
n000048,-14.915681553094712,5.322943315133791,1.0840459828529594,0.5816723871532905,-0.001271453421510138,1.9555293812384251,-2.0526190254270715,10.792522069292865,6.182822082662078,-3.3276462226462042,0.24182003298069488,-1.6854314134096977,-6.165141386473491,-5.432233570179812,2.7834791930294003,113031.0,113031.0
n000049,-11.280080444047153,1.4612894877736708,0.4493072006897931,1.3598700785452968,-4.346804183847284,-2.1621980093438724,1.7542734734615442,4.064228044191694,3.2561741519219165,-4.235390748919082,-1.0911864520733259,7.275495031808828,3.0893686272049425,5.763312020810446,2.9695404510638923,113031.0,113031.0
n000050,-12.779645316467992,-2.279740020732268,2.710043322186079,-3.464787006769593,4.4453534629015685,-6.091482121927971,-8.98592298483081,5.7765367754214,5.118551660982218,-6.208564457285098,-6.492596436001486,0.7092617572499762,1.1949726872828759,-2.183686848771791,0.7037929413642534,113031.0,113031.0
n000051,-11.27461300717692,2.706173000682659,1.3055226265902964,-0.8055107199801737,-6.13656644203763,-1.4581214282482164,4.430240359583322,0.19676413545018567,2.959035824825308,-4.776828339898089,2.7699909061402312,1.0499885051098214,-3.7863707778963076,-1.8871036775258871,0.48466774210819163,113031.0,113031.0
n000052,-8.134379240574336,-4.804122372593702,0.1673856173704485,-9.483332975512107,-3.5165550925335918,1.4151896192072302,1.0421034021122177,-5.338071731123618,-0.4848119491788667,-4.270453650606662,1.8651019094844363,3.2383129996316407,-5.970134629284354,-0.5913896824152435,-3.010844567130315,113031.0,113031.0
n000053,-12.195885241191071,1.9332464001166914,8.847080769755205,-5.176207444361953,1.3847972268004116,0.32121756480476815,0.052551843312400204,8.453975520751552,7.488975063512452,4.568575145311231,5.2519801100360795,-0.014560046996881626,7.963468507630306,-1.2026706723291913,0.5739155543571406,113031.0,113031.0
n000054,-12.182316633926215,1.4111328623081372,2.833443687803447,-5.165819653774679,-7.967844591132804,3.925847188056032,-2.323412540289225,5.13595556708943,4.376933747684815,-5.329793456821912,-0.5587889011136522,1.2396214245790316,-3.5494575802703334,-5.511645001775486,4.845355958488532,113031.0,113031.0
n000055,-11.360255667667886,2.2456398199332965,-3.9028399972199352,-6.60697814986271,-4.268410094359543,1.5933834550847679,5.373464722894564,6.8049163493827205,5.852284469958407,-6.034970714873024,-0.7654328061487352,-0.035741066793837595,-5.547854345862558,4.60115504626217,2.0410480509026963,113031.0,113031.0
n000056,-5.622827009006266,5.646297956161799,5.048484507870789,3.5147524686259124,-2.034324663751774,1.2324318241283858,-0.763933669233318,0.18815948719806697,9.879511234460342,-0.3716201910647685,3.984781467163267,-3.2695664736976964,-0.5185892728773493,2.4550768713408417,5.1116461909839055,113031.0,113031.0
n000057,-11.317161848258136,9.67191250175787,-1.6182768864288286,-6.801891134158975,-4.205465448905933,0.8473045854460928,6.399181139888015,-0.1815046064778314,2.226241397378586,0.9337530683253283,-5.481962220906061,9.988693549767742,2.679514264936545,3.489909635521897,-2.951566216249958,113031.0,113031.0
n000058,-8.084944281295403,-0.2024424850292621,-3.5373573282588104,-1.9629760126113391,-9.424575491673487,-4.240813585120177,-7.331957101309429,6.7724457351192635,-1.2817905290104328,-4.6867407441522815,-1.8701094871844974,3.612753152227132,-4.545933704642213,-1.9738818881022204,1.1892285819004758,113031.0,113031.0
n000059,-8.592093354226249,2.9007256043574214,4.725069687845775,-1.4185733120215784,-3.467418421638668,3.8144362852127243,4.0864799842182205,0.3620859611718723,-2.4978158353049675,-1.9003835903161013,3.5328507344567672,-1.561780793630781,-1.0243762299321817,-3.1125614729953055,-1.9443857775555256,113031.0,113031.0
n000060,-11.072605015267037,0.3341546632024355,-4.780247942109728,5.237178189674415,-2.8011373936809028,1.3202014643226214,5.604310811800275,-0.6049592299414868,6.185867905603175,-1.7694182345899598,0.8063510336432355,3.331338479800406,0.2542592689119876,-0.801692682157805,0.491173104682057,113031.0,113031.0
n000061,-15.961973303714299,4.395091903420167,-3.6807540132908803,-4.811615631202607,-7.237825013479476,-4.531469350024668,1.627358412136064,-1.8665925842393825,6.701472954246142,-1.625683165336292,-6.975982954545032,1.7201500961886973,-3.9879333064923244,-4.073127538298129,-0.8102669498604409,113031.0,113031.0
n000062,-7.126630838055464,-2.067057001726888,1.9059426101633412,2.049257039610968,-4.449014743367855,-2.0567236506086335,0.7590339960003911,5.873865648809378,5.919050545248004,-0.10079969747645823,1.7687554589898369,2.4322294635650383,-2.9257058264101574,1.5408103662164725,-3.0379277593683254,113031.0,113031.0
n000063,-8.761021963104477,4.708022959883348,4.6965170221617445,1.0065332392967359,-8.557596665642794,2.970315057537578,-1.445953724138275,0.27485945953815705,3.4586239003053643,2.267046223254889,6.8153622733172705,-2.8753883080496747,-3.5916155111611934,-6.1045777675495225,3.654815261242315,113031.0,113031.0
n000064,-11.679990458470492,-5.96634554174189,-0.4110205993133608,-1.1736549661428026,-7.985471413334103,-3.032567173768619,-6.1588689919009125,4.58703731590944,4.0046822795444825,-2.9129921419638447,-0.733793779986812,2.2038750703492025,-7.160008529915148,-4.114208011705588,0.21637949819281654,113031.0,113031.0
n000065,-14.868187194311123,6.37716264428899,4.00143560831328,-3.9970563592470483,-3.5686066122085696,-4.668007753637771,0.19842212598114167,7.2561922331024356,6.1870384055124195,-1.9199214049175093,-0.2619320619799379,3.9008094804572675,0.34207389778551534,-1.6214697004372474,5.254569131712931,113031.0,113031.0
n000066,-9.383768670729987,3.9758358837643337,-5.858851868397823,-3.1843840420492247,-4.699105959110731,2.400313741502698,7.596951904676761,-2.4385294282338754,-1.5031226131062656,-0.4713758564029682,3.6007473261877676,5.7993047623402125,4.765760400680237,0.5317839283866622,0.9145042897829075,113031.0,113031.0
n000067,-6.083833732048807,1.409608284978695,0.8300031754371682,-1.2068251006033375,-3.899524987526031,-2.6499140243119346,-6.846116274802216,6.158119115705894,1.691237459486354,-2.5971523594066315,4.867608931630393,-1.9899146013127178,0.7589018891717894,-0.5563907809216077,-1.8909813213149615,113031.0,113031.0
n000068,-11.618421823250834,4.03161802729434,-0.01900190890271447,-5.038706468668673,-5.725071755084219,5.119990387760497,3.1425301131974397,3.1497331108387487,6.201811932959579,-3.188502145861527,2.268794237615773,-7.169305057750359,-2.375816922028991,8.14488272130557,0.7881333315534624,113031.0,113031.0
n000069,-6.691841664686499,-0.756455998381595,1.5325649906613419,-4.221018162910605,0.6416114522822678,-10.853937853838723,-0.3729754720547849,7.077583980502969,6.870716790699752,-2.354034643780538,-6.10217726336127,-2.0139648958870966,-4.65122189056917,-2.017271972589708,0.7678870966434763,113031.0,113031.0
n000070,-19.87178473791706,-1.9593618360879361,-1.4458499117265562,0.7841513573422074,-8.290901400971242,4.01012793405888,1.8511347682541537,4.757584280529842,4.063041976443041,2.398557059091879,-2.2516029117940124,3.37301297224859,-2.949898475831249,-1.147064748718743,1.6061173113462965,113031.0,113031.0
n000071,-15.496686634262858,2.1846432331632295,4.919543044214753,0.37723445910813025,-4.319653683391285,-4.848013589925942,3.777152713807838,2.7429431019018153,1.713260696650872,0.1265760547912005,1.739437266549718,0.016781746135257514,-2.8655426344857062,1.1072262561667445,0.9700507398194402,113031.01,113031.0
n000072,-11.449146078578712,4.055253632821231,0.8552863720600081,0.6824423346854194,-8.170622917244668,-1.8867453925753481,-1.1242216488158503,-4.426169427055882,-3.225481596196845,-5.2855678517371025,2.9085210287867795,4.9667390580369934,-3.2864375364131613,2.5285457247160985,6.123530600248337,113031.01,113031.0
n000073,-7.132837205262609,4.541728653322613,5.06965548470647,-0.15194378528248986,-6.574906694732782,-1.8226458798868541,6.943152964257697,5.231307714183033,-0.6888213687808409,0.8123657845178278,4.581377614364045,1.051406373146352,-3.038484543812471,-3.4547045175850823,-7.2062515999051895,113031.01,113031.0
n000074,-17.34148592389277,-2.2281187377182583,6.106388032054948,-3.137463547549025,-5.36336932934365,-4.307821480552221,-1.0595819806436961,-0.676912410942206,1.5464490652224645,-2.893477104790805,0.6411418448761397,10.924842341844048,-1.3602968570138232,-1.8153299134447776,1.3780476296499486,113031.01,113031.0
n000075,-11.817372703958732,-2.2689769331448018,0.3635703655958382,-1.825224100978275,-3.830654170390137,-0.7513170814253654,-0.24930042562155252,3.9433984623743115,8.55489976007008,1.5256009329292755,-0.45306294040888906,5.295673899199109,-4.807367925303584,-1.465525933422935,-3.8828081087356563,113031.01,113031.0
n000076,-18.90415918757104,7.75203982136219,0.9187148251366302,-4.335382919271799,0.900821594010317,1.6872377810618182,2.8389520907450607,6.435633264811768,7.873911407817243,-6.227411631911602,-1.9142225077067856,2.27437499199632,1.0308542405646166,5.159393162742723,-2.8592278026108944,113031.01,113031.0
n000077,-15.479069145585266,2.284294189124579,5.988420115649351,-2.4289858801927187,-7.622447328490754,-4.326636272027062,-1.786674881943001,-0.4331029429660389,1.6782022552075184,-8.100483121680519,1.5311086431573375,1.4451882052425393,-0.16280992092705193,-4.812873079803359,-3.7478586490421257,113031.01,113031.0
n000078,-7.926222812979269,-0.5633634866607913,5.9215364998154545,-2.1001981449168285,-10.507192141507748,-3.715497203122003,0.46971139162162356,4.605739804616694,3.535624285562754,-2.2938953781838674,2.0824763443490895,7.523840958481574,-3.2733302246884106,1.6196146320031986,-5.38166708795611,113031.01,113031.0
n000079,-9.503391022152917,7.347048207718109,2.9098448860618342,-4.238382069457096,-1.115778323892483,-5.575066713254652,1.8382814709726485,-0.4361034499093741,4.847803032486819,-5.039174425682487,2.6288376698217677,9.646082371245726,-0.5726693015918969,-0.12759463685354316,-2.3588553716538794,113031.01,113031.0
n000080,-14.310440009072785,-3.6509030385133627,3.5985311276885117,-0.8975700101775375,-5.492870827136292,-2.8977837252594663,-1.082602441170955,4.3596105424618,5.6371687728083515,1.1545503220873,-0.06190328128685252,7.235395737169512,-1.9645317732873617,3.2445826483020004,2.066565630070656,113031.01,113031.0
n000081,-9.86391647110804,-2.6478099388087157,7.158725090786318,-6.701051816178037,-1.5921410575631834,-1.733937337915361,2.7474782274353498,-1.1350995866166496,2.8907413131918958,-3.048290919371312,5.35549744098979,0.7102399344182118,-3.070468445505655,0.7231032031935514,-2.038456224553798,113031.01,113031.0
n000082,-17.880419224464184,0.7850135333155881,2.4553140470150563,-5.789719577018346,-7.666249686990318,-4.193684192971137,0.33815439452611784,3.2226996816656666,3.131474530352389,-5.933850916580284,-0.7760736141083409,3.238203194354331,4.842109908630716,2.21923243190279,2.4898420786297755,113031.01,113031.0
n000083,-3.5950092755413454,2.542711678777488,-2.1742351494788283,-1.5423141830307232,0.9201327447524563,0.8777591665977493,-5.356931502623188,2.8382647072973066,4.3461079551963735,-2.231808016269505,1.5406547326398885,2.1171749991593334,0.5386700080786107,2.027254158203116,-5.2774508749531925,113031.01,113031.0
n000084,-18.74363819768408,5.044661184845667,2.7977969416891773,-2.097196206464928,-3.207558854052046,2.1639156382910407,0.705654308884099,1.3689812807145996,-0.6631992317893869,-9.799715578146026,-0.5433025300399503,6.3442741156869635,-2.8658887927237933,-2.3569104534388465,3.209832019330009,113031.01,113031.0
n000085,-17.69892177772947,-7.765880278431024,3.3841414262861553,-3.379149504841671,-1.3605618300725797,-2.0308582071258487,2.988752407940468,-7.165695116350716,0.9568190387954814,-4.881140095582687,5.1530621612724214,12.909528511390096,0.5472535728101595,-1.927027055301575,-0.28129042007240146,113031.01,113031.0
n000086,-16.851848489541783,-0.0778817697844465,2.5117724817296168,0.6719343900115211,-4.988996252928846,-2.8610684902704477,-3.1632320979182493,-2.6867140702701935,-0.013509771068896725,1.1021744599380021,-0.13171916377816073,2.975400569541132,-1.0674726137769317,0.2899179903194331,-8.489332922269892,113031.01,113031.0
n000087,-12.968791965264082,-6.303912403372629,6.517466966282676,0.10763470522355645,-2.771973390687206,-4.333885753778156,1.1610785665197336,3.4097861112834646,0.05556107704913815,-4.846545060591695,-1.6735224672679938,6.687861206290364,2.422234326413025,-2.560995892545503,-3.366030352303993,113031.01,113031.0
n000088,-12.837592307812587,3.4327004572011957,5.893559256796794,-3.305330625220136,-0.5352903051009075,-6.1109453956708135,5.171103478809837,-2.549058842408,6.156832576346266,-1.4784347603130295,1.5312229432895192,-0.03778642573568902,-7.861216951045914,-0.7832181164339245,0.8936897324568649,113031.01,113031.0
n000089,-12.182784722186067,-3.5296717400851705,3.4430913018393126,-2.0259028828359695,-9.21071416312531,3.3561736216996314,-1.1862854306835273,-0.409962478586517,5.957069843899684,-2.525800119680662,2.774295060968308,5.111411876322179,2.54167576063497,-0.6842075493820038,2.9321286904227915,113031.01,113031.0
n000090,-11.367985197162461,2.058435885069273,4.543631190629685,-3.042597660449822,1.1879296890285587,-4.9176365024678095,1.3981254883341,2.3393865093886586,8.137371318846078,-2.2216625567438792,-2.9671932744820015,2.438960316918906,-3.41727450414814,2.4869998709766308,-4.316592091707024,113031.01,113031.0
n000091,-8.386862295814783,0.45699233431923936,0.11467892784444578,-3.917829588762854,0.2302545173171353,-0.4033509107781381,1.8211313337115898,-0.37988711322231117,1.9133189606142915,-0.4078417132333412,2.2837942040637182,11.36964373531949,-8.210396543243373,-1.6384789302000535,-5.403564689761917,113031.01,113031.0
n000092,-12.101628904018554,-0.9508244887234416,2.0148334331388007,-6.0636305006854645,-2.94461269752728,-3.127105297417857,-3.387750128399664,6.560248895493309,0.6604035340733734,-1.2406844260882521,4.645225155003684,4.69979410144659,-1.9832502226106747,-2.1603929856425017,4.512601026223603,113031.01,113031.0
n000093,-15.97459932421385,-2.217478457526086,2.9026576685430516,-4.085201257576654,-8.180834727984106,2.111148989610717,4.192957886707076,1.4694557138782323,3.2366843329151433,-1.3084112570367863,-2.970887380319808,10.104177182438702,0.5123955601067467,0.9467117700022569,4.355917007741573,113031.01,113031.0
n000094,-10.58707643331488,-0.2621939835113867,1.1497553062491295,-1.967849491343201,-1.2799111809313162,-1.9383448520502768,-2.0056635634984294,0.00397487540005792,5.729758158683669,-2.782162670342822,6.250103606205112,11.379755518679437,-4.55266226336338,1.823196903682291,-6.781437905105322,113031.01,113031.0
n000095,-11.439707514478343,3.479279534645614,-2.662882189923121,-7.52425379058949,-5.216352986505783,-2.2816342139425037,5.902413404281324,4.524432691294874,-5.369082574731384,-4.250749427560129,7.35620309797703,6.572562413150385,-2.3051215144918507,0.6142595448740467,-4.298311611516932,113031.01,113031.0
n000096,-15.885336426030136,-5.223147466355306,0.7354231983803463,-2.9157894462411256,-8.594516781527696,1.318638639375062,5.081497121215227,6.26016263723403,0.9877916795941117,1.3744264047711217,-0.048258741081059764,3.787274972643785,1.51942799655233,6.054475156251284,-2.834696192806737,113031.01,113031.0
n000097,-4.683551104557074,5.629853484010576,0.9575487009736796,-3.6512233493267567,-2.5729689343755164,-1.7674552064605662,-1.0728974130814768,-4.0627936338320945,10.285711390384414,-2.3024634297273283,-2.880232634774532,8.27564710218455,3.3704023133997163,0.9459074481142864,-1.5408942680263433,113031.01,113031.0
n000098,-10.294731345984756,0.32357660624458784,2.286788172841949,1.433825046862359,-7.737259108534268,-1.9193499054375875,0.4482691312379037,5.819813906098716,3.2260912059383977,2.713045907612536,-2.7491194655541147,6.7202711602204825,-1.75240314366149,-2.8192365777759583,-4.198807545407554,113031.01,113031.0
n000099,-13.280040047215023,1.809006495539265,4.981798595483388,-4.135564642416707,-2.7784933527162665,3.4989047220594403,5.591592150412944,3.9016170914812163,3.0971061281262435,-3.3047967461588477,2.3544881820982964,7.934139002370519,2.0126302953527624,-1.0477413172312855,-1.4768743793498271,113031.01,113031.0
n000100,-12.342380161629466,-4.54157568897286,8.221299967912538,-8.785004596336492,1.545255063684119,-2.5955046151841765,0.17560068280950936,9.771522915263015,4.0862406077914155,-9.50083320177423,0.4581486130650161,5.718487778018563,-4.858802301211321,-0.17704341525705802,-4.8614927925128955,113031.01,113031.0
n000101,-7.845541012607133,3.412588438078295,3.811283872565151,-1.898065995188492,0.9831029126313076,-1.7858452265495295,-4.665894358268753,7.159563166430325,0.44408321769360937,-0.15511979463339154,1.5291351819069647,7.0599234641383255,-1.0260304166946013,-0.38366276727827514,3.4328652617219104,113031.01,113031.0
n000102,-16.053821513128167,3.239477515832826,7.051923530413758,1.9387809988404765,-4.158797345121697,-6.379233324341347,-1.9137332620716947,1.349907734000919,-2.2103924470261305,-7.924328231299572,6.2386837782662585,7.308342806692164,2.212017046198156,-4.549674868579851,-6.149040376402149,113031.01,113031.0
n000103,-11.53122445752156,-0.37485158743058244,8.82484800766629,-7.088891464631436,-1.1347629925064389,-4.021737054582643,4.8018543967390235,-8.775790740946201,0.8076738302765047,4.657542021257704,1.6194431273921936,5.901275050689835,-0.41844701532582385,3.515438720629678,-3.9805409372467646,113031.01,113031.0
n000104,-15.277598414026597,-4.780014422005875,1.647440033834849,-5.144371401188428,-0.6764391031774606,2.357821450234286,0.35835814873228977,2.8848460315506324,0.6795237070080586,-0.023658607570431034,1.129488208703663,3.8828410792360177,-2.1661754170522873,7.2121750824839905,5.313440094359771,113031.01,113031.0
n000105,-12.671513210652002,0.668828463887108,2.8469575943878356,-0.3150673454364785,2.289197016071794,-2.8566581940194293,0.7837011628836275,6.251254131733935,6.05192220089263,-5.772100359689674,1.1401783144256956,3.6885995142670156,2.0845483418822415,-0.8123461863216049,-7.669186855654494,113031.01,113031.0
n000106,-13.161993911594058,2.3941855348959202,5.273274635134268,2.1578122108519455,-5.06998420573353,-0.6368176935612562,6.785960980632838,-1.8061777218267319,2.412578323577984,-2.763378281538941,-3.6185013233741286,5.9054700236861315,-3.70730555590342,-1.1907271979531195,0.9324273101061145,113031.01,113031.0
n000107,-10.664601282013107,-0.9420307860179458,8.28017621227348,-5.738575858701544,-3.1194500094452264,-1.2788641925999076,1.4246738016027982,-3.005010593153467,-2.0676155721384744,-0.9964845776967686,-0.14179794053332184,3.47610212654775,-2.03940341434427,-2.80390115880893,-1.0557520174104684,113031.01,113031.0
n000108,-9.624759954468583,2.5232209641205277,2.808302325941324,-1.5099285984443,-1.0025255757763003,-1.8220491924113937,1.2322235992248554,1.1032787534595372,7.320885458375126,-1.0474867903901783,4.590241472718882,2.979926886343175,3.9363246852145,1.7884287638559435,-4.03178351059832,113031.01,113031.0
n000109,-15.436923706381023,-0.04113454057371002,7.136186949762753,-0.8443414014801545,-4.215656019038029,-4.948186172970567,-0.752677239945883,-0.5757515336347605,5.224463639413786,3.095933763638399,4.820275604814542,8.735499021873167,-3.256592295787767,-2.1338989004579654,-2.8571565328937294,113031.01,113031.0
n000110,-4.705623764390089,0.7940179001117251,0.7966719779935567,-3.904058913078062,-4.935434396760812,-4.94907214858934,5.811784954040478,-3.7529436860590133,4.9975306435463605,-6.793829308301515,-1.2957103806728907,5.8070244829631585,0.5727235440496057,3.1604846239366373,0.3801290393271233,113031.01,113031.0
n000111,-12.101174150323148,5.495547384095262,6.107403579505984,-6.48666929689028,-1.594509554322262,-1.441893865458658,0.5892722276174298,5.160979496774875,1.4186982299141186,-0.36145665766885626,-3.0852260826647937,1.0235696156219545,-5.00319234644008,-3.344524644957421,3.1694253450979666,113031.01,113031.0
n000112,-16.965229745425816,-0.45949259004549003,3.6091438236355264,-3.278437573257357,-0.37085857753703966,-5.232043320430273,0.7616078315947346,4.365354294771902,1.7893662732111482,2.2041633963539726,1.270820745872164,12.9245534702589,-2.3652984171263487,-4.870224012958317,-2.869885777941084,113031.01,113031.0
n000113,-15.472094808412088,4.333850938945768,3.6740680127216,0.7045908212598451,-2.243442152957942,0.5765553525448259,-1.80947458111312,-1.160443448404503,2.601720952505144,-4.9581893508994614,5.753063072452753,7.282214038538051,6.659849481721758,-3.6665210112301714,-3.8827790257466894,113031.01,113031.0
n000114,-7.11886176239739,-5.194495171105133,4.535745963683355,-4.980260754842116,0.7432142304972214,2.066736246848637,4.479858172514573,3.550893639498816,4.296578710432926,-3.5946190816620964,4.710421656649202,3.04128272155251,-3.897750010803599,3.9800813725955217,-5.433126710203338,113031.01,113031.0
n000115,-15.56783417959948,-1.2482337193766975,2.833010584380672,0.4405103704407578,-0.10567806802637625,-2.217318794250602,1.0753491737494902,1.4615397809204953,4.4181664030128545,-3.9094990373539833,-2.5995464312861296,5.2394109813506775,1.53425787393137,-4.494385575004534,-2.9832643767667695,113031.01,113031.0
n000116,-12.92606198155826,2.0406837074855986,2.936700896583178,-0.837884443561661,-5.24416541995007,-0.5770072669554925,4.917923658223294,4.212193554195106,4.078103786641419,-2.3521970595270147,5.879634084058737,1.9449378196884353,-1.0371557431393785,-3.084353277501272,2.2513818380518273,113031.01,113031.0
n000117,-10.558789139337849,-1.484979236455908,3.9052347646110186,-1.4915979211218646,-2.7626690865420698,-1.8138188502810249,-3.127910351640698,-6.195186535525462,4.9186951290927965,-0.7796909848844134,2.3403736932534644,2.7810080861080526,4.243195538168059,-6.364489885518067,-3.626100728667728,113031.01,113031.0
n000118,-10.243539488363353,1.5130461420152175,5.526283903377749,-2.473447716048916,-0.8432592068131903,-2.9662883936223174,0.2958376034597556,0.3488933830083334,-6.22779674350485,-4.065419653688569,-3.482413761021487,8.14290397566419,2.3149073328169605,-9.132262911397955,-0.19066510496918865,113031.01,113031.0
n000119,-10.550358403114679,-0.9648195355084532,1.1055311214686037,0.6936932843096049,-4.572773114119018,-4.234007993292392,2.904604990266141,4.911552153960401,4.008126522570919,-3.872629640453656,-1.4588014039610488,8.46132166832615,-6.173856620077168,-3.8892378045240283,0.3425163104034761,113031.01,113031.0
n000120,-12.697050781828379,-0.443022079202962,6.68077013289296,-0.02116892015872196,-1.555538692959677,1.7223563565835665,-0.08511385084326761,7.951735523234546,5.844165912448239,-5.886399704900175,3.123961083643866,8.027930588959915,0.7677591846441332,-2.197236792961177,-0.8762667948716655,113031.01,113031.0
n000121,-16.179725351940085,8.859256536822155,1.440121296356591,-1.987410734626109,-10.12915679775121,-9.333687074992275,4.736255009442142,-3.1389505362793724,7.6232324662299575,-1.735042302547979,-1.913169950507565,6.70367229440662,2.678974896454646,-1.1628280006042262,-2.1742473099283908,113031.01,113031.0
n000122,-15.074058970810334,-1.5953041115402347,4.84527365000839,-5.085693715904371,-6.840033377205908,-6.669849381487075,3.741686803631023,2.435169280087459,-0.41092976870874054,-0.5011501325456758,7.270307704628765,5.670158397927344,-3.8154824616918814,-2.464666007148205,-4.215422478707772,113031.01,113031.0
n000123,-19.342452322089365,0.39452954092266757,6.850039456086655,-2.9121958032744906,-2.530385592636648,-3.386113401241861,3.272600633083502,3.5191398550017317,4.102008101027238,-3.863576788891777,3.5393424890128644,4.642034030805252,-5.5649498003932365,-1.4732071359448509,1.0370786748130933,113031.01,113031.0
n000124,-11.593510125050505,3.502829958800909,3.21953305283572,-11.034668036898754,-8.052381337607695,-3.495949715219557,0.4956397934388721,6.829457068160977,6.567693200303721,-7.386681208938693,5.109160624313478,-3.8087331229180243,1.863721447714443,-1.859882528953962,5.706041301310359,113031.01,113031.0
n000125,-10.444906380572831,3.816580395921922,3.146694495251619,-0.49902533491509704,-1.9679289118098489,-2.275721586793369,0.9042056390477096,0.554469158949569,5.983978948768986,-5.324584983998367,6.6964004960701695,1.4183254629013766,-1.5542377117399375,1.6051945421073386,-3.3141083070094965,113031.01,113031.0
n000126,-7.685223013264064,2.231319886729918,2.916111661035176,0.5261649927705525,0.46184157467132625,-2.5650738069269985,-1.4963139801343424,4.5546775747041535,6.639844202594063,0.46662463807122334,2.399334499785461,5.842066717989106,-0.3168914893869538,2.6193941959745155,5.477324878462097,113031.01,113031.0
n000127,-13.199507984364553,2.3496179144886025,7.733554322781176,-8.524357460761347,-2.675412320994923,0.4834034869673747,6.537625840982237,8.100010758872367,7.316625511498827,-3.7862271232267313,0.7702186264662318,3.220963050847505,-0.18436523042777309,1.757452424033871,-1.9017122892751157,113031.01,113031.0
n000128,-9.598834842894108,1.269188329235148,1.7576285269757728,-1.2096661137575553,2.7878817948286847,-6.036602188140137,4.090574206342207,-0.5826108818911468,0.9829762501639243,-1.514877190147061,3.2420281662237267,3.4959638525140155,0.6108829831013765,0.7830211347415412,1.6071889573194857,113031.01,113031.0
n000129,-15.217684631923866,-0.886667373636391,4.254982010523757,-2.5796431489020613,-3.784332351113503,0.574977565620167,1.9698494706425889,-1.086098646843262,6.515449983548122,-0.011836569146900011,4.786859853427167,10.315409327868126,-6.642242409403801,-0.5172933229619293,-4.2159686447846845,113031.01,113031.0
n000130,-16.89977249361973,1.2559360857009176,9.84843703638308,-1.4535751042682457,-1.6609523834510644,5.746305375606082,3.736626965731575,3.925910113233196,5.370028812182676,-5.471788837141935,-0.5703226804093284,12.590199620462277,-3.2229068441230178,1.568828059250972,0.09111275539132269,113031.01,113031.0
n000131,-12.653888284102763,-1.0137718267840896,1.555898106390716,-0.6520770065406052,-6.122317935292223,-3.059410933431856,1.4891824210231719,-3.3579047304426712,3.308628966470754,-1.1436659187135971,10.041868682930215,3.7448455071768736,-2.5729560466034656,-1.8762000721278522,-3.851415629575005,113031.01,113031.0
n000132,-10.493227484062032,-0.8517180526230295,8.242501750002594,-6.305028747849431,-0.6105973937505684,1.059276619595155,1.361919765889807,1.3592319282233076,4.927793301711899,-5.601682259764365,3.051150823713134,5.209360319449076,0.9264844064074771,-1.1780585774396464,4.430487805638188,113031.01,113031.0
n000133,-16.631314547424044,1.982769132040766,4.735757273586619,1.3575682714137143,-2.935071862074351,-2.8733191652399763,-0.3381530632529959,0.7236861209757871,4.616427798936602,-1.7100339605043153,0.9931616699774639,8.783120367986404,0.8929312542191161,1.4726308311691634,-1.0739943420978824,113031.01,113031.0
n000134,-13.121213771505978,-2.0440841119215154,9.783755466495974,0.0008577984440347741,2.8012728526217354,-3.963052118491147,4.591834713342353,-1.2059705911317968,-2.332364426556131,-3.1748697988905006,-5.01880852802301,2.0555402633861575,-11.420161621391003,-4.334099083153458,0.7420267980612578,113031.01,113031.0
n000135,-8.894866306202765,3.1055084174448924,5.999098712588667,-2.7060638871129834,-6.934341828150208,-4.235601544335582,-1.9165119355503295,0.9864542118895645,-0.024864477839819266,-4.053001873767264,3.1786761527045666,8.12843336976893,-3.216483490249561,-2.293702709916625,-1.8709250337393244,113031.01,113031.0
n000136,-13.770001807505636,1.5392827439971888,9.995000834146909,-6.651114293856297,1.201492872859942,-1.33177197275769,-0.22916900077990343,1.8451731679824552,-1.2613178947276897,1.4242113430282326,2.6638334503459125,10.110517539347999,5.666009099765012,-4.52756321216185,-0.9661062515046178,113031.01,113031.0
n000137,-14.138397423086285,3.3890362196661066,9.140234983241045,-1.274220737777526,-5.254850950459346,5.522045341150821,0.7747803260125967,3.9567624523410494,-0.488367124872231,-10.390888626303427,1.9283400503827268,0.7420718805783499,-3.586692873013189,-2.70410426662103,0.4762720273229428,113031.01,113031.0
n000138,-8.320391971801742,3.017059153980716,2.1875007752111584,-3.9862906020843827,-3.1681699807583534,1.8877556425486783,1.358364572718183,0.6163110804046912,-1.0677870245355874,-5.06269099412215,1.4041784309635483,2.379289708809952,-1.0129809767333326,0.47686610089283743,3.1065389110583315,113031.01,113031.0
n000139,-8.12518889137846,3.4662194811160028,4.27005900919483,-5.572093744114138,-2.4245030842275512,-6.98829004566067,-0.908486303413881,3.088768500486978,0.9253315613225805,-1.6200914167137506,5.70202400279752,-2.49127553817305,1.830156073175169,-2.197539364388714,0.15572508431068233,113031.01,113031.0
n000140,-7.017633979971366,2.1080406207131297,-0.24692845785972262,-4.642137505452483,0.24859993037602468,3.586242724564224,1.6001362437982378,-1.509070412752229,0.3586444569944076,-3.3225218246847628,5.228643017596262,6.196516288125613,-3.543859448771359,-3.5161042613300006,0.5055865081442328,113031.01,113031.0
n000141,-7.4973964596436105,0.7840853698291121,8.068872925499287,-1.133939079315318,-4.154788454044556,2.6576102468536176,3.3028004713784904,-1.017218982715401,-2.4794011026962317,-2.9092166107655135,1.1619694958392226,9.333652523421108,-5.335924687284753,1.6806229949346385,-0.3383446935353769,113031.03,113031.0
n000142,-7.929222874144,3.1106277802507423,6.016344288923272,5.719683231436929,-0.44654166361298975,0.2794628564825774,4.3855620911793505,4.970338319315403,-2.930961386449275,-1.352280728091585,0.873826860010902,2.4510046464383426,-6.081417146566965,2.155280574614012,-7.91390750737664,113031.03,113031.0
n000143,-8.823827559084894,-0.42118739387624693,5.487408644811515,-2.7306051559003826,0.4796084607336042,7.019925744403567,2.6128251660309356,-1.5218962655198147,4.1379596254704,-1.3658158298883398,6.874174900971735,2.346544170480062,4.518491345873005,-1.3889665136078304,-2.0396240351922206,113031.03,113031.0
n000144,-4.817186548754207,1.6982804707864103,2.3519159587679637,-2.125108574711682,-2.067253688647085,-2.8189948983749074,-2.069598814023394,3.608704843657235,-1.5632046368023178,-1.118491180337278,-3.3799467198816386,8.318850652384155,3.025373299195439,-0.5307825206345098,1.6690939714448707,113031.03,113031.0
n000145,-10.572874328216212,5.390445066809147,9.745116190356686,2.340879041750152,-0.5310069745360093,2.82713537628638,1.0924636231325286,-1.719236919994841,5.581314510777353,-3.2912950468786564,0.5959146992880658,-0.15228273831698136,0.3283547703887989,2.6396025995565333,-0.4687310777148701,113031.03,113031.0
n000146,-7.866468349138959,-0.10272790836456869,11.186978465644096,0.35983506783608477,-6.858743194020771,5.498081655203768,-0.9828718083483015,3.7365867721354995,1.4059939108067436,-6.421482603979104,1.2771439746522533,3.328110020306372,-8.938105740524785,1.788236238962069,4.76319943290014,113031.03,113031.0
n000148,-11.050187019165524,2.2254585234644173,3.662184205446393,5.547239846678053,-3.00085982081288,-2.1323982087488753,3.3824366798451337,7.152676343215156,1.150136430715418,-0.7602428971345334,0.6086590831596099,7.016715437256831,-4.799059020831829,-1.9145302682192342,-2.5722431077620334,113031.03,113031.0
n000149,-10.094341865754613,-1.2396657601089585,9.151379302181951,0.038618442539811615,-8.10454696736594,-7.263827913118572,-5.36381697394823,2.479026233268123,-0.4391503877352606,2.191388703314878,-2.015650876052148,5.54813536041145,1.1620234744803701,-4.312697403573859,0.20783269182647213,113031.03,113031.0
n000150,-11.78211486619643,1.5896446242477382,10.465905226198917,1.3465914771154597,-3.6612717344212165,-3.648918176312162,-1.4500867125107844,7.320626030858174,6.792286861245734,-0.43580166082228433,1.701874138698928,-2.1050577211252035,-1.3916188019650786,6.595860267296319,-1.9350123385960614,113031.03,113031.0
n000151,-6.172617729854373,3.324779328759842,0.6839852274593197,2.7869118861305053,1.9222232154188952,6.71314113414247,1.5341127839274833,-2.073388562658688,-3.8719524597501147,2.403284850261098,-3.221597239074136,2.9787522913839646,-8.411616855673218,-4.449685242748961,-8.107173172774676,113031.03,113031.0
n000152,-9.372968483797113,4.69023285435138,5.857707776408667,4.607064824254738,-0.9129211198568954,4.3575209833341555,5.758086218026486,-0.3194946104406877,6.320614485597493,-1.6719821671473847,2.9345436453351343,3.67920205013837,-1.1823223327087733,-4.262360747735106,-6.115666413746964,113031.03,113031.0
n000154,-13.070733775981262,3.970637359482922,1.6061337268404614,3.3993774406736517,-1.3354794800325798,-3.7243189206319367,-1.8692208244713546,2.746853865039835,0.1410048022146443,-5.750704038680604,-2.4066433331433466,3.528409004469459,7.11693870927124,4.062875636144206,-0.8290653223192666,113031.03,113031.0
n000155,-9.642114216694653,3.349696905564525,-0.21596615595224922,-3.2966665176352454,1.6296395007146687,7.832437209826736,-1.4399444971566009,2.8981884223503336,-3.3329672474732224,-7.809197559033347,4.8134686069637045,8.078355632376057,-4.209259557339988,-3.2248142022480324,4.256153125850848,113031.03,113031.0
n000156,-10.35975848423739,0.256494916741167,2.669603857202215,-11.023894197988623,-7.890849527588463,-0.5768472134444571,2.590491775715225,1.6047419528112372,6.670271764934478,-6.114944447022367,-0.29522091871136724,8.758657415222618,-6.2000286159493,-0.08935703450111054,1.0550684843323135,113031.03,113031.0
n000157,-6.233919871590405,-3.9097301334323995,1.1251764493945076,-3.3696832456882087,0.16355966430897761,0.4282866600248454,-1.959448888859015,5.571837633247955,-0.35666884919849473,-6.258158055376603,-1.145689638999686,7.078148534644326,-0.71875754214928,-1.2902296076197106,-2.601443093503116,113031.03,113031.0
n000158,-13.105851817596118,8.143138452750529,7.30439480542112,3.308431201815725,2.913601112050535,-1.6613956266500103,-0.43501989152196263,0.4966928340831023,3.0590447513724155,-5.424401869759929,1.8402732966504352,1.076902945811824,-5.148483823440991,-7.369116296684501,2.0892671586053817,113031.03,113031.0
n000159,-9.996040362312804,1.6447466218073132,-0.582819365020212,2.3017022936523905,-1.3206389952844768,2.6576057210722057,-5.353245491164907,0.3049185367938636,4.55219034048497,-7.07488247201765,-3.8663200999935676,6.910475394705977,-4.96518453847683,0.4903836829613646,-3.5690861477210505,113031.03,113031.0
n000160,-11.343367163295913,4.180971183199684,5.233111725408637,-1.7449876556720147,-4.6581572349951506,3.9381608776235213,-1.3024525065860364,6.253676663448436,1.237303964285757,-5.756663034187676,-1.8383108662523018,2.383646176611384,-1.9221021743675446,0.7614970258748943,-0.5441512380331477,113031.03,113031.0
n000161,-8.003827235629695,2.4435595067135303,4.736674855195244,1.3714775836428792,-6.756865672417554,-2.2458394755738644,5.594921517482199,3.0388591364282487,6.451700134030394,-1.9759269483526478,3.8841215977130408,6.353592706524224,5.461225097221964,0.07144147746063134,-6.196270118989061,113031.03,113031.0
n000162,-5.485959529926871,1.7520134767979245,5.731649075153995,3.92453394991807,2.691049536967639,7.274125135553673,-0.3256864685423223,5.408293398518618,3.3086865489142405,-3.941714172927808,-1.5413466808102783,7.465888538783284,3.2123795788112033,-7.677121410248527,-0.8568079530818897,113031.03,113031.0
n000163,-13.2854046264581,-1.5657551337193127,3.468091586170943,-0.2843489454986987,-3.268598275330744,-0.2211355221769742,3.4276844199118344,2.097950278004691,-7.1146227422236965,3.672521990473815,-1.675642142946526,12.2663019715905,-5.336169953207045,-1.7932452105119852,-2.15282010717784,113031.03,113031.0
n000164,-8.553949644042648,-2.341303865792874,10.518406283957031,-6.362673225702171,-0.9551777679071636,-1.4262858613655571,1.00715987517996,5.335193212212151,1.3759429557762415,1.4290450328142592,2.5788957490110866,1.3158407705344821,-6.140232036750422,-0.20511908777267007,-3.215603915530262,113031.03,113031.0
n000165,-8.580170581087026,0.9868939869503912,6.219472433240586,-1.7812044338457573,-3.523820805769588,0.17875414039982274,-5.842457139361597,6.980358733267567,1.683235872966042,4.749645414417092,5.426024715346353,-1.9248949635613295,1.5918406175929527,-2.06695867897935,-0.2129563790965603,113031.03,113031.0
n000166,-9.842601851067881,-1.236740092088592,5.657437408306836,-0.8702594140193274,-1.9227132745031024,5.879376843601289,-5.975283002289462,-0.6678644472659558,0.9949307455119885,0.3536882767800231,-1.08028113351001,4.361169171392952,-2.6571553829804477,-3.723361261671938,0.1000024854378172,113031.03,113031.0
n000167,-10.284411750259094,1.6892165486721988,4.632702631034907,-1.0522474662993082,-0.4457284620128408,-1.9389029493951617,-4.994582119930072,0.2242546045728413,2.7049937786683347,2.8507859006760436,2.299780819722171,5.24701832889343,-0.66343227419042,2.7714747967252027,-0.16341739527421129,113031.03,113031.0
n000168,-9.058826782991984,-2.232000374919385,4.283400620654007,1.976077588670882,-5.6880707295957365,5.29654245453948,10.827251909249334,0.442304721017307,2.6204430682085764,-0.6069159200917341,-1.3715577676106716,-0.35393400010774645,-0.6800624280152553,-1.0362387769348271,-1.1645596495712827,113031.03,113031.0
n000169,-6.8340422348752075,4.0504379148484695,7.996632475227157,3.015637974035291,0.237458454155292,1.5406315083483946,-4.998427065394507,-0.835790068718895,-4.474903941483658,-4.908165024828046,3.835200754648222,7.4042619962850456,-4.8043905251599535,1.251907651976295,-3.1076705911846103,113031.03,113031.0
n000170,-9.066445414653902,3.0390339569987943,8.544274986898538,-0.9136388516089644,-2.1746321673808056,1.6114380442567402,-2.4527906885636894,1.374918917943074,1.5589003275407745,1.1389556550379094,-0.7649879755796962,8.600932396681307,-13.966808748733753,-3.4221940742215073,-4.674983978501377,113031.03,113031.0
n000171,-7.2581507935814775,-0.31874323374947267,6.905316100395132,0.6579975769177437,-2.215483037723032,3.709406736776559,3.237640754263862,-1.7207505225942625,1.016415406828212,-2.325451372317299,-3.4335043199491326,4.073633228855494,-1.8106305254225936,-3.3779130390236483,-1.8045445568275997,113031.03,113031.0
n000172,-13.089286506837352,4.897410615206017,4.175594975413132,2.7945001630243964,-7.411571422130533,1.4886636129469126,-2.0681368456268876,-1.4376182759232636,1.7400879909563458,-2.107142979118623,-1.4823785051894056,9.84137506629084,-2.076588716900709,2.7036124873108403,3.3042229486588157,113031.03,113031.0
n000173,-11.175842895869792,3.6967804695737643,4.960457565660007,3.138156558608734,-5.558894444718665,5.756383144350734,-5.33363087049061,9.21995352417893,-0.017739859374292344,-3.8259108303884632,-2.3083877627009843,2.5207307338213747,5.76021070640094,-2.8942625196819236,-2.801783941419636,113031.03,113031.0
n000174,-4.049781966930776,2.4794927464896777,2.9696111411067356,2.729233319203301,-3.5298602121319735,1.0089474323685368,-6.502287686460325,-0.6519663691613038,3.640057136087628,-3.042204982180628,0.08512722001016437,0.2208158450879969,0.5554617664842888,-1.7055719669565257,-2.8511267146450177,113031.03,113031.0
n000175,-5.171136248664679,0.25497538391153896,3.20305682554275,1.8277964485932632,-1.9793842368009726,-3.1782664476642766,-0.6091959456412612,5.5528081057444885,2.497727275878725,-1.3715728309063056,4.35602828276059,4.676051026973138,2.17930394644003,-5.265421161162004,3.804981062388669,113031.03,113031.0
n000176,-3.846206281539982,-0.31459882910749837,12.082929587013695,0.8933520514553062,1.0909004508105788,-1.1830196039838294,2.666676672479443,-2.55579226872187,3.9543895122411437,0.3679649429563341,0.9538793972243172,4.396580835651022,-8.052806125835168,-3.8276720774820916,-7.201778758808414,113031.03,113031.0
n000177,-12.150331438186734,2.0915089688702455,5.9326403517032915,4.86188247981567,1.3145421722726545,2.8399796897139207,1.9497344863559518,-2.337707268529523,-1.0117557774150785,-0.2625337592929511,3.3546471543714236,7.446509667272352,2.1446853526430587,-2.256232974214858,-1.595739188941917,113031.03,113031.0
n000178,-3.7972733181399443,4.1952700574383055,2.213928552007025,-5.138112784175994,0.5211482148420721,0.7252985261410476,0.9952415835316493,-3.6879666930683728,-0.558114381600075,1.649132316544665,4.406527892355879,6.769172442407376,2.516305632009248,0.2952185458518122,2.3320525976266735,113031.03,113031.0
n000179,-11.085063248076239,0.5701277935390949,-0.8485772365185555,3.7479799887932153,0.34259917113416694,4.388435196714185,0.7902977010220202,5.7147387765873345,-5.462762060639198,0.24735775451979491,7.869805883868429,3.226736971997874,-4.188325578691283,-2.967415320038013,4.282040544097152,113031.03,113031.0
n000180,-9.449010390128356,6.313802668639328,3.8233365777262653,2.1493366594134313,3.7235793372736143,5.963627615517998,3.3829971515520194,2.525634744908957,2.0378381537049943,-1.6418349916420554,5.834303398793688,-0.2724245685297708,-4.210744981978025,2.2865050429187157,-4.853856140636307,113031.03,113031.0
n000181,-9.13222081325269,3.635668749715527,7.793634393576914,-1.1567095034511836,-3.837625983810902,2.3321335463195085,2.376404227759518,5.288880096054096,-0.14670724746160613,-0.9351685921460986,8.364719283894187,3.8858259873309975,-5.145274727151395,-1.9605198797225334,3.7408675996508993,113031.03,113031.0
n000182,-7.697108182320223,5.199402808551458,6.047989445173047,3.349004164586788,0.2853672009445416,0.9665993867112923,0.3594016763707253,0.1693964405581907,2.1849838076227774,-5.662696844328572,0.7203130305864432,8.564702345707845,-4.233193471449653,-6.38692001563562,-0.25643073906644887,113031.03,113031.0
n000183,-11.173613139020604,5.955114711931552,1.8055716935963768,-2.939999305481702,-5.059038669304286,5.081114590933799,-4.58070507386823,2.084848506934459,1.0044875770223596,-3.338932531642603,2.5859286500733947,7.907638757090922,-0.21021429447990725,1.1671425580066035,-7.717758840508334,113031.03,113031.0
n000184,-12.710250745881751,1.3992015890045568,7.708680267784316,-6.312654035389919,-3.038596135835359,2.160167833750637,4.062276188623334,-0.30161561962360417,0.6921756565575415,-9.184888461850443,1.7385167595739879,5.6686758663920225,8.273414249735287,-6.089749946360705,3.6741594407987677,113031.03,113031.0
n000185,-12.22880464923657,8.065741601925016,0.957184302927784,0.9735133910593747,-2.226965764299153,2.9892296674428724,0.5067539299637885,6.515189029351408,-5.221833915670368,-4.2346134772336645,4.759297540355459,1.637894617728933,-1.9954619093479722,-0.41497660100731526,-3.0998557176931794,113031.03,113031.0
n000186,-6.79485572272017,2.4140647252289287,-0.5632765354923128,-3.1781997703996088,-5.996434461768493,0.3874067407180374,-0.47483403759522586,-0.9184345581540405,-2.1254369892879557,-5.716770929745104,-5.3770945449828975,7.924963860086031,-2.6274631361066887,-4.328998411185692,0.03808940852575815,113031.03,113031.0
n000187,-3.0085891047969167,0.8773467722151298,5.76863217263851,-3.8156588606022668,-2.3869024189754207,4.998060820022089,-6.069123153181855,3.181431853949153,4.067782653207104,0.32258359568720785,2.0052461955395673,7.428583988685787,-2.443345558029923,-6.207265626464256,-5.245909190065322,113031.03,113031.0
n000188,-13.813652133905125,5.282768420643625,6.01952526840425,-4.017698736221466,-7.0312213920592574,5.2073847750661235,4.3209976504691,-5.255544117188514,-0.304405674319581,0.6246598220584185,-0.1277132776916048,4.76401509583708,-8.309784239838292,-2.348230282716382,-2.117902311901434,113031.03,113031.0
n000189,-9.136539123556272,-1.0095836573951176,-0.8728437002183922,-2.0367598255813055,0.12448113508447345,-0.6714654772597424,1.0329939274153592,5.857505478071696,3.2201224203289676,-4.434918199023979,2.1703693613818924,-0.31526282749891,-1.47439150071652,1.9239674341651913,-1.722805229646586,113031.03,113031.0
n000190,-6.891606358802004,-5.693460340207297,5.920763877275446,4.8996283100627345,-1.879600185015988,1.6585210566143151,-1.9915694835136306,4.189339990113153,1.0812881592112178,0.19511434599665578,0.817629632944803,7.0716145333190905,-4.406698404349722,-1.6502400901075818,-4.537442618337344,113031.03,113031.0
n000191,-10.171210306822578,-0.9049649629963907,5.921308475948949,-6.407381462011335,-5.581318434893918,5.020282336685115,-3.5705692552592074,-1.490542921458504,0.2718101693201569,-2.5522812519565936,-2.9522534489580177,1.3332623517814137,3.126683920953423,-1.6692277385073901,-4.667815282214692,113031.03,113031.0
n000192,-6.676905220704785,2.8244890403150302,1.7440187528446613,-1.5437053476774887,2.523395379463011,4.088268224085027,-1.5135418427315481,-1.3589907285500276,0.4779462873606353,-1.315217839912157,4.530391788277413,1.9763583163896135,0.8593144428188807,-6.982761611090422,2.045778914673889,113031.03,113031.0
n000193,-9.120180678690831,1.9160704747552235,7.599164514432196,3.0288215718550764,0.04766530432426941,2.4987629871332575,-3.465061264314688,0.6183147544730434,3.8242723096846047,-3.412613481424399,0.36931066990072114,2.526191436436549,-8.401049120004032,1.17643116821025,-6.512037041399594,113031.03,113031.0
n000194,-9.652171676702302,2.9649528913334957,4.811558930717284,0.5474320263321408,-7.648222597664531,2.0382745398193327,0.7862550954377141,-2.337105822320577,5.843982365069691,-1.5073271325993418,-2.462224167357577,8.763799219539155,-4.860905714138224,-4.357152741705036,-3.4013032572978172,113031.03,113031.0
n000195,-9.528072115762104,6.104620283140821,4.214913647221663,2.203376729410496,-4.034665557699223,-7.446427440619116,-1.6208279714268432,3.555597102850533,0.7562098061239357,0.9036220350203648,2.5733912871611766,3.5215052891165852,-0.8060435543273292,0.9872557282113512,-2.4344994483301194,113031.03,113031.0
n000196,-11.700284756382787,4.716337127254679,9.12210607818844,-2.896552105788148,0.9363023423215286,5.257193973737511,2.022815717162373,-0.05136082153983845,3.291544987912964,-2.1234556881186304,4.771055117353832,1.3695312799745856,-2.4649869156173954,-4.752099035264129,-4.087017538049622,113031.03,113031.0
n000197,-15.89816900499714,2.5116873535190063,5.7900715204073805,0.035404471214614985,-4.309323145848092,8.56634146815574,2.243718644968115,4.922501926950467,-3.084902230180105,-6.779751130717367,2.5052167173428828,-1.926935834904846,0.4305660443515281,-2.645061950555018,5.296430843712814,113031.03,113031.0
n000198,-7.439204969976835,6.482367067887565,6.159005770540461,-2.9796843942007127,1.9311110710382315,5.144530729757962,-3.0053371397067083,-1.2696793688090373,0.11302962486896284,6.549364044150659,2.5156189639045956,5.385771429521281,-2.43980384834041,3.2602480311117645,-3.5608008626165226,113031.03,113031.0
n000199,-4.665672556692892,2.875795723066637,9.966679436470837,-0.5999926738868666,-4.6983202319601975,4.613519254733606,-3.0953373379564457,6.12662949093311,2.702859147556663,-2.2934714412746526,2.3201023083441124,2.9057727650879244,-1.5343275649745975,-3.348584438323943,-0.4595437487230687,113031.03,113031.0
n000201,-10.167120178130894,3.071821667733194,7.017228177023672,0.310979775656849,-2.3219821728306327,5.40930551569172,1.9742030542371563,-3.2659578610941296,6.597686113122045,-1.7947169678267647,4.482136221652889,3.476854023864502,0.6290481256127199,-3.7462033760631606,-1.817193759449529,113031.03,113031.0
n000202,-10.08630884921308,1.408159509493724,3.0155084320318113,1.0338708606257245,2.383882520809591,2.8391380994294804,-1.8221904808111333,4.879145554346192,3.454420734131183,-5.955242468835868,-1.7926218681620352,4.758014192031199,0.5178572669618239,-6.602328976822062,-2.1617275761225505,113031.03,113031.0
n000203,-12.68857401764006,0.767505642627873,1.8325679708971583,0.044597099604492874,-2.668073467730694,-8.842824422846066,-0.5383294769129658,-2.488861745854618,3.7744712994880047,-5.258122077724438,-1.801422274348202,8.08158117659847,-3.936462841676201,-0.41587392844992976,-6.94362822781891,113031.03,113031.0
n000204,-10.883155899315474,-4.174133477914907,9.741803182683618,0.3682614957535567,-2.821252955160986,-3.0634334596026185,-0.6827374213486639,1.3487283523658602,-1.0239679732618612,3.070176481904396,2.4452811845934463,-2.3189419246322824,1.888633155620366,-2.691170074805581,-0.8112833641595745,113031.03,113031.0
n000205,-8.47966204637834,0.5627055612570877,10.956272992510744,3.3533015025485096,2.333731805288153,-3.476511998994701,-4.353431505088475,0.5354462662404735,-4.753382905925984,-8.434196558177701,-2.316612877588823,4.037501083087155,-4.742517924876243,-1.5623813460742435,-2.7505026256365306,113031.03,113031.0
n000206,-14.420560209067087,5.476608343495538,6.245313584331745,-1.4221757411193447,-5.33744598534567,-0.40174938359937107,-2.1996536471272394,5.670539993044904,-0.9096501912297911,-8.471820563630928,-4.717500958725767,5.119775295029582,-0.40179191248984963,-1.9814088901873237,-0.32750479295806745,113031.03,113031.0
n000207,-13.40727673899815,3.5613903317803706,4.432364915851875,-3.079693150817638,-3.2753343282594347,1.735620707206157,-2.540965784629709,-2.4390367180681105,-2.1728304603264035,-5.338171401782345,0.621981462030376,5.033967292171713,-2.722963757557838,-7.159600731809174,-0.4742951340627033,113031.03,113031.0
n000208,-7.696231249138046,4.388292531151105,5.375125458763503,-0.5955049045318181,2.218055205997948,1.9710957620076086,5.216900616522148,4.372451695504913,0.7884133641026866,-0.5244128681337283,0.26604103504729604,4.766942171481045,-1.381196829465487,-2.391296124939484,1.5412730392632101,113031.03,113031.0
n000209,-13.801150128397312,-4.501886158496635,6.973122981696093,1.6862363565202059,2.7673820908017257,0.29330826860815784,-2.0905213408222574,3.0686654791416625,3.9652031191112287,0.025901012522676847,2.8769577199476446,-0.5760239770491049,0.05720213702582877,-2.1032209120562477,1.3990830722626366,113031.03,113031.0
n000210,-6.379903175287273,5.315314814182759,4.791828999995724,-2.7859066299674438,-0.38960915066639257,1.163708060115515,-3.9763078224492405,-1.2395600374481448,-0.45926038804048497,0.007193244075101912,6.195033939828814,6.307948152909893,-4.845922679279051,-2.9122033497040247,-2.9969059764265293,113031.03,113031.0
n000211,-10.02618270716519,4.446426199258285,7.54968164726686,5.095774538009649,-3.833618717032029,7.5781524043122275,0.9082577061565369,0.030062906529884525,-2.068114415582375,-2.342675455909144,1.734591027212267,7.867330197045665,2.2179107639106563,7.587244904041113,-3.6790036376256388,113031.03,113031.0
n000212,-10.758535950173611,6.7192638815470005,10.534872901164718,-1.6966699338471662,-6.228076791425828,5.558126471972114,-0.9156416738550444,1.1376167814541072,-2.6571883384669994,-2.3540084780914405,-1.4873817119158579,2.3760926109220115,0.9829394055699047,-1.6653225788767496,1.2065578332210551,113031.03,113031.0
n000213,-2.4528815798721464,3.7577350514132246,6.150412383574447,-4.057312955559558,-2.369665409874224,4.2691965409245105,-0.9864798294038827,8.548665395150497,3.1464783414827164,-3.3461883561978247,5.683921408941806,-2.4836887683599436,-1.3680266622213106,-4.160430900516849,-3.545101099277848,113031.03,113031.0
n000214,-5.558944914147848,5.939602585268345,-0.9428071593921161,-4.428872164204728,-1.6726515085070224,0.8938459809296841,-2.302224803656012,0.634414685794854,4.242303455137166,4.399217749546594,1.2699464719193543,-9.280366153940616,8.844282202597704,-2.6189147750262616,-8.874460835392144,131199.04,131199.0
n000215,-7.258704685822149,-0.6749078770567492,-2.6867354651639737,2.040540123114301,5.253909952204747,1.859109122163368,-3.5038454485074513,6.014446169602286,0.3317338423951641,1.6669049628251247,-0.71273714004578,3.301122300386543,3.405129690216552,1.1458697437848473,0.9984117970520403,131199.04,131199.0
n000216,-8.946082998029523,0.024788750957892847,0.16902981135463846,-1.89184678278139,4.2164485173846815,-0.625610205285527,-2.552157537962925,1.2711221325202946,8.033794486927315,1.267587802666652,-6.189764283537286,-6.851203050382344,3.9248113969394343,0.5501975194053473,2.322389465926386,131199.04,131199.0
n000217,-4.630618118464125,-2.735811874817499,-0.06324470723009545,-3.2845993095897383,-5.774717684061401,-2.2717142998116713,-5.886670816085062,-1.0914123803726496,2.3040182435223264,-2.333553616218251,-2.440825536209138,-4.626273606163277,-1.9392160517644788,0.01573346086473998,-7.819498509227281,131199.04,131199.0
n000218,-13.097621391994007,-2.3270952652967485,1.2062062733453742,-0.9048624604514095,-5.72781429323891,3.793758862638371,-10.177269898413456,-5.512011176960839,-10.171280905431944,-3.931831783930681,3.6374335527641253,-1.8731748590461772,2.460186880097435,0.10640668764372818,-6.8226757646417795,131199.04,131199.0
n000219,-15.506777397713002,1.7033420141077331,2.35386543119673,-4.2925054121365545,1.6518592783590553,10.165996196723995,8.169640741396808,6.239522685048286,6.976927946969143,-3.245683622539666,5.661193212810116,-0.40700015781385634,-4.36507110060277,-6.774578431075829,-11.586807854388585,131199.04,131199.0
n000220,-13.091316012116986,4.071076993365388,5.784600115942986,-10.8463151520619,-3.43825718025783,-4.87755771431859,-3.152083969038766,6.660888277242399,3.5486473213255123,-1.152482343817537,-0.48953591637822774,2.8767144523470467,10.169543192759676,0.038574459147113244,-1.3071080528598547,131199.04,131199.0
n000221,-8.969110962609303,2.695665733355648,3.8090088309567873,-0.5239495588544245,-3.728138759017394,1.3837749755756925,-2.364467842066214,5.680204615425762,5.837504883343955,5.055414211886321,3.4324918441059364,1.2218405080584578,2.399907348008516,4.034705553355121,-7.868926323829487,131199.04,131199.0
n000222,-5.996655164614785,-2.936509458088218,-2.3912299641853973,-3.0615005206354597,-3.827645851980832,5.385427051679188,-3.491515374076377,-7.011599147276279,11.055070765318776,-2.84609484510715,-5.717927232494578,-8.313620824574343,5.939730515414085,9.163121867125781,4.341818347327881,131199.04,131199.0
n000223,-9.475633560181002,-5.338150941853392,-1.3520874559273537,0.20537910968505324,-7.343467946645691,-2.331235398011972,-0.7427097662672294,-2.8974923767272016,1.4111824337023402,-0.1293074125804876,6.524412310407047,0.414804119579806,7.251989156953795,-1.9354978020678355,0.6197726757622131,131199.04,131199.0
n000224,-10.972795594338491,-6.214142503518827,-2.4328639522444266,-6.02679796666947,-4.883706529862524,15.013642773630034,-11.689380613525852,-3.3258018334467354,1.2586266851436836,-7.310699764806794,6.438210857204258,0.33377171078041057,2.9217906448805815,-4.894758926718842,-2.181214298335341,131199.04,131199.0
n000225,-10.248574533552741,-3.6541473722068765,-4.73453703246365,-3.53826163826414,-8.613409434380053,7.582034891782278,8.177102634824017,9.209019982790675,0.5672638874380265,-0.5506893814477739,3.645344507672054,7.7194386802796,1.3272944646691034,1.5513367634968098,-4.577579384585872,131199.04,131199.0
n000226,-15.233884715761269,-0.1672951344919807,2.3532101695071024,-6.415308714701261,4.166109445000127,4.564532753762126,3.0808373175848143,2.5521232455991747,0.05696807058697928,-1.4257830904292623,0.5006340590767608,-4.329532050252542,-0.018702915204848125,4.280028663950642,-8.48953810294858,131199.04,131199.0
n000227,-1.5538961282224424,8.346351303936954,-2.52595558298159,-4.330606315455693,-6.768961084819233,-1.3033592839324046,-0.045377684064697194,3.4844488630505324,-3.4753840447613524,3.63503503946146,-9.879999352587706,-5.687339110777069,11.556727654747187,-11.91082904623083,-1.7924676257313172,131199.04,131199.0
n000228,-14.341244779410946,-1.1892668054712847,-0.7655474905391317,2.2794080254427413,-5.907108118917955,5.837190550306754,4.008342466120752,-5.70554283395817,1.1029344005598831,-1.3010359136670733,3.5158090851103196,5.079124168595861,4.86564974782856,3.356141969179859,-4.044888164632245,131199.04,131199.0
n000229,-7.324379923108384,-10.103865351084972,2.1157583442999197,-5.417832075427304,1.7180279694470886,5.7104339788287035,-10.311464663886781,-4.0075420083692315,-3.9332248726780166,-4.802504895063632,13.764124218143785,1.401384540758066,1.5855965208897156,2.029021663211572,-12.837415565434288,131199.04,131199.0
n000230,-5.386595148148367,-2.675106384974504,2.6257876199455774,-2.45594078149859,1.3151981570233708,-1.5281216542485372,-6.76605391240519,-0.4071141707134824,-2.543688444788327,1.37591985039403,2.9767686280599164,2.6218950383122737,5.3986181729177165,3.9860672290411263,0.18900872433098037,131199.04,131199.0
n000231,-17.118510139794147,-7.730246567559417,-0.7710469356351952,8.082740709575141,-4.753203345947059,-1.935521475877144,-3.778598996111712,-11.727709504144451,2.656473534325549,-4.56122899714209,1.9643264179925355,0.98173461815609,-1.9728607775695746,-5.183549277420042,6.970166510679193,131199.04,131199.0
n000232,0.06609715855928577,-1.373372965600667,-0.6517974099556714,-5.795507520354989,-2.3117386855162683,-10.416194400435115,2.35619895350322,-0.9754380160538008,6.517732504329514,-6.956983177901052,-5.758728518903983,-0.2777491117522748,-1.0928336700030512,-3.1872885338410004,6.9236344931146565,131199.04,131199.0
n000233,-12.37644776313426,-5.5023883550384305,1.2356014503031536,1.8528045114826126,-3.7194417556931905,-2.0525806892214904,-0.31831813486110083,-6.643124546128156,4.100199919069469,0.3801453087213308,6.568094509781832,2.598782650085558,1.4714418207435411,-3.4598908851667285,-4.066545597970286,131199.04,131199.0
n000234,-5.96892107639143,3.0044377460243163,1.8025817785018314,11.675261562806703,2.824726410348564,6.600429338718146,5.728082458457943,-2.0983520225074725,4.199762829070012,-2.317179249441835,-3.480493510536055,5.3285966068188575,-5.502479147853189,-3.3818096926493326,-0.0069229671900210565,131199.04,131199.0
n000235,-4.499915350849937,-1.8465333111148317,5.2354106795765425,-5.2109091036994,-6.286044737061243,-1.0164262701964257,-0.04746197922062756,9.636543048519345,4.260099671908607,-7.160308319431802,-2.442654636503366,-5.2572043623554485,-0.9475579112662063,-0.7396853497017709,0.038095024195152094,131199.04,131199.0
n000236,-14.143467954033111,-4.4408039749255295,5.147700168092763,-1.3683899535844868,-7.36892163624051,-1.9706236970943798,-1.5274286247668862,12.283153281154682,-3.1166379854429382,3.2548167388312823,-1.8960087465716275,3.00783389419178,5.056891329177327,2.3170704862722125,-3.835006863419611,131199.04,131199.0
n000237,-2.632445204467034,1.3430499939557152,11.620233395675616,-5.6761313303891425,-4.702380194421867,4.841177275510289,-7.469471386549385,-0.33831108238927793,3.2926415994602936,-12.783749130960432,-7.589760055248996,0.7758881218192777,-2.1551082917532964,2.301277086158399,-4.3734203272045535,131199.04,131199.0
n000238,-6.285468509449223,0.48165351765959824,5.093425258977096,0.8814435704382526,-4.185698254248182,-1.1218343037633591,-2.290432688063389,-1.6639617552311983,3.3389157236270997,-4.807614763297419,-2.6611102658515127,-0.9457065550420096,5.98557824658437,-7.776509834578503,-3.1592750945951087,131199.04,131199.0
n000239,-3.9028660283074013,-0.9145797326312954,0.6426130213410151,1.53491120585484,-4.653379688987079,3.609036520063032,3.4328811256751015,-4.621757700050279,4.045932715423476,-6.946813934014613,2.3788444364607715,-3.545934452369337,4.881827231430937,-0.4736080318915753,1.0723905842456525,131199.04,131199.0
n000240,-11.62735609054073,-4.380115769107544,7.550842185387324,-0.58402476847189,-6.302264446417446,-3.318328388269957,8.751226199210333,-3.2491251714206286,-4.395335308596994,1.9743827466887809,-5.635853216784422,0.4324756933537708,-4.372155823176223,0.7064491839421578,-4.323228339688159,131199.04,131199.0
n000241,-8.3624870914301,8.3340882893095,7.372959161991289,-9.010997079272794,-1.763203500893008,-3.2780826709768904,-3.3073060871384796,-5.61954259660909,10.083017530671087,-6.375873712191685,2.4309973109016734,-0.7437765535608971,6.6316348847785305,-0.8146776007860224,-1.898728969201248,131199.04,131199.0
n000242,-9.991851122487933,-2.9719177978372904,-4.406954773251785,-6.1889611700708045,-0.05688263326398468,-4.323058815381729,-6.550630400335331,-1.4240760092183238,3.491965409030697,-8.745821536175551,-6.7249271970288325,-5.6286174749335025,4.9818502470382855,3.045696551279436,-4.217370951648594,131199.04,131199.0
n000243,-15.553632360820902,5.785176897370929,4.9164815692615305,-4.685522858686255,2.9952200674895506,3.4875119194228468,1.8583526473898377,4.384002278683887,5.563940471531365,-1.8983999514529883,-3.3822955659981577,3.6579427220164145,-0.04128086954545451,-0.2624948154400467,9.110547211875833,131199.04,131199.0
n000244,-8.360121023639442,0.07320905026451785,-1.451757790071508,-2.9513173958176817,-6.428562116356387,3.8186428076260466,5.614229494123453,-0.4692209937770598,0.3166058814464048,-9.304607235178317,6.252059405779572,0.4166003596020569,-2.916996230844533,6.591315761571529,-6.795300637565708,131199.04,131199.0
n000245,-10.92370410202191,-4.004472477786967,7.995889778340868,-8.16939149524544,-1.6845553295613787,4.434582559872451,-3.5653621828598365,3.0067662283179395,7.101700592926653,-0.5030906617563843,-0.6554668403997128,6.97883920150551,0.18818453735510154,3.6043516591129108,2.167585096961835,131199.04,131199.0
n000246,-15.970047025929077,4.105383139648183,7.499555227738282,-6.666262810951001,2.919742707059429,8.962741147120092,6.6111146052703,-5.27030406714422,-1.2757949649412486,6.5991799512057625,-0.8340296424379235,-2.5766920973107403,13.981702031981731,-4.166869575681744,-2.6246458638648167,131199.04,131199.0
n000247,-10.178318900628232,-0.5876330755799737,-2.074253386408568,-6.440055596678271,-1.4094537184874611,11.044500786936329,7.971141482666513,-0.4056530929112294,1.2737928037729922,-1.903883587445792,0.7534716257994295,6.441618605491401,4.788469918083101,-2.899591772301798,1.9854014766056838,131199.04,131199.0
n000248,-8.823321514205215,3.673766049987844,8.382769187705655,-10.372059847630174,0.8122426688973521,3.566608794836131,-7.732209536228925,4.4200262892942845,13.595358149536807,-0.9212991492309361,0.8007806720921775,3.1942747687964066,3.0119027486593883,2.691458675755156,3.1875405734411144,131199.04,131199.0
n000249,-7.3742553014692955,7.251894477495908,-0.9634382219235968,-5.3039045827208025,2.329861200516669,4.38949404884046,6.136745543195246,1.9068071078943472,-2.2508031492252516,-2.207391810426437,-0.5753378248734922,5.868608171068253,-5.7431756198172765,1.2278939566615072,3.897920064981391,131199.04,131199.0
n000250,-7.876530660930481,2.9223958402734933,-11.71468096760994,-7.2808676294907215,-1.3226476094652557,2.7606502888029305,6.180586107575036,-0.13847926367023825,1.126534263552574,0.7852033010252747,6.464998330092087,-4.8243544299864585,1.2866804546421304,-3.599340000487533,-2.8621472588438626,131199.04,131199.0
n000251,-16.711526427650895,-3.4772297245833665,2.552808027254026,-2.745885234574911,-1.0720988374803193,1.1662675146054622,-4.345232692065576,5.618050428666282,8.87551267194487,-6.4749561045616195,0.5093676946150429,1.421017352297444,2.911153440924968,-1.613571195692917,-9.605326424579587,131199.04,131199.0
n000252,-2.220277285737346,-3.421991830849452,6.554058354969342,2.503974581482238,-2.659786612940803,-2.717889839963595,3.1019021655975836,1.0277942190702494,0.1711869298467681,-0.9865785722269798,-2.630795008256295,0.42813655671937756,7.149435622674742,1.2168141053452435,0.38362883402643333,131199.04,131199.0
n000253,-12.96369080487162,0.32491883193811905,7.383109182057305,1.971706756948655,4.089068830859117,-5.4570878652160895,4.116554885822742,0.9434276769903456,12.041235650780857,-8.590429496927086,-8.419991895264591,-3.096600987148019,11.423728827569859,5.355989183840748,-0.47586622599663014,131199.04,131199.0
n000254,-3.6251135519665754,-0.9701202825323914,-1.7942460679516303,-2.511585417170651,1.5806720157607388,4.304415779959452,-0.6415966129510844,8.457741063725837,-2.102417391549302,-0.3946593183413658,-7.963669717338845,-0.17422649133175871,0.6031311179009438,-3.8444248512880193,-6.615130183594493,131199.04,131199.0
n000255,-5.535430551213991,3.1162449937796475,-0.25398867810609804,5.420330104573063,-2.544287166375173,-0.4497415468457533,6.416506593344276,-8.527563689960585,0.535309092440736,-4.381107720170567,1.6261282859317678,-4.19966700540537,-2.9208030904239592,-3.0172319521590705,-1.427452660784466,131199.04,131199.0
n000256,-12.774872431888053,1.8270657031630155,-2.2205674137736056,1.4759836126294799,7.114858506637006,3.923002414740289,-6.008240778172681,3.943170726914833,0.8193305662806973,-9.3823723322886,-0.6913260398527132,10.867077872330878,-0.21171783304617642,-7.92408218243869,-2.984777884830884,131199.04,131199.0
n000257,-9.563769063542377,-5.388766238697839,2.5566163825752946,-0.586216760261606,6.066635962425292,-1.6609138794013494,0.38115496616408795,1.506969619136086,7.575901201713799,3.899066632856724,1.4739729253216707,-0.007238033110837705,9.477110563550534,-0.949457854581184,-1.478667908367092,131199.04,131199.0
n000258,-6.382125551929495,-2.987328402561309,3.78722905766585,-7.148930157341227,-2.5897346767439817,0.6185061422675724,7.733115511921864,-1.3018297144731854,6.860054818089056,3.326284430473045,3.8232551271777755,-2.355926879930303,8.324062435633495,0.8454986636930761,1.5589418803516826,131199.04,131199.0
n000259,-6.925991707286622,-1.7305932802825712,2.212636351638913,-6.492460998207218,2.0242433919703338,5.042957949694914,-3.685791620905684,0.24604391136890602,5.693628553436126,6.290480001523582,-6.38880170395524,8.304500974357357,6.3946795908593135,7.213811559495033,1.9145915969428544,131199.04,131199.0
n000260,-15.03871024946874,-0.38626036703316957,-0.9453008624838062,-6.937001989071225,-4.093857243673478,8.31688391226389,-7.986544667883585,-0.7810763678703005,-2.141302332766149,2.759354942247978,-10.377664603821085,-8.176472884750364,0.43522549114046527,-1.5004847861447854,-4.2983318816991245,131199.04,131199.0
n000261,-13.26197455920441,-4.073105579224478,-0.08170192618834893,-3.212812038531289,-5.335713609857921,5.669025807587737,2.7594064538736567,1.0517803130946983,6.938028277996658,-2.342309184620837,-4.727538231422562,-1.2453522081985857,-4.870251381236106,-6.758635406581655,3.099685481188663,131199.04,131199.0
n000262,-10.263517897542835,6.505648178690942,-1.3431179082329963,6.0288202514821805,8.730713365908468,-1.1452488453828473,5.7103702506100955,3.816005105757728,-1.8245546713225997,-1.8085400135481455,-0.18337352645648294,-0.2513241761824545,-5.921166435119474,-3.192376883488259,1.9950293156252243,131199.04,131199.0
n000263,-15.614611594491084,-5.4676471761572305,6.481839296104156,-7.339457015953283,-4.321980875491784,6.816350413104023,-5.9925286876586625,-1.0022810861886051,0.019600278588347564,-0.3510108661330455,3.3246464476483535,-0.9221156187669841,5.804984158881457,-0.8213104325269889,5.424440709764134,131199.04,131199.0
n000264,-11.022716525339751,-7.304520268934109,4.7432061779107055,-9.807547562017708,0.26490397656608455,-0.6009166542562097,-4.0384910860155845,-2.6054601902635075,0.1436119964217082,-7.125742599864616,-2.185756029493154,-2.8260220895424175,2.092767858462333,-5.765169137487735,3.878547300453487,131199.04,131199.0
n000265,-16.447593926935497,9.092075062921943,3.638040259517377,2.317709869947244,-6.880590437868087,13.166159122579078,-8.866513287199382,3.529797100680786,9.969986695082433,-0.22854783277150936,-0.780036270973665,-2.6726444189632916,-6.349473544905207,-0.9782830104517941,0.36338435498737454,131199.04,131199.0
n000266,-17.182992490852335,-0.8542059972371803,1.7239478170908717,-4.4779601561651265,-8.737976050938755,-5.669121382829084,-2.66904924543933,-1.7818198887382766,3.943223326079289,1.0005539796163276,8.015510657066343,0.40712248016734476,0.4089357818924586,7.4476950976609455,-5.209295165522205,131199.04,131199.0
n000267,-7.870636903756056,2.5263934077492345,1.0656687058317236,0.2946294827388036,7.165737983945643,-1.6162872231827805,6.743890639113849,1.3802595137813773,12.943680305693833,-3.954884450167734,3.1706515257321946,-4.499722164793244,-7.753672864335747,-0.2750380268425797,-2.613216902317736,131199.04,131199.0
n000268,-15.717783622100214,-6.642428012862908,-2.8219476207010334,-4.800794412951805,0.21708315128904454,-0.8776355028763709,-2.7987305407640988,-0.47144006397271404,-9.105295979498987,0.17542362435567393,4.610341410934065,-3.9295863019529236,-1.2690374388842336,3.8289260615212455,4.523796079027148,131199.04,131199.0
n000269,-17.077519657269804,0.771446158564682,1.146297917276109,-8.836308065058315,3.421034956466155,-0.9931660622292524,-2.7211157769952385,1.1561484318946575,2.1441294537489806,6.235247896046354,1.047331331302456,-4.831859590915643,5.866742261542538,-7.652057785535645,-5.251451161506753,131199.04,131199.0
n000270,-11.979786306399225,7.5527827990052305,1.533919971569101,-1.4011842377596766,-2.5692758180386104,-9.339381282734413,-10.653893303535106,3.3156737571448764,-0.5938755867350518,2.899681929600346,-5.996416638747049,-5.338578110563857,-8.027650370636113,-2.02021526562703,-12.72197356532875,131199.04,131199.0
n000271,-13.771592480048966,-3.0209095228757916,-1.6727730805627212,-6.5664030044344806,-1.9309960239175943,-1.1652285270073839,2.641521930375955,2.866770251436115,0.5826213035236805,-3.899392373037294,0.18049176027514802,-3.3242645610829133,7.614746165588452,-3.1627774833116935,-4.67022011318171,131199.04,131199.0
n000272,-10.477931779637098,-2.1781984959757863,0.15992196233140654,-5.885131177109585,-6.395447627923165,1.4288989307494433,3.3617292001106196,-15.888259650143505,-1.7313025205941401,1.9789732746276236,-4.441917107967671,2.4910335633690237,3.1571019523994277,2.3628665436383867,-0.5370099100301724,131199.04,131199.0
n000273,-6.894750475870163,-4.41675067271262,5.005923429930446,-2.103959507162702,-5.895072572535142,-9.108617890397166,-0.44509024636505323,-7.953699488096651,-0.3118661480190692,0.6010967595814124,-2.0300922404733495,-4.286600580162185,1.4002945236312572,-0.1557177090068858,-4.308301821253547,131199.04,131199.0
n000274,-8.570324682329597,-2.6612246303654596,8.944413166844694,4.368582608983605,-1.3942840536095735,4.31975854515211,5.841851817755894,1.1329190112279646,4.15509350163022,-0.6190231734363554,2.9145954910303553,-4.280853542820898,4.810158339496446,4.065425265466346,-2.385622446581963,131199.04,131199.0
n000275,-11.947424900114644,-3.2359053568707865,1.3813490649462117,-3.1717905026030295,-3.8521124622400738,-4.841944212038039,-3.662209058802234,1.7647775788313123,-3.0694502852644656,-7.802263891074889,-0.424883051020054,-5.69524376503573,5.9057666505355195,-4.85096870284643,3.9780164424332787,131199.04,131199.0
n000276,-7.01546673475192,7.162780694354208,1.7501121727527975,-2.0306543208946954,2.4339031256297066,-4.430187015946273,0.70644388302827,1.5967181996329163,2.633076736872241,-5.070157428559999,5.099227105020887,-0.5568971606401178,-1.0298575440968591,-0.47453750895991276,2.1436573288212974,131199.04,131199.0
n000277,-6.383388948411577,-5.25385527587631,0.714799208803869,0.2334289036180066,5.828692779010209,3.906345211185263,3.869156153429465,-5.549230408586176,2.1027636167937027,-3.967030611169273,-9.336502265316362,-6.956795597794073,7.825608178703092,-2.7975912479379974,-7.767869095036899,131199.04,131199.0
n000278,-18.568365014251107,8.748809511980486,9.811474349853118,-0.36937474811640714,-8.239724197776706,1.3236758552628631,1.774116079260633,-8.435093351050044,6.5910442022017115,-7.1172664791871565,13.938457852119114,-13.152250681737138,1.9378086979596172,1.7403413333430908,2.486855325984045,131199.04,131199.0
n000279,-8.272810007116263,-1.0496214901651266,1.360639678455774,5.92737757957128,-6.3073931876014555,-4.794681149414042,3.510874519729666,-2.6429859623052745,3.0088716061552856,-11.202178429313419,1.7440455626412625,-8.358138620806388,-3.0181936715957134,1.5116602317620806,5.636182057591644,131199.04,131199.0
n000280,-17.74302706413804,-0.8676088847259835,4.868477114192677,4.069376422834067,4.362136505129714,10.355046947724547,-3.304728888633264,-4.743686412769986,-2.3844516731482472,6.654000242632056,4.139812315887158,-1.5371065924707659,9.678634409891455,7.679957875486108,-1.0131851206183977,131199.04,131199.0
n000281,-7.368525147582117,12.95407207045642,5.694957522770148,-11.32172347044546,-7.813719696283693,-1.1464630124511057,-4.475361182905998,-5.216296473086479,-5.6180516456305245,2.422884793620974,3.7801978777254552,0.45695513017065226,1.1239083812583421,1.3403696482595895,9.078702859593548,131199.04,131199.0
n000282,-7.355961653890668,11.03237838478104,-1.0370105929299198,0.15659492737570435,0.5928500612901395,-6.321620507945885,0.6696993268083798,-5.92467162670674,0.895470823403298,-0.14322592989275573,-7.36296606309167,1.0784185619767719,7.380998607655233,0.9337741157816505,-3.8201441350751084,131199.04,131199.0
n000283,-2.9897786546792684,-0.21372114147357124,9.126971774960184,-3.944056149791892,-0.598213920111764,-2.085506228604059,-5.235276353521968,-6.706188522715154,1.32921846554773,-0.8705749102354123,2.7860426907683853,-2.689290905341017,-2.28852393740436,0.6240175119489288,9.142147253588476,131199.04,131199.0
n000284,-5.753716701492802,0.6251785872313367,-4.399786888075056,-3.474853172493617,1.4505742821564573,6.595801809172725,0.47016543618903106,-3.4273653141116247,-4.591339990244649,-3.224991510348575,-5.678968947431835,-6.486049012790371,-2.3096813264248244,-3.627223579438064,7.595790493879386,131199.05,131199.0
n000285,-9.623610448815812,1.4786531885825072,9.660401383383993,-0.6185942072680679,2.9438990524028386,-3.451828520531551,4.895588967796169,1.7202012134811298,-4.809250936022641,-0.8641769101149046,2.202278783786383,-5.314048267321514,2.064233873751183,-3.6083661944646646,-5.856766185303311,131199.05,131199.0
n000286,-10.678625478305763,-5.4197033023217065,2.6523695576719057,-3.5986815738521734,2.7743860486628993,-7.2763260185508445,-4.319061294476122,-3.75444388261681,-2.9281970795230414,-3.2913156636043235,7.254331398584831,6.008920390365736,4.6665140555505165,5.51091834189624,-11.212596111550091,131199.05,131199.0
n000287,-17.060340902497074,3.75530934501485,0.8764056633509434,-8.8309164163241,-1.5444040483088233,4.925415026257925,7.974174559459124,-1.331844649535532,8.614045905292103,3.436563869084188,2.3318187034374964,0.015045487821311543,-0.02965981377567084,4.964336501063041,1.5072580590820959,131199.05,131199.0
n000288,-3.286634245804019,4.521775162830521,6.405036196385801,-5.731539781384521,-3.0810332067810324,1.9895507090526134,-8.063458772211193,-0.26257519797115036,0.412270608625956,3.7463492372039884,2.424468467563604,-3.790059638913742,-7.01194555721329,-1.9125892265001427,-6.3358139564305915,131199.05,131199.0
n000289,-8.073255426943938,-12.057017386236597,10.04490342619772,-0.544091035852091,-4.346254951722011,3.8979551607719856,1.0423211579826819,-5.704648982666982,-0.9174908868942449,-0.05190389507073864,-1.816393149646077,0.6463579246670432,2.5660997589567627,-0.12289198277587143,-1.6770048347121762,131199.05,131199.0
n000290,-20.018717228636657,-5.062574941785923,1.5418990841771296,-5.110815017425013,-1.5827589235367419,6.931551047081984,11.550977745337963,6.427075569829323,-0.6761616249664291,2.163999831262166,-10.908953230515603,-6.470351488368129,-11.127210232910542,0.08517466687852626,7.107462820068337,131199.05,131199.0
n000291,-7.060856589108801,-3.2726567497366963,-0.5026390536670076,-3.7164512129493374,2.575865024000756,-4.835227760499733,-1.5899185509204459,-1.971323742436892,-2.956790442146697,6.8768177147921055,0.41852496376430365,-5.226025441477555,-5.930133945517763,-9.091837872915766,-6.714066332074392,131199.05,131199.0
n000292,-13.537923629365714,1.8906533796770533,2.4004162156679216,-5.97489394533675,4.62287132755795,3.746154945868054,-2.5789181204530855,4.054262364124053,-1.7085642019964948,-0.9486078689366532,-3.8661653757498824,9.677280391058122,3.6278022667021244,12.946910515787973,-2.645976510796012,131199.05,131199.0
n000293,-12.003565706705839,0.37471846041543877,-9.471189530804377,2.452694490624097,2.8675604538484794,6.782570860642887,0.5943575010782208,-10.140250548664577,-0.030962353141012366,3.969612892154858,-0.6793926506027059,-5.773813490554378,-5.316105764677195,0.44340197852463925,-7.521155771666956,131199.05,131199.0
n000294,-6.931929244241575,0.9929563649199016,13.118749975590552,2.915961933572679,-5.608443974383169,6.6266875982638025,6.4998075212406565,9.104809815798943,1.4598006541451827,4.886735846727275,-4.773570870835435,-1.0229475090337958,-1.9542911458205965,-5.343599018768904,9.179817343141485,131199.05,131199.0
n000295,-3.3405704092260073,-8.061771920797897,-0.2757635957963154,-2.9934842932764285,7.948764654954289,6.12518754905588,1.828617206162734,1.692167633240685,-0.8284833155039866,-2.218107450003557,5.815211784206176,-3.3064364105611945,-5.187185957035442,9.198765327500942,-6.420180112525983,131199.05,131199.0
n000296,-13.49334998881478,4.019518591140498,1.930237154230974,-0.2168963654067344,-2.885450043147762,6.381395724943875,7.846724013772053,5.487209966533971,0.7901191311712321,10.215051753859733,-9.695838020465102,-3.919719963765853,1.6304088354763595,8.384409281595017,-0.160597994278795,131199.05,131199.0
n000297,-15.732209665229018,6.082758001419561,-5.372295227511666,-3.936910996644933,4.18417492694757,-3.3049622631379894,-12.833219539241904,3.946508967349888,4.883642148121421,-0.7517865654992841,2.9691971450399306,-0.13908199413948596,-7.540745484293982,8.590958377925746,-2.8464271398096455,131199.05,131199.0
n000298,-6.367749427827366,-3.4565557600894037,2.1793812299110265,-3.3160551065209383,-1.3652611977904912,-1.1041171930968157,4.785452395848301,6.064928923264646,-0.6380380038470267,0.558526047203518,0.9308226425162007,1.7898054231388212,0.9791024136222298,-2.4533758898662232,-1.8813120090754614,131199.05,131199.0
n000299,-2.1783326299970227,-1.9310233018180518,8.62409648210367,0.07682022348961004,0.58368584757724,-0.4031043576948876,-3.0464058584769624,-2.1649648183926713,-6.999056308790293,-0.5072022978436825,3.1980001394365454,-8.418618901136615,-0.8551274489362062,-2.936278016843223,0.30986198498938233,131199.05,131199.0
n000300,-5.873831682430132,6.659897483019605,10.296781583813694,-2.0933412668026072,0.3786187373416566,11.410302385072661,4.814911695990502,-0.8385714625994284,5.014803784171366,2.6985783874391807,-3.7148767364338444,-0.4755686448585975,11.04253075886141,2.0780571766954306,3.1189953447997456,131199.05,131199.0
n000301,-8.639590218173717,-0.2618666237288434,4.226845725712842,1.9243899855537565,4.921842024911094,-2.403821758805191,0.3679685128373287,-3.274542538539065,-0.2934118857641528,2.5383550734939258,8.233995922837055,-5.983445968269445,-4.892978469439267,0.41208007736537233,-6.640073615694545,131199.05,131199.0
n000302,-10.286142568391657,-0.3684741713707582,-1.3439525085756263,-5.781030485357908,6.115684656100284,11.656801971226576,1.2285629846354904,-0.3427212125182315,-2.7384391266189763,-4.770490789979847,-3.154745932321189,-1.8610828291924866,-0.7661013381520512,5.65905195989966,7.737468029320638,131199.05,131199.0
n000303,-6.730229432528586,-2.2057886506753794,5.7514394133537365,-2.799688564116009,-7.607904717970198,0.01689548318973455,-3.2258746677435166,4.492083118300088,-5.034465269621045,2.3108892785167434,-3.8356842459435674,-3.8382579164706145,0.08376300231876657,0.3308558044989518,2.0916010528596227,131199.05,131199.0
n000304,-12.528644413531055,0.41858567728966256,0.5806770115059481,-8.871787026316037,-0.6016287038373168,3.6625343740460656,3.7343295152611207,-7.421853345285803,2.6713656888483666,0.844083693873241,2.124100135881248,-6.602638829933504,2.714264609971576,4.413864999594177,-4.500131249955796,131199.05,131199.0
n000305,-5.586559867203546,1.8446534694305035,0.9726878149130689,2.8184158253868254,2.2305395084209256,1.317728998089277,5.8569289538198515,-8.111493179068194,-1.2555723927187352,2.8080747474647154,3.5718356141911998,-0.8632015869028946,-3.2240223499580027,-5.667954756743772,-2.8679135553101194,131199.05,131199.0
n000306,-18.61116929318719,-5.062813987515126,-9.124285385446044,0.25478100788845737,-3.3145362951156394,-1.1317480164411868,-13.886793644683694,-14.645814886839254,-1.0361796992914138,-3.1007014690486345,-0.3954534562935016,-6.417890428656992,-1.3408542419527476,1.6013954612214363,-1.7922767188498974,131199.05,131199.0
n000307,-7.68814007563475,-2.0049782969888605,-5.9211979805730675,-4.543614870931863,4.383071336194742,-6.200754500696486,0.655512128566622,-1.754499873396734,-6.770654491512934,5.119188522873611,5.210523031242271,1.6260954649791461,-1.1881995997072277,-3.682505582956933,-5.519774223341084,131199.05,131199.0
n000308,-12.289303522116693,1.177597988352208,11.229237503295016,-7.723075956727689,1.8560021944094758,6.199585077681935,-1.3757274800119077,3.925140247923837,-3.723512348243525,4.32250802672775,0.991235747345284,-0.6997988767197272,2.9270315128259488,9.00708193678239,0.8946948389209766,131199.05,131199.0
n000309,-17.035865386022955,9.565656240436075,-0.7519357217882301,-7.8034730790333775,4.07321858885159,-0.26549905641667526,0.6178626523309083,-7.673854321813026,-0.18223933287402705,-1.773981311211186,-4.394695865575957,-4.211087477034521,-5.328958855304974,2.1212308875904915,-2.364840833082047,131199.05,131199.0
n000310,-10.027612219863787,3.8948841249625445,6.577871208503325,1.3133880629668786,-5.158308926113046,0.8499427133954777,8.643702822117344,-4.646574785737511,-4.661268193473545,0.7064911763794899,2.034348483979962,5.72742881874084,4.29466839845354,6.166732841253408,5.556616730578424,131199.05,131199.0
n000311,-7.661971026824136,3.2212752754471365,6.965588046870094,-2.6441954483314056,6.9824108231766155,-1.931700895845456,11.687802565530491,-1.510696762105835,-8.285311214870879,-11.156549832724146,-5.545955941406215,4.35012376285562,-3.3725732534279214,3.578085265478613,-6.555371461117044,131199.05,131199.0
n000312,-11.102250566576659,-3.466978618482683,-1.1593319306771415,-2.078733563480163,-0.794683415771106,3.154959656211919,2.232845552399855,11.821505039432685,1.458736679117152,4.7542187825538464,7.917262505769799,-1.7931595626926984,-2.7893467770630807,8.718101130379617,1.116554583955755,131199.05,131199.0
n000313,-11.753073816463733,-2.2962651201086013,10.932669085192728,-9.850556786137798,6.722187172415867,-6.24055998029847,-0.8527455989767347,10.284547378728785,-5.370930441114422,2.6809298434726427,6.469997384156662,-0.44828118636998127,7.830061349512121,3.147745240791086,-0.00662675908929089,131199.05,131199.0
n000314,-12.094722573755284,9.548950530460447,-3.361528417618963,-8.532616479879007,3.4508962118631823,-2.99573268469414,0.27698624602070687,-7.651266874054654,1.5558508288705746,13.081617102613764,4.669724295618267,-8.232250472970394,-5.678415583709809,2.282679164705911,-2.58570649268476,131199.05,131199.0
n000315,-17.360605390039225,-3.413971305622619,4.643860055504548,-9.973834584681514,6.924243620658492,2.5999398394557414,2.2617038091483046,-8.475285446866991,-0.6784032966326273,2.747567847921414,-1.2799585033770393,-2.626465064197664,-3.256960046368052,2.387276922956561,-2.5305339222071384,131199.05,131199.0
n000316,-6.216198736926095,-3.192563487916292,1.7541749187559454,-3.7579874986802095,-1.5859771449632893,5.2411907494832,1.5298617101739609,-0.765274751560487,2.4293164424282567,-0.7172570755184636,5.6985873938235185,2.9065163051509146,-5.447761938421882,1.1909114255030055,-3.6890632717746765,131199.05,131199.0
n000317,-1.1758677384530474,4.808604116245613,-2.056115414386016,1.5401374602800493,-3.9143667023747084,-0.18117762593150366,0.3783551821800324,1.1426783705378079,-2.9268121935747393,-3.8718768473624854,4.503488435511772,-8.600212932014239,-5.620747698402544,-4.352230282967888,1.3883718135634013,131199.05,131199.0
n000318,-11.726220066188862,-5.8836855509056845,2.926106220575277,-0.13068741507904003,0.038605013631460454,6.576690018898139,-0.1292400242909033,-2.581494684726146,-1.8679594261078751,2.6278945106767893,4.6117806562932575,4.450996418413698,-6.332350116918095,-3.72971921256998,9.351620595379229,131199.05,131199.0
n000319,-13.035139158722426,0.7880899010447033,-3.781765571644415,-4.550569305307588,1.9783393217508785,0.4059897701187627,4.62132773157499,-5.038374061763252,-3.5294600133211125,-2.1141644064611196,9.227251166221953,-1.7511055838932927,1.806834890107819,-2.117975009311593,-2.0039952921944906,131199.05,131199.0
n000320,0.9789587507471342,2.6901331368751222,1.813046969665965,-1.8032776671119501,0.32641988493355023,9.711024244957343,-8.053401319665056,1.8354222821304675,-4.530510194665962,3.6688554485337175,5.147326273332308,7.753731820259867,4.841407238328994,3.8462945718901866,-3.03671408568036,131199.05,131199.0
n000321,-16.039433520273878,2.763477841389709,3.3794358221281353,-2.0087924251481555,0.7872968462194834,9.071992586992433,2.715784614549427,0.8910991059194224,-1.7917696984704543,4.182085596928926,-1.7160520664151409,4.915373179603414,1.7766809204292757,1.3076900349271818,-2.7920906151751232,131199.05,131199.0
n000322,-9.350028426355362,0.09690148890545314,2.446390410519858,0.02753593221140438,-5.66248717829765,1.3503419055866925,4.330594416841008,-5.632725926879024,-9.410213545902069,0.5310755174459413,-5.594827726567547,0.6414335831508877,0.5566028270656596,-1.4859970976638972,2.5439884229924026,131199.05,131199.0
n000323,-8.12796118430025,-3.5962189456486655,0.7684020730365559,-0.3959967951588368,0.4999807129822421,3.277794268256474,-5.099706505575961,-4.719994209533486,5.364145754331103,-0.26614091818050495,0.5465781854546812,-3.5337669031652736,4.005320636289431,-4.466660614711696,3.019770184871163,131199.05,131199.0
