,0,1,2,3,4,5,6,7,8,9,10,11,12,13,14,O*NET-SOC Code,round O*NET-SOC Code
n000001,-11.384364601808084,4.701746772393132,-5.255954631167672,-3.587935448436945,-3.51527288407302,-1.5589495340226298,2.8549155322380644,-3.1984264028393876,2.924334293924821,-6.067295389032735,2.7432473603356886,-0.013140873801622543,-5.0363604292625075,-7.711581825876521,4.954702329249272,113031.0,113031.0
n000002,-9.148437938460674,6.7987470777435774,-1.1694728081131243,-3.380127493244069,5.27192946259977,-3.217119366263626,3.785389291229876,2.381687317903143,0.4485755915765779,-2.092602024931184,5.052940083170923,-2.4392498658935535,-2.68997670601516,5.795150444098536,3.423465741399344,113031.0,113031.0
n000003,-6.277045779406679,-2.010458523113188,-1.507240515577479,-5.543462030834757,-2.3737799709414342,-4.889148779857519,-8.219024605388045,5.583568470545266,4.141965307772117,-5.120037037397722,5.192838249777274,1.5246025706746722,-1.935136130976688,2.5613161120741528,-9.799504768165948,113031.0,113031.0
n000004,-11.050981010403696,6.600672370981328,-4.292168804491132,-10.546862257261957,-5.018816136593727,5.755701875948801,0.23133240149710987,8.975399094219467,5.452754366008345,2.3078967140816777,1.0847593348057412,-1.3416067719060225,-7.188169015658577,-0.7874879947311284,3.1383006200588164,113031.0,113031.0
n000005,-8.153964216075487,4.08693192962962,1.716636046890414,-1.2489564460067262,-3.9367491793847185,3.1747724275562215,0.7772453181038014,-2.7434879933917045,2.16006025382433,-7.205290007562785,3.972159444124223,2.8200521193213968,-2.284352287384285,0.6520740804121701,2.923180673074416,113031.0,113031.0
n000006,-6.54500519939795,6.744520547977218,-5.5320795020855815,-3.0428984784064945,-0.16272104268859522,0.5194819133084292,-4.393222844730152,1.3933227049505343,1.8659964386997276,0.6484495198677735,-0.692132110348544,-2.5521366025222525,3.6336856139837588,-2.329137530852253,1.4956799532020824,113031.0,113031.0
n000007,-8.92190314393065,-0.8150783193712288,-1.9542015104056685,-3.1269522916857952,-4.950402045476018,-7.739402612090139,-1.2408799535338733,9.580280851524028,4.735279916230259,0.4656247516570886,5.3330158818706455,-1.7370537475921062,-1.1637363331321553,2.195767059824864,-0.11530243459700196,113031.0,113031.0
n000008,-15.360176856491428,-1.1729447295145805,-3.3402876665218715,0.9631369450475318,-1.2981559442256947,-4.645560080774011,5.62101864580827,2.87747852095265,2.3267413510179846,-1.4342616512874946,1.0766126475446836,-0.18456782424385754,-0.7598731742839029,-0.01080854908311124,-3.280717470317385,113031.0,113031.0
n000009,-7.365892428816219,2.014985456310664,2.072791245769251,-1.0924406353484062,-5.972785248502733,2.0103286510462945,-4.432283207080341,2.5071058201956804,10.679840434525106,-1.921893076640182,8.306532497024993,4.705658358071138,-3.3429859752276085,0.43505096812397753,-1.3088801865300128,113031.0,113031.0
n000010,-12.674637172908383,10.210107538062356,-6.153911227349587,-4.709835719876802,-3.1319902630872143,-1.4949956112357246,0.5732001734461311,-0.7630157320258788,-0.4984475510091104,-1.8797748177224918,2.164788442618624,1.4942725491881175,0.7060146606919342,-0.6218563030184706,-0.7880712989497862,113031.0,113031.0
n000011,-8.817994212589895,-2.9289468634907596,4.567110986953778,-2.7467186707027,-6.35717014034781,-2.682580591188743,2.027378996187438,1.2112083801636642,3.8031276121476427,-1.0652389981752322,2.633661545175923,1.6372685504134912,1.609938939007034,1.7161310846280795,-1.1781115635131363,113031.0,113031.0
n000012,-8.194334461077013,3.721986159460176,-0.3332535641096837,-2.4484399689857397,-5.5181880917483195,3.412632343265411,-0.16552833076425777,7.042232725994476,2.31548640870211,-7.478983140454638,-1.781751238858738,2.730291463961298,-1.6643090589057943,2.777845032909299,0.3341549797685195,113031.0,113031.0
n000013,-12.812312314374292,12.611820517413715,-5.407376432327556,-4.579038034512112,-3.0898924401035104,5.624332400487983,0.04675412295310327,-1.6444579550886567,1.0614926394842414,-4.126046101274888,4.581278170521537,3.00466259194929,-5.632239371034569,-0.4078508076740666,-0.7964234240895633,113031.0,113031.0
n000014,-14.285871703462082,-0.3564982292891541,-0.7254041382875138,-2.2197814685105732,1.8638907627482824,3.144739394806097,-2.892633302046567,2.2519105999690865,0.19509446201587766,-0.712477710077503,2.6942892562939464,0.5770406634542258,-8.771361268662842,-1.5561574197379988,4.480889000258168,113031.0,113031.0
n000015,-5.9411927005074165,12.254561850987152,2.503957681610715,-2.555363564937274,-3.866891536487545,2.0711894894599148,5.92892915539165,3.500646259291717,4.08120011427339,-5.778118860211262,-2.4213170244018953,4.239845672025119,-0.547928002561008,0.3169600276975504,0.028652317322960252,113031.0,113031.0
n000016,-13.924777620962796,-0.9806005357421741,-1.8303182382952332,1.335266970567742,-0.5088099998955333,2.7250022033782173,3.1386306572081883,2.198210633283133,-2.9326704777176014,-0.11830522076190153,2.993989540899909,-4.805210416782877,1.3222464753870264,-3.0431894943671223,7.016984792331378,113031.0,113031.0
n000017,-12.957038706383821,4.923325456265417,-1.8366038854043671,-1.2321305206211897,-5.447298666171489,0.0741223756160434,-3.8578767804412433,3.7564145379142655,-1.0305396401161149,-5.835675232349724,1.8704887805434582,-0.8034862135942109,-5.868677641137089,-2.6510570994962923,-3.376440484553246,113031.0,113031.0
n000018,-9.59948921843904,5.03918204715595,-1.9184040580518793,-0.2458243535231368,-2.407993088873767,-0.7500711475472945,-1.921023218483648,3.591371053562535,3.0859650801210465,-6.449918065145891,0.06307393258518368,1.4900222745642273,0.031504685899380824,9.291827014063767,3.7228995180068782,113031.0,113031.0
n000019,-8.281552244795627,-0.7238462630132534,-5.277605776411014,1.7002306671057021,-3.3045659426002176,2.9303970973235005,4.273293905471343,5.415490113575847,0.8917988418787268,-0.34108055987283725,0.31131264858558505,1.721017778703906,-7.767181962133514,-6.045563073007601,-1.7875796852086172,113031.0,113031.0
n000020,-5.215630712502247,8.910027376119226,2.3179845242100483,-3.7247080401478123,-1.775447796207436,2.202085854205105,-0.6969343234209796,1.66687382718052,7.022768573595745,-3.6255378453445397,-2.6871138128430228,1.3745280352266767,-2.57316449622422,0.9194614036373835,3.605957583872873,113031.0,113031.0
n000021,-13.96801399096967,2.160750137613597,1.370071964233554,-2.5338212371481776,1.4383319682646971,-9.162696128472605,6.24712102468324,6.0846247976010055,1.641995243103653,-1.2018418665612915,-1.426614770168091,2.6988543189181575,-2.2523796180110254,-1.37425459781939,6.257723016840688,113031.0,113031.0
n000022,-9.056935324692176,7.213172805005154,-0.7018768958943609,-1.1869401031878044,0.8333110779627377,0.46687671705771905,2.1958322938208314,1.2027099092743105,7.899466338588467,-1.064200705517321,-4.2600894399587395,3.8708710010274556,0.25445475295589937,-1.5766973988680146,-2.175206661805232,113031.0,113031.0
n000023,-11.119942247702152,9.152525374953303,0.45434867584427685,-2.922613473203644,-1.6271558780453554,6.270598666238234,7.275996172466321,8.950676237024716,-0.3573031735011396,-6.93768033487314,6.202114936541111,1.366419341750678,1.8865263261996503,0.03453328164084933,1.9758749341577526,113031.0,113031.0
n000024,-15.438223791501985,6.010679119919288,5.895530618566885,-6.216203522658782,-5.840205279991526,-2.7933184502570167,7.150739875826735,2.7279329380204347,1.115044413834863,-0.006326742445630806,1.3192307418341755,12.517923352843367,-0.16499466556801057,-2.019302671037925,-1.0154142752343194,113031.0,113031.0
n000025,-9.93891942905151,8.358914837925234,2.6982291154932048,-9.954746622204606,-3.0766397997286123,6.042724541595832,1.0239616724772382,2.2850823480156928,5.192553350376295,0.8817135324207546,2.6077239411414537,4.148207135892838,-3.388451385914811,3.4337415630736796,1.0775459573179174,113031.0,113031.0
n000026,-12.600288492771709,2.240999128545003,0.23554174365709657,-6.8791475106295294,-2.6692879887615804,0.9475636666056104,1.5133582531752123,0.8375800979273622,-3.0032452090870425,-7.6735469071559805,2.8579487607236365,6.316579678259457,-7.548844151020551,-1.9543526028607872,-2.506820643981584,113031.0,113031.0
n000027,-9.210021503221956,3.290382502236371,1.6669192566646036,-1.2003911958422995,5.122892918879485,3.6196928635030226,-2.8079592997871936,9.161415576931967,1.965025586687754,3.7643094282369667,2.234805004745424,-0.32460966715091844,-0.09015784999009435,-4.259081173335534,5.078017859786491,113031.0,113031.0
n000028,-10.428430552445658,0.33406582313453903,0.5059029808638453,-7.214922281644839,-5.3351786938746955,4.2659235491405925,-1.1358705958606343,8.01526923079272,8.40840128610387,-5.5683527256199845,0.9077012933906123,-2.9237743598006993,3.474986376695563,-7.888395937585527,2.2958559528321585,113031.0,113031.0
n000029,-4.61898036394972,2.0066615247504114,-4.068329311302977,-5.141872068262003,2.212070066771951,-4.230131638375884,2.2247526092580174,1.9387838882265942,5.7718726990894655,-3.623096640262604,0.9575404564537724,-1.716957354955465,-7.4574867600111165,2.5698788031493938,3.5613461446664134,113031.0,113031.0
n000030,-6.9480482718571555,-4.316039685032235,-2.890187721005072,-3.6487096551747658,-6.503215218384057,-6.36674564614538,4.51055987832045,6.599180198184799,7.173838713661127,0.18980309338990153,0.3866319124580755,5.327104932316765,-0.9570213004083923,3.3722602600936917,7.370491143487509,113031.0,113031.0
n000031,-13.220690579051425,2.7279594540407195,4.106258337298501,-5.80381056530349,0.05234721912894402,8.864170757903045,4.708940629591633,-2.086136059069911,4.731816901103025,-2.293534993462977,-1.3839007776608532,0.40672570303464395,2.2757803778904826,5.327812245247397,11.351234352902509,113031.0,113031.0
n000032,-11.909349514193563,5.262518934228952,-6.929475475957579,-3.0778465963609984,-0.3227717112301205,-2.7142013191079464,-4.8057022574684325,6.3375810835457695,3.6033788053374094,-2.903590205934741,-7.131508269372608,6.873336032862095,-2.211714146973913,-2.7518500742804393,-1.3813519869497541,113031.0,113031.0
n000033,-17.147160022976454,11.446217957248223,-2.2835803233386325,3.616115788445071,-1.245121489297195,-5.519249035818892,1.1245536104614695,-6.653581804878197,-0.6652727519683381,-4.278046138993271,0.8228827889355946,2.245527545002385,0.3801341442424637,4.325529322369399,0.5242547187403527,113031.0,113031.0
n000034,-12.562029068161051,-1.5976307705302757,0.925638500474977,2.9913117162247054,3.8363687124088304,-5.357976722555048,8.19955085255111,6.163947629467682,1.6756904252046119,-1.0020689498494173,3.74026358826272,0.7391478781805795,0.9588252032202593,2.937034376991355,1.5663836955671049,113031.0,113031.0
n000035,-14.272482046944882,4.750943832495049,-4.265406049598089,-6.810761516341706,-2.8908010045726145,-0.4535926495924856,2.5179750003402526,0.15965368542523795,1.110295631511347,-5.845297632102985,0.8046310439247962,3.7575419162927632,-7.056490713331871,3.6275946400681796,4.728414761294635,113031.0,113031.0
n000036,-13.249025958686618,7.637570026073055,1.6866029927727204,-1.736848724402535,1.3444971743778606,1.3011606430318874,-1.2462901354017637,5.073402146984366,1.9117365543769294,0.04426708781711586,-0.7961919080385418,12.156063434586414,0.8668274344991294,-3.110579347419084,-3.269157317140384,113031.0,113031.0
n000037,-9.981012789183659,0.8546626145548086,-3.108902227620079,-7.98418412632873,-2.4443790435201276,-2.656733987970459,5.294416855998111,4.659746446079763,6.253489852608775,-0.73047380598312,-2.486669234370414,-4.900298948222445,-4.577180979300613,-0.8525270128831826,-3.9393832631387067,113031.0,113031.0
n000038,-19.75733880306602,0.7068939556469398,3.228889964904033,-3.245583688838599,-6.780329013009112,-6.8001297281606785,-2.7419666490908505,3.8705634373660427,2.101649270822028,-8.129048122676451,-0.6373756196976732,-0.8740061169466149,-3.5539980481056643,-0.17010064904960964,3.3210601862519997,113031.0,113031.0
n000039,-14.387220360850163,4.164101020630775,0.17927482665833527,0.08295998940998883,-2.3114715547420546,-5.251436420469956,3.743129278095607,7.540903726050239,2.972033717165994,-1.5782454921001543,1.8279517017940188,4.198188269635859,3.5751063541501757,-1.9953259603369622,1.2334339184161043,113031.0,113031.0
n000040,-8.545595728268122,7.819488110527693,-1.7530944819627192,1.277607978889351,-2.5257551551423556,-0.12672011496174496,3.85558242375342,6.151574739121417,3.7194196111513933,7.671247260026737,4.336589534230991,2.969904924219257,-5.256742230471286,0.47200704671983246,4.004390834604943,113031.0,113031.0
n000041,-14.118239129451952,10.2181584611889,2.1026965394218897,-6.8530308738515116,1.2575480411107867,-5.187368819355306,1.2781810977734978,2.586356620323607,5.112958793162902,-6.758030106483274,-0.5663833957810693,0.8573979039046222,-3.6204752365837827,2.500714179441207,1.7608734397997845,113031.0,113031.0
n000042,-11.04811255834249,5.389369279766739,-5.2114181651741545,-2.7338777142811947,-1.19794968831247,-2.6763321450647184,-2.155267886929305,3.794820678067122,1.5676337823430406,-1.5346406799604009,-0.02226910510159752,2.834408041040052,-2.04464886476497,2.8138266429311836,-2.536739954472038,113031.0,113031.0
n000043,-4.931771777747364,2.2145188451930853,-2.769849469694422,-0.5250526590193094,-3.010687779792862,3.1324509037161454,-1.4951412832078623,-1.185559560489796,-0.09191112671603774,-2.2133191908753167,3.2770115287549664,-3.598561705700096,-3.9096754212026776,-2.5509642940186303,-0.5906121616562183,113031.0,113031.0
n000044,-7.113582981485122,1.211448698141906,1.8104003878182573,-8.966864849244034,-4.223299098685258,0.9570134111205233,1.682851148222618,1.926485808696448,5.909782736514174,-4.50273350207481,-1.7488808471079613,-3.755639992679698,-5.495737000095206,-0.8079268616974334,-2.383656127335323,113031.0,113031.0
n000045,-7.83038330713512,4.684613563559044,-0.6000751192993585,-2.842190698600534,-3.3099385109360955,4.372588411660962,1.0631908802618621,0.19359105130170828,3.5416416193610263,-3.7133211635474273,5.662648734606023,1.8960683437333261,0.8797344090237984,-0.47788826653536226,0.15002879784277634,113031.0,113031.0
n000046,-9.716263470112347,-1.2032591046943288,1.088820641858497,1.0664926729586708,-1.8958789621448149,4.836023581591232,3.362974793346285,4.966471893864752,9.004518500471091,2.5180860399760947,-0.8038225639631966,5.250806157488902,-3.725624810955574,1.1173230144701787,1.1961112281250215,113031.0,113031.0
n000047,-14.494031143342742,2.61441241969447,8.16482795759278,-6.046899676373105,0.8935365782312599,-2.798607930600118,-3.0863324504270864,5.221628325803864,1.9509430641678682,-6.342177943008691,-1.588911042272652,-2.8442244999634916,-7.31031818994625,-3.96568487219859,-0.10548294617288323,113031.0,113031.0
n000048,-12.831505094218944,6.6157083619781005,0.20860923433948986,-0.11220497441453103,-2.257158374973537,-4.54929241347469,2.5529804660929165,-0.8008422445316072,3.5083204643406205,-2.4786428589122305,3.2154115823719795,5.644735597952144,0.8052094672194285,2.6268212318439863,-4.673297193162095,113031.0,113031.0
n000049,-12.328124910742552,5.130878795076667,-6.112286075342701,5.443909408732388,-3.0066037067430225,-2.748284449717911,4.39399152532551,4.48838066032463,5.82023756976265,-5.592694699629086,1.4329917450163263,8.289566587663963,-2.97759875586896,1.993298547507685,-4.250791314186042,113031.0,113031.0
n000050,-10.612071482315585,4.7473402983792266,-0.44736027114673155,1.7971951215440503,-3.482869147956152,-1.056461366210399,-1.5923655526146137,1.0259439993595638,1.3031898932153958,-2.060966061429717,0.6159293353491481,-2.545157494802204,-4.324199838694652,-1.9693387138781815,-4.503279919150103,113031.0,113031.0
n000051,-10.915975599658161,0.7579459618851212,-0.656513590873055,-1.1058879598079328,-1.1384210446400687,-7.1927528185064435,-0.6481215514717996,3.6345594299176494,-3.482113531639489,-0.9219866750827828,-1.9561699407284308,-2.499566137981301,1.7115199914399852,0.9571085969419467,-0.6938262910691553,113031.0,113031.0
n000052,-6.37364877783127,4.089585736249629,-3.770494650795017,-6.008699429287654,-4.186132773682439,-8.402859294485085,-2.312500483854154,1.4939608128487127,7.507805056353333,-7.506094138583813,-2.0812036104751357,2.007218499890841,4.230985933909381,5.8936655966425,0.8090314271615672,113031.0,113031.0
n000053,-5.6531440674219615,4.804503448602726,1.5836465752824134,-0.8453699488455375,-2.5895730015308263,-7.314654076295452,2.1353982783234526,-1.098137483641041,4.90284696826884,-9.393140944347557,4.891417728202165,3.944889237572826,8.395883052044855,-6.466583081796764,6.001990771050422,113031.0,113031.0
n000054,-2.182357525272474,9.288396868691732,-2.0785128882933006,-2.927456794332276,-1.7605524994329549,-1.058760498904499,-4.448596856243481,0.9963210682042849,0.4752416850425858,-8.263710007071499,0.6526057100042537,3.7817170791014734,-0.15687411003302176,-5.753653929414811,-1.7691738880582022,113031.0,113031.0
n000055,-16.260402934950726,-0.5357434287153602,-0.5043105335492204,1.0803056097590376,-6.857012327826725,-0.15974411766350294,0.5937596129650504,5.858155665746512,4.1365732287449,1.233204228352403,-2.09726746839684,3.273637363036621,-0.22938054301415267,-0.3690747050831213,2.140889660190062,113031.0,113031.0
n000056,-7.575429484077226,1.391046412937181,0.4217316130319133,-1.7406521935345782,-5.234345763761564,-3.1811076015540087,4.2660589590385625,-3.385629937684872,3.136460999985467,-2.1220203737140175,-0.7429429500213032,2.7970439432305296,-2.704603921699386,2.897384145890516,3.3391165483544336,113031.0,113031.0
n000057,-7.506334427362027,-0.05246106452998456,-3.5217945673164066,-7.38978034075013,-0.5735287507929434,-6.6498136116540385,4.0360961188365705,4.014941236633428,1.6678678142059078,-5.655044712294362,1.1123288975025953,2.3233892542412056,-6.421239238966889,1.5148039975448935,3.4158034241607185,113031.0,113031.0
n000058,-11.214222782559865,-0.8050787277433433,-8.894280464154347,-2.910725132471996,2.3355608257654468,-3.229745429492335,-2.3373007835719597,7.077653182205166,2.1875402369010892,-0.17243472058180132,2.134125602864986,-0.8920046470579204,-0.4313051361552682,1.183352113942282,0.06702781305324024,113031.0,113031.0
n000059,-7.452034196744282,7.858118344510178,3.7581083425983013,-6.2652719164876585,-0.9254786228525587,-6.363734497312686,4.590957175291098,0.8327835026068122,2.7566149697415523,-2.079521625150175,6.674700923515404,1.1608609630573878,-1.5317727805386325,-2.752991233846126,4.984219301915961,113031.0,113031.0
n000060,-6.229819111178877,7.2253879116190785,5.470509750189031,-4.739230871866463,-1.7071646840504793,4.692738110515216,4.893066369670713,2.6406636692468886,2.011738928093976,-2.352712133686404,2.0749091269182434,-2.311386051201942,-5.609869914338352,4.671719069496594,-0.9617790716711612,113031.0,113031.0
n000061,-8.602834824106433,7.793644280513624,0.23094548551037483,-2.0099012610968465,-4.040083795424882,-1.6221649003074785,6.401758564277009,10.053198779316528,5.656575302092261,-5.018277304389581,-4.632410365181523,4.241392224906006,-4.096667165426631,6.388668996235806,2.9838151112720968,113031.0,113031.0
n000062,-11.274628937937374,7.89714349976047,0.8323711809765841,-7.009820947544795,3.0434778753019036,1.5997336475903947,-0.3077338304742032,0.5763973565037026,0.43671879004723246,-8.289196981904428,-0.40979910490062155,4.06089217389497,1.7427734920859073,0.15082869805619253,5.140339389937651,113031.0,113031.0
n000063,-13.897292742753518,5.277417385710475,2.2339797188570665,-2.473748989160746,-6.503908423343432,-2.1456438328797316,-3.7228849927327863,10.600418148391084,5.768097655150237,-1.7138577744799481,7.268245126287242,-3.5231941776754754,1.2113550085965343,-3.3608433459592604,1.8848373012474722,113031.0,113031.0
n000064,-5.949004467072467,0.7957843436223246,-2.2301643753449127,-5.3459235778638545,4.358509607420665,1.8056074199065453,3.1123480517766704,0.078277991499061,4.513515160370765,-5.270544362331684,4.1173367240083305,3.6914022453370245,0.960495805129908,2.478167400192748,2.1672460360710817,113031.0,113031.0
n000065,-7.21286445464568,1.7183629312485609,0.6336375709532247,1.1035320801534447,-2.8775897649939246,-1.5385097503724179,3.837137739186328,7.648496652686356,5.5419513785448995,-4.381330622818356,1.6941277942387374,-0.3453701360396806,-1.2460285252093721,3.4138702288634573,4.910540463889023,113031.0,113031.0
n000066,-14.808904646137798,7.900091930885012,-1.2080174583818821,-3.9648666875737257,-3.6163883505306975,-4.560871868500656,1.7121020446125668,3.135695758177384,5.0056657184939874,-3.443760145627029,0.22924761260668425,2.5870401084832215,-0.6942719466656295,-1.507529566507323,-5.271712558547794,113031.0,113031.0
n000067,-10.06612334103413,0.8530830887658252,0.20892269720112927,-2.3412213834446245,-5.697248260938717,-1.6647926662152415,4.501152697987057,2.403139252242189,0.8851636935328786,-1.2690539192408445,-0.9728935758712143,-1.2985282644302185,2.390734086675046,-1.766529185128034,-3.4801367137803148,113031.0,113031.0
n000068,-8.09569093900051,3.946563589666531,2.1316303194903274,-0.45292318024655476,6.973225906720883,0.05473320035843965,3.4799841310236905,0.9824467509585681,7.269558376136724,-7.22202006045494,-1.1323715323808692,5.27656614421679,-6.169467401565866,-3.310379244816995,9.702713539727105,113031.0,113031.0
n000069,-13.537693613577057,11.256019029506046,4.736977144624376,-7.6078989736107285,-3.7263548495896455,-0.9549156579200037,-0.7913892624041118,2.6825501950237483,4.120994427483576,-5.671532751090866,0.7971622249014547,2.2802045693471715,-13.65912163655209,-0.2618846845649922,2.2287620084161692,113031.0,113031.0
n000070,-11.440258085832413,0.3169698478704386,2.488629602571287,-1.0089747048443196,-1.0468968029312031,-3.042034602519517,4.787168264383874,3.689419934745946,1.3351735141277583,-8.49646244352764,5.291638924315567,1.9559400677134906,-9.705707355846357,-4.131148328302615,2.950480886598593,113031.0,113031.0
n000071,-12.836789333263237,4.021117698361102,3.4218632299395,-2.6276160417600334,-5.383317686268507,-4.40773401182479,1.9547948996635025,2.251731251981292,-0.055007372051955716,-0.24572634319552566,-1.7034829885961225,11.137350916275654,-1.616639167089044,7.496917617712891,3.154329014265647,113031.01,113031.0
n000072,-18.78915489186889,-0.3779642979220956,3.663605272457418,1.9623538827511462,-2.9036252719477997,2.5805851503081376,3.351940964597545,1.6416702142394484,-0.1338145263827073,-4.068048294061134,4.317590495426844,10.239016301370953,-7.80141583620053,-5.442274020521894,-4.997306561462196,113031.01,113031.0
n000073,-12.348485195057052,-3.6485310616040305,1.2770605245483921,-1.8826515608696048,-3.8900147128401166,0.17598886564811944,7.378986205949161,5.1904712860502995,8.828177372231245,-2.393666806950891,6.6038957419511295,2.883149300504081,-0.511648795142851,0.14997947425292635,-0.5842283712149665,113031.01,113031.0
n000074,-11.035929896175286,-3.94820793089907,5.173047276454531,-10.013916835079801,-1.5923910001805048,3.2882740566616393,3.600029978016675,4.69698868380096,6.58292316270956,-3.1812335153396227,-0.7095106033441887,6.924655770396576,3.150323052912693,-3.6334046804367244,0.07924288382966593,113031.01,113031.0
n000075,-14.032670314974762,5.120817544402094,-0.7176243797582527,-6.232194535573437,-6.164864219551651,-1.464886859425348,-6.173131661695726,-2.5389358525782386,5.053957252555161,-3.3889033120399707,2.3516906585197126,4.268368311894385,0.339106107363381,-2.9908358046998873,4.921160569368966,113031.01,113031.0
n000076,-12.261531333801322,1.9082339689642567,6.6666817602335335,-3.487335843110317,-4.913723551147735,-4.541981261225563,4.274912559110392,-1.526743814416488,1.7866665203636891,2.1269932355111494,-0.4547083339198821,6.986207485679438,0.3401310746561754,-0.6161572303556588,-2.818048755634835,113031.01,113031.0
n000077,-14.296984351289508,-1.5458331231026816,7.232382741176579,-5.946374332804853,-4.512193814506859,-3.5225484674702585,3.8694576126694624,4.651714706003581,2.5634482208791787,-4.020700468340134,-0.5207955053948972,0.38516945277192427,-1.8580729682758945,-0.42129039186206396,3.162531844806243,113031.01,113031.0
n000078,-9.599257102124527,3.5599607812008305,4.23007725118361,-4.147244207346063,-0.16853366338438702,-0.17433708987218366,-1.2752710422652571,1.5373587874057146,2.0448070061084103,0.2839927577641883,3.7878449984567206,3.722639881467684,3.088974396437428,3.1136092057425424,-1.7302558557898,113031.01,113031.0
n000079,-7.02932304689959,5.636408700341807,5.667084596939772,-5.809284149616362,-7.909125915450023,-0.3031501946534101,2.8592526478495,-2.2995324237240613,3.6595584609799303,-2.348749206870428,-2.7732084468793543,0.8618319939301404,0.15473914436060987,1.7078248789584394,1.3250168840064491,113031.01,113031.0
n000080,-11.703689211031785,3.9382459151383973,0.9267842866906304,-5.9075878006750955,-7.511979994006225,-2.0665371704446325,8.426521351862924,5.0851526175360995,6.112559141676002,-6.708933504349128,4.497365162749711,13.194057197951745,-3.3292395992386634,-6.436306489827897,-2.025654007852066,113031.01,113031.0
n000081,-11.046584261013411,-0.38342079835245,-0.23748191863287937,-5.5478679720393576,1.099676929517004,-5.724373591128591,6.287037172635707,0.49333992545348715,1.0626990530433815,3.216725246987052,-1.9558764033666014,2.4912541682084104,-5.881942605932177,1.0272353750223087,-2.3081377957262545,113031.01,113031.0
n000082,-12.692055835971988,5.192006250229319,4.213881051219112,-4.289455032952624,-0.8864062746285066,-2.0995369483207753,4.217390826919868,1.641274275635819,4.428870123057805,-3.3150898762474186,5.818518337816917,-3.827501362369194,2.640395306703981,-6.193756564114895,1.2059778654599365,113031.01,113031.0
n000083,-13.565073575787231,4.832270646898842,2.2064537162181077,-5.001006522040674,0.854819421065649,-7.357849238353014,8.566171700711983,7.5817482545132036,-0.053620584635857504,-0.36462680984015616,-0.1801090420786453,3.522230439286581,0.9718642853793102,5.735474771021562,1.9840715130341011,113031.01,113031.0
n000084,-14.568908082945981,0.24877787471576396,-2.1503313902482115,2.4855040483792017,-3.9847035652756544,-4.094804419326965,-1.530660708992683,-0.6828175268668517,3.9571930815846037,3.5686160298396055,-0.41051355134352807,2.535341026078814,-0.5110095838007764,0.6260046521290408,-4.191235694409507,113031.01,113031.0
n000085,-9.110909839744169,-0.2195172231978464,2.188198866593686,-4.747240976910993,-2.6399551361289193,0.8497776557152326,-0.6717215859372603,4.71421131520883,-0.009062366719637893,-1.0833321219657812,3.5797343549662526,3.8806283105309145,-3.3105395101680095,-7.0608625346689395,-0.2687158432443577,113031.01,113031.0
n000086,-14.478997153022112,1.7616205248636936,-0.7708104776610121,-1.6017011608714173,-4.4742891137674246,-7.381176537568677,0.4705751261728315,-0.8691593398897199,3.3870436544016655,-1.294182236921481,0.9074715253496508,7.918288117485777,-3.3134574109541974,-1.772964410172433,4.331982981490453,113031.01,113031.0
n000087,-7.140969190256323,1.888569328320302,7.050729193604215,-3.521629140450325,-3.0595085531488677,-8.762400217132841,2.3349944724223346,3.626702882497969,4.101404120592457,2.332758244759406,1.444486059692539,4.923892698000099,1.8674417414601356,-4.633742440768549,3.80747274582846,113031.01,113031.0
n000088,-10.890949003993692,-4.528346165529295,-2.2948790677119377,-9.173727828834505,-1.595768546933603,0.02658884243879034,3.410821762012831,10.948416260623404,0.9743974773771589,-5.218077452393988,4.476929058331356,0.27324021067484594,0.35833130803144564,-0.044800638028216766,-0.7654291403900642,113031.01,113031.0
n000089,-13.999214999801078,1.1604827141660712,0.5453405194324836,-2.9065673447114646,-6.061806329916382,-1.7098389404714598,5.621283836999714,2.012676283023174,-2.1570202446333946,-5.0059805434179605,5.3155192864808285,8.692103951092715,0.9165299434778802,-2.2084384648328292,4.90513451036402,113031.01,113031.0
n000090,-10.20148173516803,-0.7301391176083276,2.504459688814182,-5.083832688760089,-1.5174489611429598,2.6820170222907596,2.7239079262852055,1.1202939693276823,1.9533273411109744,-2.7879488660219662,1.3292412670236522,3.3783966770747202,-7.887291558271595,0.3190399574865568,1.6557143644813883,113031.01,113031.0
n000091,-14.345771646708872,1.6303277246359047,3.080254075640503,-4.673609587155308,-4.304364576885901,2.285930880510989,-0.5387717841111401,-4.323856654204704,5.103744557240226,-1.4057168932577973,3.176953503694576,3.007839855033489,0.23113879380871283,1.4587355093350727,-4.602998385356535,113031.01,113031.0
n000092,-13.743540893391447,0.7367661751086658,4.618089447766311,-6.587454127527245,-1.5237897148207062,2.2255150188793875,4.882579987037614,4.057152623081095,3.9842836446942766,-1.4960154719187326,-0.9108641702893108,2.8328306194942967,-0.5324367868473261,-0.9008774521726044,0.8577913135836015,113031.01,113031.0
n000093,-13.739628223690808,-3.969994154013488,2.8747659174886335,-3.83798231283615,0.5820704326587895,-2.349802155806227,6.32180542058243,-0.5398929314993695,7.608947298794585,-8.464713689033601,1.4199739920693428,4.326934384208172,-2.8215331546818048,-0.10030618864600827,1.4952710415910957,113031.01,113031.0
n000094,-7.688118090833718,-5.502699951589394,7.916622294821883,-7.141324437118248,-7.047671170580358,-0.5510492790934578,5.790885786294913,4.460633536765867,-2.1450055849506526,-4.958326961878051,1.2624035119403225,5.90495048789583,-4.498771458576455,-0.8737351785043784,-3.189849367929236,113031.01,113031.0
n000095,-9.161724250657606,3.644179187045994,-0.21500077420844388,-5.1044115498823786,-5.174692391345571,2.3559198499450753,3.9808865610804345,-4.512307339102418,-1.4111161042957794,-2.1874151058391513,0.6968426672749601,7.516863492357321,-0.14527180068570744,3.731320605010362,-6.461427002183667,113031.01,113031.0
n000096,-9.064565344825484,-1.4841334561275457,4.41309432033873,-0.8007053775654898,-5.8352324026806475,3.0433941536350053,3.455354608050405,-1.7156837922845474,-1.6919237967521825,-0.7637366750177244,-1.7356064630967714,4.522864764586126,-1.6504654406643084,3.584727294166849,3.181360672010462,113031.01,113031.0
n000097,-14.485225432619202,-0.35698857792591987,-1.771122494609084,-0.5776875923915061,-2.2337249262949492,-4.973821481704413,5.401426349645515,1.371684140358645,11.80989639207868,2.3028827752175602,8.779054028160605,9.49039970506458,-2.54664247821999,-3.0316775824062137,-3.756523274196093,113031.01,113031.0
n000098,-10.04366232429789,-6.8782025390067,6.737999180670052,-1.7446024147245764,-7.738604081706871,-0.8384263029240159,5.633665608273548,3.219027968203126,-0.4976420224786158,-2.757656419825767,-0.9094957959336445,4.6727865752521645,-1.9340872265035358,-5.906848731692518,2.522055529199232,113031.01,113031.0
n000099,-11.676180158086668,2.8597978661580887,2.9889265861615253,0.4618996130138697,-2.825300943794149,-4.2312972198424434,-5.4637480593465835,0.06444487648070596,1.595126170395888,-3.102305517117109,0.7215521947866905,5.409803804629887,1.1395903491968362,-3.1053589400338972,-3.259945812385262,113031.01,113031.0
n000100,-8.241256446016939,-1.3302388161535543,0.6650467054735207,-1.2737039729777626,-0.698473037449876,2.070468570265655,7.196542097693214,2.9416281127695543,-0.1976941666292733,-1.0436640487012434,4.696685669019588,11.215921130148761,3.7267741545286563,3.406737786585005,7.327557805526306,113031.01,113031.0
n000101,-13.353321129582033,3.0946395768217902,3.450882289215859,-4.413883769846416,4.399495050813712,2.170351951497472,0.7029240488044404,-0.29815948807220094,2.500071221165128,-2.1184792219018598,4.086355160022914,2.7702757164310112,-1.9486532919629536,-0.3212790288613615,-1.828363647155456,113031.01,113031.0
n000102,-19.9070805451341,0.7214048561662588,4.50233557730395,-4.037528644851524,-2.8799669440242637,2.425784151695252,1.8399242172003907,1.8245235696187265,7.68998034391764,1.0192597870531994,-3.1194547488905995,0.45763264315444996,0.5771103150076673,-0.44132429150320795,-1.454195563805762,113031.01,113031.0
n000103,-7.75638791393772,1.013177680322062,1.8810723303022026,-7.150724551929118,-7.537307057689954,-8.454377000297784,-1.2611421341121654,3.205471504797576,0.8340545462006275,-2.6999322293835224,4.510034748570668,8.815778193586771,-5.682888178391972,-2.652320138305416,0.5958875247216826,113031.01,113031.0
n000104,-14.309725538313021,-4.1786552149099085,2.8353728791488417,-3.273233755862728,-5.531466672503392,-2.0588208824101732,3.6082332111832427,1.140275901886206,6.456496752121696,-2.112466764908131,-0.7963766565655019,8.846268939939508,3.6017648594612366,-5.3065737629844305,1.3000760990080238,113031.01,113031.0
n000105,-14.797142414557495,-2.0746556498995448,3.3885497280990715,-3.0988867388070047,-1.7790896162915524,-2.6640935841181874,3.8267132635594665,0.3254830158084805,5.473470327074509,-2.544917823963109,8.573323965915606,9.979642750354582,-0.7461291826028967,-4.127422165916897,-0.0576270232744619,113031.01,113031.0
n000106,-14.075524839768175,1.6344376688792157,2.627104881309326,-0.49452313769054657,3.8508348757294795,-5.670729072071551,0.17587618645542347,4.895436669841164,1.9057104611658242,-3.137188894531316,-2.7786150147328215,1.9000462264456277,2.013927468860323,1.2057978988737048,2.909190265910765,113031.01,113031.0
n000107,-14.637915089643442,1.1120327599089588,6.290959191793528,-1.0709046590801088,-3.184290896444081,-5.689866257238935,4.050581384148274,-1.4979294748933774,7.4989357962192,-7.6777810482431,-1.784716148453323,3.8078897809305756,-2.845654906069167,2.997761810366521,-4.824280880272043,113031.01,113031.0
n000108,-7.477780976024576,-7.667582215580187,-1.6579697082542535,-4.909514182788624,0.8558027017187726,-0.9704651909463409,-1.0007359830554288,0.6283485587623104,3.7530171197003135,-4.914063512059624,1.7884573750389685,4.196202544603913,-0.6566231633929336,5.168832673473846,-0.7949247922671697,113031.01,113031.0
n000109,-4.875028396809111,3.7860490481172207,6.8515941499522715,3.180950746784111,-0.9205507684958507,-7.671929841000822,1.1831528276822119,2.630338226008033,2.6156526102694926,-1.6056880386900534,7.451978325140983,11.110139714028367,1.8635957323036096,-2.540147764231347,1.8310843826054284,113031.01,113031.0
n000110,-8.571887365749543,-0.38397714960752816,2.7390156606209457,-7.755255238228739,-6.921275245510641,2.2732452319129903,-0.014655127297170445,-3.4217298381221957,4.134920533062496,-5.595993064862233,1.9033712531667573,7.76724504627167,-0.20625411023050244,-4.25580289220369,-6.649555630424544,113031.01,113031.0
n000111,-8.690596490261852,-3.9029446965124635,-0.8892304724226903,-3.820429686244449,-0.19743344166661592,-2.3604252634478096,4.249098381437296,-0.5159991723505943,3.400055637646524,-2.933165626780623,-0.5440833685395998,8.165920638428684,1.800034701625241,4.085311234766523,-0.212262289169857,113031.01,113031.0
n000112,-11.94709625015851,3.093101910261682,0.20305685135425566,-2.351973360157336,-4.628946876088001,0.01760261369336691,-0.13330341075239582,3.3662585898737527,-3.7096372874980608,2.170335183074536,-3.0820721062400844,0.43805262262134903,2.4753476279851796,-1.2220889547369498,-3.3602179916599,113031.01,113031.0
n000113,-15.84439204446124,-0.45640399298182865,3.5883517920378583,4.88981501541546,2.7520269128808628,0.4051095195074488,1.9572720492069728,-3.4643129762539298,3.3801673903594427,-3.0611432150548215,8.462960024297367,10.203042145300401,-9.521668723999715,1.4436872049809923,-1.1358459953572422,113031.01,113031.0
n000114,-11.473952366028575,0.02280975952729436,2.4235802128656276,0.6266030471991435,-1.5539042480425105,3.0228252466180043,2.3383662644311958,-4.879789205979317,4.681249708601069,-0.19734241221624327,-5.9102993156308585,7.54005649761773,-4.535085088943708,2.08412546754336,-2.321647237901173,113031.01,113031.0
n000115,-16.623554343321818,2.80968961566912,3.1021929980712137,-5.219629363082662,-2.050614718859809,1.4288183772823249,6.934148890421221,-3.6587875684347493,4.493719175912058,-4.272848933380327,8.2752495451691,6.123135793023244,-8.567717544468913,-6.328154540180137,2.2719960416245852,113031.01,113031.0
n000116,-11.676676874174197,6.112610677646438,1.8543959963694543,-1.563276478987856,-1.6844277225679927,0.09686891935845465,4.48365183717017,0.7835739254833335,-3.619479552684404,-0.19422807413572496,-0.7068413177008717,2.724864867506848,-5.852347534566595,-2.7547814052434414,1.6561782988427867,113031.01,113031.0
n000117,-11.546343288284138,3.4230315954124926,5.394559947692171,0.18456750588418736,-3.2605121294434927,-2.6099878382211874,6.11094592926476,3.726435502244766,5.009336057040707,-6.495638800108436,6.12766346647242,13.182619343623275,-4.232135444856203,-0.545615539312175,7.8952647972945424,113031.01,113031.0
n000118,-18.72937745523217,-0.2124138919340115,-1.3953632447950768,-3.4384337988528255,1.8148004269434899,-2.4176956227723334,5.944974035637195,-0.37377893747496227,2.9393873905228842,0.32659979060487476,0.39730590617567874,8.442597155632422,4.343184290389625,-4.678962871327189,3.458574070151956,113031.01,113031.0
n000119,-13.02209742622707,-4.71957713782541,-2.8197586313319856,1.5571310614954115,1.3360517068406623,-6.204727869272412,5.02810876149784,0.15997351646961144,-4.308012118014153,-3.430342559753134,0.8065986945826562,3.2395620289622364,2.2176690435850483,-10.318630283438683,0.05374967418684917,113031.01,113031.0
n000120,-13.23347444566081,4.390051950624038,0.7146786669232092,-2.0214099656670443,-7.969073678277898,-2.241043899227717,1.6906946579919047,5.392113280769407,1.8118532212873881,0.9996917582615241,8.876358825522203,4.569826634795633,-1.5046545484202565,0.16910000263649838,-5.4020684306599245,113031.01,113031.0
n000121,-9.716260266340344,-2.026595760889779,6.688505102622406,-5.636886279934055,-10.094363024374644,-5.053624023590743,-3.533384170317955,3.4290573118858,3.2770736252715,-5.730812010062406,6.684060752135123,1.5807509809706466,2.0615833269062716,-7.0901971221018085,-3.7958961278824224,113031.01,113031.0
n000122,-8.941766974302075,0.2420587493621832,6.818966087260124,-3.0369160506304875,-4.79699926836926,-3.477665748684002,2.589810029805281,7.292396937864467,1.8756927620849357,-5.734271622708704,-1.9863838026791338,5.651168467051839,-3.7492847963476343,4.392336840932843,-0.31942862331792676,113031.01,113031.0
n000123,-9.629792193499531,-5.204663846846768,4.2919010005022775,-2.2291741866725587,0.9210995110477369,-4.542619640861403,6.056283384863292,10.220377483389324,0.10593279857652194,-7.111172589313513,-4.338157744990903,11.620516454474668,-2.3837781914787604,3.847864827170736,-3.21548344367986,113031.01,113031.0
n000124,-12.161805562673777,7.313938314897587,9.355524749160809,0.45959962527188347,-6.410041562590616,0.5778562178904976,0.8996940375413396,-3.189876108943233,-1.5484711791852943,-6.8102513533130935,-0.05302381746853735,3.915962124337772,-2.986797181814895,-2.8266799550630366,-7.086665883960151,113031.01,113031.0
n000125,-9.891027988282904,3.1174027618280915,4.470988058619774,-1.5870612338080488,-5.643311422576389,0.053878764613285,1.5681142390340943,0.4396864353805985,8.863087826636018,-1.1460474334100934,3.3145787773294493,5.113993577671263,-2.9606951175579934,-5.659919159843553,-2.2049630537622393,113031.01,113031.0
n000126,-13.015095616026407,0.13432925145145047,7.236718697961955,-2.653739527485818,-4.543183244861663,7.285731512493995,3.4702398346221193,-3.4522743348709213,6.0830534781695835,-3.3112245462002425,1.9965042104540713,1.8642154991516122,1.510699773797964,2.0612220320892916,-2.565741782263989,113031.01,113031.0
n000127,-8.542859282629488,3.392321740882899,0.9469215619314846,0.9050638892149818,-4.956621680194063,-4.365650231650867,-1.356156669444379,5.402332395522675,4.242356588918726,-6.7618156036691275,-3.1836316056599854,4.5261888880798935,-0.7230138727695316,-1.7171216227068027,0.6355136216667754,113031.01,113031.0
n000128,-12.614276835342212,2.989002917561166,2.1410489241857,-0.2528066334281447,-12.141869657378551,0.05956367884445868,6.845097382145972,6.861531840407587,4.692267926561196,-1.6567999354496397,0.7635393337431877,3.2548543438047064,0.26998568019235925,-2.2210739645554805,-0.23458346144572328,113031.01,113031.0
n000129,-17.178915385254857,-0.18349290213746028,4.049881657964816,-1.3844823400692725,-4.057151646771231,-1.1839717168749115,10.088961915621663,1.3178873542427219,-1.4754618752865776,-3.739405175645583,5.310592190670033,7.099542964530602,-0.7210730051116219,-2.046234190387788,-3.0557440411049406,113031.01,113031.0
n000130,-12.08072933415047,2.0447691931247154,1.1490574616371783,-1.0451081081094142,-4.770962646842142,-0.5398703688367297,-1.2097978247646868,6.891736261335038,6.293677315594203,-1.777588888107735,1.739891227917588,4.41369507547096,-1.1483771951900688,2.957532144103539,0.27039447992965715,113031.01,113031.0
n000131,-13.405039175604776,-1.1758734093991838,7.200864927343208,-4.643881923905056,0.5751377105053468,-5.563581861269384,3.1452716622529127,1.8661659913122037,6.3682015337362134,-3.135182556730429,-0.7709890642860375,1.7509529616245207,-1.472137059479494,3.6067491125597346,1.8331499242545428,113031.01,113031.0
n000132,-17.777773161171524,1.7371458991235733,8.877486187244552,-0.4894142234997556,-3.6955348186964114,-0.32078937722649226,1.5570367811842123,2.692765940007229,-0.6782306369764717,-4.497483881656001,6.764651412626293,7.402257297107861,-1.394657964207635,-4.335121318562422,-0.5224647693675681,113031.01,113031.0
n000133,-11.752399041899515,1.0620439506368224,4.928889307067267,-4.681191697235389,-2.8836652645788656,-3.7888300840916056,4.843718373688192,-3.3064709464934285,8.029510765275235,-7.055679293615276,-9.238190207877134,8.246168344927161,-4.884385726046311,0.48040658060423835,-8.096911064367525,113031.01,113031.0
n000134,-16.19827078780807,1.7104213716816323,4.984571260828783,-2.81346110228423,-5.031292094165089,-4.156410762100067,0.18447604200860912,-2.0103853794607334,1.2436300851182216,-3.046319251994509,-0.9718554617932589,4.208801194545717,-4.960720520217162,4.671392323220423,4.731657480215306,113031.01,113031.0
n000135,-6.809867387902371,-2.0382974045785804,4.432032709688524,-4.168233403661391,-0.7330935688006752,1.3194505219792385,-0.27215817295880695,-0.060249936868166154,-0.2385692729050306,0.6189887011922104,6.109856249793266,5.714773586006961,-0.17141668980935032,6.062531008244968,1.4049602023548102,113031.01,113031.0
n000136,-13.40619440547885,4.278534714197738,6.2153020377513934,0.22714755881672222,-5.7816844801944995,0.09654692500587658,2.865181743236958,-0.4651362848532212,4.0797796216425635,-3.4722568619152367,3.3591976385109064,3.9360563574501573,-0.8179160089307178,-0.9456640082065475,-2.329489598078853,113031.01,113031.0
n000137,-7.7630083183885255,1.462254069958896,2.6912779693119777,-4.089222484699077,-6.705307833969299,2.205051270933815,2.6174635365687884,3.6147629180483847,0.3841611082465235,-0.08470139485828643,0.7959014741733734,9.608838422870406,-2.1867358286375396,-1.7991140486379442,-0.6990358819273972,113031.01,113031.0
n000138,-14.206010869591257,4.512919110648146,3.9756480641381957,-5.594496944892931,-5.0923261019784665,2.5583233276696467,-0.47560389462297215,-5.039008509266101,2.270590605234327,-1.062381070053477,2.5964868463896904,0.3385682699002919,2.1868450499453376,-1.060856944188362,-0.8047103221198619,113031.01,113031.0
n000139,-13.3860022392995,-1.0705109621694724,3.6795391096181818,2.4296046814882875,-1.8037669995503915,-5.137646047483991,-1.516796640594365,3.8451827947191726,5.081502445330647,-2.822925975396076,-0.15413422618274142,10.936089936000473,-0.9489284702714716,1.964179063550358,-6.483214846438682,113031.01,113031.0
n000140,-14.412054829621502,3.3466200644592163,4.240968592254267,-10.189038381347935,1.4249132433021825,5.313620892131644,4.981311772961643,-1.3260355442768106,6.636083850697889,-3.9863999912087027,2.109480424503924,4.265525880404406,6.464810760929952,5.329310427039971,-5.093017764516289,113031.01,113031.0
n000141,-11.399759295146897,10.431153330230643,3.2783257320233687,6.478110953463191,-3.335042272083109,-3.278033763612108,0.5164410608801496,3.590592933232525,2.1610555839095227,-1.0697219357316334,0.6925133167090454,6.080409087362004,-2.4943023785880696,0.23166836304223026,5.096552295689633,113031.03,113031.0
n000142,-3.548081067342217,12.092557878442841,2.242285155333718,1.4447923947674988,0.7975525668371215,-0.9969321216921454,2.74905535972144,5.081982810010333,1.8956816356282817,0.8504027451339944,4.704826380518705,2.078215913233557,-0.9122821681245079,2.085200194665042,-3.054462678073318,113031.03,113031.0
n000143,-11.641163723343531,-1.1570434053508656,5.135908886874666,4.519777763839935,2.281350351404196,1.1860820489259698,-2.0668390086644566,-2.462216398270905,-8.66165028591804,-5.90866083665477,0.35433640832107827,3.0816082311266295,-0.6296825348200917,-2.337111096211168,-5.573853016752124,113031.03,113031.0
n000144,-2.345601373378943,7.267235509126202,-1.0963967824987497,-1.7129689460439526,0.05541060950518317,7.338365628169738,-3.768754119548257,-4.159643416056543,-1.7842527880556744,-3.127142638077408,-2.2765708466442547,-0.5021786253464811,2.286144751032433,-1.8513343323333582,-3.3488241480222447,113031.03,113031.0
n000145,-15.68343195720341,0.31137440425274043,11.578355693583093,-6.65066714122184,1.8900876889477967,0.3224831255996772,0.19261727758052072,3.160572168123832,2.830311146129219,-0.9860866958695833,-2.76065971181918,5.817517576837198,3.109799033386709,-2.8523449484476386,-5.469831335203902,113031.03,113031.0
n000146,-13.382048606219591,2.8906645457735776,2.1611612418304573,2.570660658880973,5.519543097285589,3.163057011063885,-3.984652252294134,-0.15638627614611544,-3.108320266776384,-1.4476518927616833,-3.3489065992063645,8.740615941297419,1.3892769341803155,-4.826369097363762,0.639256603115175,113031.03,113031.0
n000148,-7.855861893227488,2.3181769939753774,4.931159903747545,0.24073781343863876,-5.296816450615224,1.2613786377320024,-0.5433782072784348,4.725179840696349,5.945452438798888,-6.302317702629654,1.0453924855122607,0.4780383056065931,-0.6506941972993009,-4.2228248407594595,-4.251462014841589,113031.03,113031.0
n000149,-9.793196216307328,1.3946004630261308,1.5515990572628668,0.9630203296729296,-1.8238619456146012,3.253701805747138,-5.0159071311527486,0.2598152420688369,2.619849319061486,2.2188837210905112,1.3554316373539255,-0.733231043278006,0.224652401294137,-3.9137915412384867,-6.706972968081,113031.03,113031.0
n000150,-13.811153708654032,3.4460687713107574,-0.0712156785617486,-0.393298368084227,-0.00872859522270586,-1.2579373429079386,0.02019937301607866,-0.7847776691435764,1.6317020105560398,-1.892745828981105,0.6945996898012159,4.330888097002138,0.029658069326773506,-7.869433107471099,-1.4340326042312324,113031.03,113031.0
n000151,-2.797544862741751,3.3264492620544863,1.2682707719647333,-0.6140550457951847,-3.009297451381042,3.754322500571168,-1.4615432579137415,2.7081941720554314,0.4566725195466082,3.373163425541845,5.698491408227298,4.116432917794205,-5.072386664471977,-0.23399953994752742,-2.3126038121466324,113031.03,113031.0
n000152,-6.239121413147535,-0.6517220602798797,1.0016833610316223,2.8297630369009443,1.3108069407785485,1.091525438817002,-1.2219667827231442,5.983568528260158,0.9795488557100348,0.454401073865891,6.725514957785206,3.425821333877815,0.8721263513568115,-1.608143500906755,-1.8302957269951265,113031.03,113031.0
n000154,-9.829314588721639,2.730502409191462,4.563286481983802,-6.15930327751515,-5.656805680025698,-2.1556009450040805,1.6763520347508991,5.710836895706216,-3.386974709858179,0.7437199602865974,6.179200234176756,-0.8553524185047268,0.20383554467601617,1.621598628221885,-1.0499522366965697,113031.03,113031.0
n000155,-16.12476214801094,3.5161443330006446,-1.0994951256221634,2.423373048938409,-3.1061627206049702,4.437565630065494,2.9114420332092,1.9672190961735145,-1.3648361984169406,-6.686590988723813,0.07029135067311154,4.6131354255342,1.275164902860162,2.6920274475087167,-7.6700487644794295,113031.03,113031.0
n000156,-4.233129051610251,-0.4270479201249944,4.096120888492111,-2.2929384320417183,-4.816635939840363,-2.2848586603484846,-4.885702499804877,-0.6173576327952837,1.520917318646303,3.582129889830815,-0.2530019985819594,7.67486778137361,-1.5883904050917836,0.4783409211583882,6.711030912643219,113031.03,113031.0
n000157,-10.442696476508688,2.4334084650610794,2.113032718141595,-0.7369489651396036,-2.7899084206556077,8.997409630145999,0.7995934499020143,5.356463044508685,-0.14251017094157614,-2.507121380979185,-0.23940915023351717,0.14892222158474944,-2.8267485308853812,1.6003042856670018,-4.881357890809963,113031.03,113031.0
n000158,-13.564799412810219,2.448766613652713,0.7641891550272799,0.8786946199391257,-5.3549829381982805,0.24491505111285705,-4.641983422985816,2.3126776086583773,-1.6578132887463397,-0.527868235164185,0.8006676844319216,6.202289552358601,-0.9441495179218592,0.8475916772659706,-8.272243245941096,113031.03,113031.0
n000159,-6.477761386110446,-3.067632584899122,6.860135218427175,4.555812372278005,-7.579275710229148,6.467029562310337,-1.234651091910516,5.926084984450236,2.4174630779342485,-4.78284611702068,1.6959789923127417,5.407146317634419,0.13829721029840414,0.7827041313675058,-4.476704755256976,113031.03,113031.0
n000160,-10.94298338158316,-0.8147068974956695,8.224459286702412,1.523214932180145,-7.786665387295487,5.862567622805132,-7.204924384531997,3.694841667723944,-9.77342522633465,-0.09362944647397042,-1.8995643999085137,6.668174112914335,-2.6576398172278695,-1.3325285354974576,0.18612607162337969,113031.03,113031.0
n000161,-7.459551744886706,1.87731154002307,4.0482502101260565,0.4285984732297434,2.443031792193202,-1.6038130814867535,4.301098052147167,-0.089114945028548,0.6918265678935791,0.9803814661594341,4.14217931800534,1.0048539242637196,1.5501541048149465,-4.083849104312247,-5.38384957638031,113031.03,113031.0
n000162,-12.295719238490882,-5.600906544598491,1.7463271309132478,0.21343774360604661,-0.6286400471203915,1.4552908274925178,3.250207701446896,-6.025066447767619,4.153416905944415,-1.878370681445262,-3.0721875400312046,6.242822545324305,4.008383413644077,-1.8066298962410081,-1.4695725477846435,113031.03,113031.0
n000163,-14.816369731537801,4.422856850008634,2.9372283251506683,-1.7256015837110557,1.061114720370328,4.742994693076929,1.5195746801864385,0.15638905573788286,-2.0035840129750198,0.9361954322532311,3.130056601071408,3.296190092681557,-0.6292177563824777,-2.5613882793818687,-4.336925072990074,113031.03,113031.0
n000164,-14.73162753899409,0.4078135320324199,3.33365322826159,-0.9307595757266726,-7.652016111808772,-2.595924788988866,-7.431490751799055,2.0309441782337907,3.726478434174688,8.147920128139953,3.322630539091101,0.7416159724263989,0.3891205740091076,-2.455234599535105,-2.1560524851448877,113031.03,113031.0
n000165,-5.751158448950257,4.288947825145274,6.158170843646417,1.1950464527767988,-4.488757440797546,2.6080101640393085,3.898842716658237,2.1355521688169237,2.1406971822467313,-2.6672979954608804,-0.01732329003416555,2.648561373358003,-2.533325479781229,-0.40247563388192775,-1.5844633859557908,113031.03,113031.0
n000166,-12.892189033159323,-0.01900053183100736,0.4811568991113502,-0.03457173186367962,-2.036081897265757,0.3040323299156329,4.38000669502987,-3.0788133023118682,-4.055367214039598,2.8859078853775926,-3.143989455067405,1.6456991516296235,0.9612131253126047,-8.453222656273484,1.9777711852813809,113031.03,113031.0
n000167,-5.998629251082203,3.7609258050651757,1.1403295671917815,-2.905994086182623,-2.7435728307342533,-3.255733430141474,-0.4625931936723268,-0.5078407571717023,-3.8051525573613185,2.701251991473561,2.608097450698007,2.453879685112934,-0.07485474160537453,-3.5726242198699816,-0.3150817300400255,113031.03,113031.0
n000168,-3.9567231538010406,0.8203515108682251,5.939059427786585,2.067677821369789,-4.47748814100434,-0.49722921388008223,-3.0958276488954035,3.2481845891123085,0.9536641832881418,1.3285407884385303,1.7288001595707896,7.099823915988543,-2.8613584296100463,-2.8581367867669782,2.1267627084033025,113031.03,113031.0
n000169,-7.785232300436396,-0.1393064887304285,5.675437214976852,-1.112553345293024,-8.567991779864297,-1.3821568816171617,-3.6090039602071045,1.5367961623128021,-2.970264250414794,-1.6134888297393446,2.5231340807703244,8.736784409242146,0.0038621728012822043,-3.102235109359635,-0.3213118672519457,113031.03,113031.0
n000170,-9.58325039751975,4.59729888826144,5.753871483204853,-3.821015997457307,-4.236107582994854,2.2119204792026936,1.8329804530292697,1.6781658629648564,1.6202292097281275,-6.110677603051432,-2.9521644766835,8.256662329378317,-0.04612577137454932,0.6332423170324442,-4.585347133248233,113031.03,113031.0
n000171,-9.272514719665873,6.6485678270400275,4.006763472917148,3.1964208498609623,-3.155963125781322,0.06851541841314068,1.5632173998485417,-0.9694119790525495,1.6978741135569926,1.8038416200921943,3.6279883455945656,8.62202664233257,-7.717291601332671,-5.271529817393397,-10.113214784037709,113031.03,113031.0
n000172,-10.639602586794416,4.226319700380143,4.389615856098076,1.3313249342311317,7.7819397764034335,2.3521004818912674,2.001562569513823,0.5622807141145443,3.1854953008494618,-8.172691871732106,-7.320605257588944,8.426694736300451,-9.40271153824028,0.87112580072591,-6.591460879756191,113031.03,113031.0
n000173,-8.878461839012196,-3.328973870918229,7.400586882524312,6.074377900971754,-6.564793890378661,4.068904949603095,0.3893276500991214,7.427138678197446,-1.5831933079174387,1.8916380826776522,-2.281288533319987,1.9629331852798906,-0.7699308069658315,4.810943266385187,-0.1690317712347882,113031.03,113031.0
n000174,-15.883831691985403,0.5925979531940935,4.424890121960587,-2.301128453282177,2.45562877773711,4.749243334437571,1.1466937075934374,7.741859741721211,-1.0114475811624941,3.0309608001263153,1.128937424851017,2.4228869658151955,3.4863005991402503,-0.9954035648595747,-4.179887492055517,113031.03,113031.0
n000175,-6.944354250771996,1.8438704335590375,7.146459524775718,-2.514169534210377,-1.5515118227435962,1.8732151321267159,1.533371888824469,2.693074297800408,4.705095979410583,-1.0656500918247638,-1.9491613846967537,3.0214584733531336,-8.142466866054813,4.4805782277595805,-5.9165616865242034,113031.03,113031.0
n000176,-8.868271036959474,8.73705509574493,8.594790034655926,4.323967683483809,-4.398704410080282,4.4894221915152475,2.2642697659629,-0.49703273059495534,7.617232833361807,-6.055504823869855,0.21183729230351978,4.507165630455163,-1.2137598864704093,-5.432094604639227,-6.127253120352226,113031.03,113031.0
n000177,-8.909132284853168,6.402980222747788,2.279178618694072,-0.33639234350344377,-5.511056460110548,0.704857779656885,-2.7753739378329,5.3849341811827625,0.20855587668690745,-3.0736574610405185,1.467524807500075,6.4285820222365935,-1.5764641859285664,0.7603765344760205,-2.5770316918246188,113031.03,113031.0
n000178,-3.8040801750807063,5.258159926079438,8.544584084285969,6.3403686552256024,1.1535902826992384,-1.0266634860006327,-7.296767736067643,4.149739964287659,0.900142699460809,-5.051366629489378,-6.769250723663271,5.817792787931056,-2.2268210841673337,-5.413232208141755,-2.1521558500369733,113031.03,113031.0
n000179,-17.593072538129988,-1.1069840489224156,-3.1381274116283713,2.3450461721058677,-3.963480377283447,8.084511188147209,5.6024196140135505,3.8554283053004754,7.625569170862818,-3.303944572641628,2.1426689073815277,8.160825017485607,-0.24897068338236356,-4.400846554346178,-0.6810777331342073,113031.03,113031.0
n000180,-11.493960140095464,-1.632821842609204,5.252888326720494,4.522516296099684,-5.3538674448332175,5.833681392705108,2.2349040265959825,2.5395887858439834,4.020449277701775,-0.4298196349494724,6.58117042099642,3.7817446050040493,1.241834601474738,-0.4242947582007608,-4.246832843171005,113031.03,113031.0
n000181,-9.78528958247038,-7.628944075725261,4.245205561851575,0.4692587136325308,-1.3874463922050428,5.054806657286034,1.9362101769494413,0.9710148846023181,3.582849505143898,-0.322163729306413,1.3786227365153985,8.777566990127962,-1.9670574788404211,-4.272746209083808,-1.1863819259026742,113031.03,113031.0
n000182,-10.907730880152062,2.1889509906530935,1.0317849171003353,-0.41271507182629674,-2.615088426084208,-0.6844049858783063,3.1713082543117634,1.446613260417815,-3.4713860575795854,4.155614481519866,1.5892279105217297,2.205600285292157,3.447230465399506,-4.963783594392519,-6.446255683851194,113031.03,113031.0
n000183,-8.908988697513955,2.527080272237033,6.484081672009496,-5.326305076711179,0.20604792148347228,8.030667792438313,-1.0202083911941005,7.162423837824889,0.6302098636796846,-1.761456003801426,5.980336033029838,1.7505595720469769,-3.901431828439548,-3.939520164019192,-2.9984692382422544,113031.03,113031.0
n000184,-7.551575502122978,1.2534676914820482,6.014403816099538,3.67651327737745,-6.1592398644737365,-1.6876275301643835,0.9852611364385948,0.7745128767698655,1.668843853899759,2.3536082556217752,0.4032933245212186,3.2771360403535956,-6.811387125380694,-3.386693627519991,-1.4318899912550236,113031.03,113031.0
n000185,-15.414265997771336,2.918092145939648,1.0814233756571534,-2.1682123556945028,2.0895792163434797,-0.3715886115903482,0.35423017850811256,-2.787326421844205,0.07296503839492663,0.6145281618925924,7.714141375176824,1.326686751558694,-3.7555879554402094,-4.409848289389931,0.3662563066419253,113031.03,113031.0
n000186,-10.878421411325661,6.47637693824441,1.3946751613179278,-3.7135004111094188,1.7639167302456855,-3.4129436421180928,0.7321990723010501,2.505821923898976,1.8202160603906195,-0.9320867888297861,-0.6857532279526048,5.4135993910789,1.9163098811624706,-2.7969317092994803,-1.066019910580952,113031.03,113031.0
n000187,-11.735886403434703,0.7317896736064704,2.438228675477129,2.11175736733955,1.3365300947025258,4.355782693849148,3.4832045346318177,0.2249806460360031,-0.5465270241725865,-4.876868801917453,-0.9876498976007837,9.735592271462487,5.3224977917784555,-2.592962094010025,-0.9670834984068608,113031.03,113031.0
n000188,-11.089114950232636,5.154700840010982,2.677376119065758,4.1734835501629055,-6.226687588812412,1.706156100658758,6.074454780925011,-0.1756276422900125,-5.255436823521725,-7.37028813528724,3.1107888332350764,6.426961978900248,-2.290679532941627,-4.258971909279828,0.4600862021226513,113031.03,113031.0
n000189,-12.254709675052302,-5.45929247056433,8.911710167693306,1.9764859453354031,-0.36810972351631155,-0.7816753327648986,-0.8119519961169603,5.2362160024903215,3.5302967367400595,-1.5079327990567872,-1.3137238831036555,5.545242406578807,-10.633727057846519,-0.35056592167143874,-2.1275733873374767,113031.03,113031.0
n000190,-11.647889344715653,2.9553220924632364,4.277195266786454,-4.2053834269972885,-3.683760857904476,2.289387137538681,-3.419788191727337,2.318861750748008,-4.288169211690868,3.262780850724147,-0.2690600116781756,4.223899886783673,4.800574044076687,-2.8063539621019093,-5.883625317750919,113031.03,113031.0
n000191,-6.0862081432731205,-5.461012765217815,2.187699074324484,3.148074318499641,-0.9187972527298209,2.479303159468482,1.3782755652481324,3.5277515774294037,2.231891799423107,-2.2474205826352778,8.282360904727462,11.562046925794665,-1.5789653729800484,-2.347040582226487,-1.0359809916976084,113031.03,113031.0
n000192,-12.174675551897511,4.9535463373065785,5.170344790853029,-1.684804964553559,-0.16242736079591102,-4.43551952512434,-6.789643307658433,2.5911378928456994,-7.057199717997651,-1.7087375987682678,5.592897721343878,2.2186162060114305,0.5662784314279058,-3.840040372222922,0.35010510388503513,113031.03,113031.0
n000193,-7.088147092527113,0.04037576457136538,9.523184312745707,-7.958559096605483,0.8675440566492945,-2.3463220080741403,2.718853624847978,9.430107296536061,-7.23078535417993,-0.1640860171855838,1.8847517812438066,4.930542274018809,-0.16721453225191263,-6.865977160716881,-6.715961022545991,113031.03,113031.0
n000194,-15.45130982047208,3.9598035474139937,4.406388352668125,-2.0015277452811344,4.14971519258433,6.549366627816301,-0.5651546021090115,-0.40345215430928216,10.476588483681942,-1.3590106672052282,3.103025413090058,5.665768354999274,4.485848291408119,-3.0836847913472027,-1.3950644447032978,113031.03,113031.0
n000195,-9.300403173227846,-5.86196627599154,-3.62899706280613,-4.933160402714567,4.332617565414445,7.929811873100313,-5.44310495644259,-1.523646754881603,2.2677273079555134,-8.286481490899074,3.9821769523141675,2.479741645333804,0.49713927917763,-2.63743648302995,-0.1866448382920438,113031.03,113031.0
n000196,-5.609473928596296,4.109365370590094,9.38795440688108,-0.028151252756018375,-3.7625196349970604,0.6806432764077818,-1.1451184128317697,-6.656618780775004,3.554563500590304,1.7665430286044277,0.2460088625395883,2.0704151570189766,-5.536808324616613,-9.44280342923514,6.1957517924284975,113031.03,113031.0
n000197,-13.444055572772104,0.670133030985943,10.409339699741128,4.843447735577093,2.0838557958762935,1.7699799387177029,-5.758200151389488,2.1747069016656457,-6.820953687360109,0.5727981108004607,6.102825900286863,1.6103324079041572,-2.864376740894826,2.0556974713395526,-5.390518934341971,113031.03,113031.0
n000198,-5.857521303307354,4.754981780258139,9.268441708719624,-1.724368161799944,-6.029470074836744,3.838142055385277,3.558425570592,-0.8605306856341943,1.6533122659224968,-8.51171791706103,0.6017097743176492,1.4029541311609766,-0.7220274651714017,-0.6822106706071218,-1.4921219210777115,113031.03,113031.0
n000199,-11.970813486384436,2.540575851584238,0.6495706589026513,-5.540921721114177,-4.041783517188447,4.178294788317415,2.978149455610613,4.694242051856349,2.6968297242868053,4.023672643804524,5.820620093293872,-1.835781518149763,-0.5320448295984981,-1.4560652015066968,-2.336484972333812,113031.03,113031.0
n000201,-13.982691618027786,1.370172129970217,8.658831438341265,-3.5027468796623853,1.3187665795002272,1.3494278905554455,-2.0803164241516314,0.05588191276980825,1.206003905429184,-6.429710975115141,-6.131845956751354,1.6454844878591763,-4.254424520989855,-0.025793497320450554,-2.798201550416619,113031.03,113031.0
n000202,-10.405857785351179,7.595359127929372,4.790742810484512,1.4126834325964088,3.8697113874614404,3.7454417081398477,-1.844508152326123,4.2073873764568495,1.0457759412654153,0.9755544898870836,3.1357153497566133,3.8884687667418616,5.552379251444831,1.1129148846441785,-0.8341313375367223,113031.03,113031.0
n000203,-5.553195633038297,2.0888867396665596,4.199067556976026,-0.2306292657631448,-6.493417653654729,0.197199738975945,-0.9658586256139465,-1.3399713574453276,-1.2326718873101181,2.021077016585502,3.8404782168723446,6.394333257436161,2.312581946339725,-0.733730981324851,-3.0850290362170263,113031.03,113031.0
n000204,-10.302917300643331,2.1568389634408405,4.271656367588947,7.615032883482041,-3.21813115858681,2.6638173981141877,-5.247245892856942,5.219138996952548,6.067508826461381,-4.92562493795543,-1.9506875144118596,10.606578531837613,-1.2552226359633063,1.6022558708636672,-4.10433034987303,113031.03,113031.0
n000205,-5.49025104041411,-3.431963407881072,6.309292747995761,-0.303083251509424,1.106210671726788,0.3621546642974216,1.3035986250045928,5.994727581040305,3.7879438153235823,7.112881119935521,1.5011161237759871,7.509281124131961,-1.2329426088782167,-0.9193528742792313,4.388188587339419,113031.03,113031.0
n000206,-5.12568384178342,3.105522245260741,2.665312703310021,-3.523935436896766,-8.22815469084391,8.695156006463536,-2.611810416606729,5.779100950012841,1.3159831182077655,2.411019267320382,-3.5631475540852198,7.11846823297745,5.117378243630069,-4.262924939891918,-5.711356087749293,113031.03,113031.0
n000207,-12.349155835213026,3.5935737267819645,3.8156958694583025,-2.3364888479829755,-8.116976486534991,5.166643795900759,1.3231399920497675,1.8174702690559958,2.3783025325199074,-0.5907163863232733,-1.6228542519328015,2.977181763401454,-0.044215670665467166,-1.2240579649207475,2.054878745575328,113031.03,113031.0
n000208,-7.0478524506532585,1.6925908701445684,2.9713947514361254,1.4434392882987812,-2.2507589043032543,4.563387131607598,-6.095435767894245,0.04154571155435138,-1.008324822888655,-5.198662136626899,-4.1078396323977096,8.129519063849393,5.814241142070308,-4.3614259297032,2.7224909928771073,113031.03,113031.0
n000209,-5.175176682948216,5.953931315860487,4.030835426184477,-1.1349099094266086,3.9811548592728805,1.5818707344764709,2.657441597321143,-0.48562983475092225,0.6342767511739595,-2.073019161288069,-2.36758242686538,4.075955250616987,-0.3146789912494154,-4.932846157491777,0.5981352049803108,113031.03,113031.0
n000210,-7.426720306056416,0.4757425715185404,4.888773070998452,0.1463059523095731,0.11958086635944443,-3.367233920665703,2.757122297909212,3.973302919598224,-0.3533385786005979,-5.304448573751504,5.699388845082973,4.505687475110214,1.1636211459909016,-2.370840884823715,-1.095077273080844,113031.03,113031.0
n000211,-16.809763334903018,-0.21044948883363057,8.321029065342753,0.7506290752477762,-5.235495892318241,4.14473693754803,-3.579268729454207,3.526185292023942,0.4235298940579303,-6.458747960126528,2.84717031991716,2.000449959480192,-3.2074061387044357,0.10762088175898477,-5.008940075720454,113031.03,113031.0
n000212,-7.0890011509130595,11.290234999320926,9.332809497283874,-0.4717233971510201,-2.1149546688999354,1.363288813372915,-2.34383939311312,1.5855052851656015,5.405470228318656,2.5282810560407243,-1.4846653640524057,-1.956686478195591,-0.8632077223328594,0.8433354803283433,-1.6928777437710738,113031.03,113031.0
n000213,-13.209324079138053,9.318612016876468,13.585692375612343,-8.4491012024923,-1.2672844191580044,3.3866383623109457,-1.7440119923869946,4.345170302917642,2.432735565246972,1.1100013427801674,-4.128680309332703,0.97399668754373,-4.149467784898789,-6.8377316315798025,-1.0915009516313714,113031.03,113031.0
n000214,-2.958969745426172,4.452273508777505,2.130362861979304,-1.895099764944957,1.2746541413626313,-5.379060812497258,-0.10023574123715492,-1.9342445475852508,4.105989946258216,1.8277999037803085,1.740709008243079,4.6007977176798125,-9.511946050219374,6.958643880948829,-7.234751097285752,131199.04,131199.0
n000215,-4.950747844096804,-7.140950473681068,0.41954278100646847,0.49423073121033445,2.991421100529645,4.9273279793650815,5.594705059672074,3.128427090104111,3.181522367968313,-5.200448982714382,-0.16903555418271132,-8.483903910704564,-5.154526413344642,-3.521960934572218,-1.2306915847057913,131199.04,131199.0
n000216,-11.843656935944074,6.898286908941634,2.43705591882844,-3.7721282841573993,-0.3521727696184098,3.751306470069003,-2.18247384556316,-10.891180813850886,10.731237375811428,-5.79581149462119,3.426688679227492,-2.7930365299314186,-0.2682767347907298,2.2470052150082838,2.296968651533056,131199.04,131199.0
n000217,-14.723094991005706,0.6137603296714791,2.5623750623559154,-3.7144173786279246,3.1954943955165414,10.87103797529335,-8.223684494651721,-6.206823347927139,4.697074615702741,4.699444284302373,3.338107679945074,2.2664345635541614,0.006072207062689738,7.264095407213219,-1.0095240312406473,131199.04,131199.0
n000218,-15.783123197630143,3.0433829605637275,6.539844819960898,-9.229664700519422,-7.506709394955692,4.639596426560436,-3.235535305766243,2.906065658478096,-3.882019915955889,-2.0811024077744236,4.043454934201975,1.6752580111571111,4.089736359764638,3.5843919307679486,-1.953143594308477,131199.04,131199.0
n000219,-16.932931341616758,-5.721777127231965,-0.4857895024665537,1.7961130758068924,1.4728652447337587,-1.7151673183390481,2.4833994112283175,-0.025429408935501857,-0.9390984529508422,7.654925464243346,-2.660119457246569,6.890273406491147,13.432256949629593,-0.1931427391505512,-7.536225346783369,131199.04,131199.0
n000220,-8.8946570270582,5.595567550300553,2.392743738863832,-9.963060689386282,-1.652983812679185,3.86112158816172,-1.7345004408657543,-2.774700673227426,6.106476505636902,8.731570031368602,-0.41971894704103363,3.0100951240354936,-2.927313128091523,2.045445769701071,-2.0735068508478856,131199.04,131199.0
n000221,-9.127971901988829,2.6358188304897117,7.5167672742407525,0.08489829826297957,-0.6257863183657915,-1.096603213001011,1.6234638966280184,5.670921479216059,5.217473414140272,2.6090082606919376,2.5851625130630125,4.6438359304535375,2.421064342659037,4.956667062313221,0.7372906353406365,131199.04,131199.0
n000222,-6.332990972835105,-10.542561142517114,-4.828775672932884,-2.6948224695639618,-1.1857525228404286,3.55922455522631,-0.36755427699768506,-5.854345725664057,2.440854333754576,2.9958219376176474,0.3515707019473687,-7.77977487192209,1.6333866097126384,-5.957404826019507,-4.150800554404116,131199.04,131199.0
n000223,-17.48983159594359,2.545459900792332,8.075858169689047,-2.417142389806966,1.0721096825880263,-4.5847280659957965,2.079834444952377,3.5276021358433023,-2.80279953305364,-0.8804516350509396,-2.8712976461088004,-7.16068534665502,-2.9473981710598762,6.4399273685906735,-3.1510039525133866,131199.04,131199.0
n000224,-9.52710217871244,-2.905470913256884,1.0923976299739773,0.8079147446712707,-0.31395210131017737,-3.7066250117476383,-0.22559622996896145,4.07145266198742,-0.614676502652908,-1.840613045250782,-9.754963338774207,-0.6060700797206181,-7.716970553582674,1.8919411090404796,2.1087973597047283,131199.04,131199.0
n000225,-12.712072347010299,-1.0405330934656352,8.944571702361692,-8.700578229632898,3.2830210616354014,2.5573064567614208,3.571934793701035,-0.26464108573161294,-0.5166760502373284,-2.576204295685922,-6.681918285032687,-9.398012024217769,4.5682709290742975,3.7708430454730695,2.6190557167951054,131199.04,131199.0
n000226,-9.443654889054026,2.759886146500228,-5.0164609517672405,-0.6999828755464077,-2.090422089295923,-0.2603118689003767,-1.5960212835349765,6.026464181898226,-0.5219206908168208,4.011562129906583,1.0329880072558548,3.005971831957067,0.39536142201021374,-2.2532509660566404,3.740018349649131,131199.04,131199.0
n000227,-8.38389675598626,-6.16697524867647,0.8093691283008713,3.3653615929319303,-0.6501349586701979,-2.477597396342409,2.5835508730203487,7.364825253224342,-0.8372023532890633,-5.4938478892312315,2.71731450100022,0.8967667258135126,-12.730395475497446,0.12601478133075855,2.8667719664324323,131199.04,131199.0
n000228,-13.051367654376147,-1.5232048921617627,1.7921136682585077,-8.356648002540656,-7.178616395978332,-0.2237276553258729,-4.563461154990068,3.40229519193755,4.066627240192061,0.3424613020584445,-3.1602013786714998,-5.5830881320858055,3.3293229155013373,-4.455808756464959,0.0974375201985268,131199.04,131199.0
n000229,-10.22364424209145,-5.094073124071151,6.2746237571770305,-0.5531958272416544,2.687874737629702,5.915019325370843,5.130751637767315,-6.719955802145832,-2.756069891809729,1.46963565091911,-0.07239168516182051,-5.012040788718247,0.26454774613820153,3.7129117028469074,-7.951176700388623,131199.04,131199.0
n000230,-9.789951007790286,-2.9288568996800617,-3.70414167055433,-0.10398586827365719,1.7568455295386034,1.2079432461289041,-3.9266251209038376,-0.6061159638122013,1.4312879871151991,-4.957461115266517,12.411729686560687,4.991996445066684,2.999963930705973,-9.356930946000517,9.340042478539157,131199.04,131199.0
n000231,-9.921477181096765,0.9854835505793788,5.499226937792591,0.26752952303315647,-0.17255658619067216,-2.564867370620039,0.746903697521017,0.7283037668126529,6.0009959426590775,-1.3432571061218526,-2.289338722864705,-0.4156448712359848,1.862430955351445,-3.759891075033976,-0.44670470064966444,131199.04,131199.0
n000232,-13.54229166206501,6.547697266768218,6.847309850419441,-3.1275069111131164,-4.2422353657590595,-2.006686167293719,-0.3280735510507291,1.9017127853736067,9.167031076803678,-3.6233674527774706,-0.28010171623337404,-0.14160408522657308,5.966928313234442,-3.652182182728986,-3.140029630259433,131199.04,131199.0
n000233,-9.772993366756214,-1.21439503319878,2.951896091970432,-7.225746006387782,-2.92867119743588,-6.357135753956599,7.249971368845491,14.986174326124768,4.609362133094946,-7.679351375551326,0.47864994364902214,0.49560875673169025,-0.4332290896608961,-4.077367153070325,-1.6728976678528595,131199.04,131199.0
n000234,-6.565429788435525,-7.081149240171472,2.277724737399219,-4.687363270084464,-12.823689637709716,-3.7936040006266696,5.01050221766703,-3.2396912217120652,1.8882386906184503,-4.445235900950641,3.389245174818894,-9.353281470265019,0.3954244626014066,-3.553881137259388,-0.9401330212667158,131199.04,131199.0
n000235,-5.322068567229448,-1.8407576688698217,-1.6920513691425039,1.1925960462186032,2.355122969143843,-4.6767764827718,-3.367504548418164,-3.406837332814457,9.429770623772484,-4.247127598511891,-4.567060211049622,-2.5556114788112763,2.926791315395799,-1.9312724671820396,1.6557333139591295,131199.04,131199.0
n000236,-3.4507373500863263,3.4664772115002447,7.650809362557295,6.487916525664172,0.481635134506881,-10.579835772701841,-6.2504963763909,-6.840351852914524,-2.23412681262115,-5.355339612499992,4.74502961127871,-3.2243632440835404,10.017229698112088,0.8111873623799845,-4.353594987057988,131199.04,131199.0
n000237,-9.435279211667398,4.243347783182028,2.491506637429462,3.5632342755322775,-0.261082404398866,2.8282603083161457,1.3613087462415145,-3.000383424916668,1.767693500684746,-0.025840312915747066,7.091388232174228,-2.0534725796757707,-0.5071608169880659,-0.1408543353894947,-4.473935900768545,131199.04,131199.0
n000238,-22.335507857213592,0.1747837805062184,6.129231896499693,-5.1854177106411505,-0.7419664477065533,-10.097116446405952,4.146011211508625,9.79050236210405,-2.5621225070337963,10.2724183215296,3.2878622232103325,8.283670215313013,-0.2774140188091887,-7.644664815725866,6.542617782759678,131199.04,131199.0
n000239,-10.792608651145908,-1.6705207455258309,3.5933202893467495,1.1236095403953081,0.8767390116640574,-0.1087402913843516,0.3478007882779216,4.7282289080184325,6.564666695945656,3.862181873909182,-5.180639710492959,-1.2046637244807048,-9.446699995033494,5.547108725607108,-5.915369855661017,131199.04,131199.0
n000240,-11.417766584853277,-3.099668361566628,3.809864008932475,-3.551644101899647,-5.76544333797797,8.934548598096182,-4.119323512411277,-5.248480570024951,2.7944989305671197,6.18455736916057,1.5834799870621166,-4.11338268713523,-4.044269317585455,-9.72692567295864,-1.6331144120336307,131199.04,131199.0
n000241,-6.478337488800342,7.004726780184269,0.8018960505390411,2.950349454480018,6.1412877601549285,3.4311364621599507,3.5510170393972262,-2.730948031122915,6.8509799226080705,4.4580834151045075,-8.250092249019783,-3.678993359994826,-6.901534826676302,-4.714119587740729,2.1611878970445613,131199.04,131199.0
n000242,-10.172591776297919,2.581102607565618,4.621557146673438,-9.961576840798083,2.5618176881758243,2.579351515602649,3.3376433353223374,-8.279389518983082,9.902094010917994,-3.3057133225863238,0.775504675396826,-0.10036807543260218,5.072909138132698,-2.349115484939191,3.4872948773846444,131199.04,131199.0
n000243,-14.934714162808485,1.5443046039861574,4.059102968895282,-8.17701927852358,-0.6334784172602397,-0.8183494496660586,-4.701876405943495,-1.3975721625410844,6.561736963879099,-0.25919995358645337,1.47231267499583,-8.17011331739132,1.4994349285737176,-1.4166415998459216,2.491825511441776,131199.04,131199.0
n000244,-11.406138846085526,-1.153294924552631,3.250755326143978,1.3791511819122944,-4.016499208809414,-3.6898426605248753,-1.6755642498901764,-4.762793608867894,4.240441584667745,-0.1801790236970321,-8.364384380628074,-7.214563651094496,-2.332486751683409,2.1343853526421386,3.9781042189754645,131199.04,131199.0
n000245,-9.142700339415473,-5.013797599895483,4.961617291788464,-3.836560352531796,-1.0137579721142729,12.050999994080083,-3.150956681132446,-4.171901868199362,-1.5197172009431905,-0.9631843615266913,5.372310877559275,-3.5236729183183155,-1.5816267870813683,2.4508386531525006,7.634124216376155,131199.04,131199.0
n000246,-8.095692033572547,-3.725183921959491,2.717939353801621,-3.819485930366314,-4.853652730583185,-3.765078492847721,0.04985311131866693,-14.458192729943093,-1.5105392806792857,5.634887646127897,-0.618848324936964,0.33949853739674163,-0.5487438058125864,-4.813734743619948,-7.98073892101744,131199.04,131199.0
n000247,-9.016178496481858,-12.835190828525693,3.7478011396227062,0.584984874488355,4.217560411934203,-0.3133971094895598,2.8790557593342654,1.7782731790957316,7.01864989178784,-3.8029090427615326,-5.081421783706368,2.738148712707163,-5.735260627161987,6.398476638910662,-9.137699995273515,131199.04,131199.0
n000248,-9.057502128587869,-0.932285524603784,2.8793572290568084,-3.9503450736701025,-2.558398849643457,1.110261688047625,0.9983013298506416,-1.3976097775836487,9.91770494915866,1.8035587543539155,2.459345162377882,-0.026979498741158126,-3.421735855653168,-4.430063198799797,0.29120615900191726,131199.04,131199.0
n000249,-18.107868216881947,1.0269989904290606,-4.390574363422916,-4.090216340672777,2.7688160950950618,-1.5704131439561415,-7.168843644443057,-11.138120366878578,2.4797652196988396,-1.148617949859473,1.2824683487680226,3.280301260942711,6.128646990858149,3.4193694818472142,-0.7206700485479209,131199.04,131199.0
n000250,-9.299730183845533,-5.0624386365540595,1.5970032546337452,-6.332544603322473,2.6162889389550577,5.551290382572967,5.112417521452544,1.9738518652235901,4.5295574539047365,1.733955768298098,0.3940575995421869,-1.4281881761967767,-4.346288256532314,4.580429866298397,4.666619487272913,131199.04,131199.0
n000251,-8.10465260685601,3.848235807704354,3.4774098648533442,-3.401030280869755,-10.026111114188701,13.507787122869425,0.12688297446221275,2.2083740983647515,-2.295501445725441,-5.647895461254059,6.058216465833572,1.406557734813906,6.840538595401039,13.264836497482202,1.862210632893178,131199.04,131199.0
n000252,-7.126037768006251,-0.3661149539985046,5.838946595617433,2.903806353613743,-0.4481476161721192,3.2039907415106064,3.674389953094047,-0.3716508400267283,3.9800660001074206,-5.42324923771552,4.541121248099925,-5.819753738535589,-1.4282883291555912,-0.9502405715575244,-4.819420559563905,131199.04,131199.0
n000253,-10.285672782377215,-1.4387733234964626,4.003747923708933,0.8293553861232486,-2.8233234453644585,9.011563568713395,-3.9745531516543315,3.85510002344184,3.2969354685700005,-1.3278028375223807,1.777251167785809,-3.6559155072477343,2.6051179873165826,2.3353003646306374,-3.5746870644360493,131199.04,131199.0
n000254,-10.857175690700364,2.4366847699125262,-0.4675172951160653,2.6889970587273133,-1.2407652290496516,-3.6503991099225166,4.000552691245557,0.09258063156296609,-3.3002410106579068,8.772635147928215,2.749479213966934,1.3626373567582193,1.3451876870326134,-3.9005817134256575,6.002353446578768,131199.04,131199.0
n000255,-2.693437036061031,-2.713914428123469,-0.9589661498029582,-0.22749703327070891,-1.8997692123835905,2.7809705578612958,4.334266384011441,-0.2676382514700641,0.31262066990149906,-0.542828033895808,-0.4640554745263006,-5.327888060465504,2.463154927878896,-1.6312363337691493,-0.8352445158470109,131199.04,131199.0
n000256,-17.479610213381733,0.053837713504836016,-10.949128469208283,-5.65360715883746,2.680038250489398,-2.4220852315345733,-7.044869873098991,4.806341678611414,1.6130282803455525,-2.784022981320658,2.2866935377624857,-0.7570622958116974,0.2608863475538825,4.955928108016323,-0.7756783873495097,131199.04,131199.0
n000257,-21.731987447156765,5.763413482092405,0.23049563901009207,-3.967198658283632,-2.2302137688545547,-0.1479461018765036,-1.409122109624087,5.002310874162859,6.620252752873284,-12.622351158238507,6.100395880574079,-7.280698592188763,4.536641782576861,-3.58856197483765,0.7165612528364633,131199.04,131199.0
n000258,-11.22991896401215,-8.584979308722628,-2.646856521699336,-6.118586468480595,-2.4003087726255323,4.538319577839539,0.9589442649131614,1.5383242687578949,6.002349669181852,4.80316340922419,-0.6749969930740274,1.857009353245389,-0.11877916262119692,0.9264797008889119,-2.0396710472789072,131199.04,131199.0
n000259,-10.205480921486558,-1.733621624767034,4.968898928420812,3.7083246281062676,7.221190101020035,0.5056223067342681,1.7382472822878452,3.939736519874408,1.592340515467418,-4.0034409236237956,-4.134434693414281,5.2496938513799964,1.2371035919844884,6.088949867396396,-11.015229118356704,131199.04,131199.0
n000260,-19.65553632496421,6.23630180480297,-2.7839598747644656,-3.18779214967486,-5.329962962008511,2.102557816518366,0.4305107990824394,-7.897810867175615,7.418913886758844,0.9144733279684049,-3.5673980840492954,-4.919442471419697,7.989287414476499,2.3116387229955904,1.5471937499785673,131199.04,131199.0
n000261,-12.666559551540313,-8.882846793019933,9.471737261236562,-1.7805830651893624,-5.511889378776581,-1.2538884580240208,-1.36093856654999,6.0750765498326205,4.412571814199151,-1.1621721009716754,8.609022365287974,7.459946964724656,1.345115249411684,12.254396468905544,-1.6687280312943051,131199.04,131199.0
n000262,-17.797807267536562,7.601928878636542,0.4357182499090133,-4.336474326449264,-6.96566773504304,3.753443706191769,-4.360358122880859,3.543500929133534,-3.968127029293854,-3.801725991774559,-4.468093804659018,5.95432685370181,-0.06917953389903109,1.302570344992527,0.22009834571757714,131199.04,131199.0
n000263,-5.81632333705846,-4.176038192905557,2.4558462633544527,-1.8646613168791517,-5.2983510274115115,2.3415937011621675,-5.618895274900649,-7.348705004306387,5.289751309038387,-5.308696734377287,0.22174956747330116,-4.75335157765349,16.565135160403333,4.970237678969331,1.2849040067172544,131199.04,131199.0
n000264,-9.810046414414954,6.184840203480565,4.557328478438322,-3.0127059868752863,-2.580814456793952,8.483475118395347,6.698991922746167,0.04395435438133202,2.1216685447734744,-1.8968824119572756,-1.358120591284536,-1.0271255238499606,3.8795978094764605,-0.19218253862747098,3.3354325302151517,131199.04,131199.0
n000265,-6.211161960682111,8.470644806783161,5.914209156670395,-5.614097981588682,-3.9544630510739847,3.690188502032263,-2.394613185147112,-1.2905232805363458,1.538690478153929,6.168657293148014,3.915618230647735,7.0357275377266575,1.8256392325412647,4.3659334983348455,4.933191215626648,131199.04,131199.0
n000266,-8.49881984951329,-2.2963322337146974,-3.027264988527863,-7.873887464967303,0.4594605365181055,6.218944947087534,-8.246528990389404,6.972392962545817,-8.42253701319469,2.4193375794255223,4.869203056110826,-9.283112302750737,-2.6062519206546586,0.6365891202714093,-2.104903381639823,131199.04,131199.0
n000267,-17.469968499522306,7.001100126723525,-4.87025163339486,-3.6979607152016376,5.80518191927688,-5.446616662267366,-8.865171411097833,4.645458281138715,1.6966209390065554,4.0193951221089295,7.425320010389354,-3.579336770154399,-6.695022593206166,5.21528166970854,-3.5902521321688354,131199.04,131199.0
n000268,-12.058540374394124,-3.498776798563732,-2.5341256478195646,2.878588999259457,-4.514507680821289,6.558650412784403,3.619034981517838,0.44997170362286903,2.828376502665506,-4.542019649981647,2.7017140725669373,-2.1665530561022446,4.75554262890238,3.560797281255351,4.609286232148127,131199.04,131199.0
n000269,-8.472464165312223,-3.4014872134238208,-2.5203255663094835,1.8649622913304436,-4.221750413217778,3.2570608311746887,0.6693265210501999,-6.225743735282889,3.424008007888562,-4.703361909283469,-0.8839403985315858,-2.250117278502621,0.9176856292794073,3.3909099165014,-1.5341910162395653,131199.04,131199.0
n000270,4.308197675876492,6.962299532763737,6.194046536888539,4.862472115476632,-3.9686922840984127,-0.9165282334412419,3.325439926226385,-0.7140950710612886,5.1418503552668735,4.938131314855425,-0.5985505772754285,-3.1688348514919946,-1.8230799593816662,-3.898600893217798,6.49621770914151,131199.04,131199.0
n000271,-10.483831150637748,1.7893750756036246,-2.489556143339019,-3.879126594728686,-3.872959480781853,5.479263311202997,3.045583396512709,-4.94323545084599,4.624325919575126,-3.9433281632186037,3.403000987014909,-1.7389924581582075,1.5760264117752776,-9.505291147570194,1.617455276840008,131199.04,131199.0
n000272,-8.80312805289071,-0.585063361359814,6.166864652976422,-0.12246046125813415,0.33133384990309755,-5.108442301244337,2.634191448625709,6.565789411956213,10.533221096739801,-2.022671168735617,1.128339196851482,-6.537508497714743,6.0229140125262095,3.476365916697817,-12.702245568340022,131199.04,131199.0
n000273,-15.303357734441786,-3.88818730607761,-2.8441768657269817,0.5478270706355821,2.732430418731602,-4.777363899717656,7.623598108470891,-0.7493388635502474,4.669049972601093,0.622991950608445,1.4907713279848904,-2.256408737358764,2.799083292120967,9.13580747011345,-9.467673962779436,131199.04,131199.0
n000274,-3.151975213967578,0.03295887628705718,2.211012096000073,0.9279893828261194,-7.963947648269057,9.478068439111524,-8.899249877367566,5.291704387932146,1.7284673974941422,5.026969485825471,7.874037003589279,7.2661686331841295,2.461766245102739,-2.899441478521356,-2.324744704203532,131199.04,131199.0
n000275,-11.85976592924185,8.344108128314689,2.6565901160896246,2.94820782981731,-3.57272923750918,2.187684603359952,-3.9101298676736804,-5.101606339167453,-4.278751015797141,-0.9011802904051137,0.3379570616576071,1.593112116655167,5.094122687516243,3.8074270805124,3.0696545691696877,131199.04,131199.0
n000276,-10.375676223972853,-5.229026014956917,5.380508387658596,-4.642720152660172,-4.19483298056713,1.9934348215187647,-4.659080113607945,0.0356638537301005,-0.6881207897443398,3.075680371095505,-0.08767511305462133,-1.202222675085455,3.3417640020665473,2.457829625428945,-5.074201714129586,131199.04,131199.0
n000277,-9.896989171622353,-4.410273082067976,8.410190254008018,1.5805037235569372,-1.6694810586188877,2.6047188324244708,6.05788928420563,-5.5089003402910715,6.00423334597054,10.497487576415866,8.131669471276268,1.1939509097059684,-1.1246068089547567,-5.6591346159307925,0.19426315985662757,131199.04,131199.0
n000278,-9.00598434496025,-10.165899872765543,3.0183882384521654,-7.144753615763765,-4.367034996478085,1.8633327875638344,0.9838768791230101,2.2229359425580704,-0.2602548813268388,15.435364084892957,-0.47222371112404304,5.287164014365631,-0.5932754827775852,4.894022314934848,-4.562293242186881,131199.04,131199.0
n000279,-5.988584434221476,-5.743550067398306,1.5664242865007,1.213011864160923,-7.267069495054378,2.7195223177842665,-4.56227797782737,-10.311536793929315,-0.054035504722313554,-0.8261061501836194,6.632635523546568,-1.2478554584569144,5.523104922272559,0.9222963622573939,-0.5095994732619085,131199.04,131199.0
n000280,-7.812224990147487,-1.427980538663317,5.770674220635646,0.8410423585615026,1.3773024878554692,6.720723203232447,-3.7129210267525927,-1.719525166024024,6.369960403829996,3.033702546814934,3.868821864931581,-2.667936031874512,-6.310417546912253,1.4573045476253716,-7.912296196040538,131199.04,131199.0
n000281,-10.962814208294729,7.234180463815145,-1.140414623344971,5.533789296899586,-11.586186945341089,2.3312830703169567,6.23113851322451,3.359663829743962,4.461130685628865,-1.45785409482587,-3.073072092718064,-0.9663439621808151,4.894389268878728,4.2322440836317785,-2.4830388025676116,131199.04,131199.0
n000282,-3.5237316486342722,0.6818622909864387,4.061800411375538,-12.923024490983343,-3.6291914399814824,-3.1272008379427847,2.224751193807759,7.199846448621222,-1.6473671848783114,-2.2418857121415416,-4.525834288813985,3.7874187814826876,-0.9248659801170174,3.1934386745548715,9.120453474995056,131199.04,131199.0
n000283,-12.94544175327477,4.434923284469399,7.832900255677206,0.13028247950435645,-3.439532753382252,6.313163150499475,3.1165616013024353,-1.755032858037957,-0.32597339671601633,-11.23990192684335,7.68437837063647,-6.971233005851008,-0.5605032158519896,6.324727967898962,-9.768464471122059,131199.04,131199.0
n000284,-6.076153980509627,3.9386325011378025,2.8465100962772327,0.539777990151638,-5.867697628819814,-6.670347641082331,6.126029646991036,-2.9921021402957777,8.605704040481795,2.9618203193524106,-4.268804955810532,-2.093866784109245,-10.109305705660315,9.55956387849815,-8.142714685010718,131199.05,131199.0
n000285,-3.1367568551237035,6.798473633952018,2.5120845817398827,-7.363574588599845,-1.0117011376131675,5.838665974884061,6.277611177409704,-5.161004997478216,4.806188632745187,11.576559779813756,1.8419079257909354,-3.2148064387565087,-5.522552255087994,5.562340707381154,-3.198225184372353,131199.05,131199.0
n000286,-1.5746647098584612,6.590665512165287,-3.367313009242697,-4.535262072957235,5.081693515821933,4.429352613668546,2.5710975000482037,1.4801114814100427,3.4170262306053525,-1.584313265835329,-5.38265348852949,1.5080648157863177,1.3244878924300056,6.004263024655245,4.848242889706993,131199.05,131199.0
n000287,-7.514341792218105,7.010275996852694,-4.0143641804828185,-0.9592165984598839,-1.0629340749079659,-1.4260140580182246,7.733825254009209,2.342137295099448,-9.093302085077887,1.8049495950720211,-0.7232125230864217,-3.7274654929653495,5.900251564093082,3.280137879036654,-11.46317978948225,131199.05,131199.0
n000288,-11.967730599206789,2.812748465346065,8.658018467870704,-6.72563452987814,4.151975404566253,1.1629212877336939,3.199564310828002,-0.5803227652422578,-3.617901139090293,-1.8034471617255645,3.647744229186038,0.10621883727598047,-2.520531124466512,8.283988109075441,4.342391962526984,131199.05,131199.0
n000289,-5.516162032414005,12.079170702168401,4.936402441807137,-1.899624828611198,6.825179988600778,2.4903370307540897,5.597306780870669,-0.43509078577632065,-6.547442693313214,1.7949430056498121,-1.1289168202747184,-1.4764979069438136,-8.217587477560212,-1.222195451745153,-3.902064581773693,131199.05,131199.0
n000290,-11.886519907357098,0.5283822402797466,-1.5411792277005643,-3.446530932639965,-1.968686617316203,0.768572934438426,-1.1736143685939335,-4.775580311076283,-3.0862308276804256,4.442208668821739,1.1768927060738739,-8.554485774966528,-10.989021910744698,1.3747278413796933,1.5070032271378069,131199.05,131199.0
n000291,-8.535575161342804,2.5656026916565677,-3.814466054624423,3.5407317819597672,-1.155053142493152,2.0282962622957372,-3.7804610461368817,-3.641124055634169,-9.850603982519454,-1.1275052258522629,-3.8212885882667718,-4.218846603452029,0.4573890403496455,6.597527979021141,-1.3849546072537642,131199.05,131199.0
n000292,-17.724430212179712,2.3763572534934134,0.07825477819901927,-5.347775736111785,10.058327907954629,7.579591859897286,6.780898768797461,1.7755814406632326,4.035693101713814,-1.6278230197874282,0.347279698089169,-1.314496385807483,8.259564239032457,-2.624308516110369,-6.0029736115215275,131199.05,131199.0
n000293,-11.157252619769714,5.4500034696767985,-3.57412307076507,0.27226284928172273,-3.2518972450183887,-0.8775545623954615,-1.431221345860149,2.8267198052939158,0.015882456881625373,0.369118833657855,8.436213262833268,-6.15767294746218,9.818158801208773,1.9065395965686118,-0.40879129934351227,131199.05,131199.0
n000294,-6.718200386522187,3.3637246091213115,1.0884089008354838,-3.142979688539875,-5.986864344951691,1.6782392593435187,4.585704633844282,-0.30963647771181724,4.810366394717249,1.34648250749625,-1.838579270053458,9.349912494466908,-0.3267314301868557,9.211726998203726,3.3992836122872516,131199.05,131199.0
n000295,-17.381410909264666,-3.492764441283705,0.21767056539554286,-3.4247949525457786,3.9515940117795862,7.305366819004404,3.8292587660463013,-0.6040761105344721,3.213722754203796,-5.235958719859951,-2.376251123263291,-4.922914040093221,2.695424903040077,0.36349213445920436,1.366493173482079,131199.05,131199.0
n000296,-14.57068102464898,5.95504680603066,8.946938704397839,-5.626723534281623,4.034947204291321,1.1124115021125753,4.355459825379185,-2.8363277489838548,2.110396584861463,-4.686407977414488,-0.2962028946852561,2.6884479610205325,3.133315314722559,2.334741888463387,-1.7810200504721465,131199.05,131199.0
n000297,-10.042967832447575,9.303307342199863,-5.617408406877429,6.8836882979014415,-2.4080197038889617,4.542008600608762,3.849920547697076,-7.557486940348661,-3.8566937146918416,-8.619123890692117,-3.461856272550276,-2.628382782655933,-1.3328218772217797,-1.9724500912677492,-0.9867732504929945,131199.05,131199.0
n000298,-18.302911016476465,-5.939078324919657,3.8399710752451144,-12.681277373318101,-6.364180237461533,6.5319129870859465,-2.1365488189236244,2.5984416222844295,5.03431306679976,-5.588721495702171,-7.9015998222378645,1.3478291356370895,-0.7871412729178613,12.951160171366038,-9.050550424797205,131199.05,131199.0
n000299,-4.682269764983163,4.906044664336226,3.237661976763512,-6.039835732098258,7.244141475564328,6.2971699220757165,1.313314801864161,-2.322616790841715,-1.0723182142147316,1.40655179984351,-2.4139742161815056,1.1696362654982733,6.897569318833856,0.8030250367368436,2.720516702397826,131199.05,131199.0
n000300,-8.117176475881012,0.6255938524054279,6.513510297218183,1.8559596175129878,9.324178721788092,8.252274407945164,1.1368625836538886,2.618096951059072,-6.399180825908557,7.57129535002397,1.5405990742159723,-4.176573167488899,-4.30966098976025,8.474781254644798,1.13677971142356,131199.05,131199.0
n000301,-9.512762963151477,11.841309164401268,3.6500628626837583,7.542752633400356,7.190571483805674,-0.49264374296010804,-0.1753957493921765,0.047550232790456226,-0.24801761542756884,-2.485154627226014,2.2957663309593945,-2.048529200144373,-3.040182553949744,3.5803445104921012,-0.8314955675952429,131199.05,131199.0
n000302,-8.15236443507327,-2.75734548141451,3.7860542918467956,-4.96079286308979,3.018968661651249,8.723656212578522,0.8062042346116062,-11.679454858724103,1.3166332347867635,-5.346539839188856,4.252378636745201,-3.7025331137413886,-0.773927590901125,0.6080546470212111,-1.7374367975896208,131199.05,131199.0
n000303,-5.912384181852033,0.8639029390444025,5.612503595983087,1.2222343112028042,-7.628055457353912,7.314622201566813,-6.158696622365094,-4.947794286430354,3.586634279005289,2.673034059223437,-6.882159943277785,3.7624540308471937,9.68032558618969,-5.835318057723661,7.252511495758533,131199.05,131199.0
n000304,-4.792682218977792,11.216137679555468,2.5779684692166684,5.089060144356717,3.417016566300302,-0.10735755108192979,10.273772065535947,3.570682886588747,7.438185723317204,11.513304918776642,-1.840691848074815,2.2326888402650824,-4.583758117817915,2.1295363950665056,-5.102553258346152,131199.05,131199.0
n000305,-3.752468122842389,5.389861420839836,6.540777379455278,4.777848448723679,9.017639347271768,9.582314697080355,-2.559505580388427,0.9190962606307991,0.5180338519130772,2.269192826134205,2.648450636378838,7.10523174947496,2.6998402805450783,-3.662696218094664,4.664252146988661,131199.05,131199.0
n000306,-12.744793497420327,1.807598618548271,4.232490040751915,-8.802774922085042,-1.4743824990373815,1.0610811104787812,-2.116126878687748,1.166382898139281,-8.045303081542007,2.912728303898195,-3.675248459005745,-2.7246808880956186,5.4616104455425205,0.5971010341178209,-0.31312693128142544,131199.05,131199.0
n000307,-0.21169196287640624,5.115720713944307,1.728527057249706,-11.336364481461946,-2.881955907765571,7.4476290301537205,1.7149008933911813,-6.225605633357035,-1.4908828802259706,-0.49422084106951736,0.7794534068202463,0.2711560938184765,7.99404208784353,3.9664016180836064,0.5217043225162852,131199.05,131199.0
n000308,-12.926953005179548,10.1043217617543,-2.2761320514632515,-7.101808501423646,-1.4224062949767233,5.670002537018855,-2.9045796924869327,-2.456901546512051,-1.6535458107591703,-0.3211519517262167,-6.472233463638898,-1.3731682895481687,-0.49327731647765494,3.4532459570444285,1.412705708481761,131199.05,131199.0
n000309,-13.592389125541231,-3.116108271718721,5.497499153049448,-6.310191388201401,-3.0738189632639266,14.723008998938553,7.243483321135675,-3.6001117874956563,-4.8355157388058965,-6.0395273926712205,1.6131469128237883,2.019253244878999,-1.1691064593232388,6.163069507195964,-5.358475900664994,131199.05,131199.0
n000310,-8.82210114223383,0.4379599494862263,0.3650550299911193,-12.717355326733074,4.014500385260558,0.34067601878376275,-9.724172161887054,-1.1301586628054476,-0.9216452309382837,-0.9707410790008529,-2.8056096428730997,4.961360958777735,6.096569664828422,2.7355169407321167,2.410173663744098,131199.05,131199.0
n000311,-0.856031259236488,1.8264091311579067,-0.7793779364577031,2.4305425966820637,6.852121668303756,0.8689763560196656,-2.788491258621944,-5.666583525501437,1.841165464236956,-12.761485565573555,1.7564635998181166,-1.0053864290628662,5.899621748794912,1.5566493742117427,2.0786298137481904,131199.05,131199.0
n000312,-3.244872859756291,-4.9084830381990265,-4.995206992280323,-8.46994742118022,-2.9978809048690627,-3.291500768831656,6.547907406323716,-4.148234608326897,-3.84322672109821,1.407649328104183,1.9109038115213752,6.416213059410538,8.534784088440578,4.841160399506453,-2.712718741001252,131199.05,131199.0
n000313,-4.10475478206315,11.462421784866876,4.38600782662337,-9.645705619423866,5.142700701477378,8.078193318865896,3.8053731575370007,-0.6130590067955157,1.1272482212828498,6.099180890009514,-0.955141052898685,-2.8290660916879764,4.662160349477952,-6.384380451241759,4.3022109559804775,131199.05,131199.0
n000314,-7.041272146326933,-4.196685758801823,1.0238436153035013,-0.670893772371076,-3.0648909010217222,5.019779284700825,-5.4729262372234215,0.40868032111865094,-4.487909096736916,0.6596087103408181,5.1520678476954656,2.349526876512928,-1.2710785026727003,-2.6421995813026693,0.8169067462052766,131199.05,131199.0
n000315,-6.077412804967025,-7.504406895193011,-2.7209645810969962,-6.426413161036512,5.704006749245311,-9.37345236390153,9.131990731527381,-5.416592494687683,-2.774855759893081,0.941485100993892,0.8724250150264077,-6.992885311032223,4.728887852261966,16.09850011591758,-9.733801856871073,131199.05,131199.0
n000316,-14.497459677630403,2.031950592294122,4.528998564477946,-8.800895281894762,6.107574822714762,1.0877949641262472,1.3193349006001769,-1.3475324429726359,0.3495101626307948,-6.090228368724207,1.5914285952877036,-5.9760086180924095,-3.1494293514353227,9.385045061954528,-0.998519823150364,131199.05,131199.0
n000317,0.7115233716165683,4.618945865233865,-7.308488834379274,-10.253327297843121,-4.129630590456084,-3.5982376605386417,4.432638765024324,1.603848552527187,-5.776428264705507,2.7035024079865364,-6.166471019279444,2.9244666115594056,-0.38649593538841287,4.540765779384275,-4.879847906173833,131199.05,131199.0
n000318,-5.516713492543586,6.187246383675534,1.6379240791595868,-7.452928432219677,-3.077138508788001,2.7488927693553586,-0.46997366844713206,-2.571012826618162,-3.7549117552734907,5.756792818189881,3.429883506361267,0.21461209529945302,-3.7526140275359734,1.8230159067160507,-2.105593970986721,131199.05,131199.0
n000319,-7.466893143005448,-1.1526817243622671,3.8616829574629206,-5.031147557843641,-2.0814893609337615,-0.7368582187461044,-0.06496375251801156,-1.2283929914238618,7.559875862594984,-3.418737982762874,0.1178225238574171,3.967648388547912,-8.097003077951388,0.3291579230918531,-4.182861796967861,131199.05,131199.0
n000320,-5.074649212078393,4.351954738883125,3.3068532881706423,-1.260734328235492,2.649565558740988,9.957079303157064,9.772144210740516,-0.8470803296977386,-3.0996035927801797,5.389713422711694,1.147134740993109,-3.6682241049362143,1.3973362705326735,-3.0914607527886973,6.052523673710347,131199.05,131199.0
n000321,-10.408494178593594,2.7953517936364154,-2.720074822072655,-0.9483915206758429,0.7192917654409854,-5.371785607349838,9.629651239769847,-5.234225499781296,0.29372707450989033,6.612185967955122,-6.385313302652417,5.954436002907574,-4.319743860068382,-1.2663983191083807,-5.138513329128127,131199.05,131199.0
n000322,-14.080442675991815,0.7896742290292603,-0.02849196249374053,-2.9152388422115934,2.2990771924177054,-0.5474773129415216,-3.9463906081872198,-5.01190269208423,-2.1902860761333844,-1.2189634827809226,-6.5897609644200195,0.3540425115471795,2.856220391177026,-0.7767418583825596,-7.266664464858669,131199.05,131199.0
n000323,-15.905171314846108,11.163966478360441,-0.9492454637631171,-2.4192981892529293,-3.235737148522616,11.171742800191497,-4.999465890100447,-2.8297515382802807,-8.81296495001707,5.370933471668529,-5.328495262103353,1.2098430988706306,3.5968277885422557,10.605453047106062,-8.769386113173113,131199.05,131199.0
