,0,1,2,3,4,5,6,7,8,9,10,11,12,13,14,O*NET-SOC Code,round O*NET-SOC Code
n001064,-11.404323716332936,5.884048528300653,-1.0461128464627696,-4.200389195064483,-2.4354217078116505,-4.111820558715584,-5.775463823847475,10.785224619399155,7.690157101168554,-1.2908826313473618,-0.6029083180180563,-4.84925659494479,-2.282781945155323,2.415474241151622,-0.03982673882161403,113031.0,113031.0
n001065,-10.729379296547927,-5.624438487595209,-3.140943961656713,0.007009409117957333,-6.019459151960822,2.6964690042548676,4.680971304797251,10.2345194304835,8.614711692696105,-7.294160232909147,3.431991386599861,-2.562890684135229,1.0443920208301072,-2.998334924784778,5.428993880930697,113031.0,113031.0
n001066,-8.673683008639388,-1.4733373909936773,1.1488655366741354,-3.021975985437483,-5.850499191665714,-1.0946753317084676,-2.285654079590012,-1.2247558075078948,3.399735905123456,-3.5801435767150154,-0.7230648323643531,2.6910260634315852,2.8012088992750277,2.8983175700136,1.7061042515904887,113031.0,113031.0
n001067,-7.077344887119612,2.7591687194997667,-7.4525275843063055,-4.743291983765387,3.789133881678383,2.0518899740695815,7.8606244541479375,1.2025241535682074,4.820191196476962,0.9149717467137379,-1.609177944193449,6.333344015478489,-3.7489555507329078,0.31636190528640457,2.687403508451384,113031.0,113031.0
n001068,-7.654001157614819,-1.4151183027372394,-1.0090635889152257,-2.309975375304494,-2.6913090756865463,0.7344314496505311,-1.698201032610113,1.978947455533698,1.0706297641666032,-2.7430722993874945,-1.332861070337577,-3.787091146463961,-0.49556881921806895,1.7793976858421008,-4.986607083205503,113031.0,113031.0
n001069,-4.725274366868602,-0.042934376381548844,-0.828189171832171,-4.121254806414235,1.5679776040187217,4.473569982878166,3.0038564586527676,2.668017152765661,9.954227280734258,1.1556823372631544,-1.3051506762788336,-2.0132557317760256,-7.611346553794175,-0.16288779021696995,0.4150869360201014,113031.0,113031.0
n001070,-3.2979826962709318,-5.5855779102385865,3.4053963052653193,-1.2562128321270023,1.1943724784850276,1.4507700071900276,0.09721879136747119,3.951670001638477,2.707212795952572,-1.5296468152349305,5.492833531657376,-8.306918236916642,-7.708784735244355,1.3554983361164774,1.883418457161135,113031.0,113031.0
n001071,-15.365723582653878,7.66626696223485,-1.7859943364297315,4.078120223736905,-3.8300808887211977,-2.4608712890238316,-2.224194804785874,1.9014656116318562,6.092666240795069,-0.44476460647835836,2.5999016470429592,3.4831922143211616,-2.9949029432480145,-4.115448491341067,0.4102164944042279,113031.0,113031.0
n001072,-9.793589369521738,-0.9905616343794872,-6.591623636402474,-6.682504630709283,5.296295937697495,-5.205280804229382,-0.20473120079725127,1.3329999974334767,1.1027291240089347,-1.9978063068036147,-1.0812252290181705,0.6557132640408716,-4.264567976842551,1.5188177413063835,2.9436152250600713,113031.0,113031.0
n001073,-9.838453094469228,1.7536359424719263,2.102098743378182,-6.851010385399931,-5.126433864764244,-4.1786056546922214,-0.4852040721061438,5.50894467351599,7.453851742528638,-1.6857714707976752,3.140593901659994,-1.8587202150704274,-1.8791905445605614,-2.8297468045429715,2.856416478491879,113031.0,113031.0
n001074,-13.37654156403814,6.5036760770592945,-0.3236468677680409,1.00578389484177,-1.6642601523623126,2.0448560223810968,1.8660428539440788,3.745785472509659,5.883344855923857,-2.2200121420586183,-5.122522100273614,2.3179365974278325,-2.702108828906349,2.689618236383779,-1.0341666028711145,113031.0,113031.0
n001075,-8.228230096999912,3.4507601070351663,1.1592464050587676,-4.234599993982359,0.8298775149510376,0.4326637414416763,3.474778035913202,-0.8924440699508422,10.569195051420635,-8.081740482592057,1.4313863424930164,2.1003399690049402,2.85789581892732,2.5640060140657774,-1.8699695826017517,113031.0,113031.0
n001076,-10.856388959968623,3.1422517658851308,1.5959780186646086,1.0494846651167484,-0.6975725568063127,-1.6428261769986658,-2.309412308895971,1.2081081319941878,1.5987777952592117,-1.6798767919744395,8.841460890895156,-2.109948037181656,3.3515006994196206,-3.4540605341481094,2.689897745406109,113031.0,113031.0
n001077,-9.935588968024206,-1.2014249187485193,0.023718770471242906,-0.5694322303558059,-3.136956015252976,0.5595540003497674,0.03514803173596326,-1.8320484750896777,5.252033697921773,2.372455269023634,0.3270990294620808,6.4600484801518,2.2169684217115275,2.391524497110716,-5.608218054425235,113031.0,113031.0
n001078,-6.511958543195908,0.28265246884728956,0.9029059731230711,-6.535401731025448,-3.9733234366405483,-1.8270306000709216,-3.8314102130831014,9.863259843784798,8.27401480866531,-5.1490888268622905,-1.6447230040148537,-0.32285038689403645,-4.2676467543678775,0.5226520492664645,6.170177264947499,113031.0,113031.0
n001079,-12.087639414591429,7.95540314579507,-0.6363402120251214,-12.513984639666212,-1.659366384500272,-3.815256994009742,-5.474345341446877,1.0043304352901532,6.258162920868406,-3.1949089039369754,-0.9884283594311389,-1.3555429305974085,-2.9016159601201648,3.1289151070989023,-4.238951951121781,113031.0,113031.0
n001080,-5.482877844701178,-0.18013405081038325,-5.021653432426959,0.9694327998109826,-2.706896788667874,0.6494444486730719,4.486477144745594,7.877217991981386,4.077146826524885,1.2917685997595547,3.3316322745116804,-0.5061408223802408,-2.655969487787159,1.0489831316333214,9.317994666016087,113031.0,113031.0
n001081,-6.145000729954173,-0.5408436459818766,-0.29360653082427896,0.9482299960200593,-2.55069868939007,1.0799175312704286,-0.07709799170947429,2.1376150367714626,5.033991680880346,-2.684171647404337,3.4149956826090766,-0.691833205524621,-3.9076554106334283,-6.430032719628007,0.08383026722620501,113031.0,113031.0
n001082,-6.096898359578273,3.881436630696639,-3.6508505730990386,-2.953975048972364,0.4301149774341555,-1.2440160289093227,1.1169936712473434,10.065538352741271,-6.345631792552361,0.30701181712136716,-3.747628288897973,0.15101218479872824,-6.639623759240792,-3.150420996673154,-1.5214102435763734,113031.0,113031.0
n001083,-11.43664296582727,3.227331801864313,-2.7707278534517865,-6.044231498504171,1.720449162183209,-4.519082838239948,2.2024909429319135,12.04678452088824,3.7746779456323467,0.3531334112350666,-1.9044014759168864,3.033887232072842,5.016557136034518,-3.518079838927376,2.9467787415068534,113031.0,113031.0
n001084,-13.804267125747916,3.9653314124537493,0.07058611586237284,-9.413787947087084,-0.3246661854713375,-2.6230691796138865,-1.3274920237621708,1.7853303307522232,-0.4513635150669928,-2.3270813291611536,4.221862993665976,5.013818079360707,-9.808326278983568,-0.8906005924793172,-1.5491225795257877,113031.0,113031.0
n001085,-13.52127893725674,0.6637353356466353,-1.161312149565204,-4.531848368258345,-7.134335588313112,-2.049136849831948,5.511068136262031,-2.815629003450041,4.484170547222056,-1.9044479619428292,-4.054968176694963,1.6038988795563287,-1.6542504781458829,1.0038178195555796,-2.4508412758028086,113031.0,113031.0
n001086,-7.356418184780736,7.4801028238084495,3.453998367694946,-7.120090888245776,-0.5501591609704901,3.3539329212094793,1.098369442059847,2.2403358655387624,3.2971697083021754,-5.205265550689145,0.47332978262924463,6.0712571877345685,-2.7986638743013863,1.4086073457346613,4.046702574206945,113031.0,113031.0
n001087,-10.915017546696934,3.3457826372051453,4.57758919036316,-0.2730725024435521,1.9476607853781815,8.072781386007499,2.910712142342632,-0.030313417613103244,4.720836269433799,-0.756045038139258,2.431375607149292,-0.8102945747011152,-7.208979942480693,-2.3175291945585696,2.0349545292709244,113031.0,113031.0
n001088,-18.65113818862831,6.8920548808266275,1.7093496892936686,-2.55212420531417,-8.671509380644071,3.199235161074699,3.4582950983537413,-2.2576234615028317,8.125075102374527,-2.5965267416100084,5.213604176921365,1.673464954515029,3.166349631815433,2.366517448536404,-3.113125842988132,113031.0,113031.0
n001089,-17.511041731895176,0.01183279488803457,2.3672194742142896,-3.3208430805641123,-0.8741768776663779,-2.8507974945108763,-6.7569813771424725,8.830920329088746,0.6882849180835642,1.5258730013223083,-1.4776631113277494,6.887496902694038,0.03265243113934302,-5.375180084343989,-2.71914284609036,113031.0,113031.0
n001090,-6.713695970487656,6.288222251664072,-1.341346028334813,0.3382367227210552,2.938154237758599,-6.364625819619134,0.9479161486872348,2.6917151370890426,5.003697179602441,-4.9198963886548945,5.048230412953065,1.4708128560717793,-2.9488427714571306,4.81029825148137,-1.4870630743074533,113031.0,113031.0
n001091,-9.00332991263699,1.8163497048286315,-3.016811322813503,-3.958136691943654,-7.255541011879037,-1.127351435670207,-3.1312079887615956,2.0108367738189417,-0.02251360462456331,1.6127901697366767,4.572257794518838,0.13463574434311298,-0.5346985124485837,2.4903238521503255,1.218014243436574,113031.0,113031.0
n001092,-8.587115447252973,1.707529118123892,-2.358474582142869,-1.4616920660487507,-2.174234543191023,-4.247460657246596,-3.4862100200125887,4.554573280419524,-1.187333606179143,-1.9081630045543676,-5.595637812501132,-0.9126900136817799,-5.767471550305638,-2.3316216762657205,1.6114069543793401,113031.0,113031.0
n001093,-15.664727297670375,-1.708675641541375,3.7377836915655442,-2.994403698609137,-2.555312913116908,-0.3290898520864631,-1.0565582434317955,1.245725763008834,0.13643670876120284,3.6358037463799873,4.369546875426185,0.22344613837108107,-1.3249897437217473,2.6705016768825516,-2.5582520152039523,113031.0,113031.0
n001094,-2.7125447018097786,2.9961326296214392,1.9906946988589431,-3.6405240198736974,2.4854243494374093,-0.5452138256666239,-0.1680943265806243,2.6357391638558987,-5.197321542611414,-1.7862019592677885,1.468327373126428,3.032307220565779,-5.0515370146983525,7.167219215197989,5.070076947149333,113031.0,113031.0
n001095,-15.35592645329048,3.2874190899556623,-0.3996211602407587,-6.7740536649862255,3.014210108393842,-2.316363109806578,3.7967703153248724,-0.31150218421205267,5.255335201222298,-3.455142620492987,-1.069800591519488,0.688423132984133,-7.299681081185354,1.6958995655485347,3.2857456591069427,113031.0,113031.0
n001096,-15.991412216926168,6.449392546103978,2.1881022150615137,-4.76174275079933,-2.725173836253677,-0.016818477742566174,-1.2966016114216368,8.668241133394277,5.42349425379283,-0.5224078379455084,4.433553858177355,2.5511329300305476,-7.667095049090996,5.615218561331999,8.301159023193918,113031.0,113031.0
n001097,-16.310464300413145,-0.361417580593431,-0.37151743459779757,-5.704987603991224,-7.055279500443483,1.0808119338011004,4.523018101717101,-3.111237928803279,5.313441290049087,3.2013135056662474,4.383181533929438,2.7531854416964485,-2.5619834524916008,-3.228560667073613,4.283764261495002,113031.0,113031.0
n001098,-11.68232897385942,3.0422099222411356,3.6946985606187,-5.7814305646802495,1.0690863037452583,1.0607750999682748,2.2488708396698622,5.881047485858014,1.2575973512030079,-5.745178110839887,-0.49864478625920894,-1.8390834231499593,-4.001392561291014,1.420431250963028,1.8318864366304863,113031.0,113031.0
n001099,-11.461590469869122,3.156184041141352,-1.208697829562437,-6.6485384896111945,-1.4105399350447692,0.18573683898120374,-7.180395128446217,5.60542126871011,-2.4205211107980285,2.967035325478969,0.7533757582098645,-1.5947858735253304,-6.803118962828636,0.34779442897638096,3.472337483569267,113031.0,113031.0
n001100,-14.52613937268245,6.90610573919964,1.6272015805362015,-5.146568582889843,-6.0414281767869715,2.5848623416259406,-4.8877214199465095,2.352896493001297,1.370405251644092,0.6041956633680226,0.2125544946456729,-0.7095620088491608,0.41739810543558464,-4.2422931087578135,-2.896240745432891,113031.0,113031.0
n001101,-7.208495892688064,6.275622525610704,2.847966801718091,4.96791188775493,-7.677948731577011,2.9311165710019074,0.5968233673038361,3.3700652897314876,-0.45876129328635873,-10.13004308766887,2.1945572661000052,0.7192559834508113,1.9536654154575746,1.4675979159282149,1.8855588493247515,113031.0,113031.0
n001102,-7.037619588455337,3.702718584871335,1.1937426179283717,-4.520982360643926,-3.5014323277520694,4.370353155812818,-2.4822723129135924,4.403932828614243,-3.3752835856956755,-6.327372626594471,-0.283636167001047,-3.7340891959211246,-0.30642518534494334,-5.9760972858022905,0.26932254287493984,113031.0,113031.0
n001103,-6.340103171140466,3.036670135876248,-2.0558757748012755,-5.067929330555181,2.0260276115678857,-6.756182797340762,1.1685131193417324,3.6787682670926847,5.913341481220943,-3.963388364649015,3.4921810921244583,-1.437676294200456,0.5581231595744054,-3.301464813986431,3.309217373834775,113031.0,113031.0
n001104,-9.48988509791028,1.538605440266376,1.1125545012982327,2.892277411099547,-10.077530637180038,-0.3589169979541852,2.3987962012237447,5.797257254474664,3.262542858612245,4.324463851619146,4.362302795058481,4.0036706030889375,-2.1357781205451705,-2.763000851501377,6.067293285801714,113031.0,113031.0
n001105,-15.254984503252086,4.96408853013611,0.8346064055922346,-4.972417238863938,-4.636846808593657,-3.6180428465550047,-1.335715873507353,4.268071405003371,0.6856384872986538,-5.562927635392495,6.848160846186744,6.471612469697683,-6.380850817715637,1.118959674721514,2.2335480791801343,113031.0,113031.0
n001106,-14.18658670386717,-0.5438339664543674,0.7937570589380509,-2.621173676202223,2.385211572558568,-0.18508499847145582,-1.2507597462408708,0.4751355218796727,6.763710215123993,0.9310061600165183,1.7988403466811924,0.9760728554379909,0.9343864177066057,4.869687015650042,2.753625341786924,113031.0,113031.0
n001108,-6.415472131435468,0.42293496802741926,1.7322260300756958,-6.992072881123326,-1.041675135287481,-9.66779527759086,-1.8695102400078336,5.829212210123247,3.185705546231654,0.14046116258072594,4.478224234384102,0.3894661438236343,-2.7285350198988865,-3.1375487950772483,3.7939266300350347,113031.0,113031.0
n001109,-6.930426453266023,-0.5652093663864473,2.305547955328127,-5.897666660312112,-7.761855064490895,1.6009656368652116,4.0553260788639305,7.155977158404902,2.7043396427569535,-0.5869883573235448,-3.4011875839410797,-4.342418476203165,-4.790853067108605,-1.2183179009981955,3.0362926396394028,113031.0,113031.0
n001110,-16.27783049411551,3.6909203594486497,3.5910092758051873,-8.272684268359887,-6.202746357855265,1.1473071635365335,0.42552919524855937,5.154951761424114,4.915714491216784,-1.8199646125694868,3.895059724361233,3.721590439372422,-5.950779973775325,4.2225598916010245,-1.8646857597874547,113031.0,113031.0
n001111,-10.825464455527365,-0.21516782974017312,0.6167231725164135,-4.224961562395369,-4.867990030537646,0.9433290261591878,-1.0160635162560836,4.650027281911546,4.688460590623548,-3.609357989398729,-3.2358353340555697,2.224328551297027,0.20393655293067026,-4.24602095063668,-1.9962854964732017,113031.0,113031.0
n001112,-10.665764480043839,0.8838063936295955,-4.165669656263569,1.1070316454318223,-0.10920520283905777,-2.5446247305603213,0.6359842212223659,1.8288023230779478,-1.5620787682251152,-2.802756666014688,-1.1372527995551978,-0.006521412434023155,-3.690580848465485,3.697514182129595,-1.7714571229507763,113031.0,113031.0
n001113,-4.841634219868548,-2.152838883960647,3.6857187759453516,0.2416142145059781,1.3004589439653658,4.0081501874646674,-0.6612037413264756,4.530231510856754,7.749550650670109,-3.077009986375884,0.05223424690219125,3.3400780214016432,-4.874728429656332,1.698056750400229,2.238466687363176,113031.0,113031.0
n001114,-14.649893602268047,2.0990938304735884,1.8450556874467696,-0.3053512320558869,0.1937571649901617,6.954850780141053,1.1626526021857977,1.2383431455181073,4.327334216652442,-2.4182013034744734,-3.440579112409522,-7.043644371470792,2.22801983365002,2.3972939710942454,6.839021162330787,113031.0,113031.0
n001115,-9.465190340326304,8.326166986806163,1.315584511991217,-0.6109603576189633,-3.401906439084321,-3.7883812388150293,1.4849772146063542,-6.31767805566264,-3.4637854797384398,-2.7097937815212214,-0.027723392226515653,-5.881715800600085,-0.2635422582218274,1.9844812071517082,6.408407376646644,113031.0,113031.0
n001116,-15.171538527970913,0.7428489484523975,-2.3692792658956923,0.3436214655039289,-3.1941880495834756,-4.7025081830950235,1.2566659038728631,0.8966938579030996,2.4547764572358775,2.9409903385030223,1.6706472508590573,4.652454015058052,-4.0262225086359145,-0.5329629871620982,-0.7946509788615219,113031.0,113031.0
n001117,-17.175519882480526,1.145324421548961,2.9702650172863128,-3.6215429285745664,-2.846019300838262,2.242787031140279,9.387664203811633,8.491672813469222,-0.16267745720833515,1.3043174228620882,-0.9172280574878258,-2.045458922181731,-4.224520221047392,-6.047941976287478,-4.885330833434634,113031.0,113031.0
n001118,-9.856387997334147,10.709188826650761,0.6052315118707445,1.5827500091164803,1.5424264900688933,-4.655849282352986,1.3911346635572426,-4.111396537481291,1.994932836831378,-1.2777752359251062,-2.648668498241773,-3.517183539466009,-2.719253620425219,0.8872652898214048,-1.9111916598231293,113031.0,113031.0
n001119,-6.291917153597634,0.3292802420198542,1.241820495609375,-6.1347759427221025,-7.077822014945541,-3.1104881324055857,-1.3807119170962787,4.130057654769298,-2.5579759170971537,2.764779104106686,3.094716510083995,4.230169033072362,-9.440800432851669,0.9666688909176518,0.9823043008583754,113031.0,113031.0
n001120,-2.4668562088055808,9.025201051672608,1.8188822249604242,-1.5187555075125354,2.5573552888123614,0.33083835755879176,-2.368472279627727,1.0151971522358392,4.4670043473650125,-3.784259080406384,0.3792046888260746,1.237579437410978,1.1331203602062052,-1.0547447840277024,-5.307761364896234,113031.0,113031.0
n001121,-2.819017258800498,6.738947618323973,-0.08190798017892359,-3.353925198681751,-1.0982955889315194,-4.489016218800508,11.568526349977647,1.0107776672225306,-0.04246057314433482,-2.065017583745159,1.2133139957492782,4.711330673055687,-4.4968046598410405,-3.9518995338737204,-1.7360048627241282,113031.0,113031.0
n001122,-2.474059813480668,-1.3187024290712754,2.226760028261731,-2.9807705510279017,-3.9105504921606062,2.1094305618999947,5.149848599960807,5.358847602280703,1.9635175334126684,-3.4864264493007404,-0.0059326085920277105,-4.62728495013433,-8.746204455015974,3.130487454750338,2.4665507232025927,113031.0,113031.0
n001123,-11.48125419287943,0.9415897238844124,-1.399817568668086,-4.707675369477393,-2.5774452967190538,-5.08275026333999,-0.8311390801074271,2.93700641366419,1.479941375310892,-11.17534213217343,2.253191587331189,0.7306345506441332,-6.188700336489404,3.5007431251769296,1.7183966934148156,113031.0,113031.0
n001124,-8.815086702795057,-2.682709851256992,3.5601691982881833,-5.467452200462377,0.8806446771453853,-4.846072674271409,1.5737449630265075,4.306162167625501,-2.2016939532817936,-8.84479852435894,2.329242246715282,-1.5149448358710418,-1.2925314918888269,0.07859754559363998,9.417138154115195,113031.0,113031.0
n001125,-9.301029346602341,-2.516439524058681,3.108079197281258,-2.6644480522777325,-0.7939464655140174,2.6066864411949044,1.188566200833244,8.926024331152172,1.1911978081576031,-5.834556861319125,0.6610430277721517,7.323008739642967,-4.760728145883512,-2.3150095969660125,3.398641184592594,113031.0,113031.0
n001126,-11.691744765778003,6.412586898856064,2.8380384410891724,-3.0529657377801374,-4.091157185412776,-1.900289733676316,6.483931038932763,5.25373175347932,-0.6059675844107,-1.0605156339311796,3.6022528637528652,1.2230026416646285,-2.071567931079819,0.1159106309365073,-3.4142014378435466,113031.0,113031.0
n001127,-0.9040205790716165,2.688837298615651,1.90450054396909,-0.8522868513791475,-5.949855035619178,1.0914352781982963,2.870195979418053,5.829820436892573,-2.5799676621910006,-9.147891111329256,2.591420985276458,1.3615783693713779,0.25229530921730126,-2.987404109244162,3.091006545447702,113031.0,113031.0
n001128,-8.952302793336981,2.8103984698920597,5.923757195718519,5.549167757494912,1.9706847708467055,-3.199791322617585,-2.8762279836575413,3.4155641184092307,2.605256869341101,1.302653898008757,8.359658309751666,5.718418971240128,-8.132007200476806,-4.048102614637868,-0.11605121321358758,113031.0,113031.0
n001129,-7.911570674224322,6.775841085216962,-0.20088611174615817,-2.4086254372122493,-3.1085703904394557,-4.814537127144213,2.744547188912153,11.1240618407613,3.575222090409092,-8.0551702946493,-1.8747858882372936,1.2763684392461483,-5.2869468452162955,3.3139438981881653,2.9216520412043625,113031.0,113031.0
n001130,-15.937080311531776,-0.8230353044150762,0.7559292795835364,-1.8109356391576519,-4.436108170017068,-3.563646384825532,-0.8803681603816199,6.959554065373832,6.36610580704154,-6.961010392018811,0.16222758848188235,2.7227632159980844,3.3647034306797465,-0.005931350755908714,3.721824919336986,113031.0,113031.0
n001131,-12.712288237352269,6.352254897170308,2.59231570907831,-7.722864312564372,-4.264536251463275,-2.697100527614556,-3.2817220718993156,6.469389338380857,5.487608630741466,-0.3654279190885963,-1.0385831986301386,1.7766470380252684,-2.9945116499102458,4.275267957689478,-3.627020066776086,113031.0,113031.0
n001132,-13.954945453999457,2.467550747035168,-0.21373473891863104,-2.3039934515101677,-3.9930629416735854,1.6430377514280075,2.5589104972642507,8.227323929023122,3.5500104501778744,0.007627400899739456,2.1863779672952455,0.9794411900630182,3.172292018337491,-2.461386028274634,-0.07158692630354802,113031.0,113031.0
n001133,-11.602901185520233,-0.8977839788659665,5.6194111962497075,-2.097148848169376,-3.7092466002501965,3.9376159443533476,3.3993291416701528,6.135120526335399,1.4487622158282636,-5.74721832483959,0.056893329632136336,-1.1937428458820618,2.0450887561997657,-3.756271537945493,0.8058860730491082,113031.0,113031.0
n001134,-8.827486370157501,0.467559726857564,-2.4605838220341014,-2.8041501737421197,-0.8339580631838177,1.8024132463009228,9.08603580046692,4.711694272218219,-1.423592692087543,-2.284690942514052,-3.2023704227134537,-2.725087347705159,2.017493788864072,2.2613563600873805,0.23070913147426508,113031.0,113031.0
n001135,-5.980996459741326,2.134833249199292,0.3091861670091953,-7.311481051420645,-2.9737505113163674,-8.196634276272976,4.052328685301078,-0.383883222279374,-4.15340734621875,-0.3716079708383817,3.8506254254372765,8.890140613701462,-1.097852541529276,-4.101694900320635,-3.417649318143813,113031.01,113031.0
n001136,-7.675126544929929,0.15271860751792754,3.9416824912222004,-5.450560742440683,-6.56020696602007,-0.2903367546757494,4.070928695708517,0.7529428741471514,6.5134380341316165,-2.912364049528401,0.35675979996852836,4.66008715692201,-4.458311611606604,-5.338733383440299,-3.8767760345204145,113031.01,113031.0
n001137,-13.203932052949282,-4.128338205597351,8.347967975267483,-4.700810230759847,-7.815285659391291,5.685976145657128,3.3912647013686312,-2.5799791969909602,-1.0578180363753882,-1.0445962210375042,2.652788680454187,3.9910699147011908,-5.035527096593146,1.4704394264422174,-5.566096092510926,113031.01,113031.0
n001138,-10.096746548805749,6.291068455260399,3.479300009924917,-1.4213547445835426,-3.063291913597923,-0.7158725288690413,0.8699394493429973,2.3751030514238582,2.6513214740231748,0.9010313943291828,-0.38132872869171663,3.4733111363493405,-1.1731067508813295,-4.338792147558852,-1.7749651563694044,113031.01,113031.0
n001139,-13.894676120368405,1.2863841177513413,6.099887287600335,0.3850979184675736,0.8611665793641237,1.690855098812196,4.947429675109683,-3.382839263175578,5.38213864998129,-4.968310117103312,0.08885078184210515,9.39617324797127,0.3211022460071533,1.2252437846310729,3.885278346167632,113031.01,113031.0
n001140,-11.628102699540866,2.3438962540126407,3.128056919717514,-4.230038284575792,-4.3679636180218235,-0.12340048923357072,0.12117623667346855,6.279277509530166,4.116545062191031,1.3229714257247358,3.819288260898891,3.855050093163949,-4.601308093254052,3.377680982451453,-0.48986349391491274,113031.01,113031.0
n001141,-14.381995655775837,8.221934923397814,4.139179724495724,-1.125565669370753,-1.5020802650340868,6.76275720838052,2.841136312995628,-3.1104382562852653,-1.4824176503890887,1.4198314579381397,6.364478528435673,3.7561019301164045,1.8100873190597968,2.7327914932690693,-1.5146401240037426,113031.01,113031.0
n001142,-13.689563279858863,2.881742946982408,2.69391626763262,5.0291742130093,-1.276067453490778,0.6180557883168711,3.06340532705093,-0.004574225208644034,3.7160662546200616,0.4228044513176452,7.20162672260053,10.03191394184527,-4.192497460278592,-0.05981530913105104,-1.2910864572939849,113031.01,113031.0
n001143,-13.629405176546058,9.228018705968712,0.24953787986421228,-2.491717483799162,-0.718193937067066,-1.386488952186557,0.939232534413933,-0.24711364964808213,8.685788745096144,-1.3451239819491387,5.754430877496145,8.86326217194288,0.04106929815395044,5.358930935775182,-0.11361773681782483,113031.01,113031.0
n001144,-10.144569519929943,-2.441315306725487,-5.535899112777452,1.7911777699380762,2.7325336720312543,-5.765166341974715,1.4744458512849044,-2.281617940470042,0.05514256303784437,-2.0651290767522825,3.812293796600157,6.264412846354528,-2.034754762203583,2.94910809380788,-2.2675160910284413,113031.01,113031.0
n001145,-15.195784262760444,-1.0487728528254958,6.135433679011681,-0.8946974083311243,-3.818237253409927,-5.003671738523329,-5.205221464613616,4.501466915558221,2.7144778923784036,-0.8651605565725253,1.3779843921877264,4.601123441586725,-5.18938914395783,1.167250251700602,-0.8179289951068913,113031.01,113031.0
n001146,-14.437810679153676,2.5941249510934385,3.78861440540704,-0.5536070983091661,-3.006742585154081,-0.2999643927860274,-0.6973820123941392,1.7869985306112315,2.5299234636020405,-2.857731227440755,4.1110322315043515,-1.3061079107527567,-3.298695536921233,2.5006380071984253,-3.0845889591636104,113031.01,113031.0
n001147,-9.653173996096612,-2.072815557225196,7.5032957217882075,-1.837687256443726,-4.002427444921658,-2.9973955884902304,-1.143263802242235,2.272707137314831,0.8313006045904154,-3.8469870377227116,6.191121239983643,8.742649593641806,-0.954149370521922,3.395545559792468,2.129954595984255,113031.01,113031.0
n001148,-8.033924507882064,1.9440431947968655,3.466911419390575,-2.2477208423123187,-6.615186379572063,-4.028255409897057,-1.3282074354584337,4.623111118922829,5.283355619749637,-2.6735656439790385,4.686782622282379,4.724265016970219,-2.220034506371058,3.641349390055317,1.6013791842522997,113031.01,113031.0
n001149,-11.339066334986429,-2.731629633762237,1.3342620840274029,-2.665262436638017,-6.369472296389427,-3.3885030384131256,-2.918538991532883,5.354739551799133,1.2990420216480627,-6.454531550686907,1.204432051986275,10.682125877444127,-5.228983712885268,1.1578917694007242,4.954748785126534,113031.01,113031.0
n001150,-13.802483510812147,0.31076575729647604,6.497780273426033,-0.2252730340016722,-6.508255535109688,4.223543298693191,8.140986735240592,4.3062136015651795,2.0605607813684452,-4.4338388672417235,3.2972394699900747,8.201782262353417,1.2818178639328714,-3.495995068720714,-2.4689711038554494,113031.01,113031.0
n001151,-7.9117501057040425,1.1248003771065416,0.5698160882645289,1.7456876889979904,-4.495904888068442,6.286586802660695,6.192856495500802,1.3537841287085122,1.7103995217692984,-6.629315297396218,7.352163739396579,6.436605188027935,-1.459173603569738,1.4763419312514063,-2.244848654635827,113031.01,113031.0
n001152,-13.656238599949727,3.130822438787874,4.4771177788407694,-2.6878670386717127,-2.1259068805123063,-1.64070154648912,-0.7925044600480908,1.9367717945090108,6.056318253610986,-0.5592796430500746,1.6023571364695266,5.4662454900357424,2.2402778349515637,-6.687386265229102,-2.3448910716071323,113031.01,113031.0
n001153,-11.934099076297716,-0.5586389893930619,4.145927379094265,-2.1605213251411817,-6.632472300563788,3.1158573580751527,-3.4038904097948572,0.7685376961098355,3.428605206946013,-1.153118773212363,0.46060575202867104,1.8894032203993758,-5.194293280195394,1.7301471298010962,-3.9637534216961843,113031.01,113031.0
n001154,-14.637211572288885,-0.6153872192325482,0.9927272160627485,-1.3008870248295523,-1.9975368709824481,0.21908600770131947,3.954154757852927,3.06531249444142,14.965505094065687,0.047751169720072095,-0.36778926260593847,7.270834127276249,-2.753751083382019,4.6196481923540915,-3.2495513698309613,113031.01,113031.0
n001155,-13.235012785516712,-4.166296047199159,-2.6312782817664035,-0.6409073027488286,-5.432231017407949,-1.9362303907145269,4.073611518404853,3.967170882210164,7.246155706922266,5.106758428109966,-0.8876292013147595,3.457733643355291,-3.787411568961317,-0.4762963398019857,0.6242122449281817,113031.01,113031.0
n001156,-9.748865826968835,2.142085667509014,-5.991569863752666,-10.855386630818035,-0.2824325454451202,-4.284884286827681,3.0021936714952973,-3.620017781832394,2.6549593874178097,-2.0951516624420177,0.6433023192416916,3.2939788369662812,1.0276489477013302,1.7499975999138875,-2.0773636430701936,113031.01,113031.0
n001157,-10.78685416881869,4.359993803731797,6.886951900988096,-2.2376259414963244,-6.237993162994941,-2.4947346113903066,-0.41246401918520226,4.448660211535912,9.542151776583225,-2.472547096512721,3.5824369471460167,11.130579124792476,3.617328840050247,-0.6342345760017347,-7.98350653226421,113031.01,113031.0
n001158,-9.575884331857239,5.6504872105370465,4.281319113270118,0.531124744263956,-7.155753629261374,3.236199654914887,9.864623673210616,4.199755529411886,4.089824795424121,-5.615047015993763,-0.6544783678553094,9.848239641420717,5.684592351474627,-0.6883860864807533,-1.8494281628671572,113031.01,113031.0
n001159,-6.174598848871,-0.6348776078569054,1.2284251216551518,-5.744751796831541,-4.470879840303432,-0.9690261559134838,5.234209581910716,-1.2004038880330865,1.1794594981313402,-2.776783566629376,5.366165399536784,6.464218021687315,0.06087200247978153,-1.0050871892611721,-0.24250831190299638,113031.01,113031.0
n001160,-13.454341748827774,4.27577444092052,2.7920370918936994,-3.0054276604654953,-0.8820836546421034,0.6036272521740698,-2.3009560016138524,-0.8459713708133456,5.958093781209902,0.27393502427897065,-1.5279035410799318,5.991197535810355,-1.6513294665696328,-1.5949244381905052,-3.5037775159640936,113031.01,113031.0
n001161,-9.43419427245653,3.8887855462313503,-0.3478312245633375,-0.6708851325648819,-4.905472450495413,-0.6730293303396719,3.0032872733306575,-0.7484278133434301,4.3822118632189575,-3.1321505958602383,5.0539941002120665,1.8834640827097462,5.257945951270793,-2.8842517190636983,5.068439539864619,113031.01,113031.0
n001162,-5.571215546412539,-3.752666088684072,7.0799767580707345,-1.0576782748086022,-4.112081798713136,-6.170639398948999,-1.059116278742485,3.0242645808782282,4.111638411049466,-2.8946875963850416,4.315555673026076,7.709589190641694,-3.2755111298318917,0.5971297499143795,-2.927128325043505,113031.01,113031.0
n001163,-11.22791286663693,-3.4191763870676777,-4.205056009294271,0.20437274226357882,2.1399788387908045,-1.850524654148216,-0.3282775892811034,0.1776612962291213,2.2236436823955232,-2.1667247541922876,4.534177006688683,0.24735155826764643,-0.8351075517496376,-0.9692226500717389,4.062121068102327,113031.01,113031.0
n001164,-9.334650266430256,9.78845623320656,-0.9104286692309551,0.09825693973038963,0.7987074239077621,-1.0967472528576292,-0.7203528209555405,2.341446454196096,1.3715566761602982,0.7294253043448942,7.765246272614988,8.605920589565605,4.594425053841351,-8.816105495585315,-5.7889640073776985,113031.01,113031.0
n001165,-12.759134077680708,-2.56484685999236,3.12949331128423,-0.3443102712820405,-4.510114560419824,-1.5967093541404929,-2.3400483536085837,5.595390367647797,6.540648314010296,-6.099077381525399,-4.357601770011825,7.822360453475358,-5.952940905553922,-7.1242544315645375,1.1468321964171102,113031.01,113031.0
n001166,-15.449483838494713,0.27695021411119736,6.4141030388884195,2.1389513793220205,-1.5095556345278789,-4.176360395465837,0.012436083173505086,5.266498062153683,1.478274007516684,-0.47852058251928975,3.216004417701641,3.392247850567662,0.06237702444185533,-4.815152731586423,-1.635223631390359,113031.01,113031.0
n001167,-12.96054783825039,11.070776245365446,-0.8129713312619851,-7.996344609936968,-0.6425247989179868,-5.104336611388056,-2.12305610611845,2.12245495061539,-2.1417710695984633,0.48369891820684296,-0.25637158234606217,5.503766627626966,0.6622118700469337,1.2687250883089818,0.6107337208705499,113031.01,113031.0
n001168,-14.067665019432994,1.2894511177817538,9.670218726369695,-5.6698961301172,-2.7164503300660034,-3.311079902418647,0.6548842352748092,1.0036629838427378,3.0531949566552408,0.7155758257848306,0.27923361579308503,1.4523085544170007,-0.6917643801509574,4.622013621869234,-1.955159780992065,113031.01,113031.0
n001169,-9.019059543925477,3.2265890256505463,-6.421001578555321,-0.5759550262454449,-2.7638218954592877,2.7741623177109043,6.2695364965652685,-1.8713235356062785,5.664522048501654,-1.67747893515373,-0.9800042746665505,3.1315524299846067,-2.391540441095846,3.903943131444941,-2.346781335432197,113031.01,113031.0
n001170,-9.367100337209843,8.571940390526363,7.723427367440179,-4.490112727832621,-6.224483208668129,-0.6777810017459194,1.3660569892427006,-0.40667792193301877,0.4243279161030027,-9.513333627904734,5.235973219651913,5.992400862488356,1.6007870290646145,-4.464564516413397,-2.210125001256693,113031.01,113031.0
n001171,-7.750616013510186,6.088082471062958,2.7190452024487097,-4.475591637661012,-6.974414901734756,-2.2160922572066193,0.29754777707382996,-4.505427757042043,9.33366819545084,-7.071842172642162,5.56192176259794,4.691687595000845,5.5988018071067245,-2.8146949169573916,-1.8043916289105635,113031.01,113031.0
n001172,-10.052734687797038,2.624089142715544,5.541143178491321,-3.356639082789934,-2.2767297931012314,-1.772484144852851,-0.560876600699721,1.0521549666136554,4.550611900872065,-2.9449191028713004,1.4910224258462734,5.07982263291806,-0.3712356841928307,-0.06243222877833343,2.140450292900755,113031.01,113031.0
n001173,-17.347682519041754,-0.23196752157532474,3.064462306026948,-4.914011318888058,-2.62654210323423,-0.509762390682828,2.717439467159814,1.4722650390836143,-1.8696461660565307,-5.296742951253233,-1.2189070090102185,7.044185349013704,0.4788518681455596,0.16280040257789874,-1.0662084875456599,113031.01,113031.0
n001174,-8.479179183482131,5.702292764614751,8.382160553543711,0.5073088651347626,2.4767622825483486,-3.415261604277317,0.26011401222093,2.924057110565637,2.3911222127616747,-3.4688937651524974,1.023391816842135,-0.9328136158616616,-0.14394638737916887,-0.3110469409716593,-2.9523569673886816,113031.01,113031.0
n001175,-14.53260249738392,1.8701258417329703,1.257522819913977,-4.285529630914864,-4.059885226850515,-4.365504194480905,8.133431172195051,5.638782064227361,3.719307308322869,-3.32988963300236,5.5695682666180755,10.481280348411119,-3.5751944924655907,1.0916184955986565,-3.7970655755355502,113031.01,113031.0
n001176,-13.91171963780021,3.1500567238314288,2.599158579263202,-5.758252293660347,4.870002026713665,-2.1958689103031004,12.193688416822479,9.036016424384544,2.7034759848130028,-2.043901188019245,5.028333867534801,2.7511533673928503,-0.49039739003266447,-4.02249648495274,0.49565719554655807,113031.01,113031.0
n001177,-10.08119211951502,-4.650231060539251,1.0682650888696519,2.1115913865956024,0.47635541725943265,-6.171683129452149,2.8090450813112198,6.720631461880073,1.6448725619801738,-7.791700733459477,0.19197175351557938,5.885552345931712,-3.0308583795300343,-1.9220607953565123,-5.489899111552537,113031.01,113031.0
n001178,-17.59073273989908,5.539314927501344,1.7577304031403762,-8.67575214994604,-1.9885557820186484,-1.090712525279372,1.3447953669206065,5.162993710300283,-0.662327095266134,-10.257004045031008,0.865331316594012,5.668818364415132,-2.6588405934368886,3.388252310177754,-1.830913431122735,113031.01,113031.0
n001179,-15.015635104407306,3.23803569049422,1.089892949485876,-1.4214194279429664,-6.326851053858889,0.22064950042005704,1.1602150792982235,0.9961730502705894,3.014714372336602,-4.849532353541056,3.313772522491659,1.442559512064645,-2.764571412160734,-3.98939916884405,-1.255996010404932,113031.01,113031.0
n001180,-8.436385325108764,6.844533571662694,4.425239978889729,-1.0089916370286276,1.88061049590137,-2.8463748320432956,-2.9912639712309392,-0.3705709396989456,0.5611991290765423,0.18925946324743315,6.0312973975557425,5.898756393120683,-3.500203831494817,0.8081736707714828,-1.6631435911066181,113031.01,113031.0
n001181,-16.724108995144867,-1.6560317988462534,4.336984970446082,-2.367855130687916,-1.7371949790992616,0.6897751411512332,5.821768617265102,-1.9300249109256125,4.823193052050337,-1.128143656112014,-1.1189284507074362,2.8486769898133852,-3.4478285678710723,0.09606206439744935,0.7009667168163967,113031.01,113031.0
n001182,-12.296193398659833,9.474336501463897,3.3042493476083967,-3.990575607998475,-1.4099895229888728,-3.477120959716731,-0.5029312125893002,0.2864376661514403,2.9906597238304915,0.38810527342338874,-2.9630382329821057,6.1205975700616095,-9.41758751764777,-0.6343945072101377,-0.09666770914111145,113031.01,113031.0
n001183,-7.073658558053141,1.427983798954502,3.3428343594541214,-1.6055367701102359,-1.70767479511736,-4.710272277135737,4.5071729352136245,6.198721737417331,-4.574686326697634,0.7882634786185756,0.3801336984840209,2.909876313492786,-4.265237771110225,-3.6856142646903853,-4.9753605235115685,113031.01,113031.0
n001184,-11.436209136378695,3.9504188819569475,2.624025863161607,-6.4630549929034,-4.971120173982204,0.7471704020428185,4.491337489569682,2.535754041019617,2.103227650563511,-6.014515711323115,7.512335384682499,4.821488107779384,-1.0271918049879927,-2.680455559374386,-2.4760475393945547,113031.01,113031.0
n001185,-8.244728597452305,2.1145921062841473,3.8222793509614297,-2.828034400310485,-2.1715837276732772,3.356643632572534,2.141421587043727,-3.3715123634253397,7.657961748918545,0.32428599080836973,4.025447931058465,9.703343438083106,4.24671542561819,-2.3715114888693742,0.42300645226710354,113031.01,113031.0
n001186,-10.887208435383481,0.7828535955487624,-1.331086654783094,-5.083752267366768,-9.683257284666976,0.33451025465644735,2.1994764033877576,0.6743074803176494,5.094548870915851,-0.8112497308840823,-0.9531912604836541,6.310933186991244,-7.665476140947976,-3.1108801269079245,-2.3611615829750114,113031.01,113031.0
n001187,-12.858343884579735,1.784973048946254,7.680179997626066,-4.668282889982166,1.888077512969597,4.181452369746025,-0.9309898258898857,7.261295237612181,-1.052526636279865,-6.6105717003090625,3.1595968855319465,5.993340674477176,-1.792291316126993,-0.520896409720448,-3.933874747659167,113031.01,113031.0
n001188,-10.12164801681734,1.8417183250778018,3.1977698377106734,-0.9160895291960762,-5.379499604723049,1.9806177857821174,5.9070429917428235,6.237019621078546,7.1133511513877545,-4.791985021166964,7.744122910548039,1.4992387485602525,-2.1280351105678377,-1.3794008429964681,-1.5363288972016744,113031.01,113031.0
n001189,-7.759427608714198,-0.6591883760378445,1.147541544869798,-8.63046074113229,1.2065563863595083,1.8573412216937009,3.746827374025318,-2.4601252858124,3.6227904983956187,-3.6524792561242188,0.707656865624281,7.348969195609614,1.0851072402085695,1.2043186953481115,-3.181551873354206,113031.01,113031.0
n001190,-9.636270780369431,1.228494670858094,-0.4257788411141714,3.213396257243442,-7.38726955155453,5.227466692556936,2.0169678588048705,0.17126746264938442,-0.5999836800878127,-4.886898695068025,-0.5626357675172664,8.299062681389627,-6.91895626459741,-1.1481340604897055,0.9910527215408527,113031.01,113031.0
n001191,-13.214217111598893,-0.43076855939536984,1.4119786034879964,-0.06715151882260617,-0.37227700671858566,-0.4889844957407099,-1.9638420193412838,2.5382090949845413,2.2361088675255023,-9.271300581845482,5.6266176860310875,3.088922381444778,-0.6143362443661251,-2.9981871797680446,-0.5791622063959423,113031.01,113031.0
n001192,-6.810591702284755,2.2986654951250793,-0.2735596121552053,-6.040691049025336,0.5007486570888102,-6.518445846732044,9.839290172798012,3.9223598390780134,7.464181347397156,-5.488520722221864,-3.890237627499637,6.391101062969662,-0.3518922238790113,0.06323424786810183,-1.9503874778685253,113031.01,113031.0
n001193,-19.525888946888905,2.622592045781083,1.9182726871350833,-7.408367933673964,1.3027435383979955,-0.607512996984455,1.7851112211664049,3.2524097506783582,0.9032240967336238,-4.9476330731905325,1.266106781483749,6.814896249143731,-0.24680557613368848,2.5136475217057916,1.7274860909134269,113031.01,113031.0
n001194,-9.549659560987207,1.7276012692737293,1.2597931562046731,-5.098910282678135,-3.950276706729711,-7.2766675523973365,-0.33803448750361964,2.298808754007754,-0.31140254310661497,-10.502407748556916,-0.2490783854937315,6.677209836965362,-0.5005158767436216,-3.6951482785028484,0.11381967289280381,113031.01,113031.0
n001195,-12.219012444008966,3.5152438231863288,2.977675992470381,2.414410974091653,-6.202758782809231,-2.198739433829622,3.137325339948463,-2.4492851118960033,4.386295070976888,-5.763327541808396,1.452614217737272,4.675586686287634,2.928630271118621,-0.921846786775097,3.012157833511647,113031.01,113031.0
n001196,-11.292520145621259,1.5998359747335984,6.493332399615378,-2.305819853615761,-5.568910899472157,2.95854549554704,5.106726551923038,3.352947985546132,0.5631374642534646,-8.263852627222134,3.184878923854749,3.9464329797849054,2.930792378320983,-2.2448603377814873,1.0068702657769075,113031.01,113031.0
n001197,-12.838333085234709,8.095603228988109,-3.252279573812564,-4.82571937811357,-0.9027524170088945,-5.828522642785658,1.5373665721058192,-4.343091428015554,4.338865265140541,-6.2475667749062485,2.3033402993730383,8.082921216550686,-1.6296747781564318,-1.8854069173201722,-0.007344258507447465,113031.01,113031.0
n001198,-11.622354671274298,4.955529872651821,-1.7562300266317048,1.686894361566078,-6.076716569462949,2.026173920776353,-0.2500250095922043,3.3011138836715315,2.0907311795382144,-9.904980677873196,5.22195235434969,8.549129203852756,-1.2368488408388112,-1.5322912799167947,3.37447149857059,113031.01,113031.0
n001199,-10.484858818488904,4.727151270750044,0.7361788545429637,-3.362131275047289,-4.709346518264595,-2.572834241555584,-1.8452842648061685,1.8591329920053323,2.6413903565989045,-7.1662665161272,1.020155921354516,12.472360897086212,0.20325407372821624,0.6534985717447506,1.7666347314047228,113031.01,113031.0
n001200,-15.547076190496437,-0.5696335474384313,7.348465863414377,-5.464999416416312,6.567129401745156,0.2545792653745369,-0.7612870639183575,3.505746588201654,2.8901920690417726,-6.722139188932545,2.061992217167122,9.346185198526552,1.07054470139131,-1.3131880880986357,-3.6565089033681297,113031.01,113031.0
n001201,-14.870600053495039,3.0536704809331328,7.759734287249925,-4.853976208670786,-3.614956295636043,-1.670729574189719,5.291141078605023,0.4642631985037231,-4.067637900047694,0.3294212124139575,0.15962779595105614,2.722084967940716,1.7093693992900059,-0.562766036087411,-4.319448616507946,113031.01,113031.0
n001202,-10.746572632085304,8.31864615836308,0.136667209283305,-5.085437544025121,-4.892220145869617,-10.886748301794203,-0.6489817749063871,3.430448295348403,1.638215764570233,-1.1533752031328395,-0.262428755235093,2.3645423187236294,-3.9608100442450356,-5.067129725979181,-0.6108057879181161,113031.01,113031.0
n001203,-14.781212791671942,-2.6753574120262504,2.609615395974075,-2.983161865599085,-6.030009457550097,-1.0205005494797073,-0.09206203240571886,-3.228665472939129,-0.24991053689809206,1.1755150785301303,2.878893655394805,2.33383933196114,8.506824082314067,-0.35289211662536524,0.9588757727074826,113031.01,113031.0
n001204,-9.735005565397424,-4.740455308572011,0.6112504266337218,1.5130541874273353,-4.560686990165651,-4.9768624642252925,-4.598046342384769,-0.46867374338657664,2.6360446100348,0.3570047664900513,0.8990719523053263,1.3358516696887248,0.3661452719028635,-2.8593590192914715,-4.522548767923664,113031.01,113031.0
n001205,-17.757632850999165,11.48528934103964,-2.6693663827535365,-1.9132309612684726,-2.781805006418734,1.6920620234548431,-2.998764994981679,-2.890330661554267,1.7132864272349728,-5.400424619767433,-3.1115289530219807,3.6858117222326334,-3.682766410917684,-6.785059233346135,8.417893357256395,113031.03,113031.0
n001206,-6.188078054820171,5.853102206887168,2.7910284394577967,1.216933161016281,-2.5837046369801455,-0.6264949058486531,-5.566139126159688,0.9649386764739887,-1.5377301157820735,-9.260467551158868,3.555709884982394,1.2948757109221405,-4.016998432277914,-6.345651943893819,-4.813971484248664,113031.03,113031.0
n001207,-10.6982539171838,0.37102336611573117,2.0547746728341636,2.0235604145324464,-3.3991846255154927,-0.8059347263996397,-0.2626456729509947,2.988234350028641,1.2814231936790086,0.9089775278910981,3.895130405946252,-2.0758554436676286,-1.5799952234111507,6.872016612394751,-2.9812996289616516,113031.03,113031.0
n001208,-5.050687908636526,6.340550279052458,10.002270286782945,-6.7390819113801985,-0.0884168416725244,3.2620864204078455,-3.2955041530321108,5.516978067385197,5.0344589868557055,6.681217445527588,5.044761656563846,5.4832174786483705,-2.623237234808696,-2.1897907786993267,-2.7069939556354883,113031.03,113031.0
n001209,-9.182074872152356,9.551232248915735,6.321597119431903,-3.1833825412184344,-2.998498640186494,-2.8959758099610187,2.2854099437964446,6.846683290043439,3.9242020599790126,-2.3088228480607333,-4.039272229403233,3.119465344063532,4.243758186000428,-4.62029387392107,-6.964712354418639,113031.03,113031.0
n001210,-10.810890326221973,2.307425171626192,2.020957861183316,-4.720622165673621,-2.687419474946911,-1.8229309278649501,3.417000761505905,-1.9282651686872885,1.3769306985444292,-6.249153212612649,-0.6154194958450538,3.9344141217196444,5.131959472736802,-1.3774987765186064,-0.010949053972248102,113031.03,113031.0
n001211,-5.333320298480379,-2.0960909618789647,6.8814303770315,-6.953511376305112,-5.945902413169752,2.620730253319659,-2.5169185241319503,-3.645545371553527,-0.4014845014428837,1.8899699196504502,-2.265938503698868,7.43908543827367,-0.06141165425967077,-3.33803921853173,1.1902052348391348,113031.03,113031.0
n001212,-3.7214449410179657,2.9216798492570453,5.880978752357031,2.261612059423339,-1.0930670896927206,0.13328085157834568,-1.3818605091168492,2.897806159285958,3.4576184922233875,7.345610984021228,0.7853474589565321,2.8489757433719207,0.47992082977631234,-8.44987385457366,-1.8016880569309137,113031.03,113031.0
n001213,-10.587804878776,4.990600690075374,12.697427967314741,-1.9531672115778385,-4.233607635576302,-0.7306357397920014,-2.0679415767769975,0.17163672287988008,-1.0461690741548568,0.27850949805299896,2.0912641584041034,8.07911320972892,-0.87482156626212,-7.390480898325658,0.18214247372791958,113031.03,113031.0
n001214,-17.294211629213244,-0.8862358218645787,8.920849890299177,0.8317251117989333,-4.9586385864230795,4.545953589218944,-7.387763955313933,4.7112888419288,0.0248951514099085,-3.313252360511682,0.023280663387082123,12.227995860583832,-0.030056631630365427,4.9859197495206065,-5.126074898692506,113031.03,113031.0
n001215,-10.666488801959431,-2.8026206172899646,-1.5505573366522807,-4.1052649540876915,-1.0895275604181547,0.9986968454249953,-3.689859142958327,1.925964157029987,3.207462101113257,-6.44007602042668,6.1448665974498216,6.027264657755162,-2.577584559539744,0.17082646561986192,-4.282834858023566,113031.03,113031.0
n001216,-14.282981720253442,0.4437674407878993,9.350029992566947,1.104208237682944,-9.382737518740234,3.822692496990855,0.15260723544043353,7.58827763461507,-1.916414795381859,1.9073770690372016,3.7421322464950566,5.146388249653159,-0.6165548137274578,4.724097796409676,5.677354049466702,113031.03,113031.0
n001217,-6.538610589437017,6.0161402824007055,4.361613199954205,-0.9268920646258563,-2.557436769883667,-2.9520365579037624,2.03185175257448,3.481897652991359,2.1126412523141718,-6.312246809972443,4.6738547467503455,5.155567110077458,-2.218299779927866,-3.487226724631906,-4.834566475559957,113031.03,113031.0
n001218,-9.99041622514269,1.6554535806773116,5.231196900300506,-2.6210717877935488,-4.035981729724885,-0.2505670641540365,3.237699250293599,3.3397404926668717,4.688009197528878,-3.049405460492692,2.3782470138102925,5.1056955656102785,-5.299197056653185,1.4641656910170473,6.93223606654446,113031.03,113031.0
n001219,-5.450020015642382,0.019253369151336575,5.6256391772445955,-0.8025403645643918,2.1627524409152734,-0.604277677291454,4.445622675192492,4.89961734816079,4.029979650654626,2.9788581304057185,2.147432175672798,7.442003803468296,0.054086974052365955,-6.530696494675548,-6.970327431636728,113031.03,113031.0
n001220,-12.50004334457142,2.7963528814451766,5.932329517152059,1.4063107537232462,-0.7125851878834446,1.050896057119668,-1.1684029492282753,3.359370362447244,1.7560676840732774,0.9519850269583765,3.2921651656779787,7.222791558449954,-2.0986028584217427,-4.690448370415685,2.323529675198449,113031.03,113031.0
n001221,-12.768710916929486,6.581882539915677,1.7793092916008946,2.1737999216100823,-3.4288774221380054,-0.9819035639257137,-2.1503773814973997,6.717089046175569,-1.203585042398922,2.8324161267986887,-0.2747330544964177,3.6844009146229424,-2.65149385344833,-5.947440041258736,0.287639433895136,113031.03,113031.0
n001222,-12.80763190899405,3.865322337723297,4.4155273658256595,1.3290397681643993,-5.093373525132397,3.1822551220047837,-2.718058697616406,-4.368490112068985,1.3800842603694714,0.49523401811380796,-6.208461302150768,-0.9946119660453636,0.09810946801235865,-2.9655205266122295,3.8105762386890474,113031.03,113031.0
n001223,-2.3689953528214227,-1.8447734197499517,6.423800688491918,2.7078813607149477,0.9728666340976193,4.588358952894042,2.305323872342232,2.985822269534308,5.752881310002694,-1.4936564469825515,2.5953139216071426,0.6075288624324888,-3.498165965564071,-6.886636159511467,-1.837796750947628,113031.03,113031.0
n001224,-13.462411642026858,-5.5714002806264045,8.95649694078578,-10.714062374020667,-7.515408545632989,0.05009315503367451,-3.700106111827974,8.233752939052225,-3.292637085571436,-3.012608267660441,-3.4605405820882535,1.2934979244522915,1.1825026127738232,3.6128156810673957,2.8351629437782684,113031.03,113031.0
n001225,-16.41403464241952,7.3129291168571875,-0.016437358975925243,-3.598245402736614,-6.031955367924809,0.7888280863368671,5.1607661781835965,2.7300865647254238,2.7802091669555784,-2.855208736202819,1.707618977605927,2.7551527261632645,-2.437607493379851,-1.6779175492151333,-8.528253895776057,113031.03,113031.0
n001226,-7.350553876954522,-0.49022258631627746,8.6140144772355,-2.7109819661419974,-0.027644096000610574,-4.958725855438708,-7.193669120110082,6.587280037246877,-1.017702076435203,2.911666126587519,-0.2778067412286045,4.945380549464551,1.6047934291192223,-3.0417630829284,-1.983010105495843,113031.03,113031.0
n001227,-5.133677776285968,0.7659780756341974,2.337288962339865,5.316577651701454,4.657024848336174,2.536391297867235,-6.326764160163338,1.0912439058359202,2.6580874026292256,0.609782160844319,-3.739442227840779,8.821368490212318,4.973558455208431,-2.5388169695916614,2.268080074152021,113031.03,113031.0
n001228,-13.672617350649496,7.317139407142303,1.760923637286456,2.0663281211181976,-3.936191184531678,-3.893949479002288,-2.971137737298692,0.9705067690827935,3.4214582177911965,0.5627842948259261,3.749783079267799,7.03530776528883,-2.072838350626754,2.0145618232535156,3.8906736819507026,113031.03,113031.0
n001229,-11.39543383511835,0.8693911254935296,2.9733038514178243,0.6621924315583012,-6.614971676941231,0.8383048924806269,-2.1157741047245953,-0.11066890344319291,-0.6746545316062834,-8.15678639933235,2.806377064772491,4.537454500611038,-6.627261739153,-2.4550748998323626,-1.5415609965562493,113031.03,113031.0
n001230,-9.070662738281856,1.053822996721119,3.5267632291087807,-3.6680140790214506,-3.6145106754675855,1.9807187241681354,-1.8174237723922846,2.5586910482343126,-1.0212032012789312,-0.7502056515136628,-5.648911141095262,2.685774116641886,0.9373913362895115,-3.4885226209196225,-2.0124229902645125,113031.03,113031.0
n001231,-5.351364659901225,0.5942586902785889,4.732161717272692,-1.4351835974518137,-1.1898264003264742,3.513833690186181,1.041314526467957,4.214839840676075,2.7308787183589143,-0.7027772976258252,-4.586857348909826,8.017274773215455,-3.225010648608759,-1.3869949439877656,0.22874622071478234,113031.03,113031.0
n001232,-4.692441489695343,2.224244249738992,3.9518260429512804,1.662134115717394,-4.117844759513374,3.0099068662553634,-0.7075262589401996,2.257487927452647,-4.1010476927559445,-5.379469729829323,2.7848675338630215,3.9459299441726188,-5.509878783802088,-4.056853497852247,-0.2266092104375761,113031.03,113031.0
n001233,-1.2493268334034422,4.587888200008905,3.1897341396961254,0.8866834605214482,-2.1425385702835085,-0.73771280610194,-0.5040336243578608,0.7367034110328237,3.407686374614014,2.589818936554851,0.6419784170337194,6.090725465070016,-6.516953923827729,5.961710748443892,-3.8207515336224045,113031.03,113031.0
n001234,-5.495600778420133,2.0937243639491925,6.026173514393517,-2.4541135238315874,3.655530279570809,2.4223713556318636,-0.5570221158588415,-4.225948781198613,5.070734738929422,-6.416082352910729,5.339477443489951,1.872189620418979,1.566966489849762,-0.3583907092764964,2.2501778052135784,113031.03,113031.0
n001235,-5.71127394612646,-0.32605959009987195,2.246570869868891,-2.7817037486675864,-4.689612645517104,1.229452231310169,-1.235051181257928,1.2086571653617404,-2.6220127544596834,1.7996359975462894,0.7655946386192147,7.072733251194985,6.567230840879782,-5.290279529461137,0.7221909611665993,113031.03,113031.0
n001236,-12.945622981980899,2.72947838567713,0.16443472991294783,-0.5427652479099591,-4.494026142521285,9.814126269656503,3.4209441137005996,-0.15701004415858777,1.23141199663781,-3.463047984659695,-1.8796296077166672,14.255237655291076,-4.071866497155464,0.9533496597342521,2.5442116236690557,113031.03,113031.0
n001237,-14.114714911795579,0.6274967767688115,3.7792022524182727,-1.5567339036093455,-6.431998885987038,1.1657821345379595,-5.792480267587521,-5.212015308327111,-1.5026400084082532,-0.2659893621976921,-1.6803665647569908,1.9143013688829669,-3.1274828405711466,-3.888064012217625,-0.9444177752959146,113031.03,113031.0
n001238,-9.127825051158766,-1.3545031443521256,9.077840090186807,-2.7522318283477523,1.20457174806394,4.37085102032184,0.7849319315539292,0.30541239670021336,3.217084533889122,0.3375461443492256,-2.3410121330510156,5.973391864654304,3.3998690846350774,-2.9188503138628796,-9.642521982045421,113031.03,113031.0
n001239,-8.966313439840864,3.1078621094098606,8.818156774317645,-1.9608675362192942,0.592341305598439,4.677664850426501,0.9399723145798304,6.280852016594471,0.19238666242998315,-4.260378839165233,3.5566302094748536,1.6664748342008933,0.14539723193205856,0.5289379136694399,-5.514611670487035,113031.03,113031.0
n001240,-8.421095446763642,0.8949553104017527,6.404204386490275,7.941833684566387,-6.791254841949353,-3.5957143191040557,3.592495091208481,9.271514489594395,1.9343958515073179,0.6766021225017849,3.8188332350145724,8.640554300901009,-0.44758054265070724,2.31438607996881,-0.49220748935713576,113031.03,113031.0
n001241,-10.933848841932578,0.6095161959270727,9.0896922318043,2.057259167397996,-4.830796313332053,5.404665740132483,-2.4601149647359954,2.45619011408619,-1.221467877986337,0.11254371735958046,-1.2564872496239774,2.6036920698780275,0.1345778245336774,-5.236328354448316,-3.523113842029516,113031.03,113031.0
n001242,-2.273182153892207,3.5997407604082925,11.834911461612416,-1.1991211247611318,-5.623443782944322,3.639808517028251,6.169042664138017,3.1678580953219306,5.7091645191026315,-0.6158104481525306,-0.413571539839382,5.520567895195583,0.04246566823353104,-0.09889024348177955,0.6459021092376303,113031.03,113031.0
n001243,-16.660822347694214,0.9608526140725451,8.437332865086317,-5.500298135993281,1.615697015256062,4.048605957794926,-1.0011636883716295,-3.484361466772887,-0.7166021335763396,0.060265789175615314,2.016417894609366,0.8367294772547242,-3.9244713089090677,2.576393095110509,-3.3019627938957945,113031.03,113031.0
n001244,-5.532655685129292,1.9907418090641809,-0.6911617594303285,-0.7512904873125517,0.14235086775446848,-1.0182305429839222,-3.6766131392275763,-1.8091237999108907,2.658660166315737,-4.746647334553538,4.142883210846993,6.5773979150028925,-5.276699724480504,-0.0903332835297257,0.15007846485555443,113031.03,113031.0
n001245,-9.068810263582819,5.49891326849854,5.643567345810484,-3.5662178108398557,-0.17854153626614022,0.5080843560602348,-7.304871413026301,0.6459382672173304,4.290665298189966,-1.2426181669384553,-0.9576829966143574,5.556837248924273,-3.8085892798847154,-7.088506948922101,-10.945202973896775,113031.03,113031.0
n001246,-5.892261747140392,7.688919736202827,3.4878808119926337,-4.2711651211114425,-2.1237623742724514,-1.2458120095513197,-7.668499403456609,0.9400711695032722,-3.9545214731862313,0.07296744580523229,-4.156102194446499,6.15747010618498,-4.906652738409976,-1.8489872473250006,-2.6571310692132073,113031.03,113031.0
n001247,-9.223406953042833,2.4213770160235506,10.655655110650947,3.159958014450854,-6.619945197018008,2.9451308614784732,3.3342434383632273,4.61245265502105,1.9785911680900838,1.2743212001066273,2.6182864293666865,1.4268374121125693,1.1106968411837186,1.3514088013332526,-5.139564692645165,113031.03,113031.0
n001248,-12.498785538026555,4.315571153444486,2.2843580984061953,4.259962555191714,-2.5233618011337535,6.656599719247106,-7.742124861715831,6.866106898029172,-3.450104307935203,-2.938408767115492,2.727348059163327,5.114582885677648,-1.3563246161072178,-0.35212003051505336,0.16365993794717526,113031.03,113031.0
n001249,-13.452528577368165,10.569085224234856,6.230711253874304,-6.154516124966911,-4.050567436364757,-0.31213070801500264,-0.5948604841185601,5.425123044106348,1.0701249559089143,-3.3464578433113528,2.0236014755122733,7.166053466079904,-4.657570380952845,0.5180972950832714,-8.184842407758993,113031.03,113031.0
n001250,-9.475997273438939,-1.9405804724117828,9.32504645028104,0.598560407731479,-5.04801614638948,-1.0851837842167114,-0.4235342917740099,5.834498254751779,-3.9512418977232633,-2.9952665094840585,-6.039907171464504,6.430734774594767,2.22680681414408,-2.1554174714440584,-4.654247250078736,113031.03,113031.0
n001251,-12.43066713972384,5.789474134250766,-2.318265994079445,3.563643792896201,-1.624273511473929,2.115175917132192,5.008725933165177,3.385056085188941,3.629607448910833,0.24885437802357657,3.045142752547913,-1.4515662856566802,-3.671749900509972,-3.359312723254974,-4.376371674775168,113031.03,113031.0
n001252,-12.594928664669109,9.06497739193755,-0.43473191637794084,1.6243688351747751,-7.502954099025371,-0.006658972911316896,-2.5249036141366865,1.1589117161687201,-1.243705218880808,-4.752841284914607,3.3981527976136747,4.430232111503111,-9.645051626094439,-0.024573793151370094,1.35911921236177,113031.03,113031.0
n001253,-15.801619030078102,0.007381719584092394,6.480432256349363,2.5271762063716725,-0.8551373196005643,3.4544040797641133,-3.5149750368928445,-5.695689198974355,2.703072952084627,-2.241567072569222,1.261838706198691,5.4124542871052626,-7.61680598818649,-7.2613111261874534,0.13937186835731175,113031.03,113031.0
n001254,-12.963986885541836,-4.577062735706203,3.2618164328035713,1.0212509727208587,-4.102907551798249,0.3762584909382072,-4.199043139652872,8.144668451961929,-1.015785846228121,1.0532594963155746,-4.48849415848256,7.404283447829408,-2.6607910176240654,0.14275161275718196,-0.16300690879280144,113031.03,113031.0
n001255,-8.619182326604204,-7.604132877517589,4.280861445358252,5.2375283614526635,-0.8035030335634139,0.6846888027836947,-3.5245554099529595,0.6428080134606688,-1.420075928930824,-3.3799599900824435,0.9437978083468828,4.508889356836215,-2.5444366722904563,-0.7974751598563675,-5.307901166223134,113031.03,113031.0
n001256,-13.112111583017253,1.4518360086080715,1.074833204589825,5.903193252118048,-0.12305970158569068,1.8213024144148715,0.7332742804697154,-2.85178202292104,5.149708915341258,-8.23540682015094,5.439917046351342,-2.044165794641427,-1.0050258798853007,-9.468479152066365,-7.732880269661605,113031.03,113031.0
n001257,-8.40781162160951,0.31373060195022706,10.60186231985918,0.6107197058073353,0.015034427123281402,-3.143900636143265,-0.11564872783885244,-0.9761697852344418,3.478481840717263,4.906333500580873,-2.214773526199833,4.617217239079173,4.737668083712589,-2.0815373484784456,-1.4241295957333144,113031.03,113031.0
n001258,-11.28140239699718,4.70448525583323,8.11355989400958,1.9367545772080446,1.0989889761068607,-0.7831759981196207,3.970240354097605,3.512989594448995,-0.9227593398397588,-5.753098767625358,-3.4098374661920228,11.23356359207148,-1.3744193043134332,-7.419312808350052,1.4976260613688221,113031.03,113031.0
n001259,-2.5798054618879256,2.566216859347442,7.663448777957502,2.3612488540811505,-4.090630775215796,4.873042976151774,-2.2477326166633294,12.941171480619502,1.1755319992548863,0.786192481865684,-7.918196497216671,1.8368614586056515,4.197850933150839,-0.07885647729946421,-8.383034079693845,113031.03,113031.0
n001260,-6.490255826438169,-0.6826931171112456,3.3889802860888274,2.5293257317423894,1.5652478210260472,1.1740399544386924,0.09368315961934937,3.165467136187493,2.045724157040682,2.54768951568489,-2.091067833204805,3.8550272932071454,1.7096526250156807,-0.36293230913859786,-2.6392166054114634,113031.03,113031.0
n001261,-9.80495232439971,3.672998485564401,3.282260968583076,-7.133150923606088,5.415498801175897,1.8252864735450527,-3.2171904999774132,-3.746599994589359,-3.4899174458002475,-2.4145336369471115,2.4854553963826693,5.416431233372019,-4.257988295651624,3.281741793057952,-2.9432304105624274,113031.03,113031.0
n001262,-11.665101826316707,7.075575840576331,3.003777917474458,4.480082773486608,-1.3529193918335307,3.494515670277348,-6.435652182561164,0.6433861518729083,-1.5435833612309842,-2.8810386559639283,1.9426149145885454,0.9711065257212361,-0.08409646155117301,-3.7251856727798787,-7.630304236368457,113031.03,113031.0
n001263,-10.645728198663974,11.488328523641625,7.624127455944439,0.4702248780170122,-6.478942563492678,4.91291525528441,-0.5756941291021029,3.2363201545854317,1.5841383584334836,-0.5043722209568765,4.5211191737295335,5.946633477840454,-0.0841592441940423,-6.651623249065848,-4.539811703387495,113031.03,113031.0
n001264,-11.578300968350717,-2.6977911298184245,7.052264015347527,-3.2310834072297037,-0.36947928625909787,-4.662448889601404,-3.38217755928308,0.8109741290328323,-1.5971663620352934,-0.5571867136087757,0.6826614130424916,-0.7178629686212012,-5.1574338016186845,-0.8716507304210177,2.880728918358325,113031.03,113031.0
n001265,-10.803657742495876,-1.70392733315265,8.951919167277996,3.065348996529119,-1.5643001424586624,-2.0174019996073698,-2.4269906841743674,0.9622029483549916,1.1304336213867283,0.3319269768246209,-0.9759897972601594,7.678953060230414,-1.3238530301140945,-7.280840921867111,-7.208455254299666,113031.03,113031.0
n001266,-5.299451026963236,-0.1427316783953927,6.291605377103608,1.075791415961248,-3.7149511308512047,-2.1113891769399604,-1.0506864690239333,1.6580956436838572,-1.2426668551049618,2.276309769387366,3.3842750008918805,3.846676418632216,-0.0673181598713517,-2.8079416352290503,-0.4242603166306167,113031.03,113031.0
n001267,-18.708187306227188,7.923393902675532,5.970772407586801,-0.47476194360598956,-3.6572080476451116,-0.15589001393759983,2.649804570387863,3.379650744482869,-5.693937037810007,-5.382334311851565,-1.2151807929444511,4.560288884263793,-3.9114165273333503,-2.6199080171353537,1.120285688791706,113031.03,113031.0
n001268,-9.050075790259307,5.100265167778443,6.137634079050493,1.0566560612061153,-0.9728471386668692,3.137608742819334,0.1710466986643019,0.02621887126434186,-0.7983056634995441,0.562550380717594,-0.30609230369111873,2.4575955337277087,-2.5109122838636817,-10.560657254129897,-4.8416907266452345,113031.03,113031.0
n001269,-13.57513301383154,-0.735247462903645,5.311295729302291,-1.039316959984765,-3.250670024629136,0.3100617785384252,-2.850528802077538,-0.8189875929032311,2.5890802549401775,-2.906310510695369,-5.542164605121526,10.703957873150035,-1.1706177320922144,-2.2918836494334127,-4.270089888309462,113031.03,113031.0
n001270,-5.369415557205536,1.3993207524714069,-0.06927454383529419,-0.16338538879959819,-1.318005628216433,-0.10358432403254092,0.43759373420097003,0.9253478862872571,1.2625098762775906,1.296624669069368,-1.8472377374798579,5.601790114129628,-1.4735965942261129,0.5339873416364818,-6.368949192619322,113031.03,113031.0
n001271,-10.506299059013836,-1.9877767747810666,4.677443886587534,2.7279047634652747,-0.034807588343721774,2.7850240309797467,5.4343088918842675,-0.07839805105483699,3.1571933016955303,0.6161105719806148,3.6077323355355024,-1.5041907292257868,0.9694172088011995,3.193674250974806,-2.094979500829014,113031.03,113031.0
n001272,-11.124507805233486,5.634127899102507,5.405465894273838,1.7161572569780628,-3.8265386491366216,1.8305942526834325,-0.40845751326392304,1.4466933871690864,-6.046385743428376,-4.71059269791048,1.328302111990022,4.771815063015924,-0.617986957147367,-4.801079445312385,-7.58081299322494,113031.03,113031.0
n001273,-13.274642846948277,1.590814505332261,6.092994017896111,-1.553024398357796,-3.970798813483138,5.11940659391064,-2.5250830505144677,-1.3352829526259706,1.8679984849671278,-2.3590228609863724,0.6271990138568051,6.349541372008447,2.5958357265358165,-6.094784656703362,1.9106948220479059,113031.03,113031.0
n001274,-9.198319096768637,-2.734127012208908,5.701007726115601,0.5571886599215543,-5.540355427922341,1.73450183085077,4.029954296812748,-12.096604630272342,0.0756208526950296,-5.34707235020154,2.9690461795157104,4.285970095084616,-2.3472450677605923,-2.0767510756615057,2.1268703568024527,113031.03,113031.0
n001275,-8.279093218329708,4.397876156222942,6.908295698506725,-11.231462969667554,-1.4101504079760756,1.329807229708395,2.527890857873685,-1.5336139524651884,5.025160597860296,1.4712325520841918,2.879142222705892,-2.3490473593577987,-3.0269898604310956,5.492296824959306,-6.609508540123316,131199.04,131199.0
n001276,-14.783499342936738,5.55649423709108,-0.8298322991402411,-8.060845561960841,-4.799013570742498,-5.451025637088193,-1.238972882196495,0.03350368811713858,2.9650359968494935,-8.616371352223442,3.0408955114144196,3.5351474276299606,5.3232880873916235,-1.4238151394532583,-2.9664245960740017,131199.04,131199.0
n001277,-12.965903502938277,6.804247308269376,7.013006765998992,0.7803970266327727,-8.257833636138791,-2.5417899861636997,3.4575563353019803,-3.417483768314131,-1.6975889817284755,3.9673528387053745,2.9928545941298363,-2.9271906341847362,11.6204631187619,-3.67150516913827,-3.6976604981812895,131199.04,131199.0
n001278,-14.278442991935535,1.9134781970932735,10.098605868127713,-1.6508933189924584,-3.3738559103876087,-1.0903096103595038,4.262498237772235,-9.364192202347771,0.11836405089457536,3.012649071496336,-1.4183788649523497,-3.8679193571506985,1.0840853759195308,1.1953976164547981,-9.633556043006035,131199.04,131199.0
n001279,-12.360389464585586,-3.482140127345149,9.241612533360401,3.0801534409186946,-3.498893412187325,1.3752612633656613,-0.18370465148588846,-1.8115327203572826,2.262896928058535,-0.5373456642268604,-3.5323670861481262,-3.180970966502468,2.8951895929880846,-3.0209913959876062,6.265156506466345,131199.04,131199.0
n001280,-1.5533094229225135,-5.003895326008546,-3.025553962767937,3.501890014354707,-1.1728228457412992,-1.2354733133551448,1.4654484795433669,-0.27404670340129306,1.323719140019815,4.264891307378711,-5.288794276981918,-14.12178489712473,-3.7183305039144656,0.9711613992420547,4.482354593057217,131199.04,131199.0
n001281,-2.926045633289079,3.673538564795337,-3.953455457311583,-1.8567750940234564,5.8306666098638935,-1.4230933044081677,5.365914499667872,-2.5779123369663917,2.0105599734128776,-3.94458070976886,3.873135564704546,1.779159774071831,2.143943596859648,6.962289476435707,-5.128408160806035,131199.04,131199.0
n001282,-6.70174350016682,-4.893562024154086,5.61702836922452,-7.665828060411499,-2.819584153539876,2.13688987987528,3.6249762611589746,12.54006872724588,4.557177420268545,-2.9260463225368127,-3.9938766049576904,5.9626291373991105,3.463754585762741,2.8517452340874065,-9.358191735650482,131199.04,131199.0
n001283,-7.196891592553535,2.283436606009787,4.902888022968881,-0.3999512518749202,-4.691945266938409,3.2042729462052786,5.767991937518187,4.800724250407787,5.760762636004067,-3.967297375701708,-2.5984867531261315,-6.728187606232215,6.765443735399328,1.080213233721041,-6.093879696364753,131199.04,131199.0
n001284,-9.41275858127524,-1.9771709544460085,-2.0253033153478937,4.97610090743315,5.549623237331598,8.603422266364925,1.2996903868147849,-9.205665215683997,4.1246458561599,-1.543383842247993,7.7562471478028465,3.632568194305857,-3.224424110920263,-7.104037974660445,-3.6396731750321893,131199.04,131199.0
n001285,-3.694210388269462,-4.076049027833008,-0.4898338209028479,-2.3419406507205878,-4.697968852159809,-1.943762246474336,-8.55779098985684,7.0872015330294005,7.6615842897871556,0.43066977511669136,-0.442022985539415,-1.4744714935019732,1.43292934180884,6.007842903195787,4.741798603230927,131199.04,131199.0
n001286,-17.615596922229688,-4.776157872901528,6.751450389771059,-4.63180991868931,1.9561747330967862,2.436798796845907,-2.7467689563074944,-1.7791855541614372,4.515620063231193,5.213978014921533,0.7635941641613727,-7.710171988805408,-2.7650388735492397,-3.509884508306226,4.4580571776069675,131199.04,131199.0
n001287,-7.474553454588349,-7.074771684174529,6.125754909665816,-2.4770886892773825,0.3950101990987762,8.629547652889347,0.5514053881879992,-11.012519895023495,-1.860954380686462,-4.497631150520011,-3.064711466828602,2.5574777240539706,10.215414675120579,-0.36684377661431844,6.137126288703363,131199.04,131199.0
n001288,-7.104824769169225,11.275980940159666,1.6827518931090264,-10.562225241936972,-1.6044961659705341,2.640340468911197,1.4769951446317584,10.473909850174413,6.931876685787801,-2.2062132700767654,6.6800111790319905,1.2798798591935951,8.625395015299075,1.9291010553838672,-0.09237555084952254,131199.04,131199.0
n001289,-4.639656163739959,-0.16015237606683086,-0.770691777197476,-8.979467430286562,-3.409956621904299,0.12977422678699913,-0.8045956526124196,-0.33118953852282634,9.50278268150856,-8.391036730282268,-2.3791668658831115,-0.10073155927771571,0.9677662394932265,0.24291454130501283,-0.8374044785178643,131199.04,131199.0
n001290,-6.437875811511333,9.75680280315011,-0.5187853502690123,2.511412889967054,-2.2231382878372923,-4.229628230491744,0.4847378934549793,1.1520597485585158,-2.789396677429958,-3.805581185803487,-1.7666919359107016,1.5941007857421905,-0.7083839896856767,-4.477595713008196,1.4654857567324893,131199.04,131199.0
n001291,-17.00969878970032,6.19879398160665,4.885016415754583,-5.593785788601528,2.0981804775025967,0.35524734345816833,-8.818881611354477,-9.452060187700546,-11.607580233691113,-2.548002446716877,-6.432513246972933,-2.5729011224631995,4.354822454991681,7.615096495081142,-0.516106325262196,131199.04,131199.0
n001292,-7.358463771762821,3.3526652666791175,0.24050931438822065,6.062050804555772,0.20369708545597742,6.3334293053641995,4.289426330472275,-1.724641857429579,5.837380729126586,-1.6570553395613508,-0.11697412808392645,3.1231031853070372,-6.893338731824555,-7.804063300567016,-2.3851716779426604,131199.04,131199.0
n001293,-10.48480719324125,-1.9231725005508271,1.726827905401437,-3.584662429014831,-3.7893204160355336,0.08663075538372378,4.870591542417217,-0.6654824906848857,8.893203195298472,-4.608632004569569,1.7837353922475536,-0.940020545835961,-10.563283750264773,1.4610874638647446,-0.43223271022103804,131199.04,131199.0
n001294,-11.454931905268781,-7.817296371701444,6.6413834119271495,-5.115837353434737,-5.673115390482974,0.8822532933661755,-4.818340939490541,1.2019551693245136,6.298195036567469,-4.113152983399398,-9.018166087457853,-0.438727635255559,6.454178406957911,-1.9019985161669926,-1.7882309720825904,131199.04,131199.0
n001295,-19.88814061490421,-3.9551856952669273,1.3328247399804085,-9.049891199705176,-4.273136818877895,-0.40517047748532686,-1.2997257224286722,-2.4105251360396114,8.848099329701958,0.22712028446632504,0.7053816893754827,1.3956164276045238,-0.46517978110159275,-3.683776805154901,-4.586442128842939,131199.04,131199.0
n001296,-14.11771064601677,0.014929539365132138,-2.1157027875235794,3.1878572349290524,-1.8586035156879692,3.5529983968604735,0.27955378531389885,-2.604555582482586,3.9441478014497893,0.16235223028370005,4.080107150668947,-5.413525539660691,-2.6765094527592668,-2.6170209085144975,-7.182962487614596,131199.04,131199.0
n001297,-16.08289400972317,5.8432405325401096,12.100192998229037,7.582545994419066,-5.411787898074026,7.932233994928972,-3.238495457394353,-2.211039543734654,6.975593559360064,0.7024158777376296,8.162888273632625,4.206179174427252,0.9427661579256824,-10.803949474844504,0.0802183619098259,131199.04,131199.0
n001298,-10.59018449415007,-4.455480241280972,-4.919823736471991,-3.296237731585978,-8.990970415253503,-0.18226914791411297,10.095177191351059,12.168364618264029,1.8108897099196914,-0.8585818478230491,-6.324213495296529,-2.190467996459934,-1.669360737646801,2.620794844677665,-1.4812912940128906,131199.04,131199.0
n001299,-4.181674328993865,8.572254073699336,3.3413159237009005,2.405704421912777,-0.3448754221763475,5.68429426110118,3.800280453411225,1.8225502276966508,7.446877156811809,-0.06664152949150803,-3.356334422652015,-0.9537190898789315,-2.605823405247845,-3.373049532632823,-8.77216595555897,131199.04,131199.0
n001300,-9.573744441216915,-0.1284830197808287,1.898578110493237,0.6691997072568516,4.758504021857623,-6.901572551810955,2.6636989225938508,-1.4127415230925786,9.546926266842195,7.6107802933748765,-3.7693628207401715,5.986828593883599,-7.12468761409007,-0.20911562791199007,-1.2687204475108056,131199.04,131199.0
n001301,-13.969629346586313,0.8568867559244085,7.213544636398383,1.538584418802305,-8.52386851221424,5.698018299424494,0.6927216344098718,-1.171407001639216,5.617780223772915,0.7087775254581142,-3.7856057194035975,-0.7625090915808437,2.26839829492568,9.665425478876605,-2.818674056539788,131199.04,131199.0
n001302,-17.723922412823374,-3.675028284855033,-1.1064972870845025,-6.6302082541219916,-0.7916116878433526,0.34431784184117664,-0.09007917991155884,1.688015734037305,-9.335465914351204,-6.9304104623018254,8.749582802487879,4.841429166852405,-1.4831637085900156,2.6255052818075746,-5.368953013394045,131199.04,131199.0
n001303,-7.992382416890729,-0.9350616743221953,2.9595238525369103,-1.243910824552345,-3.8764311477861053,-1.4843641887938763,1.7591696577512015,2.247436524590856,2.404727764740149,6.055097672533271,0.3636960681910758,-0.4495200586993824,-2.887569689903378,-1.1243521679941337,-2.8569879578806434,131199.04,131199.0
n001304,1.3976631333043024,-7.3842558321456675,0.15830572191664039,-13.765879832682337,-7.0627166539097965,1.9910454466650773,4.943155751621996,1.0433030826774925,1.881659424611065,3.1764903293020055,-7.744861146894965,-1.7464868243397242,4.7865526297301795,-0.7834368649900505,-1.829310513188163,131199.04,131199.0
n001305,-10.608297424877161,7.460243976222747,1.8184176081476948,-3.3551470401815537,1.957574417378515,-5.773830308280932,-1.8082280632465229,-1.5761315894011156,5.536596656755859,1.6036171857568426,-3.809845575396822,6.306935557805348,14.320584016909436,-2.192531718629618,-4.976327838198739,131199.04,131199.0
n001306,-7.799275532809032,5.0799645083125515,-2.3085352007743287,-10.11063638559908,-3.4909631373933374,3.8713644726164484,-5.937596005135457,4.386669135850204,-1.7519430735815713,1.8263053430107936,-3.917987631165592,-7.772554427426943,-0.13726388387353428,-1.9315332163385337,1.1561081597621419,131199.04,131199.0
n001307,-12.954415009281394,3.024861870363534,3.2614028295852937,-1.218150404371487,-6.519236724578081,4.84917517054569,-4.697128675131154,-1.3610231594299824,-0.7118270433153153,0.9621156190953669,8.219232150356682,5.0110664265262095,8.139002945313809,1.930508774027245,-7.195053681817994,131199.04,131199.0
n001308,-5.8289230362369935,9.5163387902719,-3.44056756927771,5.548274393602286,1.9344741474581224,-10.814155120795736,-8.717998368922856,6.5412271987104695,6.3164029148950895,-2.697563196944827,-1.0540023768151938,-3.291380571704993,-6.184695222644243,1.0509357602051994,-8.067389824416296,131199.04,131199.0
n001309,-9.132069584316918,4.224935390620871,3.7028729075875226,-12.051899561899015,2.182272614860329,-0.9807389065860659,-13.79475961593677,-0.47063888022910805,-1.261828758056363,-8.67337440417381,3.1159926304890293,0.13929663959137684,-0.7793376766977786,-7.501620662665747,1.9182118771778018,131199.04,131199.0
n001310,-7.444588540833651,-1.544989971352998,-3.2681866458131497,-6.633075381955246,-2.7702365229478687,-2.702392302958043,5.733801303762935,-1.944073303637097,0.20287781823159268,-3.2924789365357476,4.684338648986226,-2.1562965019931495,-0.883950883912749,1.531877584823357,5.476281211675969,131199.04,131199.0
n001311,-8.848669688571073,1.0675304735088704,1.0000330473207686,-1.8386780593954866,0.9860777954304756,3.9360676461586883,1.5101672701899895,7.647413635866647,-5.1572889630494,-5.42707153261869,-5.596967449138596,2.091518614127474,-3.0498127586783506,0.1739153200615257,0.16671968595420972,131199.04,131199.0
n001312,-10.319758879527182,-10.521541987085605,8.510234979685226,4.4697436741737055,-4.11994521545704,-1.848392953740019,-1.8326745003564957,-11.507697839487754,2.159368144184058,8.807598123235035,-7.175251531000841,-4.8464180031078214,-2.632205815922516,-1.948998370113514,0.36661299551394744,131199.04,131199.0
n001313,-13.815463967309437,-0.9804092810272735,13.002664583973623,-9.809092066659112,-12.033265190212848,-4.1221851813868815,8.438231918672635,-5.400727130940232,3.774612212855497,5.229441207268058,4.268989384722047,-10.547297026567877,-4.900787982568085,0.09688877388303066,-4.84103812037498,131199.04,131199.0
n001314,-13.955532047491712,-8.142937726913162,4.516184250327175,-10.780199793385432,-0.6687353030820393,-2.923409140125224,-0.9107974497571081,-5.930650428975811,9.644124501470047,-5.47202541273321,-0.6293334644043965,-8.327120684564603,5.860816055057472,-2.113272762889383,1.5818152456580559,131199.04,131199.0
n001315,-15.432853162034851,-3.475970783475728,5.5312916812245385,-3.5550501499811236,-4.042131223350461,-8.336469488115315,-0.9347619440669314,10.87006995716298,8.385607724129349,0.9462511851232259,-1.7355754806460801,-2.532875930512131,5.305465137422309,2.751444520599605,-1.1644239289988116,131199.04,131199.0
n001316,-14.842905472659542,1.3747677730611636,0.5718954439325219,-8.196673776408247,3.499478378586626,-2.652898805459609,0.7261304576688499,-10.778990039120933,1.3254460728390602,10.63116258274148,6.1801793530258236,9.189047846152592,10.735098203223178,-1.004408274453196,-3.2325997365179715,131199.04,131199.0
n001317,-16.865888785816146,1.8269747290173255,0.022256368537148408,-3.2263717799440457,-1.3887351740391027,-4.094631387929378,8.855969966780517,-1.0446373686488377,-6.482522799556952,-0.8682690270109692,-1.9519473707963857,-5.471021559637478,3.213958380026611,2.12658611830786,-0.855090363947922,131199.04,131199.0
n001319,-11.386958828971377,-5.6928068685266755,7.376084155986195,1.5170482983940277,-9.505436505124294,-2.0278281517924612,1.814839816225979,-4.917255658146998,2.059423172917043,-14.505384647212031,-4.149030772311599,-1.6567751890086138,9.04867714245236,-1.3784888156959825,-4.404575304836635,131199.04,131199.0
n001320,-8.648225816025874,2.378975956724917,5.965623684971629,-4.466901037071608,-13.224002784682684,-1.7063884730500654,0.28378464200390074,0.6302571895248692,8.736446869952983,2.1124207083247266,4.744797268414954,9.80586815561201,5.670195526836031,2.400794019270447,2.3930361011726937,131199.04,131199.0
n001321,-16.665974406141903,-2.23086171340113,-3.89541221466747,-6.571451350629875,-5.705723249000515,-7.830225014097101,1.4915044470079337,-7.105600764471111,2.9501558375635426,-10.728461991104634,-7.449004707907669,1.8761501140397172,2.5423710086182147,6.442491954268682,-3.467206109062431,131199.04,131199.0
n001322,-14.010065964611398,10.082339406201093,-0.32094584539619486,-8.143132456161375,-6.493285730309973,2.1183236512962282,-7.539143922446525,2.573135475262286,1.0199932836382923,-1.8684827381311013,2.8352331300717757,4.986883764935904,-2.3076171465487203,-2.2909018860155985,-0.6426962830351152,131199.04,131199.0
n001323,-8.297709996760387,1.3690569876821461,8.19545588343226,-6.08989678546318,3.6336074804903236,1.4769045384222776,0.8321578965643011,4.388228253713868,2.4514824979099656,-0.777760745780986,7.920213848726031,3.449426584485454,-1.8422045622480516,5.851520709318066,-2.884827789980366,131199.04,131199.0
n001325,-13.033297180102782,-4.065012621009258,-4.148390023919263,-1.8129159187532806,4.553267110664699,3.5931260444909268,-5.457604240350566,-0.24183338690141865,1.9552225880249314,4.2296113483601046,0.27248167505310694,0.28152675692673546,1.6370432310802423,7.569266900230733,4.995808880347682,131199.04,131199.0
n001326,0.45684062753149846,-1.5284555633431578,3.872173683669958,-1.3311937938168628,-4.75561136094994,-16.272284282037553,-0.4234181842731535,-0.5050941231117343,5.529113392635585,0.24709039369845087,-7.080563904758401,-3.7033842334762577,2.0496498429121486,-4.394154078609763,3.1508412431354573,131199.04,131199.0
n001327,-14.394253126991645,8.849685531859036,7.749352151219387,-8.537947470296603,-2.703273124199975,-1.6102910853398638,5.867624555274603,-4.046600762536021,2.8976966635362085,0.8527084890716795,-3.15866234819158,-4.070917755859697,-7.380429497392796,6.778560309399381,-3.837427051110665,131199.04,131199.0
n001328,-6.627066357321667,0.7570577477883826,-0.6251107621964023,-4.163598651605318,-4.831310183489752,2.568956161221933,-5.347308394192707,0.4991254371830351,5.5552052246649595,-5.28240405632786,-4.616237173911672,0.24593545350279977,3.745229560936158,-1.6814859037015464,-0.7723061761403043,131199.04,131199.0
n001329,-15.28007913947867,7.996103830875093,2.294909344226966,-12.02671988371916,-1.7209708151829282,2.189851263711847,2.521357879186332,4.546897395584445,5.1942976275122295,2.460904681117222,-5.4415557248242825,-3.2248974658467864,12.108550018743236,0.5821881276787051,-1.5360201496923227,131199.04,131199.0
n001330,-18.09170873552274,-2.6976728103417758,-4.6756186806737885,-0.7843961475973762,-0.5181803358866146,1.3080474659954682,-1.1191714676337972,-6.75803320309171,-1.0992169396345277,-2.5682885294323574,-3.741364861942709,-4.9196417921675835,-3.5931012765175376,-3.819443027884916,8.915509920601032,131199.04,131199.0
n001331,-14.45980778633157,0.5802434201967461,-1.3303659708574673,2.488893689955244,-0.8462555822412243,-0.1764876196944567,-4.589515533195944,-7.315570279993785,1.0174824093400723,-7.338030172273896,-2.749489047408566,-2.8401923253519175,6.5365372241627115,1.2227374728349985,-2.053269098226103,131199.04,131199.0
n001332,-8.549005966750025,3.4658025676599906,8.40688783016269,-13.817029667497074,-4.425970851209566,-1.010588922117408,3.1031082680044504,3.7932698046192512,0.17172156495524105,3.350129626810718,-0.7020300098218499,0.1036695744970737,-2.1555603505059855,-9.631325404184372,2.0813522640002313,131199.04,131199.0
n001333,-7.31073778651872,-3.6411462038469113,-4.717821016832643,-12.430288488177638,-8.962277433527516,2.0925794739556505,-8.976840074265535,1.2038319674422138,11.540280301172295,-5.581499702577311,-4.252849790044448,1.4629323595895753,-9.155069461100329,0.8835967067524223,-4.050560861690833,131199.04,131199.0
n001334,2.7606167104201287,-3.5127509265598458,4.244422945929575,2.7935335792876623,-6.395816245817793,0.42753847685165247,0.675555727787325,-4.270439570120638,4.29131139766317,-8.179882057605534,-2.226084776487897,4.969817480646936,5.980759444455813,1.096834192341359,-3.1238750027673707,131199.04,131199.0
n001335,-17.852080395060884,-1.324499938205989,4.796423629590314,0.28936139244960035,1.0682945175460663,5.285325630290094,-3.755697170928266,6.760271629516724,-3.5428460106192596,-8.457163591383116,-3.659924552062016,-2.4068256747410173,-3.8474394335873434,11.178681311183615,-2.2293435865441094,131199.04,131199.0
n001336,-5.771685591031613,5.286769193866396,0.6317956783235019,-5.341375501222737,-1.782778868637678,-2.7048046838666373,0.5108366696633235,-3.3171706215291246,-0.3031760201514082,3.941488649339113,-2.4218856326585123,4.839950802264008,5.006494058887761,-1.2933956731128378,0.3209271717735638,131199.04,131199.0
n001337,-11.376245663555503,4.1411458578310985,-1.4609953441001369,-5.675450342488729,-1.5175530028335285,4.860084413715379,5.580443809910753,3.3113156392188685,16.494949177131954,1.297435315693269,4.549271414839049,3.4884661691128636,0.6496470696994192,-6.758605788910197,-0.2760907186714282,131199.04,131199.0
n001338,-12.466089700777786,-3.900304186056331,2.5283780736560373,2.827176293115916,-1.0977179651696585,10.636052836306986,-5.613952060134129,0.9892548609952738,-1.1184026789797539,-0.8976312678875181,5.633307959028784,-2.5362530272247072,2.482463046768502,9.453861009120612,-0.6611799423651641,131199.04,131199.0
n001339,3.2373773497323253,-0.47938958056888337,0.7309172928967396,-8.523798945976889,5.486007758324053,-4.447589734409965,2.6180225900426604,-7.7715425273702055,7.473894794447675,-1.369536738119903,4.057551724612812,5.257622152235276,-0.053104796158292,-1.2650683907331424,-12.295762022867123,131199.04,131199.0
n001340,-12.985321296538178,10.816185959412254,-1.6922983925173103,6.353980586984303,5.237695102736303,1.9230765528761806,5.657374048298384,-4.5385843620532444,0.07831754326704843,0.29575901407009164,-1.2813093185058386,-0.3212464217829504,4.316870740141184,-2.738250272742211,2.720537929019881,131199.04,131199.0
n001341,-7.75822673846714,-0.3433301758373849,-2.2808391394685232,-5.372267725372318,0.21355495195153473,-2.4139350482830064,-0.9183952172308457,-4.734023080822987,-1.1376284886353605,5.250257325112633,3.419974532599137,-5.725968669245145,-0.38677695657107325,-1.2813926918965426,4.815171850752615,131199.04,131199.0
n001342,-4.642028731845983,-3.7150803896216966,-1.5229694819317041,-6.323661827851131,-2.9657915665914354,-3.2920017007115288,2.992897620505002,-10.634068494690705,-1.0639109780038054,-3.2957429862729546,-2.378745447257372,4.423534432804868,-4.161344657657627,9.984400679130813,-4.688683434265303,131199.04,131199.0
n001343,-10.009340983497891,-6.360241143815438,2.013509871469987,-3.434118290404,-0.9262252296364255,-4.388756825986822,5.511488572889659,5.646378588448382,6.442074745332606,1.4375317729685406,2.0674750007895626,0.17149292796566518,2.896003143257583,0.8543631805804973,-5.14473969813662,131199.04,131199.0
n001344,-6.0171961919226815,-9.494928080251972,11.6119512585337,-8.73964953123895,-3.94739816047307,4.12051003433035,-1.0848132000198356,9.353603258719037,-2.5003528158749124,-12.997851233472458,-4.707369212757396,-6.29615953399756,2.630623695545428,12.937372156284049,-0.9202095199957053,131199.04,131199.0
n001345,-6.985310129823624,5.529948066287647,6.3426149028326755,-14.081519203961818,0.572992608044526,0.7100423808010632,-6.148949173010544,-1.94740573846657,-2.9796066879328804,-0.2858520957903665,-2.441713290718835,9.116733242617633,-0.3368821589082236,-5.37050745687173,1.6252046624663823,131199.04,131199.0
n001346,-20.871010833758895,-7.062609149936245,0.17973939315667375,-5.724541606719374,1.9780599266663912,2.1059908586839025,1.2751794201041209,-12.073528626354374,5.215992520524363,-2.0799903947016016,-6.221157063668639,0.3165184027086967,9.225462828338106,-6.369067160736654,-6.6456478508462205,131199.04,131199.0
n001347,-6.163758317227502,6.494836312052807,3.2976990657542333,-7.3726882288697455,-2.8491824544970674,-6.016284009038933,3.6677991656295195,-1.0065319909825234,1.1399399422277832,5.5502853187994585,-8.673671713430734,-5.422484573539556,-2.6531235114753753,7.894422467458245,6.740533903116328,131199.05,131199.0
n001348,-18.255121701301924,-0.8161135712621286,-2.8038249722201543,-4.124085159413111,11.221036072896961,-4.807788943910507,6.379855277397015,-7.923035965944598,-5.299539988467227,-10.735335470463381,-5.582889807809548,2.9978354381370607,-0.9353923601013121,5.2658311668210445,-1.6267075876107173,131199.05,131199.0
n001349,-1.2665712400358924,0.4593679530169028,2.623824312782671,-4.4299859036934475,4.024333015853279,1.0580631666247373,-5.39563689734985,-6.103216451388581,0.6171970552668427,-1.2688706658653333,-1.6408913222110502,-0.06324985923169069,5.401654385462852,-4.429964218250095,11.725596001355663,131199.05,131199.0
n001350,-5.656409498456206,-6.877313397202199,-0.2795845349277024,-1.939327058145418,-1.2119714310360847,-1.5606216109175428,4.281225282484236,-0.6983617158942168,-3.228733140357078,1.3697958465491058,-5.245185231702636,6.277420429378978,1.7756076599476276,3.505161969776797,-4.978695375408506,131199.05,131199.0
n001351,-13.065056557763018,-1.254313452890415,9.64834199717406,-3.1388387073547936,11.794511213053221,2.0639421438782297,-7.080545902372621,-0.31317811525540584,-10.324754274068352,-0.3822756854082919,1.2723891041333384,0.42268954433241546,-3.4650882146950974,-0.2271329603648129,-1.072461588245465,131199.05,131199.0
n001352,-9.81647776639184,0.11794612190087617,2.3591332441152604,-9.117815823427641,6.733628036828442,0.7519264197913429,-1.360782822944725,-1.7478689443354687,-1.7432390500317947,6.458663307787783,-4.178105100826331,1.222282931281104,-3.0183732060743895,-2.892359720555525,-13.125088926615812,131199.05,131199.0
n001353,-14.837054873611901,11.751726024405267,-0.7007214476344794,-11.799283758784059,-4.995287089660587,2.1961677991902238,6.800940754930542,-0.0866519877657208,-6.10786130726212,6.100928731399839,13.542051615581652,11.358477672656544,-3.167651752201228,2.136276891915597,7.680044612973132,131199.05,131199.0
n001354,-6.856089420901408,3.339857256294301,-1.4286913807899242,-2.7919792942791695,2.691147919831418,14.79991385898305,-1.41546162834546,1.1200308696196386,-2.913625971149208,5.320002983223642,-2.529042769524366,-3.4823175379521683,1.735393827677068,-1.502176887460997,4.849284258577271,131199.05,131199.0
n001355,-3.4597058643821885,5.270410766460803,2.6381073181406833,-7.116346198905717,-3.564631615248362,-4.101127325178607,0.17326481443884378,0.1077117098306144,-3.8463825128129114,7.994098646176008,-6.294597532539907,-2.2894981920603117,2.9005605904362826,7.8938208561004615,-1.6762959183898942,131199.05,131199.0
n001356,-6.146494790497769,-1.6808319677531396,4.8782058531013135,-1.576626470794599,3.6030323276013565,5.077655282698725,5.4455081955728,-6.071110510854444,-0.9756338618249233,6.581659327887996,2.3003521684111026,2.6599653907229595,11.523311737981931,-2.8212298585613707,-3.4912083557820828,131199.05,131199.0
n001357,-8.35743475155441,6.035757832736738,-0.9636228972546741,-4.457882746976725,2.951426647678489,9.773083590796631,2.548817422229824,-10.355880491705623,-7.515576348456135,-3.290887554724632,-4.890334150327583,0.9153590577749602,-3.9912201827473335,4.355240908400729,-4.8534281105266945,131199.05,131199.0
n001358,-16.460195148048896,-5.7120769718536835,5.6032960515466375,-1.1524538472409236,-2.3639980301206114,5.011067600519574,-2.8125183745700717,4.107884554836964,0.941568391417879,2.3634522999380296,6.8274614138601635,-2.659814277587942,-9.935441689203662,0.434964297563045,1.7730551115513595,131199.05,131199.0
n001359,-10.600994737990634,2.221610642933669,4.249137698159011,-1.6077108423561537,-1.5261132112614972,0.19680723747536222,7.030736548729345,-5.144034297076575,0.6936350435650633,0.6148529384061976,1.789052747493359,-1.951093392200038,-3.909101897335612,1.849213632815546,-7.628817525651023,131199.05,131199.0
n001360,-9.302350527915367,0.7133342883678382,1.7335557292252326,3.659153451693772,11.900185715189991,-4.157479800925483,-2.742251208423302,-4.840657405849481,-1.5938428200335923,-3.1863716916335054,-11.513866215645052,3.9206006835258713,7.508931231710756,-4.274118733112715,-2.5048634939152503,131199.05,131199.0
n001361,-13.198619097055651,5.780286829830998,-2.96266301847232,-6.056236392424986,1.9730950318616973,9.883698857210987,-11.410778264547409,1.666947348082936,0.19060364013495357,6.043603814705855,-2.220594242399044,1.7367879504523498,-5.178898695810625,2.853915438036796,-6.931099862602851,131199.05,131199.0
n001362,-8.714148143321498,-0.7582422162035958,8.532128840448891,-3.1780232746292745,1.9934824458189453,7.229544229828266,-7.617433448003161,5.01168047320768,-3.8241926666775283,-2.491602783377825,-5.88739666465468,-6.810452281670603,-0.09201130528833135,1.455077210772109,0.39999394117698217,131199.05,131199.0
n001363,-8.480016420831769,-0.08093415594449649,6.811109502962383,-7.703129098770139,0.025121492170918296,14.61964741288961,0.8539766288952877,-10.439635586217037,3.5830484255440007,-1.8776063509325909,4.052799377973743,2.2425780954778505,-1.6371265151884067,-0.41586365905672906,5.53324651323536,131199.05,131199.0
n001364,-16.576314793907898,-0.6556463882457784,2.3076173089761833,-5.546160650073967,4.285958277947202,1.0930865224748603,2.853152193932065,1.6270990268600578,-13.832926708077263,-0.7364475992439629,-0.583073030096791,1.0245367975013209,2.362125995583302,-1.9201362773337785,0.9492550330730227,131199.05,131199.0
n001365,-15.031136121458177,1.2719573283057413,-6.00172020619099,-14.078740803374975,-3.7713940832152066,-2.52410329583389,6.077885513887604,1.4013694502310916,-2.2551885876055877,3.634842614106354,-0.5917698360203508,2.6936173194751083,12.420999819161583,1.284963033081524,4.102843123900318,131199.05,131199.0
n001366,-1.0505881023306642,2.9002807776759605,10.485116483329978,-8.817810180262555,4.20492986353774,14.317539351835354,7.381033051288803,-4.053897512941589,-5.05483308636307,-1.9659778689394627,-2.306701903005461,-1.4978857088360322,-12.324212084028739,3.8596711601761493,-1.6713003707834673,131199.05,131199.0
n001367,-8.949390991825283,6.823783850629158,6.576081646722521,-7.741826053451104,-2.23890795812481,4.42978589980595,-1.424383157019374,-4.122344228021892,-8.62592504964778,0.6148942215328658,3.0355795813559348,-13.457624886622025,9.784677149731028,6.783195809967989,3.1156553109632346,131199.05,131199.0
n001368,-7.843955997506777,2.6275654417900207,-6.974686984141156,-16.83992715986708,-1.6129922988085013,-3.6660751292761784,-2.032476856626241,1.093975252218341,1.4506212496130744,0.4206941886733272,0.7677324536866243,7.654170307676672,11.020639222481421,11.252502117650364,1.3470553421418223,131199.05,131199.0
n001369,-5.228795258396842,-7.828428671158669,5.8674864853295094,9.794489087407948,12.570876132745507,-0.004043155784992258,-5.0744373362513775,-4.522262479711021,-6.678777908433349,0.7030348098794729,-5.613572674290225,2.9432372658347936,-5.238359722175231,3.4301248459606573,-1.8698969584364713,131199.05,131199.0
n001370,-14.004888735678861,2.0580834784728426,3.9239053912449426,-4.34203884288648,-0.13439529044583876,6.496883611946076,-3.848310757138556,-9.722394237524956,-4.828319314723038,4.8669977940216045,0.1552295231241136,-7.288918733126744,-4.9183752484275445,-2.6530684004654588,-1.1998713726542742,131199.05,131199.0
n001371,-12.52269141283293,1.663528513236841,2.295567694895535,0.12902232856168805,0.8995114399916299,-2.509985108456547,0.4647126330898279,1.9819857107078807,0.13944948007042068,-1.7840506815702692,2.781248666598559,-2.475004510990702,-2.7185962045843413,-6.5520340020983205,5.470707166298736,131199.05,131199.0
n001372,-13.768528939778946,4.112487396933476,-9.608467596959535,-5.983014581733555,-7.997766182512275,0.9645589611656902,-2.7434418671042238,2.8143739777243715,-1.1119585288354996,5.32924755944009,-7.889354380522527,-3.8430024082669068,6.763370606640187,1.884064728449308,-5.660936719807562,131199.05,131199.0
n001373,-8.272381910652745,-3.700601509742121,-0.32523374108552927,-1.7732125101497722,6.231753601183167,-1.2543537372973048,-1.2250476803287575,4.870276999837063,-1.4801223555367882,-1.1255066193447383,4.045634746325716,2.200355638644189,4.215589130097674,-0.7946295577471312,4.478885724271716,131199.05,131199.0
n001374,-6.419687081036395,1.853402371721149,-12.081960791935295,-15.861332933923867,-0.7013678763036977,-2.6262503769478425,4.7128919902540085,-1.800134772443481,-0.6696382894024288,-4.0968514244346155,-12.548847711275164,-2.398934060524838,5.481632102592927,10.908216453621028,-2.5470630794206226,131199.05,131199.0
n001375,-2.1433620467533068,-4.351504443797053,3.7219481518853224,-10.421349293406054,0.15254961128498984,-2.645279198577133,-7.114959112432746,-2.508618865178419,-2.013286037634718,-0.7836912065713467,8.052848496360683,-2.395093456566056,5.190803346511737,2.7511843333397445,-6.0296040947642755,131199.05,131199.0
n001376,-16.4978430497012,2.478781007807586,1.5454372671696666,3.128907877287257,-6.13396120527858,2.122817276328264,0.7572922301758872,-6.112342425221926,5.2152319174256,0.22560928922781626,-6.616626888695172,-4.962826642637689,-4.840529105313122,9.028062854606157,3.4864398220115205,131199.05,131199.0
n001377,-7.445990018311664,-3.7972300929241882,4.221606105086153,1.0900299718862927,-1.5653256790897285,4.989986319712803,-2.8241453381918555,-9.033138359795416,2.2197213239611724,-0.6876974909674634,0.19477890092241212,5.337946772928241,5.041545467249874,4.584468722904274,0.659314428145926,131199.05,131199.0
n001378,-16.110494658685568,7.626166008352511,1.5430680087900124,-7.876030040221345,7.4686063815059525,9.966771457433069,9.661577392600583,-0.6389533776599228,-9.463731794766408,-0.07325281029178586,-1.9404904654335955,5.67582592948318,-1.780574774921793,-2.169316992025156,0.1348163144201786,131199.05,131199.0
n001379,-10.167845991372205,-0.12407928082868724,4.896691899836247,-3.341329218552187,-4.298740957327142,-3.1514870314672736,-9.72331326248785,-3.6765146156623203,3.590094084402053,0.9048646381169188,-2.7305533792007988,-3.164949737777131,-2.9064856027777393,-2.7902076009088392,-3.2369237141096248,131199.05,131199.0
n001380,-6.625536362172807,0.23768730339574073,-0.13610058483307164,-2.4921872226299953,11.435524926623762,5.9505378692771815,0.691336357689743,-1.1984542109038197,4.759721627018887,-1.513009300029576,-7.4134415515007355,-4.779106694564931,-2.0416966046881107,3.2841993402632985,10.50349579468702,131199.05,131199.0
n001381,-9.248699121431933,-4.69489319170595,5.761142562511905,-3.7551240130992576,6.328109789534087,8.11795828367598,-5.959336552490608,1.3516288171706734,3.1677689625645895,3.089039642367405,-1.6114080706104903,-13.603377680549803,1.1411962071749686,3.428106882496148,7.284865481521107,131199.05,131199.0
n001382,-2.3274166212001886,-3.3771646222188103,-4.142172773919713,-5.319908640909282,6.531877971895313,-0.7713901613166356,5.7828348913533825,-6.779148825421768,7.6194867815990825,1.9552230624347289,-3.1628350081380265,-5.5384086522737626,-8.119147780359782,-1.9317218206541082,8.784614988565167,131199.05,131199.0
n001383,-10.043568132053597,5.632357334526533,-4.2372172785985285,3.111635580115264,-0.9028333486569106,1.0619082622503662,6.874671309725723,-9.88962880848998,-3.5389187370781228,2.0622023037352877,-0.1429486252000759,-3.2533843523424566,2.0943854296312283,1.818488022766488,-6.385530144514785,131199.05,131199.0
n001384,-1.5851129142336493,-0.7127767139555006,5.32020854569439,-17.122734403191,-6.413125095424597,9.14506427857222,-0.9086276909936395,4.11041831922873,-1.8757394441371302,3.490610228978773,-4.4018668273206805,-2.877724603125438,-0.5026875061961696,-8.661040542229705,-6.641236522370127,131199.05,131199.0
n001385,-0.42035831954781866,-8.212758407146257,2.120411488504605,-3.806026765993413,-1.9650298577217005,5.080114918251067,6.592073760688323,-3.3164007189246694,4.776248530032324,6.5852959296830305,-9.487419470844213,3.279046233420947,-4.116227192881466,9.409793904520082,4.769483217837795,131199.05,131199.0
