,0,1,2,3,4,5,6,7,8,9,10,11,12,13,14,O*NET-SOC Code,round O*NET-SOC Code
class_1,-13.30298966,4.130752065,-3.903003274,-6.751383743,2.100183315,0.201689929,-5.107595951,1.684311135,-0.990041385,2.304645601,-1.809478629,-6.143662285,1.991270211,-2.403972921,2.204672539,113031,113031
class_2,-12.34446674,2.819962309,-1.958300978,-6.124050318,6.316230427,-0.191285688,-4.669979955,3.643723526,3.693978069,-5.13976598,3.534549921,-5.294684088,-0.71725642,-1.411851534,4.613087948,113031,113031